<?xml version="1.0"?>
<opencv_storage>
<opencv_ml_svm>
  <format>3</format>
  <svmType>C_SVC</svmType>
  <kernel>
    <type>LINEAR</type></kernel>
  <C>1.</C>
  <term_criteria><iterations>100</iterations></term_criteria>
  <var_count>1152</var_count>
  <class_count>2</class_count>
  <class_labels type_id="opencv-matrix">
    <rows>2</rows>
    <cols>1</cols>
    <dt>i</dt>
    <data>
      -1 1</data></class_labels>
  <sv_total>1</sv_total>
  <support_vectors>
    <_>
      0. 0. 0. 0. 2.31152726e-03 4.56312919e-05 0. -1.60098099e-03
      -7.56177586e-04 0. 0. 0. 0. -2.30441263e-04 7.52279069e-04 0.
      8.78553954e-04 -1.40039169e-03 0. 0. 0. 0. -1.33939285e-03
      -9.45233660e-06 0. 1.56695640e-03 -2.18111163e-04 0. 0. 0. 0.
      4.17352701e-03 -2.50868476e-03 0. -4.63748467e-04 -1.20109355e-03
      0. 0. 0. 0. 2.28556176e-03 -3.55474977e-03 0. 1.96398562e-03
      -6.94797491e-04 0. 0. 0. 0. 5.18402841e-04 -4.61369148e-03 0.
      3.58644058e-03 5.08848054e-04 0. 0. 0. 0. 5.30735997e-04
      -4.02764697e-03 0. 2.28925701e-03 1.20765378e-03 0. 0. 0. 0.
      1.03279576e-03 -2.02171947e-03 0. 6.89843844e-04 2.99079926e-04 0.
      0. 0. 0. 6.16026446e-05 1.84449280e-04 0. -2.26711360e-04
      -1.93405594e-05 0. 0. 0. 0. -8.45164526e-04 -2.99282925e-04 0.
      8.37031286e-04 3.07416165e-04 0. 0. 0. 0. 2.33408553e-03
      -6.72614609e-04 0. -1.24333298e-03 -4.18137934e-04 0. 0. 0. 0.
      -1.08269672e-03 3.84886196e-04 0. 1.78725226e-03 -1.08944171e-03
      0. 0. 0. 0. 2.50488429e-05 2.61451071e-03 0. -1.89549546e-03
      -7.44064106e-04 0. 0. 0. 0. -5.88550116e-04 3.87335406e-03 0.
      -3.00725736e-03 -2.77546584e-04 0. 0. 0. 0. 7.27379986e-04
      -2.62657623e-03 0. 7.84706383e-04 1.11448986e-03 0. 0. 0. 0.
      5.83925401e-04 -4.14973591e-04 0. -1.15115242e-03 9.82200610e-04
      0. 0. 0. 0. -2.15682457e-03 1.80116156e-03 0. 5.74608915e-04
      -2.18945876e-04 0. 0. 0. 0. -5.01364586e-04 -1.10468711e-03 0.
      6.22516745e-05 1.54380000e-03 0. 0. 0. 0. 1.02371641e-03
      -8.32650636e-04 0. 1.94483582e-04 -3.85549414e-04 0. 0. 0. 0.
      1.07350701e-03 -6.48960378e-03 0. 3.85248917e-03 1.56360783e-03 0.
      0. 0. 0. 4.57048789e-03 -5.38259337e-04 0. -2.03696941e-03
      -1.99525896e-03 0. 0. 0. 0. -4.41309850e-04 -1.15532498e-03 0.
      2.02295394e-03 -4.26318962e-04 0. 0. 0. 0. -1.60881551e-04
      8.14488085e-05 0. -8.58482381e-04 9.37915116e-04 0. 0. 0. 0.
      -2.36581406e-03 -4.76597575e-04 0. 2.77023227e-03 7.21793331e-05
      0. 0. 0. 0. -4.11844463e-04 2.40038760e-04 0. -1.28547399e-04
      3.00353102e-04 0. 0. 0. 0. 1.19369815e-03 -1.06427062e-03 0.
      1.24794344e-04 -2.54221930e-04 0. 0. 0. 0. -3.95483046e-04
      -1.21599226e-03 0. 1.13542203e-03 4.76053305e-04 0. 0. 0. 0.
      -8.13003513e-04 6.03176595e-04 0. -1.26384455e-03 1.47367141e-03
      0. 0. 0. 0. 6.68806548e-04 -4.32988745e-05 0. 1.78534319e-04
      -8.04041978e-04 0. 0. 0. 0. -1.22664846e-04 3.33297328e-04 0.
      -1.49305456e-03 1.28242210e-03 0. 0. 0. 0. -4.15662769e-04
      -1.87329168e-03 0. 2.14629996e-04 2.07432453e-03 0. 0. 0. 0.
      1.46945880e-03 -2.28297734e-03 0. 1.28778745e-03 -4.74268832e-04
      0. 0. 0. 0. 3.08139483e-03 -2.01690034e-03 0. -1.68156205e-03
      6.17067679e-04 0. 0. 0. 0. 1.07559818e-03 -2.83895480e-03 0.
      2.52973358e-03 -7.66377081e-04 0. 0. 0. 0. -3.80723481e-03
      -1.75476517e-03 0. 4.69155610e-03 8.70443648e-04 0. 0. 0. 0.
      -2.52238032e-03 8.12546350e-04 0. 1.54735893e-03 1.62475073e-04 0.
      0. 0. 0. -2.94947205e-03 1.71294762e-03 0. 6.12895819e-04
      6.23628555e-04 0. 0. 0. 0. 2.66550854e-03 7.47018203e-04 0.
      -3.09376232e-03 -3.18764418e-04 0. 0. 0. 0. 3.30391666e-03
      -2.53362698e-03 0. -1.32196047e-03 5.51670732e-04 0. 0. 0. 0.
      2.54523795e-04 -1.51922111e-03 0. 4.50009538e-04 8.14687752e-04 0.
      0. 0. 0. 1.41927321e-03 1.26862200e-04 0. -1.38200086e-03
      -1.64134559e-04 0. 0. 0. 0. 3.70821886e-04 -1.82371680e-03 0.
      1.74157589e-03 -2.88680982e-04 0. 0. 0. 0. 4.69067047e-04
      -3.24016530e-03 0. 3.13318474e-03 -3.62086692e-04 0. 0. 0. 0.
      -4.72345063e-03 2.57317297e-04 0. 2.72993464e-03 1.73619867e-03 0.
      0. 0. 0. 6.76821917e-04 -1.91235478e-04 0. -5.31873666e-04
      4.62872267e-05 0. 0. 0. 0. 2.80617527e-03 1.20992912e-03 0.
      -7.01063080e-04 -3.31504131e-03 0. 0. 0. 0. 1.11033302e-03
      -5.99058636e-04 0. 4.77505127e-05 -5.59024862e-04 0. 0. 0. 0.
      2.29174178e-03 -1.43830443e-03 0. -1.36433740e-03 5.10900165e-04
      0. 0. 0. 0. 2.12469581e-03 2.98753206e-04 0. -2.32718629e-03
      -9.62627382e-05 0. 0. 0. 0. 1.81145745e-03 -2.41257949e-03 0.
      7.00960169e-04 -9.98381802e-05 0. 0. 0. 0. 1.26927008e-03
      -2.22071493e-03 0. 7.24854995e-04 2.26589866e-04 0. 0. 0. 0.
      -3.89882953e-05 -2.78788735e-03 0. 1.88614358e-03 9.40732076e-04
      0. 0. 0. 0. 1.69700081e-03 1.15000212e-03 0. -3.11045931e-03
      2.63456372e-04 0. 0. 0. 0. 6.78205339e-04 5.78270701e-04 0.
      5.97404432e-04 -1.85388047e-03 0. 0. 0. 0. 4.17342788e-04
      1.21096615e-03 0. -1.74619700e-03 1.17888019e-04 0. 0. 0. 0.
      3.13310476e-04 6.53379131e-04 0. -9.66478488e-04 -2.11147466e-07
      0. 0. 0. 0. -1.20660802e-03 6.19721948e-04 0. -3.68295499e-04
      9.55181546e-04 0. 0. 0. 0. -3.88699991e-04 3.70769482e-03 0.
      -3.56965838e-03 2.50663608e-04 0. 0. 0. 0. -1.53210305e-03
      2.47759017e-04 0. 1.30410946e-03 -1.97654772e-05 0. 0. 0. 0.
      -2.62212334e-03 -4.96345572e-04 0. 1.94401818e-03 1.17445062e-03
      0. 0. 0. 0. -1.94108312e-03 2.72998353e-03 0. -5.82868292e-04
      -2.06032215e-04 0. 0. 0. 0. -1.26077779e-04 5.40489331e-04 0.
      -6.92494097e-04 2.78082531e-04 0. 0. 0. 0. -1.31813088e-03
      4.01555386e-04 0. -7.90625811e-04 1.70720136e-03 0. 0. 0. 0.
      1.01721252e-03 4.54755471e-04 0. -1.57237682e-03 1.00408790e-04 0.
      0. 0. 0. 3.15951882e-04 6.92452828e-04 0. -1.02154282e-03
      1.31381184e-05 0. 0. 0. 0. 1.09543826e-03 4.71390085e-04 0.
      -7.64487602e-04 -8.02340684e-04 0. 0. 0. 0. -1.07229047e-03
      7.41880562e-04 0. 1.80402631e-03 -1.47361646e-03 0. 0. 0. 0.
      6.86735264e-04 -9.13178315e-04 0. -1.45615646e-04 3.72058654e-04
      0. 0. 0. 0. 1.93978907e-04 -8.59412656e-04 0. 1.21015473e-04
      5.44418290e-04 0. 0. 0. 0. 3.06973845e-04 3.57571710e-03 0.
      -3.29451752e-03 -5.88173338e-04 0. 0. 0. 0. -1.55731430e-03
      2.71102157e-03 0. -8.73444835e-04 -2.80262553e-04 0. 0. 0. 0.
      1.85551855e-03 9.80555546e-04 0. -9.02782311e-04 -1.93329179e-03
      0. 0. 0. 0. 1.30903255e-03 -2.14057998e-03 0. 2.38476018e-03
      -1.55321276e-03 0. 0. 0. 0. 1.78124500e-03 -2.18729815e-03 0.
      1.51326414e-03 -1.10721111e-03 0. 0. 0. 0. -2.61788606e-03
      -7.75208813e-04 0. 1.89059682e-03 1.50249805e-03 0. 0. 0. 0.
      -2.28905329e-03 2.25480110e-03 0. 1.34984776e-03 -1.31559547e-03
      0. 0. 0. 0. 2.09516194e-03 -8.48978583e-04 0. 7.89620390e-04
      -2.03580386e-03 0. 0. 0. 0. 1.30543730e-03 2.44848110e-04 0.
      -6.50125381e-04 -9.00159997e-04 0. 0. 0. 0. 1.29677050e-04
      -1.53971603e-03 0. 2.01329589e-03 -6.03256922e-04 0. 0. 0. 0.
      1.40224805e-03 -3.34310113e-03 0. 3.44134378e-03 -1.50049070e-03
      0. 0. 0. 0. 3.47774802e-03 -2.62641977e-03 0. 4.36815899e-04
      -1.28814415e-03 0. 0. 0. 0. 2.83857482e-03 9.21110404e-05 0.
      -1.23114942e-03 -1.69953646e-03 0. 0. 0. 0. 3.91036388e-04
      -7.86319200e-04 0. 2.69263517e-03 -2.29735230e-03 0. 0. 0. 0.
      2.44158739e-03 -1.94069196e-03 0. -5.44226677e-05 -4.46472724e-04
      0. 0. 0. 0. 3.32850468e-04 -1.92570180e-04 0. -2.73299200e-04
      1.33018926e-04 0. 0. 0. 0. -5.57745167e-04 6.94089860e-04 0.
      -3.79401841e-04 2.43057148e-04 0. 0. 0. 0. 2.52958434e-03
      -2.13562371e-03 0. 1.92046445e-03 -2.31442507e-03 0. 0. 0. 0.
      2.17188208e-05 -2.87074386e-03 0. 3.01506626e-03 -1.66041267e-04
      0. 0. 0. 0. 1.99271017e-03 -2.49173120e-03 0. 1.67082204e-03
      -1.17180101e-03 0. 0. 0. 0. 2.79723667e-03 -1.25645753e-03 0.
      -5.41688409e-04 -9.99090727e-04 0. 0. 0. 0. 1.36917795e-03
      -2.35552900e-03 0. -1.51385873e-04 1.13773695e-03 0. 0. 0. 0.
      -1.13128289e-03 -1.51302942e-04 0. 4.08322114e-04 8.74263758e-04
      0. 0. 0. 0. 1.05617975e-03 9.51155562e-06 0. -8.58065090e-04
      -2.07626203e-04 0. 0. 0. 0. 5.10413665e-04 -1.00496516e-04 0.
      5.05301505e-05 -4.60447307e-04 0. 0. 0. 0. -3.22179310e-03
      2.52273586e-03 0. 1.57316390e-03 -8.74106598e-04 0. 0. 0. 0.
      2.19810085e-04 -9.43009567e-04 0. -1.45811355e-04 8.69010808e-04
      0. 0. 0. 0. 2.02493742e-03 1.50001797e-04 0. -1.36428222e-03
      -8.10656929e-04 0. 0. 0. 0. 1.76642986e-03 -7.63402029e-04 0.
      3.33934557e-04 -1.33696233e-03 0. 0. 0. 0. -4.40380129e-04
      -5.08788624e-04 0. 1.18677563e-03 -2.37606888e-04 0. 0. 0. 0.
      2.03921832e-03 -2.00398499e-03 0. -2.55003019e-04 2.19769674e-04
      0. 0. 0. 0. 1.67010690e-03 -4.08037973e-04 0. 4.24809637e-04
      -1.68687850e-03 0. 0. 0. 0. 1.20942097e-03 5.70022501e-04 0.
      -2.53215921e-03 7.52715801e-04 0. 0. 0. 0. 1.87814512e-04
      -6.71861286e-04 0. -1.07031513e-03 1.55436189e-03 0. 0. 0. 0.
      -1.05527474e-03 2.88966950e-03 0. -2.71965587e-03 8.85261048e-04
      0. 0. 0. 0. 2.20319838e-03 1.12700847e-03 0. -3.92085407e-03
      5.90647222e-04 0. 0. 0. 0. 2.76530976e-03 -2.47401040e-04 0.
      -1.93689414e-03 -5.81014552e-04 0. 0. 0. 0. 2.89444695e-03
      -1.22431549e-03 0. -9.48561938e-04 -7.21569348e-04 0. 0. 0. 0.
      1.71515753e-03 -2.94421427e-03 0. 7.44688266e-04 4.84368415e-04 0.
      0. 0. 0. 1.31738477e-03 5.75867482e-04 0. -1.81157573e-03
      -8.16764659e-05 0. 0. 0. 0. 2.96879676e-03 -1.45847443e-03 0.
      -1.84456853e-03 3.34246171e-04 0. 0. 0. 0. 1.85210301e-04
      1.36547408e-03 0. -3.10533517e-03 1.55465072e-03 0. 0. 0. 0.
      -2.39348924e-03 5.33076003e-03 0. -4.36292216e-03 1.42565113e-03
      0. 0. 0. 0. -1.07470492e-03 2.56431173e-03 0. -2.47546192e-03
      9.85855120e-04 0. 0. 0. 0. -1.89693912e-03 4.26345854e-04 0.
      -1.59642810e-03 3.06702149e-03 0. 0. 0. 0. 2.82270578e-03
      1.46070460e-03 0. -4.19654371e-03 -8.68664356e-05 0. 0. 0. 0.
      3.67447734e-03 -1.30376290e-03 0. -2.42886553e-03 5.81510139e-05
      0. 0. 0. 0. 2.47377832e-03 2.22565420e-03 0. -5.12982300e-03
      4.30390617e-04 0. 0. 0. 0. 1.69500639e-03 -5.67242445e-04 0.
      -1.21546909e-03 8.77050988e-05 0. 0. 0. 0. -8.07548873e-04
      2.40395148e-03 0. -3.48441722e-03 1.88801473e-03 0. 0. 0. 0.
      -1.97800132e-03 1.81483699e-03 0. -1.09987648e-03 1.26304070e-03
      0. 0. 0. 0. -5.69825200e-03 3.24500701e-03 0. 3.01063381e-04
      2.15218146e-03 0. 0. 0. 0. -3.82594345e-03 2.49174447e-03 0.
      -5.44080918e-04 1.87827973e-03 0. 0. 0. 0. -2.71942769e-03
      5.93798410e-04 0. -2.59637909e-05 2.15159310e-03 0. 0. 0. 0.
      -2.57655629e-03 1.22383446e-03 0. -3.01814545e-03 4.37086727e-03
      0. 0. 0. 0. -2.71921838e-03 2.14413856e-03 0. -1.04005088e-03
      1.61513058e-03 0. 0. 0. 0. -3.30712018e-03 8.47483752e-04 0.
      -6.97202515e-04 3.15683894e-03 0. 0. 0. 0. -2.74937483e-03
      3.53846955e-03 0. -2.91970535e-03 2.13061064e-03 0. 0. 0. 0.
      -2.15786090e-03 2.58321757e-03 0. -1.56379770e-03 1.13844103e-03</_></support_vectors>
  <uncompressed_sv_total>126</uncompressed_sv_total>
  <uncompressed_support_vectors>
    <_>
      0. 0. 0. 0. 63. 0. 0. 1. 0. 0. 0. 0. 0. 63. 1. 0. 0. 0. 0. 0. 0.
      0. 63. 0. 0. 1. 0. 0. 0. 0. 0. 50. 7. 0. 5. 2. 0. 0. 0. 0. 50. 10.
      0. 3. 1. 0. 0. 0. 0. 64. 0. 0. 0. 0. 0. 0. 0. 0. 64. 0. 0. 0. 0.
      0. 0. 0. 0. 58. 4. 0. 2. 0. 0. 0. 0. 0. 61. 2. 0. 1. 0. 0. 0. 0.
      0. 61. 2. 0. 1. 0. 0. 0. 0. 0. 64. 0. 0. 0. 0. 0. 0. 0. 0. 59. 1.
      0. 4. 0. 0. 0. 0. 0. 40. 0. 0. 19. 5. 0. 0. 0. 0. 64. 0. 0. 0. 0.
      0. 0. 0. 0. 64. 0. 0. 0. 0. 0. 0. 0. 0. 64. 0. 0. 0. 0. 0. 0. 0.
      0. 60. 0. 0. 4. 0. 0. 0. 0. 0. 60. 3. 0. 1. 0. 0. 0. 0. 0. 62. 2.
      0. 0. 0. 0. 0. 0. 0. 53. 11. 0. 0. 0. 0. 0. 0. 0. 41. 2. 0. 14. 7.
      0. 0. 0. 0. 63. 1. 0. 0. 0. 0. 0. 0. 0. 64. 0. 0. 0. 0. 0. 0. 0.
      0. 58. 3. 0. 3. 0. 0. 0. 0. 0. 59. 3. 0. 0. 2. 0. 0. 0. 0. 60. 0.
      0. 3. 1. 0. 0. 0. 0. 61. 1. 0. 2. 0. 0. 0. 0. 0. 64. 0. 0. 0. 0.
      0. 0. 0. 0. 46. 2. 0. 16. 0. 0. 0. 0. 0. 51. 0. 0. 13. 0. 0. 0. 0.
      0. 64. 0. 0. 0. 0. 0. 0. 0. 0. 64. 0. 0. 0. 0. 0. 0. 0. 0. 59. 2.
      0. 3. 0. 0. 0. 0. 0. 62. 2. 0. 0. 0. 0. 0. 0. 0. 62. 2. 0. 0. 0.
      0. 0. 0. 0. 64. 0. 0. 0. 0. 0. 0. 0. 0. 62. 0. 0. 2. 0. 0. 0. 0.
      0. 40. 7. 0. 15. 2. 0. 0. 0. 0. 52. 1. 0. 11. 0. 0. 0. 0. 0. 63.
      1. 0. 0. 0. 0. 0. 0. 0. 62. 0. 0. 1. 1. 0. 0. 0. 0. 54. 9. 0. 1.
      0. 0. 0. 0. 0. 62. 2. 0. 0. 0. 0. 0. 0. 0. 64. 0. 0. 0. 0. 0. 0.
      0. 0. 52. 0. 0. 12. 0. 0. 0. 0. 0. 38. 0. 0. 24. 2. 0. 0. 0. 0.
      47. 4. 0. 11. 2. 0. 0. 0. 0. 63. 0. 0. 1. 0. 0. 0. 0. 0. 57. 3. 0.
      4. 0. 0. 0. 0. 0. 57. 3. 0. 4. 0. 0. 0. 0. 0. 54. 6. 0. 4. 0. 0.
      0. 0. 0. 62. 2. 0. 0. 0. 0. 0. 0. 0. 54. 1. 0. 9. 0. 0. 0. 0. 0.
      33. 1. 0. 30. 0. 0. 0. 0. 0. 49. 0. 0. 12. 3. 0. 0. 0. 0. 64. 0.
      0. 0. 0. 0. 0. 0. 0. 62. 1. 0. 1. 0. 0. 0. 0. 0. 58. 4. 0. 2. 0.
      0. 0. 0. 0. 50. 1. 0. 7. 6. 0. 0. 0. 0. 63. 1. 0. 0. 0. 0. 0. 0.
      0. 56. 0. 0. 8. 0. 0. 0. 0. 0. 31. 5. 0. 25. 3. 0. 0. 0. 0. 48. 0.
      0. 12. 4. 0. 0. 0. 0. 64. 0. 0. 0. 0. 0. 0. 0. 0. 62. 0. 0. 2. 0.
      0. 0. 0. 0. 60. 3. 0. 1. 0. 0. 0. 0. 0. 42. 6. 0. 15. 1. 0. 0. 0.
      0. 62. 2. 0. 0. 0. 0. 0. 0. 0. 64. 0. 0. 0. 0. 0. 0. 0. 0. 29. 0.
      0. 35. 0. 0. 0. 0. 0. 46. 2. 0. 13. 3. 0. 0. 0. 0. 61. 3. 0. 0. 0.
      0. 0. 0. 0. 55. 5. 0. 3. 1. 0. 0. 0. 0. 48. 11. 0. 3. 2. 0. 0. 0.
      0. 56. 2. 0. 4. 2. 0. 0. 0. 0. 64. 0. 0. 0. 0. 0. 0. 0. 0. 64. 0.
      0. 0. 0. 0. 0. 0. 0. 24. 0. 0. 37. 3. 0. 0. 0. 0. 51. 6. 0. 4. 3.
      0. 0. 0. 0. 57. 3. 0. 4. 0. 0. 0. 0. 0. 50. 12. 0. 2. 0. 0. 0. 0.
      0. 55. 5. 0. 4. 0. 0. 0. 0. 0. 58. 5. 0. 1. 0. 0. 0. 0. 0. 56. 4.
      0. 2. 2. 0. 0. 0. 0. 60. 4. 0. 0. 0. 0. 0. 0. 0. 30. 1. 0. 32. 1.
      0. 0. 0. 0. 49. 2. 0. 11. 2. 0. 0. 0. 0. 64. 0. 0. 0. 0. 0. 0. 0.
      0. 39. 13. 0. 5. 7. 0. 0. 0. 0. 44. 14. 0. 4. 2. 0. 0. 0. 0. 41.
      21. 0. 0. 2. 0. 0. 0. 0. 20. 26. 0. 6. 12. 0. 0. 0. 0. 53. 7. 0.
      4. 0. 0. 0. 0. 0. 26. 11. 0. 14. 13. 0. 0. 0. 0. 61. 2. 0. 0. 1.
      0. 0. 0. 0. 63. 1. 0. 0. 0. 0. 0. 0. 0. 41. 3. 0. 12. 8. 0. 0. 0.
      0. 39. 12. 0. 11. 2. 0. 0. 0. 0. 38. 18. 0. 4. 4. 0. 0. 0. 0. 24.
      18. 0. 13. 9. 0. 0. 0. 0. 48. 12. 0. 4. 0. 0. 0. 0. 0. 31. 5. 0.
      21. 7. 0. 0. 0. 0. 56. 6. 0. 2. 0. 0. 0. 0. 0. 61. 3. 0. 0. 0. 0.
      0. 0. 0. 47. 5. 0. 10. 2. 0. 0. 0. 0. 61. 0. 0. 3. 0. 0. 0. 0. 0.
      48. 3. 0. 12. 1. 0. 0. 0. 0. 36. 2. 0. 22. 4. 0. 0. 0. 0. 59. 4.
      0. 1. 0. 0. 0. 0. 0. 33. 7. 0. 19. 5. 0. 0. 0. 0. 52. 3. 0. 8. 1.
      0. 0. 0. 0. 52. 10. 0. 2. 0. 0. 0. 0. 0. 44. 3. 0. 15. 2. 0. 0. 0.
      0. 60. 0. 0. 4. 0. 0. 0. 0. 0. 63. 0. 0. 1. 0. 0. 0. 0. 0. 42. 0.
      0. 22. 0. 0. 0. 0. 0. 58. 3. 0. 3. 0. 0. 0. 0. 0. 45. 0. 0. 17. 2.
      0. 0. 0. 0. 63. 0. 0. 1. 0. 0. 0. 0. 0. 63. 0. 0. 1. 0. 0. 0. 0.
      0. 39. 8. 0. 14. 3. 0. 0. 0. 0. 54. 0. 0. 10. 0. 0. 0. 0. 0. 63.
      0. 0. 1. 0. 0. 0. 0. 0. 63. 0. 0. 1. 0. 0. 0. 0. 0. 63. 1. 0. 0.
      0. 0. 0. 0. 0. 45. 0. 0. 19. 0. 0. 0. 0. 0. 63. 0. 0. 1. 0. 0. 0.
      0. 0. 59. 0. 0. 5. 0.</_>
    <_>
      0. 0. 0. 0. 64. 0. 0. 0. 0. 0. 0. 0. 0. 64. 0. 0. 0. 0. 0. 0. 0.
      0. 64. 0. 0. 0. 0. 0. 0. 0. 0. 50. 7. 0. 2. 5. 0. 0. 0. 0. 54. 9.
      0. 0. 1. 0. 0. 0. 0. 64. 0. 0. 0. 0. 0. 0. 0. 0. 64. 0. 0. 0. 0.
      0. 0. 0. 0. 62. 2. 0. 0. 0. 0. 0. 0. 0. 64. 0. 0. 0. 0. 0. 0. 0.
      0. 60. 2. 0. 2. 0. 0. 0. 0. 0. 64. 0. 0. 0. 0. 0. 0. 0. 0. 58. 3.
      0. 2. 1. 0. 0. 0. 0. 44. 0. 0. 17. 3. 0. 0. 0. 0. 63. 1. 0. 0. 0.
      0. 0. 0. 0. 64. 0. 0. 0. 0. 0. 0. 0. 0. 64. 0. 0. 0. 0. 0. 0. 0.
      0. 61. 2. 0. 1. 0. 0. 0. 0. 0. 64. 0. 0. 0. 0. 0. 0. 0. 0. 60. 2.
      0. 2. 0. 0. 0. 0. 0. 53. 11. 0. 0. 0. 0. 0. 0. 0. 34. 3. 0. 15.
      12. 0. 0. 0. 0. 63. 0. 0. 1. 0. 0. 0. 0. 0. 64. 0. 0. 0. 0. 0. 0.
      0. 0. 64. 0. 0. 0. 0. 0. 0. 0. 0. 59. 3. 0. 2. 0. 0. 0. 0. 0. 64.
      0. 0. 0. 0. 0. 0. 0. 0. 58. 4. 0. 2. 0. 0. 0. 0. 0. 61. 1. 0. 2.
      0. 0. 0. 0. 0. 42. 2. 0. 19. 1. 0. 0. 0. 0. 55. 0. 0. 9. 0. 0. 0.
      0. 0. 64. 0. 0. 0. 0. 0. 0. 0. 0. 64. 0. 0. 0. 0. 0. 0. 0. 0. 57.
      4. 0. 3. 0. 0. 0. 0. 0. 62. 1. 0. 1. 0. 0. 0. 0. 0. 62. 2. 0. 0.
      0. 0. 0. 0. 0. 57. 2. 0. 2. 3. 0. 0. 0. 0. 62. 0. 0. 2. 0. 0. 0.
      0. 0. 32. 3. 0. 26. 3. 0. 0. 0. 0. 60. 1. 0. 3. 0. 0. 0. 0. 0. 64.
      0. 0. 0. 0. 0. 0. 0. 0. 61. 1. 0. 2. 0. 0. 0. 0. 0. 49. 12. 0. 3.
      0. 0. 0. 0. 0. 50. 12. 0. 2. 0. 0. 0. 0. 0. 57. 2. 0. 4. 1. 0. 0.
      0. 0. 54. 0. 0. 7. 3. 0. 0. 0. 0. 27. 3. 0. 24. 10. 0. 0. 0. 0.
      55. 0. 0. 6. 3. 0. 0. 0. 0. 64. 0. 0. 0. 0. 0. 0. 0. 0. 63. 0. 0.
      1. 0. 0. 0. 0. 0. 62. 2. 0. 0. 0. 0. 0. 0. 0. 58. 3. 0. 3. 0. 0.
      0. 0. 0. 59. 5. 0. 0. 0. 0. 0. 0. 0. 44. 2. 0. 17. 1. 0. 0. 0. 0.
      23. 0. 0. 38. 3. 0. 0. 0. 0. 51. 4. 0. 7. 2. 0. 0. 0. 0. 63. 0. 0.
      1. 0. 0. 0. 0. 0. 58. 3. 0. 2. 1. 0. 0. 0. 0. 59. 5. 0. 0. 0. 0.
      0. 0. 0. 48. 2. 0. 10. 4. 0. 0. 0. 0. 61. 3. 0. 0. 0. 0. 0. 0. 0.
      60. 0. 0. 4. 0. 0. 0. 0. 0. 32. 0. 0. 32. 0. 0. 0. 0. 0. 48. 0. 0.
      14. 2. 0. 0. 0. 0. 64. 0. 0. 0. 0. 0. 0. 0. 0. 56. 6. 0. 1. 1. 0.
      0. 0. 0. 60. 4. 0. 0. 0. 0. 0. 0. 0. 43. 3. 0. 17. 1. 0. 0. 0. 0.
      61. 3. 0. 0. 0. 0. 0. 0. 0. 63. 0. 0. 1. 0. 0. 0. 0. 0. 33. 0. 0.
      31. 0. 0. 0. 0. 0. 40. 6. 0. 15. 3. 0. 0. 0. 0. 58. 4. 0. 2. 0. 0.
      0. 0. 0. 62. 2. 0. 0. 0. 0. 0. 0. 0. 55. 7. 0. 2. 0. 0. 0. 0. 0.
      39. 14. 0. 8. 3. 0. 0. 0. 0. 59. 3. 0. 2. 0. 0. 0. 0. 0. 64. 0. 0.
      0. 0. 0. 0. 0. 0. 27. 0. 0. 35. 2. 0. 0. 0. 0. 49. 4. 0. 7. 4. 0.
      0. 0. 0. 59. 4. 0. 1. 0. 0. 0. 0. 0. 45. 7. 0. 8. 4. 0. 0. 0. 0.
      53. 5. 0. 6. 0. 0. 0. 0. 0. 55. 8. 0. 0. 1. 0. 0. 0. 0. 52. 12. 0.
      0. 0. 0. 0. 0. 0. 53. 11. 0. 0. 0. 0. 0. 0. 0. 24. 2. 0. 35. 3. 0.
      0. 0. 0. 48. 3. 0. 9. 4. 0. 0. 0. 0. 61. 2. 0. 1. 0. 0. 0. 0. 0.
      37. 8. 0. 9. 10. 0. 0. 0. 0. 40. 15. 0. 4. 5. 0. 0. 0. 0. 50. 13.
      0. 0. 1. 0. 0. 0. 0. 33. 24. 0. 3. 4. 0. 0. 0. 0. 42. 12. 0. 8. 2.
      0. 0. 0. 0. 36. 4. 0. 17. 7. 0. 0. 0. 0. 49. 4. 0. 10. 1. 0. 0. 0.
      0. 63. 1. 0. 0. 0. 0. 0. 0. 0. 45. 6. 0. 10. 3. 0. 0. 0. 0. 36.
      11. 0. 12. 5. 0. 0. 0. 0. 38. 16. 0. 6. 4. 0. 0. 0. 0. 42. 13. 0.
      7. 2. 0. 0. 0. 0. 37. 13. 0. 9. 5. 0. 0. 0. 0. 31. 0. 0. 25. 8. 0.
      0. 0. 0. 48. 8. 0. 3. 5. 0. 0. 0. 0. 63. 1. 0. 0. 0. 0. 0. 0. 0.
      44. 8. 0. 7. 5. 0. 0. 0. 0. 60. 0. 0. 4. 0. 0. 0. 0. 0. 55. 0. 0.
      9. 0. 0. 0. 0. 0. 44. 6. 0. 11. 3. 0. 0. 0. 0. 45. 5. 0. 14. 0. 0.
      0. 0. 0. 39. 3. 0. 16. 6. 0. 0. 0. 0. 50. 8. 0. 5. 1. 0. 0. 0. 0.
      58. 6. 0. 0. 0. 0. 0. 0. 0. 43. 4. 0. 17. 0. 0. 0. 0. 0. 62. 0. 0.
      2. 0. 0. 0. 0. 0. 60. 0. 0. 4. 0. 0. 0. 0. 0. 48. 0. 0. 16. 0. 0.
      0. 0. 0. 59. 2. 0. 3. 0. 0. 0. 0. 0. 47. 0. 0. 15. 2. 0. 0. 0. 0.
      60. 0. 0. 4. 0. 0. 0. 0. 0. 63. 0. 0. 1. 0. 0. 0. 0. 0. 43. 12. 0.
      6. 3. 0. 0. 0. 0. 47. 0. 0. 17. 0. 0. 0. 0. 0. 61. 0. 0. 3. 0. 0.
      0. 0. 0. 63. 0. 0. 1. 0. 0. 0. 0. 0. 62. 1. 0. 1. 0. 0. 0. 0. 0.
      52. 0. 0. 12. 0. 0. 0. 0. 0. 61. 0. 0. 3. 0. 0. 0. 0. 0. 60. 0. 0.
      4. 0.</_>
    <_>
      0. 0. 0. 0. 63. 1. 0. 0. 0. 0. 0. 0. 0. 64. 0. 0. 0. 0. 0. 0. 0.
      0. 64. 0. 0. 0. 0. 0. 0. 0. 0. 49. 6. 0. 2. 7. 0. 0. 0. 0. 55. 9.
      0. 0. 0. 0. 0. 0. 0. 64. 0. 0. 0. 0. 0. 0. 0. 0. 64. 0. 0. 0. 0.
      0. 0. 0. 0. 64. 0. 0. 0. 0. 0. 0. 0. 0. 62. 2. 0. 0. 0. 0. 0. 0.
      0. 64. 0. 0. 0. 0. 0. 0. 0. 0. 64. 0. 0. 0. 0. 0. 0. 0. 0. 59. 2.
      0. 3. 0. 0. 0. 0. 0. 44. 1. 0. 19. 0. 0. 0. 0. 0. 64. 0. 0. 0. 0.
      0. 0. 0. 0. 64. 0. 0. 0. 0. 0. 0. 0. 0. 64. 0. 0. 0. 0. 0. 0. 0.
      0. 63. 0. 0. 1. 0. 0. 0. 0. 0. 64. 0. 0. 0. 0. 0. 0. 0. 0. 58. 2.
      0. 4. 0. 0. 0. 0. 0. 54. 9. 0. 1. 0. 0. 0. 0. 0. 40. 0. 0. 14. 10.
      0. 0. 0. 0. 64. 0. 0. 0. 0. 0. 0. 0. 0. 64. 0. 0. 0. 0. 0. 0. 0.
      0. 64. 0. 0. 0. 0. 0. 0. 0. 0. 60. 4. 0. 0. 0. 0. 0. 0. 0. 63. 0.
      0. 1. 0. 0. 0. 0. 0. 57. 0. 0. 5. 2. 0. 0. 0. 0. 64. 0. 0. 0. 0.
      0. 0. 0. 0. 44. 4. 0. 8. 8. 0. 0. 0. 0. 37. 3. 0. 21. 3. 0. 0. 0.
      0. 63. 0. 0. 1. 0. 0. 0. 0. 0. 64. 0. 0. 0. 0. 0. 0. 0. 0. 59. 4.
      0. 1. 0. 0. 0. 0. 0. 52. 10. 0. 1. 1. 0. 0. 0. 0. 37. 17. 0. 2. 8.
      0. 0. 0. 0. 30. 20. 0. 5. 9. 0. 0. 0. 0. 38. 10. 0. 8. 8. 0. 0. 0.
      0. 62. 1. 0. 1. 0. 0. 0. 0. 0. 45. 2. 0. 15. 2. 0. 0. 0. 0. 64. 0.
      0. 0. 0. 0. 0. 0. 0. 60. 1. 0. 3. 0. 0. 0. 0. 0. 61. 0. 0. 3. 0.
      0. 0. 0. 0. 60. 4. 0. 0. 0. 0. 0. 0. 0. 43. 16. 0. 4. 1. 0. 0. 0.
      0. 30. 7. 0. 8. 19. 0. 0. 0. 0. 42. 13. 0. 4. 5. 0. 0. 0. 0. 44.
      7. 0. 9. 4. 0. 0. 0. 0. 59. 2. 0. 3. 0. 0. 0. 0. 0. 63. 0. 0. 1.
      0. 0. 0. 0. 0. 64. 0. 0. 0. 0. 0. 0. 0. 0. 63. 1. 0. 0. 0. 0. 0.
      0. 0. 54. 9. 0. 0. 1. 0. 0. 0. 0. 46. 1. 0. 15. 2. 0. 0. 0. 0. 48.
      0. 0. 11. 5. 0. 0. 0. 0. 58. 4. 0. 2. 0. 0. 0. 0. 0. 61. 3. 0. 0.
      0. 0. 0. 0. 0. 63. 1. 0. 0. 0. 0. 0. 0. 0. 62. 2. 0. 0. 0. 0. 0.
      0. 0. 64. 0. 0. 0. 0. 0. 0. 0. 0. 64. 0. 0. 0. 0. 0. 0. 0. 0. 56.
      0. 0. 8. 0. 0. 0. 0. 0. 43. 4. 0. 14. 3. 0. 0. 0. 0. 62. 2. 0. 0.
      0. 0. 0. 0. 0. 62. 2. 0. 0. 0. 0. 0. 0. 0. 61. 2. 0. 1. 0. 0. 0.
      0. 0. 53. 8. 0. 2. 1. 0. 0. 0. 0. 62. 1. 0. 1. 0. 0. 0. 0. 0. 63.
      0. 0. 1. 0. 0. 0. 0. 0. 61. 2. 0. 1. 0. 0. 0. 0. 0. 45. 2. 0. 14.
      3. 0. 0. 0. 0. 51. 6. 0. 4. 3. 0. 0. 0. 0. 61. 2. 0. 1. 0. 0. 0.
      0. 0. 59. 3. 0. 2. 0. 0. 0. 0. 0. 58. 3. 0. 3. 0. 0. 0. 0. 0. 63.
      1. 0. 0. 0. 0. 0. 0. 0. 62. 2. 0. 0. 0. 0. 0. 0. 0. 63. 0. 0. 1.
      0. 0. 0. 0. 0. 42. 1. 0. 18. 3. 0. 0. 0. 0. 53. 7. 0. 4. 0. 0. 0.
      0. 0. 61. 3. 0. 0. 0. 0. 0. 0. 0. 50. 7. 0. 7. 0. 0. 0. 0. 0. 48.
      11. 0. 4. 1. 0. 0. 0. 0. 56. 7. 0. 0. 1. 0. 0. 0. 0. 52. 0. 0. 12.
      0. 0. 0. 0. 0. 61. 2. 0. 1. 0. 0. 0. 0. 0. 44. 0. 0. 17. 3. 0. 0.
      0. 0. 46. 7. 0. 8. 3. 0. 0. 0. 0. 62. 2. 0. 0. 0. 0. 0. 0. 0. 39.
      16. 0. 8. 1. 0. 0. 0. 0. 50. 7. 0. 5. 2. 0. 0. 0. 0. 50. 12. 0. 2.
      0. 0. 0. 0. 0. 39. 6. 0. 15. 4. 0. 0. 0. 0. 41. 19. 0. 1. 3. 0. 0.
      0. 0. 45. 8. 0. 10. 1. 0. 0. 0. 0. 44. 10. 0. 7. 3. 0. 0. 0. 0.
      63. 0. 0. 1. 0. 0. 0. 0. 0. 38. 14. 0. 9. 3. 0. 0. 0. 0. 51. 7. 0.
      4. 2. 0. 0. 0. 0. 51. 11. 0. 1. 1. 0. 0. 0. 0. 55. 0. 0. 7. 2. 0.
      0. 0. 0. 34. 14. 0. 13. 3. 0. 0. 0. 0. 43. 20. 0. 1. 0. 0. 0. 0.
      0. 33. 7. 0. 18. 6. 0. 0. 0. 0. 62. 2. 0. 0. 0. 0. 0. 0. 0. 34. 9.
      0. 14. 7. 0. 0. 0. 0. 45. 10. 0. 9. 0. 0. 0. 0. 0. 32. 13. 0. 14.
      5. 0. 0. 0. 0. 41. 9. 0. 11. 3. 0. 0. 0. 0. 30. 17. 0. 14. 3. 0.
      0. 0. 0. 51. 6. 0. 6. 1. 0. 0. 0. 0. 29. 10. 0. 20. 5. 0. 0. 0. 0.
      58. 4. 0. 2. 0. 0. 0. 0. 0. 58. 3. 0. 1. 2. 0. 0. 0. 0. 59. 0. 0.
      5. 0. 0. 0. 0. 0. 63. 0. 0. 1. 0. 0. 0. 0. 0. 45. 2. 0. 15. 2. 0.
      0. 0. 0. 40. 1. 0. 21. 2. 0. 0. 0. 0. 63. 1. 0. 0. 0. 0. 0. 0. 0.
      33. 8. 0. 21. 2. 0. 0. 0. 0. 59. 0. 0. 5. 0. 0. 0. 0. 0. 55. 1. 0.
      7. 1. 0. 0. 0. 0. 61. 0. 0. 3. 0. 0. 0. 0. 0. 61. 0. 0. 3. 0. 0.
      0. 0. 0. 58. 0. 0. 6. 0. 0. 0. 0. 0. 56. 0. 0. 8. 0. 0. 0. 0. 0.
      63. 0. 0. 1. 0. 0. 0. 0. 0. 57. 0. 0. 7. 0. 0. 0. 0. 0. 60. 0. 0.
      4. 0.</_>
    <_>
      0. 0. 0. 0. 58. 1. 0. 5. 0. 0. 0. 0. 0. 56. 0. 0. 8. 0. 0. 0. 0.
      0. 64. 0. 0. 0. 0. 0. 0. 0. 0. 51. 4. 0. 5. 4. 0. 0. 0. 0. 50. 10.
      0. 2. 2. 0. 0. 0. 0. 62. 0. 0. 2. 0. 0. 0. 0. 0. 58. 0. 0. 6. 0.
      0. 0. 0. 0. 64. 0. 0. 0. 0. 0. 0. 0. 0. 57. 5. 0. 1. 1. 0. 0. 0.
      0. 50. 0. 0. 10. 4. 0. 0. 0. 0. 63. 1. 0. 0. 0. 0. 0. 0. 0. 64. 0.
      0. 0. 0. 0. 0. 0. 0. 45. 0. 0. 17. 2. 0. 0. 0. 0. 50. 9. 0. 4. 1.
      0. 0. 0. 0. 48. 0. 0. 16. 0. 0. 0. 0. 0. 64. 0. 0. 0. 0. 0. 0. 0.
      0. 50. 5. 0. 8. 1. 0. 0. 0. 0. 57. 0. 0. 7. 0. 0. 0. 0. 0. 63. 0.
      0. 1. 0. 0. 0. 0. 0. 51. 12. 0. 1. 0. 0. 0. 0. 0. 38. 7. 0. 12. 7.
      0. 0. 0. 0. 59. 1. 0. 3. 1. 0. 0. 0. 0. 40. 9. 0. 11. 4. 0. 0. 0.
      0. 59. 0. 0. 5. 0. 0. 0. 0. 0. 55. 6. 0. 2. 1. 0. 0. 0. 0. 55. 0.
      0. 8. 1. 0. 0. 0. 0. 62. 0. 0. 2. 0. 0. 0. 0. 0. 64. 0. 0. 0. 0.
      0. 0. 0. 0. 61. 1. 0. 2. 0. 0. 0. 0. 0. 64. 0. 0. 0. 0. 0. 0. 0.
      0. 58. 5. 0. 1. 0. 0. 0. 0. 0. 48. 0. 0. 14. 2. 0. 0. 0. 0. 53.
      11. 0. 0. 0. 0. 0. 0. 0. 42. 18. 0. 1. 3. 0. 0. 0. 0. 58. 6. 0. 0.
      0. 0. 0. 0. 0. 61. 2. 0. 1. 0. 0. 0. 0. 0. 64. 0. 0. 0. 0. 0. 0.
      0. 0. 53. 0. 0. 4. 7. 0. 0. 0. 0. 45. 14. 0. 1. 4. 0. 0. 0. 0. 61.
      1. 0. 0. 2. 0. 0. 0. 0. 64. 0. 0. 0. 0. 0. 0. 0. 0. 64. 0. 0. 0.
      0. 0. 0. 0. 0. 59. 4. 0. 1. 0. 0. 0. 0. 0. 64. 0. 0. 0. 0. 0. 0.
      0. 0. 63. 0. 0. 1. 0. 0. 0. 0. 0. 47. 0. 0. 14. 3. 0. 0. 0. 0. 61.
      2. 0. 1. 0. 0. 0. 0. 0. 62. 0. 0. 2. 0. 0. 0. 0. 0. 62. 1. 0. 1.
      0. 0. 0. 0. 0. 59. 1. 0. 2. 2. 0. 0. 0. 0. 59. 4. 0. 0. 1. 0. 0.
      0. 0. 64. 0. 0. 0. 0. 0. 0. 0. 0. 62. 0. 0. 2. 0. 0. 0. 0. 0. 47.
      0. 0. 16. 1. 0. 0. 0. 0. 63. 1. 0. 0. 0. 0. 0. 0. 0. 63. 0. 0. 1.
      0. 0. 0. 0. 0. 58. 2. 0. 4. 0. 0. 0. 0. 0. 60. 1. 0. 3. 0. 0. 0.
      0. 0. 59. 4. 0. 1. 0. 0. 0. 0. 0. 64. 0. 0. 0. 0. 0. 0. 0. 0. 64.
      0. 0. 0. 0. 0. 0. 0. 0. 43. 2. 0. 17. 2. 0. 0. 0. 0. 64. 0. 0. 0.
      0. 0. 0. 0. 0. 63. 0. 0. 1. 0. 0. 0. 0. 0. 56. 3. 0. 5. 0. 0. 0.
      0. 0. 57. 4. 0. 2. 1. 0. 0. 0. 0. 60. 2. 0. 2. 0. 0. 0. 0. 0. 64.
      0. 0. 0. 0. 0. 0. 0. 0. 64. 0. 0. 0. 0. 0. 0. 0. 0. 42. 0. 0. 20.
      2. 0. 0. 0. 0. 64. 0. 0. 0. 0. 0. 0. 0. 0. 61. 2. 0. 1. 0. 0. 0.
      0. 0. 56. 6. 0. 2. 0. 0. 0. 0. 0. 61. 2. 0. 1. 0. 0. 0. 0. 0. 63.
      1. 0. 0. 0. 0. 0. 0. 0. 57. 0. 0. 7. 0. 0. 0. 0. 0. 64. 0. 0. 0.
      0. 0. 0. 0. 0. 33. 0. 0. 28. 3. 0. 0. 0. 0. 61. 3. 0. 0. 0. 0. 0.
      0. 0. 55. 2. 0. 7. 0. 0. 0. 0. 0. 59. 5. 0. 0. 0. 0. 0. 0. 0. 58.
      4. 0. 2. 0. 0. 0. 0. 0. 59. 5. 0. 0. 0. 0. 0. 0. 0. 38. 3. 0. 19.
      4. 0. 0. 0. 0. 61. 3. 0. 0. 0. 0. 0. 0. 0. 38. 0. 0. 26. 0. 0. 0.
      0. 0. 57. 0. 0. 6. 1. 0. 0. 0. 0. 63. 1. 0. 0. 0. 0. 0. 0. 0. 53.
      8. 0. 2. 1. 0. 0. 0. 0. 56. 4. 0. 4. 0. 0. 0. 0. 0. 50. 12. 0. 2.
      0. 0. 0. 0. 0. 36. 4. 0. 21. 3. 0. 0. 0. 0. 43. 21. 0. 0. 0. 0. 0.
      0. 0. 31. 14. 0. 8. 11. 0. 0. 0. 0. 63. 0. 0. 1. 0. 0. 0. 0. 0.
      62. 1. 0. 1. 0. 0. 0. 0. 0. 43. 13. 0. 7. 1. 0. 0. 0. 0. 56. 4. 0.
      4. 0. 0. 0. 0. 0. 59. 5. 0. 0. 0. 0. 0. 0. 0. 47. 1. 0. 14. 2. 0.
      0. 0. 0. 55. 7. 0. 1. 1. 0. 0. 0. 0. 42. 3. 0. 13. 6. 0. 0. 0. 0.
      63. 1. 0. 0. 0. 0. 0. 0. 0. 60. 3. 0. 1. 0. 0. 0. 0. 0. 45. 14. 0.
      4. 1. 0. 0. 0. 0. 42. 13. 0. 6. 3. 0. 0. 0. 0. 47. 12. 0. 4. 1. 0.
      0. 0. 0. 39. 7. 0. 11. 7. 0. 0. 0. 0. 44. 12. 0. 7. 1. 0. 0. 0. 0.
      42. 7. 0. 7. 8. 0. 0. 0. 0. 61. 2. 0. 1. 0. 0. 0. 0. 0. 63. 1. 0.
      0. 0. 0. 0. 0. 0. 57. 2. 0. 5. 0. 0. 0. 0. 0. 48. 2. 0. 13. 1. 0.
      0. 0. 0. 53. 3. 0. 8. 0. 0. 0. 0. 0. 46. 5. 0. 11. 2. 0. 0. 0. 0.
      40. 1. 0. 18. 5. 0. 0. 0. 0. 39. 12. 0. 11. 2. 0. 0. 0. 0. 61. 2.
      0. 1. 0. 0. 0. 0. 0. 55. 9. 0. 0. 0. 0. 0. 0. 0. 60. 0. 0. 4. 0.
      0. 0. 0. 0. 58. 0. 0. 6. 0. 0. 0. 0. 0. 60. 0. 0. 4. 0. 0. 0. 0.
      0. 40. 1. 0. 21. 2. 0. 0. 0. 0. 56. 2. 0. 4. 2. 0. 0. 0. 0. 50. 0.
      0. 14. 0. 0. 0. 0. 0. 60. 0. 0. 4. 0. 0. 0. 0. 0. 62. 1. 0. 1. 0.</_>
    <_>
      0. 0. 0. 0. 63. 0. 0. 1. 0. 0. 0. 0. 0. 64. 0. 0. 0. 0. 0. 0. 0.
      0. 64. 0. 0. 0. 0. 0. 0. 0. 0. 50. 5. 0. 5. 4. 0. 0. 0. 0. 44. 15.
      0. 4. 1. 0. 0. 0. 0. 64. 0. 0. 0. 0. 0. 0. 0. 0. 64. 0. 0. 0. 0.
      0. 0. 0. 0. 64. 0. 0. 0. 0. 0. 0. 0. 0. 64. 0. 0. 0. 0. 0. 0. 0.
      0. 64. 0. 0. 0. 0. 0. 0. 0. 0. 64. 0. 0. 0. 0. 0. 0. 0. 0. 64. 0.
      0. 0. 0. 0. 0. 0. 0. 47. 0. 0. 17. 0. 0. 0. 0. 0. 56. 3. 0. 4. 1.
      0. 0. 0. 0. 51. 0. 0. 13. 0. 0. 0. 0. 0. 64. 0. 0. 0. 0. 0. 0. 0.
      0. 61. 3. 0. 0. 0. 0. 0. 0. 0. 64. 0. 0. 0. 0. 0. 0. 0. 0. 64. 0.
      0. 0. 0. 0. 0. 0. 0. 52. 12. 0. 0. 0. 0. 0. 0. 0. 35. 9. 0. 10.
      10. 0. 0. 0. 0. 55. 5. 0. 3. 1. 0. 0. 0. 0. 39. 11. 0. 14. 0. 0.
      0. 0. 0. 62. 0. 0. 2. 0. 0. 0. 0. 0. 52. 4. 0. 7. 1. 0. 0. 0. 0.
      58. 3. 0. 1. 2. 0. 0. 0. 0. 64. 0. 0. 0. 0. 0. 0. 0. 0. 62. 0. 0.
      2. 0. 0. 0. 0. 0. 61. 0. 0. 3. 0. 0. 0. 0. 0. 56. 1. 0. 5. 2. 0.
      0. 0. 0. 58. 1. 0. 5. 0. 0. 0. 0. 0. 50. 0. 0. 13. 1. 0. 0. 0. 0.
      49. 15. 0. 0. 0. 0. 0. 0. 0. 48. 16. 0. 0. 0. 0. 0. 0. 0. 58. 6.
      0. 0. 0. 0. 0. 0. 0. 49. 5. 0. 9. 1. 0. 0. 0. 0. 58. 2. 0. 3. 1.
      0. 0. 0. 0. 51. 7. 0. 3. 3. 0. 0. 0. 0. 48. 14. 0. 0. 2. 0. 0. 0.
      0. 47. 3. 0. 13. 1. 0. 0. 0. 0. 64. 0. 0. 0. 0. 0. 0. 0. 0. 61. 2.
      0. 1. 0. 0. 0. 0. 0. 57. 7. 0. 0. 0. 0. 0. 0. 0. 55. 6. 0. 3. 0.
      0. 0. 0. 0. 63. 1. 0. 0. 0. 0. 0. 0. 0. 45. 0. 0. 18. 1. 0. 0. 0.
      0. 61. 2. 0. 1. 0. 0. 0. 0. 0. 63. 0. 0. 1. 0. 0. 0. 0. 0. 60. 1.
      0. 3. 0. 0. 0. 0. 0. 55. 3. 0. 5. 1. 0. 0. 0. 0. 63. 1. 0. 0. 0.
      0. 0. 0. 0. 64. 0. 0. 0. 0. 0. 0. 0. 0. 64. 0. 0. 0. 0. 0. 0. 0.
      0. 47. 1. 0. 12. 4. 0. 0. 0. 0. 64. 0. 0. 0. 0. 0. 0. 0. 0. 62. 1.
      0. 1. 0. 0. 0. 0. 0. 63. 0. 0. 1. 0. 0. 0. 0. 0. 55. 2. 0. 7. 0.
      0. 0. 0. 0. 58. 6. 0. 0. 0. 0. 0. 0. 0. 64. 0. 0. 0. 0. 0. 0. 0.
      0. 64. 0. 0. 0. 0. 0. 0. 0. 0. 46. 0. 0. 16. 2. 0. 0. 0. 0. 63. 1.
      0. 0. 0. 0. 0. 0. 0. 62. 2. 0. 0. 0. 0. 0. 0. 0. 56. 3. 0. 4. 1.
      0. 0. 0. 0. 62. 1. 0. 1. 0. 0. 0. 0. 0. 58. 4. 0. 2. 0. 0. 0. 0.
      0. 60. 0. 0. 4. 0. 0. 0. 0. 0. 62. 0. 0. 2. 0. 0. 0. 0. 0. 46. 1.
      0. 15. 2. 0. 0. 0. 0. 62. 0. 0. 2. 0. 0. 0. 0. 0. 60. 1. 0. 3. 0.
      0. 0. 0. 0. 60. 1. 0. 1. 2. 0. 0. 0. 0. 62. 0. 0. 2. 0. 0. 0. 0.
      0. 58. 5. 0. 1. 0. 0. 0. 0. 0. 47. 0. 0. 17. 0. 0. 0. 0. 0. 60. 0.
      0. 4. 0. 0. 0. 0. 0. 42. 1. 0. 19. 2. 0. 0. 0. 0. 62. 0. 0. 2. 0.
      0. 0. 0. 0. 64. 0. 0. 0. 0. 0. 0. 0. 0. 60. 4. 0. 0. 0. 0. 0. 0.
      0. 63. 1. 0. 0. 0. 0. 0. 0. 0. 59. 2. 0. 3. 0. 0. 0. 0. 0. 55. 0.
      0. 9. 0. 0. 0. 0. 0. 52. 0. 0. 12. 0. 0. 0. 0. 0. 52. 0. 0. 12. 0.
      0. 0. 0. 0. 54. 2. 0. 6. 2. 0. 0. 0. 0. 61. 3. 0. 0. 0. 0. 0. 0.
      0. 56. 4. 0. 4. 0. 0. 0. 0. 0. 51. 7. 0. 6. 0. 0. 0. 0. 0. 44. 15.
      0. 4. 1. 0. 0. 0. 0. 51. 0. 0. 10. 3. 0. 0. 0. 0. 40. 12. 0. 8. 4.
      0. 0. 0. 0. 38. 14. 0. 4. 8. 0. 0. 0. 0. 57. 0. 0. 7. 0. 0. 0. 0.
      0. 62. 0. 0. 2. 0. 0. 0. 0. 0. 49. 10. 0. 2. 3. 0. 0. 0. 0. 39.
      12. 0. 11. 2. 0. 0. 0. 0. 62. 2. 0. 0. 0. 0. 0. 0. 0. 40. 3. 0.
      11. 10. 0. 0. 0. 0. 56. 3. 0. 3. 2. 0. 0. 0. 0. 50. 2. 0. 10. 2.
      0. 0. 0. 0. 63. 0. 0. 1. 0. 0. 0. 0. 0. 62. 2. 0. 0. 0. 0. 0. 0.
      0. 43. 14. 0. 3. 4. 0. 0. 0. 0. 41. 14. 0. 4. 5. 0. 0. 0. 0. 52.
      6. 0. 5. 1. 0. 0. 0. 0. 35. 11. 0. 6. 12. 0. 0. 0. 0. 42. 4. 0.
      12. 6. 0. 0. 0. 0. 55. 8. 0. 0. 1. 0. 0. 0. 0. 59. 4. 0. 1. 0. 0.
      0. 0. 0. 64. 0. 0. 0. 0. 0. 0. 0. 0. 59. 0. 0. 5. 0. 0. 0. 0. 0.
      50. 1. 0. 13. 0. 0. 0. 0. 0. 48. 3. 0. 9. 4. 0. 0. 0. 0. 43. 6. 0.
      14. 1. 0. 0. 0. 0. 42. 3. 0. 12. 7. 0. 0. 0. 0. 43. 10. 0. 10. 1.
      0. 0. 0. 0. 55. 4. 0. 5. 0. 0. 0. 0. 0. 60. 4. 0. 0. 0. 0. 0. 0.
      0. 56. 0. 0. 8. 0. 0. 0. 0. 0. 58. 2. 0. 4. 0. 0. 0. 0. 0. 61. 2.
      0. 1. 0. 0. 0. 0. 0. 43. 0. 0. 21. 0. 0. 0. 0. 0. 51. 0. 0. 13. 0.
      0. 0. 0. 0. 57. 0. 0. 7. 0. 0. 0. 0. 0. 60. 0. 0. 4. 0. 0. 0. 0.
      0. 54. 8. 0. 2. 0.</_>
    <_>
      0. 0. 0. 0. 64. 0. 0. 0. 0. 0. 0. 0. 0. 64. 0. 0. 0. 0. 0. 0. 0.
      0. 64. 0. 0. 0. 0. 0. 0. 0. 0. 54. 2. 0. 2. 6. 0. 0. 0. 0. 47. 13.
      0. 2. 2. 0. 0. 0. 0. 64. 0. 0. 0. 0. 0. 0. 0. 0. 64. 0. 0. 0. 0.
      0. 0. 0. 0. 64. 0. 0. 0. 0. 0. 0. 0. 0. 64. 0. 0. 0. 0. 0. 0. 0.
      0. 64. 0. 0. 0. 0. 0. 0. 0. 0. 62. 1. 0. 1. 0. 0. 0. 0. 0. 61. 2.
      0. 1. 0. 0. 0. 0. 0. 52. 0. 0. 12. 0. 0. 0. 0. 0. 55. 1. 0. 6. 2.
      0. 0. 0. 0. 64. 0. 0. 0. 0. 0. 0. 0. 0. 64. 0. 0. 0. 0. 0. 0. 0.
      0. 64. 0. 0. 0. 0. 0. 0. 0. 0. 60. 1. 0. 3. 0. 0. 0. 0. 0. 59. 3.
      0. 2. 0. 0. 0. 0. 0. 52. 11. 0. 1. 0. 0. 0. 0. 0. 37. 12. 0. 8. 7.
      0. 0. 0. 0. 61. 0. 0. 3. 0. 0. 0. 0. 0. 54. 0. 0. 10. 0. 0. 0. 0.
      0. 63. 0. 0. 1. 0. 0. 0. 0. 0. 61. 1. 0. 2. 0. 0. 0. 0. 0. 63. 1.
      0. 0. 0. 0. 0. 0. 0. 63. 1. 0. 0. 0. 0. 0. 0. 0. 63. 0. 0. 1. 0.
      0. 0. 0. 0. 52. 6. 0. 5. 1. 0. 0. 0. 0. 37. 11. 0. 15. 1. 0. 0. 0.
      0. 44. 4. 0. 14. 2. 0. 0. 0. 0. 64. 0. 0. 0. 0. 0. 0. 0. 0. 46.
      13. 0. 2. 3. 0. 0. 0. 0. 48. 16. 0. 0. 0. 0. 0. 0. 0. 55. 8. 0. 0.
      1. 0. 0. 0. 0. 60. 0. 0. 4. 0. 0. 0. 0. 0. 59. 0. 0. 5. 0. 0. 0.
      0. 0. 60. 0. 0. 4. 0. 0. 0. 0. 0. 42. 6. 0. 13. 3. 0. 0. 0. 0. 64.
      0. 0. 0. 0. 0. 0. 0. 0. 60. 2. 0. 2. 0. 0. 0. 0. 0. 61. 1. 0. 1.
      1. 0. 0. 0. 0. 61. 3. 0. 0. 0. 0. 0. 0. 0. 63. 1. 0. 0. 0. 0. 0.
      0. 0. 53. 2. 0. 9. 0. 0. 0. 0. 0. 39. 8. 0. 12. 5. 0. 0. 0. 0. 42.
      9. 0. 6. 7. 0. 0. 0. 0. 63. 0. 0. 1. 0. 0. 0. 0. 0. 61. 3. 0. 0.
      0. 0. 0. 0. 0. 59. 1. 0. 4. 0. 0. 0. 0. 0. 64. 0. 0. 0. 0. 0. 0.
      0. 0. 62. 1. 0. 1. 0. 0. 0. 0. 0. 57. 3. 0. 4. 0. 0. 0. 0. 0. 46.
      1. 0. 16. 1. 0. 0. 0. 0. 64. 0. 0. 0. 0. 0. 0. 0. 0. 62. 2. 0. 0.
      0. 0. 0. 0. 0. 59. 3. 0. 2. 0. 0. 0. 0. 0. 58. 0. 0. 6. 0. 0. 0.
      0. 0. 61. 3. 0. 0. 0. 0. 0. 0. 0. 63. 0. 0. 1. 0. 0. 0. 0. 0. 62.
      0. 0. 2. 0. 0. 0. 0. 0. 43. 1. 0. 14. 6. 0. 0. 0. 0. 63. 1. 0. 0.
      0. 0. 0. 0. 0. 60. 1. 0. 3. 0. 0. 0. 0. 0. 62. 0. 0. 2. 0. 0. 0.
      0. 0. 53. 1. 0. 6. 4. 0. 0. 0. 0. 54. 10. 0. 0. 0. 0. 0. 0. 0. 59.
      1. 0. 4. 0. 0. 0. 0. 0. 55. 2. 0. 7. 0. 0. 0. 0. 0. 41. 1. 0. 21.
      1. 0. 0. 0. 0. 63. 1. 0. 0. 0. 0. 0. 0. 0. 61. 1. 0. 2. 0. 0. 0.
      0. 0. 59. 1. 0. 4. 0. 0. 0. 0. 0. 61. 0. 0. 3. 0. 0. 0. 0. 0. 55.
      5. 0. 3. 1. 0. 0. 0. 0. 49. 0. 0. 15. 0. 0. 0. 0. 0. 58. 0. 0. 6.
      0. 0. 0. 0. 0. 37. 1. 0. 26. 0. 0. 0. 0. 0. 61. 2. 0. 1. 0. 0. 0.
      0. 0. 64. 0. 0. 0. 0. 0. 0. 0. 0. 63. 0. 0. 1. 0. 0. 0. 0. 0. 53.
      7. 0. 2. 2. 0. 0. 0. 0. 61. 2. 0. 1. 0. 0. 0. 0. 0. 64. 0. 0. 0.
      0. 0. 0. 0. 0. 38. 1. 0. 25. 0. 0. 0. 0. 0. 48. 0. 0. 16. 0. 0. 0.
      0. 0. 53. 2. 0. 9. 0. 0. 0. 0. 0. 63. 0. 0. 1. 0. 0. 0. 0. 0. 52.
      8. 0. 4. 0. 0. 0. 0. 0. 37. 16. 0. 11. 0. 0. 0. 0. 0. 48. 14. 0.
      2. 0. 0. 0. 0. 0. 59. 0. 0. 2. 3. 0. 0. 0. 0. 41. 3. 0. 13. 7. 0.
      0. 0. 0. 41. 15. 0. 3. 5. 0. 0. 0. 0. 58. 0. 0. 3. 3. 0. 0. 0. 0.
      61. 2. 0. 1. 0. 0. 0. 0. 0. 51. 10. 0. 1. 2. 0. 0. 0. 0. 43. 11.
      0. 10. 0. 0. 0. 0. 0. 64. 0. 0. 0. 0. 0. 0. 0. 0. 36. 10. 0. 4.
      14. 0. 0. 0. 0. 49. 3. 0. 8. 4. 0. 0. 0. 0. 50. 7. 0. 4. 3. 0. 0.
      0. 0. 62. 1. 0. 1. 0. 0. 0. 0. 0. 64. 0. 0. 0. 0. 0. 0. 0. 0. 37.
      13. 0. 12. 2. 0. 0. 0. 0. 40. 14. 0. 8. 2. 0. 0. 0. 0. 47. 4. 0.
      2. 11. 0. 0. 0. 0. 51. 7. 0. 3. 3. 0. 0. 0. 0. 45. 3. 0. 12. 4. 0.
      0. 0. 0. 50. 10. 0. 4. 0. 0. 0. 0. 0. 62. 2. 0. 0. 0. 0. 0. 0. 0.
      64. 0. 0. 0. 0. 0. 0. 0. 0. 52. 0. 0. 11. 1. 0. 0. 0. 0. 59. 1. 0.
      2. 2. 0. 0. 0. 0. 39. 2. 0. 21. 2. 0. 0. 0. 0. 36. 11. 0. 15. 2.
      0. 0. 0. 0. 39. 3. 0. 15. 7. 0. 0. 0. 0. 50. 10. 0. 4. 0. 0. 0. 0.
      0. 56. 5. 0. 3. 0. 0. 0. 0. 0. 61. 3. 0. 0. 0. 0. 0. 0. 0. 57. 0.
      0. 7. 0. 0. 0. 0. 0. 61. 1. 0. 2. 0. 0. 0. 0. 0. 44. 0. 0. 20. 0.
      0. 0. 0. 0. 57. 0. 0. 7. 0. 0. 0. 0. 0. 48. 0. 0. 16. 0. 0. 0. 0.
      0. 61. 0. 0. 3. 0. 0. 0. 0. 0. 56. 0. 0. 8. 0. 0. 0. 0. 0. 52. 11.
      0. 1. 0.</_>
    <_>
      0. 0. 0. 0. 63. 1. 0. 0. 0. 0. 0. 0. 0. 64. 0. 0. 0. 0. 0. 0. 0.
      0. 64. 0. 0. 0. 0. 0. 0. 0. 0. 53. 2. 0. 4. 5. 0. 0. 0. 0. 42. 16.
      0. 3. 3. 0. 0. 0. 0. 63. 1. 0. 0. 0. 0. 0. 0. 0. 64. 0. 0. 0. 0.
      0. 0. 0. 0. 64. 0. 0. 0. 0. 0. 0. 0. 0. 64. 0. 0. 0. 0. 0. 0. 0.
      0. 64. 0. 0. 0. 0. 0. 0. 0. 0. 63. 1. 0. 0. 0. 0. 0. 0. 0. 62. 2.
      0. 0. 0. 0. 0. 0. 0. 52. 1. 0. 10. 1. 0. 0. 0. 0. 53. 0. 0. 8. 3.
      0. 0. 0. 0. 64. 0. 0. 0. 0. 0. 0. 0. 0. 64. 0. 0. 0. 0. 0. 0. 0.
      0. 63. 1. 0. 0. 0. 0. 0. 0. 0. 64. 0. 0. 0. 0. 0. 0. 0. 0. 62. 0.
      0. 2. 0. 0. 0. 0. 0. 50. 12. 0. 2. 0. 0. 0. 0. 0. 40. 10. 0. 8. 6.
      0. 0. 0. 0. 57. 1. 0. 5. 1. 0. 0. 0. 0. 64. 0. 0. 0. 0. 0. 0. 0.
      0. 64. 0. 0. 0. 0. 0. 0. 0. 0. 64. 0. 0. 0. 0. 0. 0. 0. 0. 62. 2.
      0. 0. 0. 0. 0. 0. 0. 64. 0. 0. 0. 0. 0. 0. 0. 0. 63. 0. 0. 1. 0.
      0. 0. 0. 0. 55. 1. 0. 7. 1. 0. 0. 0. 0. 48. 2. 0. 14. 0. 0. 0. 0.
      0. 64. 0. 0. 0. 0. 0. 0. 0. 0. 64. 0. 0. 0. 0. 0. 0. 0. 0. 64. 0.
      0. 0. 0. 0. 0. 0. 0. 59. 5. 0. 0. 0. 0. 0. 0. 0. 61. 3. 0. 0. 0.
      0. 0. 0. 0. 62. 1. 0. 1. 0. 0. 0. 0. 0. 47. 5. 0. 12. 0. 0. 0. 0.
      0. 51. 3. 0. 10. 0. 0. 0. 0. 0. 49. 1. 0. 14. 0. 0. 0. 0. 0. 64.
      0. 0. 0. 0. 0. 0. 0. 0. 44. 10. 0. 9. 1. 0. 0. 0. 0. 41. 7. 0. 4.
      12. 0. 0. 0. 0. 55. 8. 0. 0. 1. 0. 0. 0. 0. 62. 2. 0. 0. 0. 0. 0.
      0. 0. 45. 0. 0. 18. 1. 0. 0. 0. 0. 39. 5. 0. 12. 8. 0. 0. 0. 0.
      47. 4. 0. 2. 11. 0. 0. 0. 0. 62. 0. 0. 2. 0. 0. 0. 0. 0. 42. 8. 0.
      7. 7. 0. 0. 0. 0. 59. 4. 0. 1. 0. 0. 0. 0. 0. 59. 2. 0. 2. 1. 0.
      0. 0. 0. 63. 1. 0. 0. 0. 0. 0. 0. 0. 53. 0. 0. 11. 0. 0. 0. 0. 0.
      41. 7. 0. 10. 6. 0. 0. 0. 0. 62. 0. 0. 2. 0. 0. 0. 0. 0. 62. 2. 0.
      0. 0. 0. 0. 0. 0. 64. 0. 0. 0. 0. 0. 0. 0. 0. 57. 3. 0. 4. 0. 0.
      0. 0. 0. 63. 0. 0. 1. 0. 0. 0. 0. 0. 64. 0. 0. 0. 0. 0. 0. 0. 0.
      52. 0. 0. 12. 0. 0. 0. 0. 0. 47. 1. 0. 15. 1. 0. 0. 0. 0. 64. 0.
      0. 0. 0. 0. 0. 0. 0. 60. 0. 0. 4. 0. 0. 0. 0. 0. 60. 2. 0. 2. 0.
      0. 0. 0. 0. 64. 0. 0. 0. 0. 0. 0. 0. 0. 58. 5. 0. 1. 0. 0. 0. 0.
      0. 57. 1. 0. 6. 0. 0. 0. 0. 0. 48. 2. 0. 14. 0. 0. 0. 0. 0. 43. 2.
      0. 14. 5. 0. 0. 0. 0. 64. 0. 0. 0. 0. 0. 0. 0. 0. 61. 1. 0. 2. 0.
      0. 0. 0. 0. 63. 0. 0. 1. 0. 0. 0. 0. 0. 62. 2. 0. 0. 0. 0. 0. 0.
      0. 62. 2. 0. 0. 0. 0. 0. 0. 0. 51. 0. 0. 13. 0. 0. 0. 0. 0. 58. 0.
      0. 6. 0. 0. 0. 0. 0. 35. 0. 0. 27. 2. 0. 0. 0. 0. 60. 3. 0. 1. 0.
      0. 0. 0. 0. 64. 0. 0. 0. 0. 0. 0. 0. 0. 59. 4. 0. 1. 0. 0. 0. 0.
      0. 56. 6. 0. 2. 0. 0. 0. 0. 0. 63. 0. 0. 1. 0. 0. 0. 0. 0. 54. 0.
      0. 10. 0. 0. 0. 0. 0. 41. 0. 0. 22. 1. 0. 0. 0. 0. 41. 0. 0. 22.
      1. 0. 0. 0. 0. 59. 2. 0. 2. 1. 0. 0. 0. 0. 62. 1. 0. 1. 0. 0. 0.
      0. 0. 52. 11. 0. 1. 0. 0. 0. 0. 0. 59. 3. 0. 2. 0. 0. 0. 0. 0. 49.
      8. 0. 7. 0. 0. 0. 0. 0. 53. 0. 0. 9. 2. 0. 0. 0. 0. 40. 2. 0. 16.
      6. 0. 0. 0. 0. 42. 16. 0. 3. 3. 0. 0. 0. 0. 60. 0. 0. 4. 0. 0. 0.
      0. 0. 61. 2. 0. 1. 0. 0. 0. 0. 0. 45. 16. 0. 2. 1. 0. 0. 0. 0. 49.
      8. 0. 5. 2. 0. 0. 0. 0. 60. 1. 0. 0. 3. 0. 0. 0. 0. 35. 12. 0. 8.
      9. 0. 0. 0. 0. 49. 2. 0. 7. 6. 0. 0. 0. 0. 51. 6. 0. 4. 3. 0. 0.
      0. 0. 60. 1. 0. 3. 0. 0. 0. 0. 0. 62. 2. 0. 0. 0. 0. 0. 0. 0. 44.
      5. 0. 8. 7. 0. 0. 0. 0. 56. 4. 0. 4. 0. 0. 0. 0. 0. 34. 2. 0. 9.
      19. 0. 0. 0. 0. 39. 16. 0. 8. 1. 0. 0. 0. 0. 45. 2. 0. 14. 3. 0.
      0. 0. 0. 55. 6. 0. 3. 0. 0. 0. 0. 0. 61. 2. 0. 1. 0. 0. 0. 0. 0.
      64. 0. 0. 0. 0. 0. 0. 0. 0. 55. 0. 0. 9. 0. 0. 0. 0. 0. 60. 0. 0.
      3. 1. 0. 0. 0. 0. 31. 3. 0. 27. 3. 0. 0. 0. 0. 42. 6. 0. 14. 2. 0.
      0. 0. 0. 37. 4. 0. 16. 7. 0. 0. 0. 0. 46. 9. 0. 6. 3. 0. 0. 0. 0.
      55. 7. 0. 2. 0. 0. 0. 0. 0. 61. 3. 0. 0. 0. 0. 0. 0. 0. 59. 3. 0.
      2. 0. 0. 0. 0. 0. 52. 2. 0. 10. 0. 0. 0. 0. 0. 45. 0. 0. 19. 0. 0.
      0. 0. 0. 62. 0. 0. 2. 0. 0. 0. 0. 0. 49. 0. 0. 14. 1. 0. 0. 0. 0.
      58. 0. 0. 6. 0. 0. 0. 0. 0. 58. 0. 0. 6. 0. 0. 0. 0. 0. 50. 12. 0.
      2. 0.</_>
    <_>
      0. 0. 0. 0. 64. 0. 0. 0. 0. 0. 0. 0. 0. 64. 0. 0. 0. 0. 0. 0. 0.
      0. 62. 2. 0. 0. 0. 0. 0. 0. 0. 54. 4. 0. 3. 3. 0. 0. 0. 0. 43. 15.
      0. 6. 0. 0. 0. 0. 0. 64. 0. 0. 0. 0. 0. 0. 0. 0. 64. 0. 0. 0. 0.
      0. 0. 0. 0. 64. 0. 0. 0. 0. 0. 0. 0. 0. 63. 1. 0. 0. 0. 0. 0. 0.
      0. 63. 0. 0. 1. 0. 0. 0. 0. 0. 59. 3. 0. 2. 0. 0. 0. 0. 0. 62. 2.
      0. 0. 0. 0. 0. 0. 0. 50. 0. 0. 12. 2. 0. 0. 0. 0. 54. 0. 0. 9. 1.
      0. 0. 0. 0. 64. 0. 0. 0. 0. 0. 0. 0. 0. 64. 0. 0. 0. 0. 0. 0. 0.
      0. 59. 2. 0. 3. 0. 0. 0. 0. 0. 64. 0. 0. 0. 0. 0. 0. 0. 0. 61. 1.
      0. 2. 0. 0. 0. 0. 0. 58. 6. 0. 0. 0. 0. 0. 0. 0. 38. 11. 0. 8. 7.
      0. 0. 0. 0. 61. 0. 0. 2. 1. 0. 0. 0. 0. 64. 0. 0. 0. 0. 0. 0. 0.
      0. 64. 0. 0. 0. 0. 0. 0. 0. 0. 62. 0. 0. 2. 0. 0. 0. 0. 0. 62. 2.
      0. 0. 0. 0. 0. 0. 0. 63. 0. 0. 1. 0. 0. 0. 0. 0. 62. 0. 0. 2. 0.
      0. 0. 0. 0. 49. 1. 0. 14. 0. 0. 0. 0. 0. 43. 3. 0. 18. 0. 0. 0. 0.
      0. 64. 0. 0. 0. 0. 0. 0. 0. 0. 64. 0. 0. 0. 0. 0. 0. 0. 0. 62. 1.
      0. 1. 0. 0. 0. 0. 0. 62. 1. 0. 1. 0. 0. 0. 0. 0. 59. 5. 0. 0. 0.
      0. 0. 0. 0. 62. 0. 0. 2. 0. 0. 0. 0. 0. 49. 3. 0. 12. 0. 0. 0. 0.
      0. 40. 2. 0. 17. 5. 0. 0. 0. 0. 64. 0. 0. 0. 0. 0. 0. 0. 0. 64. 0.
      0. 0. 0. 0. 0. 0. 0. 61. 2. 0. 0. 1. 0. 0. 0. 0. 59. 2. 0. 3. 0.
      0. 0. 0. 0. 54. 7. 0. 3. 0. 0. 0. 0. 0. 62. 0. 0. 2. 0. 0. 0. 0.
      0. 39. 3. 0. 20. 2. 0. 0. 0. 0. 33. 1. 0. 26. 4. 0. 0. 0. 0. 60.
      2. 0. 2. 0. 0. 0. 0. 0. 61. 1. 0. 2. 0. 0. 0. 0. 0. 63. 0. 0. 1.
      0. 0. 0. 0. 0. 64. 0. 0. 0. 0. 0. 0. 0. 0. 58. 1. 0. 5. 0. 0. 0.
      0. 0. 62. 0. 0. 2. 0. 0. 0. 0. 0. 49. 2. 0. 11. 2. 0. 0. 0. 0. 34.
      9. 0. 17. 4. 0. 0. 0. 0. 57. 0. 0. 6. 1. 0. 0. 0. 0. 62. 2. 0. 0.
      0. 0. 0. 0. 0. 55. 5. 0. 4. 0. 0. 0. 0. 0. 55. 8. 0. 1. 0. 0. 0.
      0. 0. 48. 3. 0. 12. 1. 0. 0. 0. 0. 57. 0. 0. 7. 0. 0. 0. 0. 0. 46.
      0. 0. 18. 0. 0. 0. 0. 0. 46. 4. 0. 11. 3. 0. 0. 0. 0. 63. 0. 0. 0.
      1. 0. 0. 0. 0. 61. 3. 0. 0. 0. 0. 0. 0. 0. 64. 0. 0. 0. 0. 0. 0.
      0. 0. 56. 0. 0. 5. 3. 0. 0. 0. 0. 63. 1. 0. 0. 0. 0. 0. 0. 0. 56.
      4. 0. 4. 0. 0. 0. 0. 0. 40. 3. 0. 21. 0. 0. 0. 0. 0. 44. 1. 0. 14.
      5. 0. 0. 0. 0. 63. 1. 0. 0. 0. 0. 0. 0. 0. 61. 1. 0. 2. 0. 0. 0.
      0. 0. 53. 6. 0. 2. 3. 0. 0. 0. 0. 61. 3. 0. 0. 0. 0. 0. 0. 0. 59.
      3. 0. 2. 0. 0. 0. 0. 0. 49. 0. 0. 15. 0. 0. 0. 0. 0. 56. 0. 0. 8.
      0. 0. 0. 0. 0. 30. 6. 0. 24. 4. 0. 0. 0. 0. 63. 0. 0. 1. 0. 0. 0.
      0. 0. 64. 0. 0. 0. 0. 0. 0. 0. 0. 62. 2. 0. 0. 0. 0. 0. 0. 0. 64.
      0. 0. 0. 0. 0. 0. 0. 0. 63. 1. 0. 0. 0. 0. 0. 0. 0. 51. 0. 0. 13.
      0. 0. 0. 0. 0. 48. 0. 0. 16. 0. 0. 0. 0. 0. 32. 1. 0. 28. 3. 0. 0.
      0. 0. 62. 2. 0. 0. 0. 0. 0. 0. 0. 61. 2. 0. 1. 0. 0. 0. 0. 0. 56.
      6. 0. 2. 0. 0. 0. 0. 0. 58. 5. 0. 1. 0. 0. 0. 0. 0. 53. 7. 0. 2.
      2. 0. 0. 0. 0. 40. 1. 0. 13. 10. 0. 0. 0. 0. 43. 5. 0. 11. 5. 0.
      0. 0. 0. 41. 11. 0. 7. 5. 0. 0. 0. 0. 61. 0. 0. 3. 0. 0. 0. 0. 0.
      62. 0. 0. 2. 0. 0. 0. 0. 0. 44. 12. 0. 6. 2. 0. 0. 0. 0. 45. 12.
      0. 6. 1. 0. 0. 0. 0. 55. 1. 0. 3. 5. 0. 0. 0. 0. 41. 8. 0. 5. 10.
      0. 0. 0. 0. 47. 2. 0. 11. 4. 0. 0. 0. 0. 50. 6. 0. 8. 0. 0. 0. 0.
      0. 61. 1. 0. 2. 0. 0. 0. 0. 0. 64. 0. 0. 0. 0. 0. 0. 0. 0. 44. 10.
      0. 7. 3. 0. 0. 0. 0. 53. 6. 0. 3. 2. 0. 0. 0. 0. 29. 6. 0. 13. 16.
      0. 0. 0. 0. 37. 20. 0. 3. 4. 0. 0. 0. 0. 45. 3. 0. 9. 7. 0. 0. 0.
      0. 51. 7. 0. 5. 1. 0. 0. 0. 0. 62. 2. 0. 0. 0. 0. 0. 0. 0. 64. 0.
      0. 0. 0. 0. 0. 0. 0. 52. 4. 0. 7. 1. 0. 0. 0. 0. 49. 0. 0. 10. 5.
      0. 0. 0. 0. 38. 3. 0. 22. 1. 0. 0. 0. 0. 40. 10. 0. 10. 4. 0. 0.
      0. 0. 40. 1. 0. 18. 5. 0. 0. 0. 0. 48. 8. 0. 7. 1. 0. 0. 0. 0. 53.
      5. 0. 6. 0. 0. 0. 0. 0. 62. 2. 0. 0. 0. 0. 0. 0. 0. 62. 0. 0. 2.
      0. 0. 0. 0. 0. 43. 0. 0. 19. 2. 0. 0. 0. 0. 57. 0. 0. 7. 0. 0. 0.
      0. 0. 60. 0. 0. 4. 0. 0. 0. 0. 0. 47. 0. 0. 17. 0. 0. 0. 0. 0. 63.
      0. 0. 1. 0. 0. 0. 0. 0. 52. 0. 0. 12. 0. 0. 0. 0. 0. 49. 13. 0. 2.
      0.</_>
    <_>
      0. 0. 0. 0. 64. 0. 0. 0. 0. 0. 0. 0. 0. 64. 0. 0. 0. 0. 0. 0. 0.
      0. 64. 0. 0. 0. 0. 0. 0. 0. 0. 53. 2. 0. 1. 8. 0. 0. 0. 0. 48. 13.
      0. 3. 0. 0. 0. 0. 0. 45. 3. 0. 15. 1. 0. 0. 0. 0. 64. 0. 0. 0. 0.
      0. 0. 0. 0. 64. 0. 0. 0. 0. 0. 0. 0. 0. 64. 0. 0. 0. 0. 0. 0. 0.
      0. 63. 1. 0. 0. 0. 0. 0. 0. 0. 64. 0. 0. 0. 0. 0. 0. 0. 0. 58. 3.
      0. 3. 0. 0. 0. 0. 0. 45. 5. 0. 11. 3. 0. 0. 0. 0. 41. 6. 0. 16. 1.
      0. 0. 0. 0. 60. 0. 0. 3. 1. 0. 0. 0. 0. 64. 0. 0. 0. 0. 0. 0. 0.
      0. 52. 1. 0. 10. 1. 0. 0. 0. 0. 56. 0. 0. 8. 0. 0. 0. 0. 0. 60. 1.
      0. 3. 0. 0. 0. 0. 0. 52. 10. 0. 0. 2. 0. 0. 0. 0. 33. 7. 0. 18. 6.
      0. 0. 0. 0. 58. 1. 0. 5. 0. 0. 0. 0. 0. 50. 0. 0. 11. 3. 0. 0. 0.
      0. 64. 0. 0. 0. 0. 0. 0. 0. 0. 53. 11. 0. 0. 0. 0. 0. 0. 0. 45. 1.
      0. 16. 2. 0. 0. 0. 0. 64. 0. 0. 0. 0. 0. 0. 0. 0. 62. 2. 0. 0. 0.
      0. 0. 0. 0. 64. 0. 0. 0. 0. 0. 0. 0. 0. 51. 13. 0. 0. 0. 0. 0. 0.
      0. 48. 0. 0. 12. 4. 0. 0. 0. 0. 64. 0. 0. 0. 0. 0. 0. 0. 0. 57. 7.
      0. 0. 0. 0. 0. 0. 0. 47. 3. 0. 12. 2. 0. 0. 0. 0. 64. 0. 0. 0. 0.
      0. 0. 0. 0. 60. 4. 0. 0. 0. 0. 0. 0. 0. 64. 0. 0. 0. 0. 0. 0. 0.
      0. 35. 14. 0. 8. 7. 0. 0. 0. 0. 61. 0. 0. 1. 2. 0. 0. 0. 0. 64. 0.
      0. 0. 0. 0. 0. 0. 0. 63. 0. 0. 1. 0. 0. 0. 0. 0. 46. 15. 0. 1. 2.
      0. 0. 0. 0. 47. 10. 0. 2. 5. 0. 0. 0. 0. 62. 2. 0. 0. 0. 0. 0. 0.
      0. 64. 0. 0. 0. 0. 0. 0. 0. 0. 41. 2. 0. 18. 3. 0. 0. 0. 0. 63. 0.
      0. 1. 0. 0. 0. 0. 0. 63. 1. 0. 0. 0. 0. 0. 0. 0. 64. 0. 0. 0. 0.
      0. 0. 0. 0. 54. 2. 0. 7. 1. 0. 0. 0. 0. 51. 11. 0. 2. 0. 0. 0. 0.
      0. 62. 2. 0. 0. 0. 0. 0. 0. 0. 64. 0. 0. 0. 0. 0. 0. 0. 0. 38. 4.
      0. 19. 3. 0. 0. 0. 0. 60. 3. 0. 1. 0. 0. 0. 0. 0. 62. 1. 0. 1. 0.
      0. 0. 0. 0. 57. 4. 0. 3. 0. 0. 0. 0. 0. 60. 3. 0. 1. 0. 0. 0. 0.
      0. 59. 2. 0. 3. 0. 0. 0. 0. 0. 64. 0. 0. 0. 0. 0. 0. 0. 0. 64. 0.
      0. 0. 0. 0. 0. 0. 0. 37. 3. 0. 23. 1. 0. 0. 0. 0. 63. 0. 0. 1. 0.
      0. 0. 0. 0. 63. 1. 0. 0. 0. 0. 0. 0. 0. 61. 2. 0. 1. 0. 0. 0. 0.
      0. 60. 1. 0. 3. 0. 0. 0. 0. 0. 63. 1. 0. 0. 0. 0. 0. 0. 0. 64. 0.
      0. 0. 0. 0. 0. 0. 0. 64. 0. 0. 0. 0. 0. 0. 0. 0. 36. 4. 0. 21. 3.
      0. 0. 0. 0. 57. 3. 0. 4. 0. 0. 0. 0. 0. 64. 0. 0. 0. 0. 0. 0. 0.
      0. 58. 3. 0. 3. 0. 0. 0. 0. 0. 57. 5. 0. 2. 0. 0. 0. 0. 0. 52. 6.
      0. 5. 1. 0. 0. 0. 0. 64. 0. 0. 0. 0. 0. 0. 0. 0. 60. 0. 0. 4. 0.
      0. 0. 0. 0. 45. 0. 0. 15. 4. 0. 0. 0. 0. 56. 4. 0. 4. 0. 0. 0. 0.
      0. 62. 1. 0. 1. 0. 0. 0. 0. 0. 57. 6. 0. 1. 0. 0. 0. 0. 0. 62. 1.
      0. 0. 1. 0. 0. 0. 0. 56. 4. 0. 4. 0. 0. 0. 0. 0. 61. 3. 0. 0. 0.
      0. 0. 0. 0. 53. 0. 0. 8. 3. 0. 0. 0. 0. 39. 3. 0. 17. 5. 0. 0. 0.
      0. 53. 4. 0. 5. 2. 0. 0. 0. 0. 62. 1. 0. 1. 0. 0. 0. 0. 0. 57. 5.
      0. 2. 0. 0. 0. 0. 0. 49. 11. 0. 4. 0. 0. 0. 0. 0. 51. 8. 0. 5. 0.
      0. 0. 0. 0. 60. 4. 0. 0. 0. 0. 0. 0. 0. 34. 0. 0. 15. 15. 0. 0. 0.
      0. 59. 1. 0. 4. 0. 0. 0. 0. 0. 45. 7. 0. 11. 1. 0. 0. 0. 0. 62. 1.
      0. 1. 0. 0. 0. 0. 0. 34. 15. 0. 12. 3. 0. 0. 0. 0. 43. 11. 0. 8.
      2. 0. 0. 0. 0. 40. 16. 0. 7. 1. 0. 0. 0. 0. 44. 19. 0. 1. 0. 0. 0.
      0. 0. 49. 6. 0. 9. 0. 0. 0. 0. 0. 39. 8. 0. 15. 2. 0. 0. 0. 0. 33.
      16. 0. 12. 3. 0. 0. 0. 0. 64. 0. 0. 0. 0. 0. 0. 0. 0. 36. 12. 0.
      11. 5. 0. 0. 0. 0. 37. 18. 0. 7. 2. 0. 0. 0. 0. 34. 10. 0. 17. 3.
      0. 0. 0. 0. 52. 8. 0. 4. 0. 0. 0. 0. 0. 40. 14. 0. 5. 5. 0. 0. 0.
      0. 39. 9. 0. 10. 6. 0. 0. 0. 0. 35. 7. 0. 15. 7. 0. 0. 0. 0. 61.
      3. 0. 0. 0. 0. 0. 0. 0. 55. 3. 0. 5. 1. 0. 0. 0. 0. 57. 0. 0. 7.
      0. 0. 0. 0. 0. 56. 0. 0. 8. 0. 0. 0. 0. 0. 58. 4. 0. 2. 0. 0. 0.
      0. 0. 37. 6. 0. 17. 4. 0. 0. 0. 0. 40. 1. 0. 22. 1. 0. 0. 0. 0.
      40. 11. 0. 8. 5. 0. 0. 0. 0. 56. 8. 0. 0. 0. 0. 0. 0. 0. 52. 0. 0.
      12. 0. 0. 0. 0. 0. 63. 0. 0. 1. 0. 0. 0. 0. 0. 60. 0. 0. 4. 0. 0.
      0. 0. 0. 49. 0. 0. 15. 0. 0. 0. 0. 0. 50. 1. 0. 13. 0. 0. 0. 0. 0.
      45. 0. 0. 18. 1. 0. 0. 0. 0. 38. 0. 0. 26. 0. 0. 0. 0. 0. 60. 0.
      0. 4. 0.</_>
    <_>
      0. 0. 0. 0. 64. 0. 0. 0. 0. 0. 0. 0. 0. 64. 0. 0. 0. 0. 0. 0. 0.
      0. 64. 0. 0. 0. 0. 0. 0. 0. 0. 49. 3. 0. 4. 8. 0. 0. 0. 0. 47. 14.
      0. 3. 0. 0. 0. 0. 0. 63. 1. 0. 0. 0. 0. 0. 0. 0. 48. 0. 0. 13. 3.
      0. 0. 0. 0. 64. 0. 0. 0. 0. 0. 0. 0. 0. 58. 6. 0. 0. 0. 0. 0. 0.
      0. 60. 4. 0. 0. 0. 0. 0. 0. 0. 64. 0. 0. 0. 0. 0. 0. 0. 0. 60. 3.
      0. 1. 0. 0. 0. 0. 0. 37. 2. 0. 24. 1. 0. 0. 0. 0. 62. 2. 0. 0. 0.
      0. 0. 0. 0. 48. 0. 0. 13. 3. 0. 0. 0. 0. 64. 0. 0. 0. 0. 0. 0. 0.
      0. 51. 2. 0. 11. 0. 0. 0. 0. 0. 55. 3. 0. 6. 0. 0. 0. 0. 0. 64. 0.
      0. 0. 0. 0. 0. 0. 0. 50. 13. 0. 1. 0. 0. 0. 0. 0. 34. 6. 0. 16. 8.
      0. 0. 0. 0. 62. 0. 0. 2. 0. 0. 0. 0. 0. 47. 0. 0. 15. 2. 0. 0. 0.
      0. 64. 0. 0. 0. 0. 0. 0. 0. 0. 56. 8. 0. 0. 0. 0. 0. 0. 0. 48. 0.
      0. 15. 1. 0. 0. 0. 0. 61. 1. 0. 1. 1. 0. 0. 0. 0. 54. 8. 0. 1. 1.
      0. 0. 0. 0. 62. 1. 0. 1. 0. 0. 0. 0. 0. 48. 8. 0. 1. 7. 0. 0. 0.
      0. 50. 0. 0. 11. 3. 0. 0. 0. 0. 64. 0. 0. 0. 0. 0. 0. 0. 0. 56. 8.
      0. 0. 0. 0. 0. 0. 0. 45. 4. 0. 15. 0. 0. 0. 0. 0. 59. 0. 0. 5. 0.
      0. 0. 0. 0. 52. 4. 0. 6. 2. 0. 0. 0. 0. 60. 3. 0. 1. 0. 0. 0. 0.
      0. 27. 16. 0. 8. 13. 0. 0. 0. 0. 57. 1. 0. 5. 1. 0. 0. 0. 0. 62.
      2. 0. 0. 0. 0. 0. 0. 0. 63. 1. 0. 0. 0. 0. 0. 0. 0. 42. 20. 0. 2.
      0. 0. 0. 0. 0. 48. 6. 0. 6. 4. 0. 0. 0. 0. 57. 6. 0. 1. 0. 0. 0.
      0. 0. 64. 0. 0. 0. 0. 0. 0. 0. 0. 41. 0. 0. 19. 4. 0. 0. 0. 0. 64.
      0. 0. 0. 0. 0. 0. 0. 0. 62. 1. 0. 1. 0. 0. 0. 0. 0. 62. 0. 0. 2.
      0. 0. 0. 0. 0. 49. 7. 0. 4. 4. 0. 0. 0. 0. 62. 2. 0. 0. 0. 0. 0.
      0. 0. 64. 0. 0. 0. 0. 0. 0. 0. 0. 64. 0. 0. 0. 0. 0. 0. 0. 0. 33.
      5. 0. 23. 3. 0. 0. 0. 0. 64. 0. 0. 0. 0. 0. 0. 0. 0. 64. 0. 0. 0.
      0. 0. 0. 0. 0. 55. 5. 0. 4. 0. 0. 0. 0. 0. 60. 2. 0. 2. 0. 0. 0.
      0. 0. 62. 2. 0. 0. 0. 0. 0. 0. 0. 64. 0. 0. 0. 0. 0. 0. 0. 0. 64.
      0. 0. 0. 0. 0. 0. 0. 0. 35. 2. 0. 24. 3. 0. 0. 0. 0. 61. 2. 0. 1.
      0. 0. 0. 0. 0. 62. 2. 0. 0. 0. 0. 0. 0. 0. 62. 0. 0. 2. 0. 0. 0.
      0. 0. 61. 1. 0. 2. 0. 0. 0. 0. 0. 60. 4. 0. 0. 0. 0. 0. 0. 0. 64.
      0. 0. 0. 0. 0. 0. 0. 0. 64. 0. 0. 0. 0. 0. 0. 0. 0. 43. 0. 0. 19.
      2. 0. 0. 0. 0. 52. 6. 0. 4. 2. 0. 0. 0. 0. 64. 0. 0. 0. 0. 0. 0.
      0. 0. 64. 0. 0. 0. 0. 0. 0. 0. 0. 49. 9. 0. 6. 0. 0. 0. 0. 0. 62.
      2. 0. 0. 0. 0. 0. 0. 0. 64. 0. 0. 0. 0. 0. 0. 0. 0. 61. 0. 0. 3.
      0. 0. 0. 0. 0. 39. 4. 0. 18. 3. 0. 0. 0. 0. 47. 10. 0. 6. 1. 0. 0.
      0. 0. 62. 2. 0. 0. 0. 0. 0. 0. 0. 59. 3. 0. 2. 0. 0. 0. 0. 0. 61.
      2. 0. 1. 0. 0. 0. 0. 0. 61. 3. 0. 0. 0. 0. 0. 0. 0. 60. 4. 0. 0.
      0. 0. 0. 0. 0. 60. 0. 0. 4. 0. 0. 0. 0. 0. 36. 3. 0. 17. 8. 0. 0.
      0. 0. 46. 7. 0. 8. 3. 0. 0. 0. 0. 63. 1. 0. 0. 0. 0. 0. 0. 0. 52.
      8. 0. 3. 1. 0. 0. 0. 0. 47. 13. 0. 2. 2. 0. 0. 0. 0. 49. 13. 0. 2.
      0. 0. 0. 0. 0. 54. 10. 0. 0. 0. 0. 0. 0. 0. 47. 0. 0. 10. 7. 0. 0.
      0. 0. 53. 5. 0. 6. 0. 0. 0. 0. 0. 54. 4. 0. 5. 1. 0. 0. 0. 0. 60.
      3. 0. 1. 0. 0. 0. 0. 0. 39. 18. 0. 5. 2. 0. 0. 0. 0. 38. 13. 0. 8.
      5. 0. 0. 0. 0. 52. 11. 0. 1. 0. 0. 0. 0. 0. 57. 7. 0. 0. 0. 0. 0.
      0. 0. 44. 14. 0. 6. 0. 0. 0. 0. 0. 38. 6. 0. 19. 1. 0. 0. 0. 0.
      31. 17. 0. 12. 4. 0. 0. 0. 0. 61. 0. 0. 3. 0. 0. 0. 0. 0. 36. 10.
      0. 10. 8. 0. 0. 0. 0. 45. 7. 0. 8. 4. 0. 0. 0. 0. 35. 8. 0. 13. 8.
      0. 0. 0. 0. 47. 9. 0. 6. 2. 0. 0. 0. 0. 42. 13. 0. 3. 6. 0. 0. 0.
      0. 32. 12. 0. 16. 4. 0. 0. 0. 0. 38. 7. 0. 16. 3. 0. 0. 0. 0. 62.
      2. 0. 0. 0. 0. 0. 0. 0. 52. 3. 0. 8. 1. 0. 0. 0. 0. 59. 0. 0. 5.
      0. 0. 0. 0. 0. 44. 4. 0. 14. 2. 0. 0. 0. 0. 56. 4. 0. 4. 0. 0. 0.
      0. 0. 42. 5. 0. 13. 4. 0. 0. 0. 0. 32. 6. 0. 24. 2. 0. 0. 0. 0.
      36. 13. 0. 12. 3. 0. 0. 0. 0. 59. 3. 0. 1. 1. 0. 0. 0. 0. 53. 1.
      0. 9. 1. 0. 0. 0. 0. 63. 0. 0. 1. 0. 0. 0. 0. 0. 60. 0. 0. 4. 0.
      0. 0. 0. 0. 54. 0. 0. 10. 0. 0. 0. 0. 0. 54. 1. 0. 8. 1. 0. 0. 0.
      0. 47. 2. 0. 14. 1. 0. 0. 0. 0. 53. 0. 0. 11. 0. 0. 0. 0. 0. 59.
      0. 0. 5. 0.</_>
    <_>
      0. 0. 0. 0. 61. 1. 0. 2. 0. 0. 0. 0. 0. 64. 0. 0. 0. 0. 0. 0. 0.
      0. 64. 0. 0. 0. 0. 0. 0. 0. 0. 53. 3. 0. 4. 4. 0. 0. 0. 0. 48. 14.
      0. 2. 0. 0. 0. 0. 0. 51. 2. 0. 11. 0. 0. 0. 0. 0. 64. 0. 0. 0. 0.
      0. 0. 0. 0. 64. 0. 0. 0. 0. 0. 0. 0. 0. 63. 1. 0. 0. 0. 0. 0. 0.
      0. 62. 0. 0. 2. 0. 0. 0. 0. 0. 64. 0. 0. 0. 0. 0. 0. 0. 0. 64. 0.
      0. 0. 0. 0. 0. 0. 0. 57. 2. 0. 4. 1. 0. 0. 0. 0. 46. 1. 0. 15. 2.
      0. 0. 0. 0. 64. 0. 0. 0. 0. 0. 0. 0. 0. 64. 0. 0. 0. 0. 0. 0. 0.
      0. 62. 2. 0. 0. 0. 0. 0. 0. 0. 42. 8. 0. 13. 1. 0. 0. 0. 0. 60. 2.
      0. 1. 1. 0. 0. 0. 0. 54. 10. 0. 0. 0. 0. 0. 0. 0. 51. 7. 0. 4. 2.
      0. 0. 0. 0. 47. 1. 0. 13. 3. 0. 0. 0. 0. 64. 0. 0. 0. 0. 0. 0. 0.
      0. 62. 2. 0. 0. 0. 0. 0. 0. 0. 60. 4. 0. 0. 0. 0. 0. 0. 0. 52. 4.
      0. 6. 2. 0. 0. 0. 0. 53. 2. 0. 8. 1. 0. 0. 0. 0. 60. 4. 0. 0. 0.
      0. 0. 0. 0. 59. 5. 0. 0. 0. 0. 0. 0. 0. 18. 1. 0. 37. 8. 0. 0. 0.
      0. 64. 0. 0. 0. 0. 0. 0. 0. 0. 64. 0. 0. 0. 0. 0. 0. 0. 0. 61. 2.
      0. 1. 0. 0. 0. 0. 0. 57. 7. 0. 0. 0. 0. 0. 0. 0. 40. 0. 0. 23. 1.
      0. 0. 0. 0. 57. 6. 0. 1. 0. 0. 0. 0. 0. 48. 13. 0. 3. 0. 0. 0. 0.
      0. 28. 5. 0. 9. 22. 0. 0. 0. 0. 64. 0. 0. 0. 0. 0. 0. 0. 0. 64. 0.
      0. 0. 0. 0. 0. 0. 0. 63. 1. 0. 0. 0. 0. 0. 0. 0. 55. 8. 0. 1. 0.
      0. 0. 0. 0. 43. 13. 0. 6. 2. 0. 0. 0. 0. 53. 8. 0. 3. 0. 0. 0. 0.
      0. 54. 0. 0. 10. 0. 0. 0. 0. 0. 40. 0. 0. 21. 3. 0. 0. 0. 0. 64.
      0. 0. 0. 0. 0. 0. 0. 0. 63. 0. 0. 1. 0. 0. 0. 0. 0. 58. 3. 0. 3.
      0. 0. 0. 0. 0. 55. 3. 0. 4. 2. 0. 0. 0. 0. 59. 5. 0. 0. 0. 0. 0.
      0. 0. 62. 0. 0. 2. 0. 0. 0. 0. 0. 58. 0. 0. 6. 0. 0. 0. 0. 0. 39.
      1. 0. 22. 2. 0. 0. 0. 0. 59. 4. 0. 1. 0. 0. 0. 0. 0. 63. 1. 0. 0.
      0. 0. 0. 0. 0. 55. 2. 0. 6. 1. 0. 0. 0. 0. 52. 6. 0. 5. 1. 0. 0.
      0. 0. 57. 4. 0. 3. 0. 0. 0. 0. 0. 64. 0. 0. 0. 0. 0. 0. 0. 0. 64.
      0. 0. 0. 0. 0. 0. 0. 0. 39. 0. 0. 22. 3. 0. 0. 0. 0. 58. 1. 0. 4.
      1. 0. 0. 0. 0. 62. 2. 0. 0. 0. 0. 0. 0. 0. 60. 3. 0. 1. 0. 0. 0.
      0. 0. 60. 2. 0. 2. 0. 0. 0. 0. 0. 62. 2. 0. 0. 0. 0. 0. 0. 0. 64.
      0. 0. 0. 0. 0. 0. 0. 0. 64. 0. 0. 0. 0. 0. 0. 0. 0. 38. 0. 0. 24.
      2. 0. 0. 0. 0. 48. 8. 0. 6. 2. 0. 0. 0. 0. 64. 0. 0. 0. 0. 0. 0.
      0. 0. 63. 1. 0. 0. 0. 0. 0. 0. 0. 58. 2. 0. 4. 0. 0. 0. 0. 0. 63.
      1. 0. 0. 0. 0. 0. 0. 0. 64. 0. 0. 0. 0. 0. 0. 0. 0. 61. 0. 0. 3.
      0. 0. 0. 0. 0. 38. 2. 0. 21. 3. 0. 0. 0. 0. 48. 10. 0. 4. 2. 0. 0.
      0. 0. 60. 4. 0. 0. 0. 0. 0. 0. 0. 56. 6. 0. 2. 0. 0. 0. 0. 0. 55.
      6. 0. 3. 0. 0. 0. 0. 0. 60. 4. 0. 0. 0. 0. 0. 0. 0. 64. 0. 0. 0.
      0. 0. 0. 0. 0. 63. 0. 0. 1. 0. 0. 0. 0. 0. 41. 1. 0. 18. 4. 0. 0.
      0. 0. 53. 5. 0. 3. 3. 0. 0. 0. 0. 62. 1. 0. 1. 0. 0. 0. 0. 0. 51.
      8. 0. 5. 0. 0. 0. 0. 0. 56. 4. 0. 4. 0. 0. 0. 0. 0. 46. 15. 0. 2.
      1. 0. 0. 0. 0. 52. 8. 0. 3. 1. 0. 0. 0. 0. 64. 0. 0. 0. 0. 0. 0.
      0. 0. 36. 5. 0. 16. 7. 0. 0. 0. 0. 48. 6. 0. 5. 5. 0. 0. 0. 0. 61.
      1. 0. 2. 0. 0. 0. 0. 0. 42. 14. 0. 5. 3. 0. 0. 0. 0. 37. 13. 0. 9.
      5. 0. 0. 0. 0. 43. 12. 0. 6. 3. 0. 0. 0. 0. 58. 3. 0. 3. 0. 0. 0.
      0. 0. 39. 14. 0. 10. 1. 0. 0. 0. 0. 36. 1. 0. 23. 4. 0. 0. 0. 0.
      36. 14. 0. 8. 6. 0. 0. 0. 0. 62. 1. 0. 1. 0. 0. 0. 0. 0. 35. 12.
      0. 10. 7. 0. 0. 0. 0. 51. 3. 0. 5. 5. 0. 0. 0. 0. 32. 12. 0. 11.
      9. 0. 0. 0. 0. 49. 10. 0. 4. 1. 0. 0. 0. 0. 28. 16. 0. 17. 3. 0.
      0. 0. 0. 38. 6. 0. 13. 7. 0. 0. 0. 0. 30. 11. 0. 18. 5. 0. 0. 0.
      0. 62. 2. 0. 0. 0. 0. 0. 0. 0. 52. 3. 0. 8. 1. 0. 0. 0. 0. 53. 1.
      0. 10. 0. 0. 0. 0. 0. 55. 0. 0. 9. 0. 0. 0. 0. 0. 57. 4. 0. 3. 0.
      0. 0. 0. 0. 29. 5. 0. 25. 5. 0. 0. 0. 0. 34. 12. 0. 14. 4. 0. 0.
      0. 0. 31. 9. 0. 20. 4. 0. 0. 0. 0. 57. 6. 0. 1. 0. 0. 0. 0. 0. 62.
      0. 0. 2. 0. 0. 0. 0. 0. 61. 0. 0. 3. 0. 0. 0. 0. 0. 60. 0. 0. 4.
      0. 0. 0. 0. 0. 55. 0. 0. 8. 1. 0. 0. 0. 0. 55. 0. 0. 9. 0. 0. 0.
      0. 0. 46. 1. 0. 16. 1. 0. 0. 0. 0. 49. 0. 0. 15. 0. 0. 0. 0. 0.
      60. 0. 0. 4. 0.</_>
    <_>
      0. 0. 0. 0. 64. 0. 0. 0. 0. 0. 0. 0. 0. 63. 1. 0. 0. 0. 0. 0. 0.
      0. 64. 0. 0. 0. 0. 0. 0. 0. 0. 53. 3. 0. 2. 6. 0. 0. 0. 0. 46. 14.
      0. 4. 0. 0. 0. 0. 0. 64. 0. 0. 0. 0. 0. 0. 0. 0. 64. 0. 0. 0. 0.
      0. 0. 0. 0. 64. 0. 0. 0. 0. 0. 0. 0. 0. 63. 1. 0. 0. 0. 0. 0. 0.
      0. 64. 0. 0. 0. 0. 0. 0. 0. 0. 63. 1. 0. 0. 0. 0. 0. 0. 0. 57. 4.
      0. 3. 0. 0. 0. 0. 0. 59. 0. 0. 5. 0. 0. 0. 0. 0. 52. 0. 0. 11. 1.
      0. 0. 0. 0. 64. 0. 0. 0. 0. 0. 0. 0. 0. 64. 0. 0. 0. 0. 0. 0. 0.
      0. 60. 2. 0. 2. 0. 0. 0. 0. 0. 58. 2. 0. 4. 0. 0. 0. 0. 0. 50. 4.
      0. 10. 0. 0. 0. 0. 0. 54. 8. 0. 2. 0. 0. 0. 0. 0. 59. 1. 0. 2. 2.
      0. 0. 0. 0. 49. 2. 0. 10. 3. 0. 0. 0. 0. 63. 0. 0. 1. 0. 0. 0. 0.
      0. 64. 0. 0. 0. 0. 0. 0. 0. 0. 60. 4. 0. 0. 0. 0. 0. 0. 0. 43. 16.
      0. 3. 2. 0. 0. 0. 0. 35. 15. 0. 6. 8. 0. 0. 0. 0. 50. 0. 0. 14. 0.
      0. 0. 0. 0. 39. 4. 0. 6. 15. 0. 0. 0. 0. 39. 1. 0. 23. 1. 0. 0. 0.
      0. 64. 0. 0. 0. 0. 0. 0. 0. 0. 64. 0. 0. 0. 0. 0. 0. 0. 0. 56. 4.
      0. 4. 0. 0. 0. 0. 0. 59. 1. 0. 3. 1. 0. 0. 0. 0. 30. 29. 0. 1. 4.
      0. 0. 0. 0. 30. 26. 0. 3. 5. 0. 0. 0. 0. 33. 10. 0. 14. 7. 0. 0.
      0. 0. 18. 1. 0. 29. 16. 0. 0. 0. 0. 64. 0. 0. 0. 0. 0. 0. 0. 0.
      63. 1. 0. 0. 0. 0. 0. 0. 0. 63. 1. 0. 0. 0. 0. 0. 0. 0. 62. 1. 0.
      1. 0. 0. 0. 0. 0. 58. 3. 0. 3. 0. 0. 0. 0. 0. 62. 1. 0. 1. 0. 0.
      0. 0. 0. 39. 12. 0. 9. 4. 0. 0. 0. 0. 36. 3. 0. 21. 4. 0. 0. 0. 0.
      63. 1. 0. 0. 0. 0. 0. 0. 0. 63. 1. 0. 0. 0. 0. 0. 0. 0. 53. 4. 0.
      7. 0. 0. 0. 0. 0. 61. 1. 0. 2. 0. 0. 0. 0. 0. 56. 5. 0. 3. 0. 0.
      0. 0. 0. 64. 0. 0. 0. 0. 0. 0. 0. 0. 52. 0. 0. 12. 0. 0. 0. 0. 0.
      43. 0. 0. 17. 4. 0. 0. 0. 0. 61. 3. 0. 0. 0. 0. 0. 0. 0. 63. 1. 0.
      0. 0. 0. 0. 0. 0. 60. 1. 0. 3. 0. 0. 0. 0. 0. 56. 4. 0. 4. 0. 0.
      0. 0. 0. 59. 0. 0. 5. 0. 0. 0. 0. 0. 64. 0. 0. 0. 0. 0. 0. 0. 0.
      59. 0. 0. 5. 0. 0. 0. 0. 0. 36. 2. 0. 23. 3. 0. 0. 0. 0. 60. 3. 0.
      1. 0. 0. 0. 0. 0. 63. 1. 0. 0. 0. 0. 0. 0. 0. 57. 1. 0. 6. 0. 0.
      0. 0. 0. 56. 5. 0. 3. 0. 0. 0. 0. 0. 57. 7. 0. 0. 0. 0. 0. 0. 0.
      64. 0. 0. 0. 0. 0. 0. 0. 0. 64. 0. 0. 0. 0. 0. 0. 0. 0. 36. 2. 0.
      21. 5. 0. 0. 0. 0. 53. 6. 0. 4. 1. 0. 0. 0. 0. 64. 0. 0. 0. 0. 0.
      0. 0. 0. 62. 0. 0. 2. 0. 0. 0. 0. 0. 50. 11. 0. 3. 0. 0. 0. 0. 0.
      61. 3. 0. 0. 0. 0. 0. 0. 0. 64. 0. 0. 0. 0. 0. 0. 0. 0. 64. 0. 0.
      0. 0. 0. 0. 0. 0. 35. 0. 0. 28. 1. 0. 0. 0. 0. 51. 6. 0. 6. 1. 0.
      0. 0. 0. 59. 4. 0. 0. 1. 0. 0. 0. 0. 52. 8. 0. 4. 0. 0. 0. 0. 0.
      60. 1. 0. 3. 0. 0. 0. 0. 0. 63. 1. 0. 0. 0. 0. 0. 0. 0. 64. 0. 0.
      0. 0. 0. 0. 0. 0. 64. 0. 0. 0. 0. 0. 0. 0. 0. 39. 0. 0. 23. 2. 0.
      0. 0. 0. 48. 6. 0. 5. 5. 0. 0. 0. 0. 62. 2. 0. 0. 0. 0. 0. 0. 0.
      54. 7. 0. 2. 1. 0. 0. 0. 0. 55. 8. 0. 1. 0. 0. 0. 0. 0. 42. 18. 0.
      3. 1. 0. 0. 0. 0. 51. 6. 0. 5. 2. 0. 0. 0. 0. 50. 7. 0. 5. 2. 0.
      0. 0. 0. 44. 3. 0. 10. 7. 0. 0. 0. 0. 47. 5. 0. 11. 1. 0. 0. 0. 0.
      62. 1. 0. 1. 0. 0. 0. 0. 0. 42. 19. 0. 2. 1. 0. 0. 0. 0. 37. 15.
      0. 10. 2. 0. 0. 0. 0. 42. 12. 0. 8. 2. 0. 0. 0. 0. 56. 2. 0. 5. 1.
      0. 0. 0. 0. 34. 17. 0. 8. 5. 0. 0. 0. 0. 37. 5. 0. 21. 1. 0. 0. 0.
      0. 39. 11. 0. 8. 6. 0. 0. 0. 0. 63. 0. 0. 1. 0. 0. 0. 0. 0. 36. 7.
      0. 13. 8. 0. 0. 0. 0. 50. 8. 0. 3. 3. 0. 0. 0. 0. 33. 16. 0. 6. 9.
      0. 0. 0. 0. 42. 13. 0. 7. 2. 0. 0. 0. 0. 25. 12. 0. 17. 10. 0. 0.
      0. 0. 43. 9. 0. 10. 2. 0. 0. 0. 0. 37. 9. 0. 16. 2. 0. 0. 0. 0.
      60. 3. 0. 1. 0. 0. 0. 0. 0. 53. 3. 0. 7. 1. 0. 0. 0. 0. 57. 0. 0.
      7. 0. 0. 0. 0. 0. 55. 0. 0. 9. 0. 0. 0. 0. 0. 56. 4. 0. 4. 0. 0.
      0. 0. 0. 28. 7. 0. 24. 5. 0. 0. 0. 0. 41. 6. 0. 11. 6. 0. 0. 0. 0.
      34. 9. 0. 12. 9. 0. 0. 0. 0. 56. 7. 0. 1. 0. 0. 0. 0. 0. 56. 0. 0.
      7. 1. 0. 0. 0. 0. 62. 0. 0. 2. 0. 0. 0. 0. 0. 62. 0. 0. 2. 0. 0.
      0. 0. 0. 45. 0. 0. 19. 0. 0. 0. 0. 0. 52. 0. 0. 10. 2. 0. 0. 0. 0.
      60. 2. 0. 2. 0. 0. 0. 0. 0. 43. 0. 0. 21. 0. 0. 0. 0. 0. 61. 0. 0.
      3. 0.</_>
    <_>
      0. 0. 0. 0. 64. 0. 0. 0. 0. 0. 0. 0. 0. 64. 0. 0. 0. 0. 0. 0. 0.
      0. 64. 0. 0. 0. 0. 0. 0. 0. 0. 60. 0. 0. 2. 2. 0. 0. 0. 0. 45. 13.
      0. 3. 3. 0. 0. 0. 0. 61. 3. 0. 0. 0. 0. 0. 0. 0. 64. 0. 0. 0. 0.
      0. 0. 0. 0. 64. 0. 0. 0. 0. 0. 0. 0. 0. 62. 2. 0. 0. 0. 0. 0. 0.
      0. 59. 1. 0. 4. 0. 0. 0. 0. 0. 64. 0. 0. 0. 0. 0. 0. 0. 0. 61. 2.
      0. 1. 0. 0. 0. 0. 0. 58. 1. 0. 5. 0. 0. 0. 0. 0. 40. 0. 0. 22. 2.
      0. 0. 0. 0. 64. 0. 0. 0. 0. 0. 0. 0. 0. 64. 0. 0. 0. 0. 0. 0. 0.
      0. 58. 6. 0. 0. 0. 0. 0. 0. 0. 44. 4. 0. 14. 2. 0. 0. 0. 0. 62. 1.
      0. 1. 0. 0. 0. 0. 0. 60. 2. 0. 2. 0. 0. 0. 0. 0. 54. 5. 0. 5. 0.
      0. 0. 0. 0. 46. 0. 0. 9. 9. 0. 0. 0. 0. 64. 0. 0. 0. 0. 0. 0. 0.
      0. 62. 1. 0. 1. 0. 0. 0. 0. 0. 61. 3. 0. 0. 0. 0. 0. 0. 0. 46. 2.
      0. 12. 4. 0. 0. 0. 0. 61. 1. 0. 2. 0. 0. 0. 0. 0. 60. 0. 0. 4. 0.
      0. 0. 0. 0. 50. 0. 0. 11. 3. 0. 0. 0. 0. 48. 2. 0. 14. 0. 0. 0. 0.
      0. 62. 0. 0. 1. 1. 0. 0. 0. 0. 64. 0. 0. 0. 0. 0. 0. 0. 0. 61. 3.
      0. 0. 0. 0. 0. 0. 0. 32. 13. 0. 19. 0. 0. 0. 0. 0. 49. 3. 0. 9. 3.
      0. 0. 0. 0. 61. 2. 0. 1. 0. 0. 0. 0. 0. 59. 0. 0. 5. 0. 0. 0. 0.
      0. 36. 0. 0. 27. 1. 0. 0. 0. 0. 51. 0. 0. 10. 3. 0. 0. 0. 0. 64.
      0. 0. 0. 0. 0. 0. 0. 0. 62. 2. 0. 0. 0. 0. 0. 0. 0. 43. 15. 0. 2.
      4. 0. 0. 0. 0. 49. 6. 0. 3. 6. 0. 0. 0. 0. 62. 1. 0. 1. 0. 0. 0.
      0. 0. 59. 0. 0. 5. 0. 0. 0. 0. 0. 35. 0. 0. 22. 7. 0. 0. 0. 0. 47.
      1. 0. 13. 3. 0. 0. 0. 0. 61. 1. 0. 2. 0. 0. 0. 0. 0. 57. 2. 0. 5.
      0. 0. 0. 0. 0. 61. 1. 0. 0. 2. 0. 0. 0. 0. 64. 0. 0. 0. 0. 0. 0.
      0. 0. 64. 0. 0. 0. 0. 0. 0. 0. 0. 62. 0. 0. 2. 0. 0. 0. 0. 0. 34.
      1. 0. 25. 4. 0. 0. 0. 0. 53. 0. 0. 8. 3. 0. 0. 0. 0. 64. 0. 0. 0.
      0. 0. 0. 0. 0. 63. 1. 0. 0. 0. 0. 0. 0. 0. 61. 2. 0. 1. 0. 0. 0.
      0. 0. 59. 4. 0. 1. 0. 0. 0. 0. 0. 64. 0. 0. 0. 0. 0. 0. 0. 0. 64.
      0. 0. 0. 0. 0. 0. 0. 0. 46. 0. 0. 11. 7. 0. 0. 0. 0. 64. 0. 0. 0.
      0. 0. 0. 0. 0. 64. 0. 0. 0. 0. 0. 0. 0. 0. 60. 2. 0. 2. 0. 0. 0.
      0. 0. 60. 3. 0. 0. 1. 0. 0. 0. 0. 59. 2. 0. 3. 0. 0. 0. 0. 0. 59.
      0. 0. 5. 0. 0. 0. 0. 0. 64. 0. 0. 0. 0. 0. 0. 0. 0. 37. 1. 0. 21.
      5. 0. 0. 0. 0. 61. 2. 0. 1. 0. 0. 0. 0. 0. 57. 4. 0. 3. 0. 0. 0.
      0. 0. 48. 9. 0. 6. 1. 0. 0. 0. 0. 59. 2. 0. 2. 1. 0. 0. 0. 0. 59.
      5. 0. 0. 0. 0. 0. 0. 0. 64. 0. 0. 0. 0. 0. 0. 0. 0. 44. 0. 0. 20.
      0. 0. 0. 0. 0. 22. 3. 0. 37. 2. 0. 0. 0. 0. 59. 4. 0. 1. 0. 0. 0.
      0. 0. 55. 5. 0. 4. 0. 0. 0. 0. 0. 55. 3. 0. 5. 1. 0. 0. 0. 0. 57.
      4. 0. 3. 0. 0. 0. 0. 0. 49. 7. 0. 6. 2. 0. 0. 0. 0. 59. 2. 0. 3.
      0. 0. 0. 0. 0. 31. 0. 0. 33. 0. 0. 0. 0. 0. 14. 1. 0. 45. 4. 0. 0.
      0. 0. 55. 3. 0. 5. 1. 0. 0. 0. 0. 60. 2. 0. 2. 0. 0. 0. 0. 0. 53.
      8. 0. 2. 1. 0. 0. 0. 0. 55. 4. 0. 4. 1. 0. 0. 0. 0. 39. 12. 0. 11.
      2. 0. 0. 0. 0. 40. 22. 0. 0. 2. 0. 0. 0. 0. 49. 0. 0. 14. 1. 0. 0.
      0. 0. 23. 10. 0. 23. 8. 0. 0. 0. 0. 59. 0. 0. 4. 1. 0. 0. 0. 0.
      61. 1. 0. 1. 1. 0. 0. 0. 0. 38. 17. 0. 9. 0. 0. 0. 0. 0. 41. 15.
      0. 7. 1. 0. 0. 0. 0. 44. 9. 0. 7. 4. 0. 0. 0. 0. 57. 5. 0. 1. 1.
      0. 0. 0. 0. 38. 7. 0. 8. 11. 0. 0. 0. 0. 31. 11. 0. 13. 9. 0. 0.
      0. 0. 61. 1. 0. 2. 0. 0. 0. 0. 0. 63. 1. 0. 0. 0. 0. 0. 0. 0. 43.
      15. 0. 5. 1. 0. 0. 0. 0. 37. 11. 0. 11. 5. 0. 0. 0. 0. 47. 13. 0.
      2. 2. 0. 0. 0. 0. 40. 10. 0. 3. 11. 0. 0. 0. 0. 44. 1. 0. 9. 10.
      0. 0. 0. 0. 35. 11. 0. 12. 6. 0. 0. 0. 0. 60. 4. 0. 0. 0. 0. 0. 0.
      0. 62. 2. 0. 0. 0. 0. 0. 0. 0. 56. 1. 0. 7. 0. 0. 0. 0. 0. 52. 2.
      0. 10. 0. 0. 0. 0. 0. 57. 4. 0. 3. 0. 0. 0. 0. 0. 42. 5. 0. 11. 6.
      0. 0. 0. 0. 43. 4. 0. 13. 4. 0. 0. 0. 0. 39. 13. 0. 9. 3. 0. 0. 0.
      0. 60. 2. 0. 2. 0. 0. 0. 0. 0. 57. 7. 0. 0. 0. 0. 0. 0. 0. 62. 0.
      0. 2. 0. 0. 0. 0. 0. 59. 0. 0. 5. 0. 0. 0. 0. 0. 60. 1. 0. 3. 0.
      0. 0. 0. 0. 40. 1. 0. 20. 3. 0. 0. 0. 0. 48. 2. 0. 14. 0. 0. 0. 0.
      0. 54. 0. 0. 10. 0. 0. 0. 0. 0. 59. 0. 0. 5. 0. 0. 0. 0. 0. 58. 3.
      0. 3. 0.</_>
    <_>
      0. 0. 0. 0. 63. 0. 0. 1. 0. 0. 0. 0. 0. 64. 0. 0. 0. 0. 0. 0. 0.
      0. 64. 0. 0. 0. 0. 0. 0. 0. 0. 53. 4. 0. 6. 1. 0. 0. 0. 0. 50. 11.
      0. 3. 0. 0. 0. 0. 0. 48. 0. 0. 13. 3. 0. 0. 0. 0. 64. 0. 0. 0. 0.
      0. 0. 0. 0. 64. 0. 0. 0. 0. 0. 0. 0. 0. 62. 2. 0. 0. 0. 0. 0. 0.
      0. 64. 0. 0. 0. 0. 0. 0. 0. 0. 64. 0. 0. 0. 0. 0. 0. 0. 0. 64. 0.
      0. 0. 0. 0. 0. 0. 0. 61. 3. 0. 0. 0. 0. 0. 0. 0. 48. 0. 0. 15. 1.
      0. 0. 0. 0. 64. 0. 0. 0. 0. 0. 0. 0. 0. 64. 0. 0. 0. 0. 0. 0. 0.
      0. 62. 1. 0. 1. 0. 0. 0. 0. 0. 62. 2. 0. 0. 0. 0. 0. 0. 0. 62. 1.
      0. 1. 0. 0. 0. 0. 0. 56. 8. 0. 0. 0. 0. 0. 0. 0. 55. 9. 0. 0. 0.
      0. 0. 0. 0. 48. 0. 0. 15. 1. 0. 0. 0. 0. 64. 0. 0. 0. 0. 0. 0. 0.
      0. 64. 0. 0. 0. 0. 0. 0. 0. 0. 64. 0. 0. 0. 0. 0. 0. 0. 0. 63. 0.
      0. 1. 0. 0. 0. 0. 0. 63. 0. 0. 1. 0. 0. 0. 0. 0. 63. 1. 0. 0. 0.
      0. 0. 0. 0. 56. 8. 0. 0. 0. 0. 0. 0. 0. 19. 19. 0. 21. 5. 0. 0. 0.
      0. 58. 0. 0. 5. 1. 0. 0. 0. 0. 64. 0. 0. 0. 0. 0. 0. 0. 0. 61. 3.
      0. 0. 0. 0. 0. 0. 0. 64. 0. 0. 0. 0. 0. 0. 0. 0. 63. 1. 0. 0. 0.
      0. 0. 0. 0. 64. 0. 0. 0. 0. 0. 0. 0. 0. 55. 1. 0. 8. 0. 0. 0. 0.
      0. 31. 12. 0. 12. 9. 0. 0. 0. 0. 64. 0. 0. 0. 0. 0. 0. 0. 0. 64.
      0. 0. 0. 0. 0. 0. 0. 0. 60. 1. 0. 1. 2. 0. 0. 0. 0. 58. 5. 0. 1.
      0. 0. 0. 0. 0. 61. 3. 0. 0. 0. 0. 0. 0. 0. 63. 0. 0. 1. 0. 0. 0.
      0. 0. 53. 0. 0. 11. 0. 0. 0. 0. 0. 44. 0. 0. 18. 2. 0. 0. 0. 0.
      63. 1. 0. 0. 0. 0. 0. 0. 0. 62. 1. 0. 1. 0. 0. 0. 0. 0. 55. 2. 0.
      7. 0. 0. 0. 0. 0. 57. 6. 0. 0. 1. 0. 0. 0. 0. 59. 2. 0. 3. 0. 0.
      0. 0. 0. 64. 0. 0. 0. 0. 0. 0. 0. 0. 57. 0. 0. 7. 0. 0. 0. 0. 0.
      39. 3. 0. 19. 3. 0. 0. 0. 0. 64. 0. 0. 0. 0. 0. 0. 0. 0. 63. 0. 0.
      1. 0. 0. 0. 0. 0. 51. 6. 0. 7. 0. 0. 0. 0. 0. 60. 4. 0. 0. 0. 0.
      0. 0. 0. 56. 3. 0. 3. 2. 0. 0. 0. 0. 64. 0. 0. 0. 0. 0. 0. 0. 0.
      57. 0. 0. 7. 0. 0. 0. 0. 0. 47. 0. 0. 17. 0. 0. 0. 0. 0. 64. 0. 0.
      0. 0. 0. 0. 0. 0. 64. 0. 0. 0. 0. 0. 0. 0. 0. 56. 4. 0. 4. 0. 0.
      0. 0. 0. 59. 2. 0. 3. 0. 0. 0. 0. 0. 60. 0. 0. 2. 2. 0. 0. 0. 0.
      64. 0. 0. 0. 0. 0. 0. 0. 0. 61. 1. 0. 2. 0. 0. 0. 0. 0. 30. 4. 0.
      24. 6. 0. 0. 0. 0. 62. 1. 0. 1. 0. 0. 0. 0. 0. 59. 3. 0. 2. 0. 0.
      0. 0. 0. 54. 6. 0. 3. 1. 0. 0. 0. 0. 53. 9. 0. 2. 0. 0. 0. 0. 0.
      56. 3. 0. 5. 0. 0. 0. 0. 0. 62. 0. 0. 2. 0. 0. 0. 0. 0. 55. 1. 0.
      8. 0. 0. 0. 0. 0. 36. 1. 0. 24. 3. 0. 0. 0. 0. 57. 5. 0. 2. 0. 0.
      0. 0. 0. 57. 3. 0. 3. 1. 0. 0. 0. 0. 55. 4. 0. 5. 0. 0. 0. 0. 0.
      54. 4. 0. 5. 1. 0. 0. 0. 0. 62. 2. 0. 0. 0. 0. 0. 0. 0. 64. 0. 0.
      0. 0. 0. 0. 0. 0. 58. 0. 0. 6. 0. 0. 0. 0. 0. 47. 0. 0. 17. 0. 0.
      0. 0. 0. 48. 3. 0. 11. 2. 0. 0. 0. 0. 63. 1. 0. 0. 0. 0. 0. 0. 0.
      59. 3. 0. 2. 0. 0. 0. 0. 0. 55. 6. 0. 2. 1. 0. 0. 0. 0. 46. 18. 0.
      0. 0. 0. 0. 0. 0. 47. 6. 0. 4. 7. 0. 0. 0. 0. 60. 1. 0. 1. 2. 0.
      0. 0. 0. 46. 10. 0. 2. 6. 0. 0. 0. 0. 54. 2. 0. 6. 2. 0. 0. 0. 0.
      64. 0. 0. 0. 0. 0. 0. 0. 0. 44. 10. 0. 4. 6. 0. 0. 0. 0. 46. 12.
      0. 5. 1. 0. 0. 0. 0. 47. 14. 0. 3. 0. 0. 0. 0. 0. 49. 12. 0. 3. 0.
      0. 0. 0. 0. 43. 9. 0. 10. 2. 0. 0. 0. 0. 40. 11. 0. 8. 5. 0. 0. 0.
      0. 63. 0. 0. 1. 0. 0. 0. 0. 0. 64. 0. 0. 0. 0. 0. 0. 0. 0. 43. 6.
      0. 13. 2. 0. 0. 0. 0. 47. 8. 0. 6. 3. 0. 0. 0. 0. 35. 22. 0. 5. 2.
      0. 0. 0. 0. 53. 9. 0. 0. 2. 0. 0. 0. 0. 40. 9. 0. 9. 6. 0. 0. 0.
      0. 35. 6. 0. 13. 10. 0. 0. 0. 0. 58. 3. 0. 3. 0. 0. 0. 0. 0. 64.
      0. 0. 0. 0. 0. 0. 0. 0. 53. 0. 0. 11. 0. 0. 0. 0. 0. 50. 1. 0. 12.
      1. 0. 0. 0. 0. 52. 2. 0. 10. 0. 0. 0. 0. 0. 50. 6. 0. 7. 1. 0. 0.
      0. 0. 45. 1. 0. 14. 4. 0. 0. 0. 0. 39. 8. 0. 15. 2. 0. 0. 0. 0.
      57. 2. 0. 5. 0. 0. 0. 0. 0. 50. 12. 0. 2. 0. 0. 0. 0. 0. 64. 0. 0.
      0. 0. 0. 0. 0. 0. 57. 0. 0. 7. 0. 0. 0. 0. 0. 59. 1. 0. 4. 0. 0.
      0. 0. 0. 46. 1. 0. 17. 0. 0. 0. 0. 0. 51. 3. 0. 10. 0. 0. 0. 0. 0.
      46. 0. 0. 18. 0. 0. 0. 0. 0. 60. 0. 0. 4. 0. 0. 0. 0. 0. 61. 1. 0.
      2. 0.</_>
    <_>
      0. 0. 0. 0. 60. 0. 0. 4. 0. 0. 0. 0. 0. 64. 0. 0. 0. 0. 0. 0. 0.
      0. 64. 0. 0. 0. 0. 0. 0. 0. 0. 49. 9. 0. 4. 2. 0. 0. 0. 0. 55. 9.
      0. 0. 0. 0. 0. 0. 0. 64. 0. 0. 0. 0. 0. 0. 0. 0. 64. 0. 0. 0. 0.
      0. 0. 0. 0. 62. 2. 0. 0. 0. 0. 0. 0. 0. 63. 1. 0. 0. 0. 0. 0. 0.
      0. 63. 0. 0. 1. 0. 0. 0. 0. 0. 64. 0. 0. 0. 0. 0. 0. 0. 0. 64. 0.
      0. 0. 0. 0. 0. 0. 0. 37. 4. 0. 21. 2. 0. 0. 0. 0. 64. 0. 0. 0. 0.
      0. 0. 0. 0. 64. 0. 0. 0. 0. 0. 0. 0. 0. 64. 0. 0. 0. 0. 0. 0. 0.
      0. 60. 4. 0. 0. 0. 0. 0. 0. 0. 63. 1. 0. 0. 0. 0. 0. 0. 0. 59. 5.
      0. 0. 0. 0. 0. 0. 0. 52. 11. 0. 1. 0. 0. 0. 0. 0. 35. 1. 0. 20. 8.
      0. 0. 0. 0. 64. 0. 0. 0. 0. 0. 0. 0. 0. 64. 0. 0. 0. 0. 0. 0. 0.
      0. 64. 0. 0. 0. 0. 0. 0. 0. 0. 58. 4. 0. 2. 0. 0. 0. 0. 0. 61. 1.
      0. 2. 0. 0. 0. 0. 0. 51. 11. 0. 2. 0. 0. 0. 0. 0. 49. 13. 0. 2. 0.
      0. 0. 0. 0. 60. 0. 0. 4. 0. 0. 0. 0. 0. 50. 1. 0. 12. 1. 0. 0. 0.
      0. 64. 0. 0. 0. 0. 0. 0. 0. 0. 64. 0. 0. 0. 0. 0. 0. 0. 0. 62. 0.
      0. 2. 0. 0. 0. 0. 0. 63. 1. 0. 0. 0. 0. 0. 0. 0. 61. 2. 0. 1. 0.
      0. 0. 0. 0. 56. 7. 0. 1. 0. 0. 0. 0. 0. 60. 4. 0. 0. 0. 0. 0. 0.
      0. 49. 0. 0. 15. 0. 0. 0. 0. 0. 63. 0. 0. 1. 0. 0. 0. 0. 0. 64. 0.
      0. 0. 0. 0. 0. 0. 0. 58. 0. 0. 6. 0. 0. 0. 0. 0. 62. 1. 0. 1. 0.
      0. 0. 0. 0. 62. 2. 0. 0. 0. 0. 0. 0. 0. 62. 2. 0. 0. 0. 0. 0. 0.
      0. 50. 13. 0. 1. 0. 0. 0. 0. 0. 57. 1. 0. 3. 3. 0. 0. 0. 0. 54. 0.
      0. 7. 3. 0. 0. 0. 0. 64. 0. 0. 0. 0. 0. 0. 0. 0. 57. 1. 0. 6. 0.
      0. 0. 0. 0. 57. 5. 0. 2. 0. 0. 0. 0. 0. 54. 6. 0. 4. 0. 0. 0. 0.
      0. 64. 0. 0. 0. 0. 0. 0. 0. 0. 42. 4. 0. 4. 14. 0. 0. 0. 0. 41. 5.
      0. 8. 10. 0. 0. 0. 0. 63. 0. 0. 1. 0. 0. 0. 0. 0. 63. 1. 0. 0. 0.
      0. 0. 0. 0. 57. 4. 0. 3. 0. 0. 0. 0. 0. 56. 4. 0. 4. 0. 0. 0. 0.
      0. 57. 5. 0. 2. 0. 0. 0. 0. 0. 55. 4. 0. 4. 1. 0. 0. 0. 0. 29. 0.
      0. 31. 4. 0. 0. 0. 0. 50. 0. 0. 9. 5. 0. 0. 0. 0. 64. 0. 0. 0. 0.
      0. 0. 0. 0. 64. 0. 0. 0. 0. 0. 0. 0. 0. 57. 6. 0. 1. 0. 0. 0. 0.
      0. 47. 6. 0. 10. 1. 0. 0. 0. 0. 58. 5. 0. 0. 1. 0. 0. 0. 0. 64. 0.
      0. 0. 0. 0. 0. 0. 0. 51. 0. 0. 13. 0. 0. 0. 0. 0. 39. 3. 0. 19. 3.
      0. 0. 0. 0. 55. 5. 0. 3. 1. 0. 0. 0. 0. 63. 1. 0. 0. 0. 0. 0. 0.
      0. 60. 4. 0. 0. 0. 0. 0. 0. 0. 58. 4. 0. 2. 0. 0. 0. 0. 0. 57. 4.
      0. 3. 0. 0. 0. 0. 0. 64. 0. 0. 0. 0. 0. 0. 0. 0. 47. 0. 0. 16. 1.
      0. 0. 0. 0. 28. 6. 0. 22. 8. 0. 0. 0. 0. 57. 6. 0. 1. 0. 0. 0. 0.
      0. 60. 3. 0. 1. 0. 0. 0. 0. 0. 55. 4. 0. 5. 0. 0. 0. 0. 0. 55. 8.
      0. 1. 0. 0. 0. 0. 0. 55. 7. 0. 2. 0. 0. 0. 0. 0. 57. 4. 0. 3. 0.
      0. 0. 0. 0. 38. 0. 0. 22. 4. 0. 0. 0. 0. 38. 7. 0. 13. 6. 0. 0. 0.
      0. 58. 4. 0. 0. 2. 0. 0. 0. 0. 62. 2. 0. 0. 0. 0. 0. 0. 0. 51. 10.
      0. 3. 0. 0. 0. 0. 0. 59. 2. 0. 3. 0. 0. 0. 0. 0. 53. 6. 0. 4. 1.
      0. 0. 0. 0. 39. 24. 0. 0. 1. 0. 0. 0. 0. 28. 8. 0. 16. 12. 0. 0.
      0. 0. 44. 0. 0. 13. 7. 0. 0. 0. 0. 56. 3. 0. 4. 1. 0. 0. 0. 0. 64.
      0. 0. 0. 0. 0. 0. 0. 0. 35. 22. 0. 7. 0. 0. 0. 0. 0. 39. 12. 0.
      10. 3. 0. 0. 0. 0. 58. 5. 0. 1. 0. 0. 0. 0. 0. 38. 22. 0. 3. 1. 0.
      0. 0. 0. 53. 11. 0. 0. 0. 0. 0. 0. 0. 33. 9. 0. 17. 5. 0. 0. 0. 0.
      50. 9. 0. 2. 3. 0. 0. 0. 0. 62. 1. 0. 1. 0. 0. 0. 0. 0. 33. 13. 0.
      11. 7. 0. 0. 0. 0. 36. 12. 0. 13. 3. 0. 0. 0. 0. 31. 17. 0. 10. 6.
      0. 0. 0. 0. 53. 9. 0. 2. 0. 0. 0. 0. 0. 42. 13. 0. 7. 2. 0. 0. 0.
      0. 51. 3. 0. 10. 0. 0. 0. 0. 0. 55. 0. 0. 9. 0. 0. 0. 0. 0. 62. 1.
      0. 1. 0. 0. 0. 0. 0. 56. 1. 0. 7. 0. 0. 0. 0. 0. 52. 3. 0. 9. 0.
      0. 0. 0. 0. 47. 3. 0. 14. 0. 0. 0. 0. 0. 61. 0. 0. 3. 0. 0. 0. 0.
      0. 44. 0. 0. 18. 2. 0. 0. 0. 0. 53. 9. 0. 2. 0. 0. 0. 0. 0. 53. 0.
      0. 10. 1. 0. 0. 0. 0. 46. 6. 0. 10. 2. 0. 0. 0. 0. 64. 0. 0. 0. 0.
      0. 0. 0. 0. 52. 0. 0. 12. 0. 0. 0. 0. 0. 60. 0. 0. 4. 0. 0. 0. 0.
      0. 47. 0. 0. 17. 0. 0. 0. 0. 0. 49. 0. 0. 15. 0. 0. 0. 0. 0. 53.
      4. 0. 7. 0. 0. 0. 0. 0. 51. 4. 0. 7. 2. 0. 0. 0. 0. 48. 2. 0. 12.
      2.</_>
    <_>
      0. 0. 0. 0. 60. 1. 0. 3. 0. 0. 0. 0. 0. 64. 0. 0. 0. 0. 0. 0. 0.
      0. 60. 3. 0. 1. 0. 0. 0. 0. 0. 51. 2. 0. 8. 3. 0. 0. 0. 0. 54. 10.
      0. 0. 0. 0. 0. 0. 0. 64. 0. 0. 0. 0. 0. 0. 0. 0. 64. 0. 0. 0. 0.
      0. 0. 0. 0. 63. 1. 0. 0. 0. 0. 0. 0. 0. 64. 0. 0. 0. 0. 0. 0. 0.
      0. 64. 0. 0. 0. 0. 0. 0. 0. 0. 64. 0. 0. 0. 0. 0. 0. 0. 0. 62. 1.
      0. 1. 0. 0. 0. 0. 0. 29. 3. 0. 31. 1. 0. 0. 0. 0. 64. 0. 0. 0. 0.
      0. 0. 0. 0. 64. 0. 0. 0. 0. 0. 0. 0. 0. 64. 0. 0. 0. 0. 0. 0. 0.
      0. 60. 4. 0. 0. 0. 0. 0. 0. 0. 62. 1. 0. 1. 0. 0. 0. 0. 0. 64. 0.
      0. 0. 0. 0. 0. 0. 0. 51. 10. 0. 1. 2. 0. 0. 0. 0. 33. 2. 0. 21. 8.
      0. 0. 0. 0. 64. 0. 0. 0. 0. 0. 0. 0. 0. 64. 0. 0. 0. 0. 0. 0. 0.
      0. 64. 0. 0. 0. 0. 0. 0. 0. 0. 61. 3. 0. 0. 0. 0. 0. 0. 0. 62. 1.
      0. 1. 0. 0. 0. 0. 0. 64. 0. 0. 0. 0. 0. 0. 0. 0. 60. 4. 0. 0. 0.
      0. 0. 0. 0. 57. 0. 0. 7. 0. 0. 0. 0. 0. 54. 0. 0. 8. 2. 0. 0. 0.
      0. 64. 0. 0. 0. 0. 0. 0. 0. 0. 64. 0. 0. 0. 0. 0. 0. 0. 0. 59. 3.
      0. 2. 0. 0. 0. 0. 0. 63. 1. 0. 0. 0. 0. 0. 0. 0. 63. 1. 0. 0. 0.
      0. 0. 0. 0. 63. 1. 0. 0. 0. 0. 0. 0. 0. 64. 0. 0. 0. 0. 0. 0. 0.
      0. 48. 0. 0. 16. 0. 0. 0. 0. 0. 62. 0. 0. 2. 0. 0. 0. 0. 0. 64. 0.
      0. 0. 0. 0. 0. 0. 0. 59. 3. 0. 2. 0. 0. 0. 0. 0. 64. 0. 0. 0. 0.
      0. 0. 0. 0. 54. 6. 0. 1. 3. 0. 0. 0. 0. 37. 17. 0. 8. 2. 0. 0. 0.
      0. 37. 15. 0. 2. 10. 0. 0. 0. 0. 41. 6. 0. 11. 6. 0. 0. 0. 0. 64.
      0. 0. 0. 0. 0. 0. 0. 0. 61. 2. 0. 1. 0. 0. 0. 0. 0. 51. 3. 0. 10.
      0. 0. 0. 0. 0. 50. 10. 0. 1. 3. 0. 0. 0. 0. 54. 6. 0. 0. 4. 0. 0.
      0. 0. 63. 0. 0. 0. 1. 0. 0. 0. 0. 54. 0. 0. 10. 0. 0. 0. 0. 0. 46.
      0. 0. 15. 3. 0. 0. 0. 0. 63. 1. 0. 0. 0. 0. 0. 0. 0. 63. 1. 0. 0.
      0. 0. 0. 0. 0. 58. 3. 0. 3. 0. 0. 0. 0. 0. 57. 3. 0. 4. 0. 0. 0.
      0. 0. 55. 5. 0. 4. 0. 0. 0. 0. 0. 64. 0. 0. 0. 0. 0. 0. 0. 0. 63.
      0. 0. 1. 0. 0. 0. 0. 0. 41. 6. 0. 12. 5. 0. 0. 0. 0. 62. 1. 0. 1.
      0. 0. 0. 0. 0. 64. 0. 0. 0. 0. 0. 0. 0. 0. 56. 7. 0. 1. 0. 0. 0.
      0. 0. 54. 2. 0. 6. 2. 0. 0. 0. 0. 55. 7. 0. 2. 0. 0. 0. 0. 0. 64.
      0. 0. 0. 0. 0. 0. 0. 0. 54. 0. 0. 10. 0. 0. 0. 0. 0. 43. 3. 0. 16.
      2. 0. 0. 0. 0. 63. 1. 0. 0. 0. 0. 0. 0. 0. 63. 0. 0. 1. 0. 0. 0.
      0. 0. 63. 0. 0. 1. 0. 0. 0. 0. 0. 60. 1. 0. 3. 0. 0. 0. 0. 0. 55.
      7. 0. 1. 1. 0. 0. 0. 0. 64. 0. 0. 0. 0. 0. 0. 0. 0. 48. 0. 0. 16.
      0. 0. 0. 0. 0. 40. 4. 0. 13. 7. 0. 0. 0. 0. 60. 4. 0. 0. 0. 0. 0.
      0. 0. 60. 3. 0. 1. 0. 0. 0. 0. 0. 49. 8. 0. 7. 0. 0. 0. 0. 0. 50.
      9. 0. 5. 0. 0. 0. 0. 0. 54. 4. 0. 4. 2. 0. 0. 0. 0. 60. 4. 0. 0.
      0. 0. 0. 0. 0. 39. 0. 0. 23. 2. 0. 0. 0. 0. 41. 7. 0. 10. 6. 0. 0.
      0. 0. 57. 5. 0. 1. 1. 0. 0. 0. 0. 59. 3. 0. 2. 0. 0. 0. 0. 0. 47.
      9. 0. 5. 3. 0. 0. 0. 0. 52. 8. 0. 4. 0. 0. 0. 0. 0. 61. 2. 0. 1.
      0. 0. 0. 0. 0. 36. 27. 0. 1. 0. 0. 0. 0. 0. 35. 4. 0. 18. 7. 0. 0.
      0. 0. 48. 2. 0. 11. 3. 0. 0. 0. 0. 58. 3. 0. 3. 0. 0. 0. 0. 0. 63.
      1. 0. 0. 0. 0. 0. 0. 0. 42. 17. 0. 4. 1. 0. 0. 0. 0. 41. 14. 0. 7.
      2. 0. 0. 0. 0. 57. 4. 0. 3. 0. 0. 0. 0. 0. 48. 14. 0. 2. 0. 0. 0.
      0. 0. 53. 11. 0. 0. 0. 0. 0. 0. 0. 37. 4. 0. 19. 4. 0. 0. 0. 0.
      54. 9. 0. 0. 1. 0. 0. 0. 0. 62. 1. 0. 1. 0. 0. 0. 0. 0. 35. 15. 0.
      9. 5. 0. 0. 0. 0. 42. 10. 0. 9. 3. 0. 0. 0. 0. 34. 13. 0. 14. 3.
      0. 0. 0. 0. 50. 12. 0. 2. 0. 0. 0. 0. 0. 37. 14. 0. 11. 2. 0. 0.
      0. 0. 53. 5. 0. 5. 1. 0. 0. 0. 0. 53. 0. 0. 11. 0. 0. 0. 0. 0. 60.
      3. 0. 1. 0. 0. 0. 0. 0. 58. 0. 0. 6. 0. 0. 0. 0. 0. 56. 0. 0. 8.
      0. 0. 0. 0. 0. 54. 0. 0. 10. 0. 0. 0. 0. 0. 60. 2. 0. 2. 0. 0. 0.
      0. 0. 39. 0. 0. 25. 0. 0. 0. 0. 0. 49. 8. 0. 2. 5. 0. 0. 0. 0. 47.
      2. 0. 14. 1. 0. 0. 0. 0. 46. 7. 0. 11. 0. 0. 0. 0. 0. 62. 1. 0. 1.
      0. 0. 0. 0. 0. 62. 0. 0. 2. 0. 0. 0. 0. 0. 62. 0. 0. 2. 0. 0. 0.
      0. 0. 50. 0. 0. 14. 0. 0. 0. 0. 0. 47. 0. 0. 17. 0. 0. 0. 0. 0.
      56. 3. 0. 5. 0. 0. 0. 0. 0. 60. 2. 0. 2. 0. 0. 0. 0. 0. 49. 0. 0.
      9. 6.</_>
    <_>
      0. 0. 0. 0. 51. 4. 0. 8. 1. 0. 0. 0. 0. 64. 0. 0. 0. 0. 0. 0. 0.
      0. 63. 1. 0. 0. 0. 0. 0. 0. 0. 53. 4. 0. 5. 2. 0. 0. 0. 0. 53. 10.
      0. 1. 0. 0. 0. 0. 0. 64. 0. 0. 0. 0. 0. 0. 0. 0. 64. 0. 0. 0. 0.
      0. 0. 0. 0. 63. 1. 0. 0. 0. 0. 0. 0. 0. 64. 0. 0. 0. 0. 0. 0. 0.
      0. 64. 0. 0. 0. 0. 0. 0. 0. 0. 64. 0. 0. 0. 0. 0. 0. 0. 0. 61. 3.
      0. 0. 0. 0. 0. 0. 0. 32. 2. 0. 24. 6. 0. 0. 0. 0. 64. 0. 0. 0. 0.
      0. 0. 0. 0. 64. 0. 0. 0. 0. 0. 0. 0. 0. 64. 0. 0. 0. 0. 0. 0. 0.
      0. 61. 3. 0. 0. 0. 0. 0. 0. 0. 63. 1. 0. 0. 0. 0. 0. 0. 0. 64. 0.
      0. 0. 0. 0. 0. 0. 0. 49. 12. 0. 3. 0. 0. 0. 0. 0. 35. 0. 0. 23. 6.
      0. 0. 0. 0. 64. 0. 0. 0. 0. 0. 0. 0. 0. 64. 0. 0. 0. 0. 0. 0. 0.
      0. 64. 0. 0. 0. 0. 0. 0. 0. 0. 59. 3. 0. 2. 0. 0. 0. 0. 0. 61. 1.
      0. 2. 0. 0. 0. 0. 0. 63. 1. 0. 0. 0. 0. 0. 0. 0. 60. 4. 0. 0. 0.
      0. 0. 0. 0. 58. 0. 0. 6. 0. 0. 0. 0. 0. 54. 0. 0. 9. 1. 0. 0. 0.
      0. 64. 0. 0. 0. 0. 0. 0. 0. 0. 64. 0. 0. 0. 0. 0. 0. 0. 0. 60. 0.
      0. 4. 0. 0. 0. 0. 0. 61. 1. 0. 2. 0. 0. 0. 0. 0. 64. 0. 0. 0. 0.
      0. 0. 0. 0. 59. 0. 0. 5. 0. 0. 0. 0. 0. 64. 0. 0. 0. 0. 0. 0. 0.
      0. 48. 0. 0. 15. 1. 0. 0. 0. 0. 64. 0. 0. 0. 0. 0. 0. 0. 0. 64. 0.
      0. 0. 0. 0. 0. 0. 0. 57. 4. 0. 3. 0. 0. 0. 0. 0. 51. 11. 0. 1. 1.
      0. 0. 0. 0. 45. 14. 0. 2. 3. 0. 0. 0. 0. 43. 18. 0. 0. 3. 0. 0. 0.
      0. 35. 16. 0. 7. 6. 0. 0. 0. 0. 39. 5. 0. 15. 5. 0. 0. 0. 0. 64.
      0. 0. 0. 0. 0. 0. 0. 0. 62. 2. 0. 0. 0. 0. 0. 0. 0. 58. 1. 0. 5.
      0. 0. 0. 0. 0. 60. 3. 0. 0. 1. 0. 0. 0. 0. 63. 1. 0. 0. 0. 0. 0.
      0. 0. 63. 1. 0. 0. 0. 0. 0. 0. 0. 53. 0. 0. 11. 0. 0. 0. 0. 0. 43.
      0. 0. 18. 3. 0. 0. 0. 0. 62. 2. 0. 0. 0. 0. 0. 0. 0. 63. 1. 0. 0.
      0. 0. 0. 0. 0. 54. 4. 0. 5. 1. 0. 0. 0. 0. 54. 7. 0. 3. 0. 0. 0.
      0. 0. 58. 3. 0. 3. 0. 0. 0. 0. 0. 64. 0. 0. 0. 0. 0. 0. 0. 0. 64.
      0. 0. 0. 0. 0. 0. 0. 0. 45. 2. 0. 15. 2. 0. 0. 0. 0. 62. 1. 0. 1.
      0. 0. 0. 0. 0. 64. 0. 0. 0. 0. 0. 0. 0. 0. 60. 3. 0. 1. 0. 0. 0.
      0. 0. 56. 4. 0. 4. 0. 0. 0. 0. 0. 58. 5. 0. 1. 0. 0. 0. 0. 0. 64.
      0. 0. 0. 0. 0. 0. 0. 0. 59. 0. 0. 5. 0. 0. 0. 0. 0. 44. 3. 0. 15.
      2. 0. 0. 0. 0. 63. 1. 0. 0. 0. 0. 0. 0. 0. 64. 0. 0. 0. 0. 0. 0.
      0. 0. 61. 1. 0. 2. 0. 0. 0. 0. 0. 55. 6. 0. 3. 0. 0. 0. 0. 0. 52.
      8. 0. 4. 0. 0. 0. 0. 0. 64. 0. 0. 0. 0. 0. 0. 0. 0. 51. 0. 0. 13.
      0. 0. 0. 0. 0. 39. 3. 0. 17. 5. 0. 0. 0. 0. 55. 8. 0. 1. 0. 0. 0.
      0. 0. 60. 3. 0. 0. 1. 0. 0. 0. 0. 48. 7. 0. 9. 0. 0. 0. 0. 0. 53.
      9. 0. 2. 0. 0. 0. 0. 0. 46. 9. 0. 4. 5. 0. 0. 0. 0. 59. 4. 0. 1.
      0. 0. 0. 0. 0. 49. 0. 0. 15. 0. 0. 0. 0. 0. 34. 11. 0. 15. 4. 0.
      0. 0. 0. 56. 5. 0. 1. 2. 0. 0. 0. 0. 64. 0. 0. 0. 0. 0. 0. 0. 0.
      56. 5. 0. 3. 0. 0. 0. 0. 0. 59. 2. 0. 3. 0. 0. 0. 0. 0. 57. 3. 0.
      3. 1. 0. 0. 0. 0. 32. 31. 0. 1. 0. 0. 0. 0. 0. 36. 13. 0. 10. 5.
      0. 0. 0. 0. 44. 0. 0. 18. 2. 0. 0. 0. 0. 55. 6. 0. 3. 0. 0. 0. 0.
      0. 64. 0. 0. 0. 0. 0. 0. 0. 0. 41. 15. 0. 4. 4. 0. 0. 0. 0. 35.
      20. 0. 6. 3. 0. 0. 0. 0. 51. 8. 0. 5. 0. 0. 0. 0. 0. 46. 18. 0. 0.
      0. 0. 0. 0. 0. 54. 10. 0. 0. 0. 0. 0. 0. 0. 38. 4. 0. 20. 2. 0. 0.
      0. 0. 53. 9. 0. 2. 0. 0. 0. 0. 0. 63. 1. 0. 0. 0. 0. 0. 0. 0. 38.
      6. 0. 9. 11. 0. 0. 0. 0. 41. 10. 0. 10. 3. 0. 0. 0. 0. 42. 6. 0.
      6. 10. 0. 0. 0. 0. 50. 13. 0. 1. 0. 0. 0. 0. 0. 36. 12. 0. 13. 3.
      0. 0. 0. 0. 54. 6. 0. 4. 0. 0. 0. 0. 0. 48. 2. 0. 14. 0. 0. 0. 0.
      0. 59. 2. 0. 2. 1. 0. 0. 0. 0. 58. 3. 0. 3. 0. 0. 0. 0. 0. 55. 1.
      0. 7. 1. 0. 0. 0. 0. 53. 0. 0. 11. 0. 0. 0. 0. 0. 61. 1. 0. 2. 0.
      0. 0. 0. 0. 37. 0. 0. 26. 1. 0. 0. 0. 0. 52. 9. 0. 2. 1. 0. 0. 0.
      0. 49. 2. 0. 13. 0. 0. 0. 0. 0. 45. 7. 0. 11. 1. 0. 0. 0. 0. 61.
      1. 0. 2. 0. 0. 0. 0. 0. 53. 0. 0. 11. 0. 0. 0. 0. 0. 60. 0. 0. 3.
      1. 0. 0. 0. 0. 50. 0. 0. 14. 0. 0. 0. 0. 0. 47. 0. 0. 17. 0. 0. 0.
      0. 0. 56. 3. 0. 5. 0. 0. 0. 0. 0. 59. 1. 0. 4. 0. 0. 0. 0. 0. 50.
      0. 0. 9. 5.</_>
    <_>
      0. 0. 0. 0. 63. 1. 0. 0. 0. 0. 0. 0. 0. 64. 0. 0. 0. 0. 0. 0. 0.
      0. 64. 0. 0. 0. 0. 0. 0. 0. 0. 64. 0. 0. 0. 0. 0. 0. 0. 0. 42. 11.
      0. 8. 3. 0. 0. 0. 0. 64. 0. 0. 0. 0. 0. 0. 0. 0. 64. 0. 0. 0. 0.
      0. 0. 0. 0. 64. 0. 0. 0. 0. 0. 0. 0. 0. 64. 0. 0. 0. 0. 0. 0. 0.
      0. 58. 1. 0. 2. 3. 0. 0. 0. 0. 48. 3. 0. 7. 6. 0. 0. 0. 0. 60. 3.
      0. 1. 0. 0. 0. 0. 0. 60. 1. 0. 3. 0. 0. 0. 0. 0. 47. 0. 0. 13. 4.
      0. 0. 0. 0. 64. 0. 0. 0. 0. 0. 0. 0. 0. 64. 0. 0. 0. 0. 0. 0. 0.
      0. 61. 3. 0. 0. 0. 0. 0. 0. 0. 47. 1. 0. 11. 5. 0. 0. 0. 0. 61. 0.
      0. 3. 0. 0. 0. 0. 0. 55. 5. 0. 4. 0. 0. 0. 0. 0. 44. 10. 0. 7. 3.
      0. 0. 0. 0. 49. 1. 0. 10. 4. 0. 0. 0. 0. 64. 0. 0. 0. 0. 0. 0. 0.
      0. 62. 1. 0. 1. 0. 0. 0. 0. 0. 64. 0. 0. 0. 0. 0. 0. 0. 0. 49. 0.
      0. 15. 0. 0. 0. 0. 0. 64. 0. 0. 0. 0. 0. 0. 0. 0. 47. 0. 0. 17. 0.
      0. 0. 0. 0. 31. 2. 0. 28. 3. 0. 0. 0. 0. 62. 0. 0. 2. 0. 0. 0. 0.
      0. 63. 1. 0. 0. 0. 0. 0. 0. 0. 64. 0. 0. 0. 0. 0. 0. 0. 0. 50. 14.
      0. 0. 0. 0. 0. 0. 0. 39. 18. 0. 5. 2. 0. 0. 0. 0. 54. 9. 0. 0. 1.
      0. 0. 0. 0. 62. 0. 0. 2. 0. 0. 0. 0. 0. 33. 2. 0. 22. 7. 0. 0. 0.
      0. 47. 1. 0. 12. 4. 0. 0. 0. 0. 64. 0. 0. 0. 0. 0. 0. 0. 0. 63. 1.
      0. 0. 0. 0. 0. 0. 0. 58. 3. 0. 2. 1. 0. 0. 0. 0. 54. 1. 0. 8. 1.
      0. 0. 0. 0. 57. 6. 0. 1. 0. 0. 0. 0. 0. 59. 0. 0. 5. 0. 0. 0. 0.
      0. 42. 0. 0. 20. 2. 0. 0. 0. 0. 37. 0. 0. 24. 3. 0. 0. 0. 0. 62.
      2. 0. 0. 0. 0. 0. 0. 0. 64. 0. 0. 0. 0. 0. 0. 0. 0. 61. 2. 0. 1.
      0. 0. 0. 0. 0. 57. 2. 0. 5. 0. 0. 0. 0. 0. 63. 0. 0. 1. 0. 0. 0.
      0. 0. 61. 0. 0. 3. 0. 0. 0. 0. 0. 37. 2. 0. 21. 4. 0. 0. 0. 0. 44.
      7. 0. 7. 6. 0. 0. 0. 0. 63. 1. 0. 0. 0. 0. 0. 0. 0. 62. 0. 0. 2.
      0. 0. 0. 0. 0. 60. 3. 0. 1. 0. 0. 0. 0. 0. 61. 2. 0. 1. 0. 0. 0.
      0. 0. 61. 2. 0. 1. 0. 0. 0. 0. 0. 57. 0. 0. 7. 0. 0. 0. 0. 0. 43.
      0. 0. 21. 0. 0. 0. 0. 0. 48. 2. 0. 11. 3. 0. 0. 0. 0. 63. 1. 0. 0.
      0. 0. 0. 0. 0. 64. 0. 0. 0. 0. 0. 0. 0. 0. 45. 10. 0. 7. 2. 0. 0.
      0. 0. 55. 6. 0. 3. 0. 0. 0. 0. 0. 61. 3. 0. 0. 0. 0. 0. 0. 0. 58.
      0. 0. 6. 0. 0. 0. 0. 0. 45. 0. 0. 19. 0. 0. 0. 0. 0. 31. 5. 0. 28.
      0. 0. 0. 0. 0. 64. 0. 0. 0. 0. 0. 0. 0. 0. 63. 0. 0. 1. 0. 0. 0.
      0. 0. 59. 1. 0. 4. 0. 0. 0. 0. 0. 58. 2. 0. 4. 0. 0. 0. 0. 0. 59.
      5. 0. 0. 0. 0. 0. 0. 0. 64. 0. 0. 0. 0. 0. 0. 0. 0. 30. 0. 0. 34.
      0. 0. 0. 0. 0. 37. 3. 0. 22. 2. 0. 0. 0. 0. 60. 2. 0. 1. 1. 0. 0.
      0. 0. 61. 2. 0. 1. 0. 0. 0. 0. 0. 59. 4. 0. 1. 0. 0. 0. 0. 0. 43.
      11. 0. 7. 3. 0. 0. 0. 0. 57. 6. 0. 1. 0. 0. 0. 0. 0. 61. 0. 0. 3.
      0. 0. 0. 0. 0. 37. 0. 0. 27. 0. 0. 0. 0. 0. 31. 4. 0. 26. 3. 0. 0.
      0. 0. 62. 1. 0. 1. 0. 0. 0. 0. 0. 64. 0. 0. 0. 0. 0. 0. 0. 0. 50.
      8. 0. 2. 4. 0. 0. 0. 0. 56. 3. 0. 4. 1. 0. 0. 0. 0. 49. 10. 0. 2.
      3. 0. 0. 0. 0. 49. 13. 0. 2. 0. 0. 0. 0. 0. 32. 0. 0. 31. 1. 0. 0.
      0. 0. 26. 5. 0. 28. 5. 0. 0. 0. 0. 57. 4. 0. 2. 1. 0. 0. 0. 0. 56.
      4. 0. 3. 1. 0. 0. 0. 0. 38. 8. 0. 12. 6. 0. 0. 0. 0. 46. 14. 0. 2.
      2. 0. 0. 0. 0. 47. 8. 0. 7. 2. 0. 0. 0. 0. 63. 1. 0. 0. 0. 0. 0.
      0. 0. 35. 6. 0. 6. 17. 0. 0. 0. 0. 35. 6. 0. 19. 4. 0. 0. 0. 0.
      64. 0. 0. 0. 0. 0. 0. 0. 0. 63. 1. 0. 0. 0. 0. 0. 0. 0. 36. 11. 0.
      15. 2. 0. 0. 0. 0. 38. 15. 0. 9. 2. 0. 0. 0. 0. 51. 11. 0. 2. 0.
      0. 0. 0. 0. 35. 14. 0. 2. 13. 0. 0. 0. 0. 45. 4. 0. 8. 7. 0. 0. 0.
      0. 33. 9. 0. 13. 9. 0. 0. 0. 0. 61. 2. 0. 1. 0. 0. 0. 0. 0. 63. 1.
      0. 0. 0. 0. 0. 0. 0. 57. 0. 0. 7. 0. 0. 0. 0. 0. 53. 0. 0. 11. 0.
      0. 0. 0. 0. 55. 0. 0. 6. 3. 0. 0. 0. 0. 42. 3. 0. 15. 4. 0. 0. 0.
      0. 37. 5. 0. 15. 7. 0. 0. 0. 0. 40. 14. 0. 5. 5. 0. 0. 0. 0. 55.
      0. 0. 9. 0. 0. 0. 0. 0. 52. 12. 0. 0. 0. 0. 0. 0. 0. 61. 0. 0. 3.
      0. 0. 0. 0. 0. 58. 0. 0. 6. 0. 0. 0. 0. 0. 43. 0. 0. 20. 1. 0. 0.
      0. 0. 58. 0. 0. 6. 0. 0. 0. 0. 0. 55. 0. 0. 9. 0. 0. 0. 0. 0. 51.
      0. 0. 13. 0. 0. 0. 0. 0. 59. 0. 0. 5. 0. 0. 0. 0. 0. 60. 1. 0. 3.
      0.</_>
    <_>
      0. 0. 0. 0. 64. 0. 0. 0. 0. 0. 0. 0. 0. 64. 0. 0. 0. 0. 0. 0. 0.
      0. 61. 0. 0. 2. 1. 0. 0. 0. 0. 42. 12. 0. 5. 5. 0. 0. 0. 0. 59. 5.
      0. 0. 0. 0. 0. 0. 0. 55. 5. 0. 4. 0. 0. 0. 0. 0. 57. 0. 0. 7. 0.
      0. 0. 0. 0. 64. 0. 0. 0. 0. 0. 0. 0. 0. 59. 2. 0. 3. 0. 0. 0. 0.
      0. 62. 1. 0. 1. 0. 0. 0. 0. 0. 56. 3. 0. 3. 2. 0. 0. 0. 0. 60. 3.
      0. 1. 0. 0. 0. 0. 0. 45. 0. 0. 16. 3. 0. 0. 0. 0. 51. 13. 0. 0. 0.
      0. 0. 0. 0. 41. 7. 0. 16. 0. 0. 0. 0. 0. 64. 0. 0. 0. 0. 0. 0. 0.
      0. 62. 2. 0. 0. 0. 0. 0. 0. 0. 62. 1. 0. 1. 0. 0. 0. 0. 0. 58. 6.
      0. 0. 0. 0. 0. 0. 0. 53. 7. 0. 3. 1. 0. 0. 0. 0. 36. 0. 0. 19. 9.
      0. 0. 0. 0. 64. 0. 0. 0. 0. 0. 0. 0. 0. 54. 1. 0. 9. 0. 0. 0. 0.
      0. 57. 0. 0. 6. 1. 0. 0. 0. 0. 63. 0. 0. 1. 0. 0. 0. 0. 0. 62. 1.
      0. 1. 0. 0. 0. 0. 0. 59. 3. 0. 2. 0. 0. 0. 0. 0. 58. 5. 0. 0. 1.
      0. 0. 0. 0. 64. 0. 0. 0. 0. 0. 0. 0. 0. 64. 0. 0. 0. 0. 0. 0. 0.
      0. 42. 11. 0. 1. 10. 0. 0. 0. 0. 55. 2. 0. 5. 2. 0. 0. 0. 0. 60.
      2. 0. 2. 0. 0. 0. 0. 0. 63. 0. 0. 1. 0. 0. 0. 0. 0. 60. 4. 0. 0.
      0. 0. 0. 0. 0. 62. 1. 0. 1. 0. 0. 0. 0. 0. 64. 0. 0. 0. 0. 0. 0.
      0. 0. 48. 0. 0. 10. 6. 0. 0. 0. 0. 60. 3. 0. 0. 1. 0. 0. 0. 0. 62.
      2. 0. 0. 0. 0. 0. 0. 0. 60. 1. 0. 3. 0. 0. 0. 0. 0. 59. 1. 0. 3.
      1. 0. 0. 0. 0. 46. 18. 0. 0. 0. 0. 0. 0. 0. 63. 1. 0. 0. 0. 0. 0.
      0. 0. 64. 0. 0. 0. 0. 0. 0. 0. 0. 36. 0. 0. 25. 3. 0. 0. 0. 0. 63.
      0. 0. 1. 0. 0. 0. 0. 0. 63. 0. 0. 1. 0. 0. 0. 0. 0. 64. 0. 0. 0.
      0. 0. 0. 0. 0. 60. 2. 0. 2. 0. 0. 0. 0. 0. 48. 12. 0. 4. 0. 0. 0.
      0. 0. 64. 0. 0. 0. 0. 0. 0. 0. 0. 64. 0. 0. 0. 0. 0. 0. 0. 0. 43.
      1. 0. 18. 2. 0. 0. 0. 0. 63. 1. 0. 0. 0. 0. 0. 0. 0. 61. 0. 0. 3.
      0. 0. 0. 0. 0. 57. 5. 0. 2. 0. 0. 0. 0. 0. 60. 3. 0. 1. 0. 0. 0.
      0. 0. 58. 2. 0. 4. 0. 0. 0. 0. 0. 64. 0. 0. 0. 0. 0. 0. 0. 0. 64.
      0. 0. 0. 0. 0. 0. 0. 0. 47. 0. 0. 16. 1. 0. 0. 0. 0. 58. 0. 0. 5.
      1. 0. 0. 0. 0. 63. 1. 0. 0. 0. 0. 0. 0. 0. 54. 6. 0. 3. 1. 0. 0.
      0. 0. 61. 2. 0. 1. 0. 0. 0. 0. 0. 62. 2. 0. 0. 0. 0. 0. 0. 0. 63.
      1. 0. 0. 0. 0. 0. 0. 0. 62. 2. 0. 0. 0. 0. 0. 0. 0. 56. 0. 0. 6.
      2. 0. 0. 0. 0. 55. 0. 0. 7. 2. 0. 0. 0. 0. 64. 0. 0. 0. 0. 0. 0.
      0. 0. 50. 8. 0. 5. 1. 0. 0. 0. 0. 58. 3. 0. 3. 0. 0. 0. 0. 0. 60.
      4. 0. 0. 0. 0. 0. 0. 0. 63. 0. 0. 1. 0. 0. 0. 0. 0. 62. 0. 0. 2.
      0. 0. 0. 0. 0. 58. 0. 0. 6. 0. 0. 0. 0. 0. 48. 1. 0. 12. 3. 0. 0.
      0. 0. 56. 6. 0. 2. 0. 0. 0. 0. 0. 58. 4. 0. 2. 0. 0. 0. 0. 0. 46.
      10. 0. 5. 3. 0. 0. 0. 0. 63. 1. 0. 0. 0. 0. 0. 0. 0. 55. 1. 0. 8.
      0. 0. 0. 0. 0. 61. 1. 0. 2. 0. 0. 0. 0. 0. 63. 0. 0. 1. 0. 0. 0.
      0. 0. 38. 0. 0. 26. 0. 0. 0. 0. 0. 63. 0. 0. 1. 0. 0. 0. 0. 0. 47.
      11. 0. 4. 2. 0. 0. 0. 0. 45. 9. 0. 8. 2. 0. 0. 0. 0. 55. 8. 0. 0.
      1. 0. 0. 0. 0. 45. 9. 0. 10. 0. 0. 0. 0. 0. 64. 0. 0. 0. 0. 0. 0.
      0. 0. 50. 9. 0. 0. 5. 0. 0. 0. 0. 40. 4. 0. 16. 4. 0. 0. 0. 0. 62.
      0. 0. 2. 0. 0. 0. 0. 0. 39. 9. 0. 9. 7. 0. 0. 0. 0. 49. 13. 0. 0.
      2. 0. 0. 0. 0. 44. 16. 0. 3. 1. 0. 0. 0. 0. 30. 18. 0. 12. 4. 0.
      0. 0. 0. 52. 3. 0. 6. 3. 0. 0. 0. 0. 37. 8. 0. 12. 7. 0. 0. 0. 0.
      64. 0. 0. 0. 0. 0. 0. 0. 0. 63. 1. 0. 0. 0. 0. 0. 0. 0. 39. 10. 0.
      12. 3. 0. 0. 0. 0. 41. 8. 0. 9. 6. 0. 0. 0. 0. 29. 24. 0. 11. 0.
      0. 0. 0. 0. 48. 9. 0. 2. 5. 0. 0. 0. 0. 50. 2. 0. 10. 2. 0. 0. 0.
      0. 46. 5. 0. 11. 2. 0. 0. 0. 0. 59. 2. 0. 3. 0. 0. 0. 0. 0. 63. 1.
      0. 0. 0. 0. 0. 0. 0. 61. 0. 0. 3. 0. 0. 0. 0. 0. 52. 1. 0. 10. 1.
      0. 0. 0. 0. 53. 2. 0. 9. 0. 0. 0. 0. 0. 41. 5. 0. 12. 6. 0. 0. 0.
      0. 43. 1. 0. 16. 4. 0. 0. 0. 0. 36. 10. 0. 12. 6. 0. 0. 0. 0. 53.
      1. 0. 9. 1. 0. 0. 0. 0. 52. 10. 0. 2. 0. 0. 0. 0. 0. 61. 0. 0. 3.
      0. 0. 0. 0. 0. 57. 0. 0. 7. 0. 0. 0. 0. 0. 50. 2. 0. 8. 4. 0. 0.
      0. 0. 48. 1. 0. 13. 2. 0. 0. 0. 0. 54. 1. 0. 9. 0. 0. 0. 0. 0. 47.
      0. 0. 17. 0. 0. 0. 0. 0. 62. 0. 0. 2. 0. 0. 0. 0. 0. 62. 2. 0. 0.
      0.</_>
    <_>
      0. 0. 0. 0. 64. 0. 0. 0. 0. 0. 0. 0. 0. 64. 0. 0. 0. 0. 0. 0. 0.
      0. 63. 0. 0. 0. 1. 0. 0. 0. 0. 43. 10. 0. 6. 5. 0. 0. 0. 0. 59. 3.
      0. 2. 0. 0. 0. 0. 0. 51. 5. 0. 8. 0. 0. 0. 0. 0. 59. 1. 0. 4. 0.
      0. 0. 0. 0. 64. 0. 0. 0. 0. 0. 0. 0. 0. 61. 2. 0. 1. 0. 0. 0. 0.
      0. 60. 2. 0. 2. 0. 0. 0. 0. 0. 61. 1. 0. 2. 0. 0. 0. 0. 0. 63. 0.
      0. 1. 0. 0. 0. 0. 0. 41. 2. 0. 17. 4. 0. 0. 0. 0. 57. 7. 0. 0. 0.
      0. 0. 0. 0. 46. 2. 0. 13. 3. 0. 0. 0. 0. 64. 0. 0. 0. 0. 0. 0. 0.
      0. 62. 1. 0. 1. 0. 0. 0. 0. 0. 61. 0. 0. 3. 0. 0. 0. 0. 0. 60. 4.
      0. 0. 0. 0. 0. 0. 0. 48. 13. 0. 0. 3. 0. 0. 0. 0. 44. 1. 0. 14. 5.
      0. 0. 0. 0. 62. 2. 0. 0. 0. 0. 0. 0. 0. 48. 0. 0. 15. 1. 0. 0. 0.
      0. 64. 0. 0. 0. 0. 0. 0. 0. 0. 62. 0. 0. 2. 0. 0. 0. 0. 0. 63. 1.
      0. 0. 0. 0. 0. 0. 0. 62. 2. 0. 0. 0. 0. 0. 0. 0. 61. 3. 0. 0. 0.
      0. 0. 0. 0. 64. 0. 0. 0. 0. 0. 0. 0. 0. 52. 10. 0. 0. 2. 0. 0. 0.
      0. 40. 9. 0. 5. 10. 0. 0. 0. 0. 64. 0. 0. 0. 0. 0. 0. 0. 0. 60. 0.
      0. 4. 0. 0. 0. 0. 0. 61. 1. 0. 2. 0. 0. 0. 0. 0. 57. 3. 0. 4. 0.
      0. 0. 0. 0. 61. 2. 0. 1. 0. 0. 0. 0. 0. 64. 0. 0. 0. 0. 0. 0. 0.
      0. 48. 0. 0. 12. 4. 0. 0. 0. 0. 64. 0. 0. 0. 0. 0. 0. 0. 0. 62. 1.
      0. 1. 0. 0. 0. 0. 0. 57. 6. 0. 1. 0. 0. 0. 0. 0. 56. 1. 0. 4. 3.
      0. 0. 0. 0. 58. 3. 0. 2. 1. 0. 0. 0. 0. 58. 6. 0. 0. 0. 0. 0. 0.
      0. 63. 0. 0. 1. 0. 0. 0. 0. 0. 45. 0. 0. 16. 3. 0. 0. 0. 0. 62. 2.
      0. 0. 0. 0. 0. 0. 0. 61. 3. 0. 0. 0. 0. 0. 0. 0. 52. 6. 0. 6. 0.
      0. 0. 0. 0. 55. 4. 0. 5. 0. 0. 0. 0. 0. 56. 3. 0. 3. 2. 0. 0. 0.
      0. 61. 3. 0. 0. 0. 0. 0. 0. 0. 64. 0. 0. 0. 0. 0. 0. 0. 0. 42. 5.
      0. 15. 2. 0. 0. 0. 0. 64. 0. 0. 0. 0. 0. 0. 0. 0. 64. 0. 0. 0. 0.
      0. 0. 0. 0. 57. 2. 0. 5. 0. 0. 0. 0. 0. 57. 2. 0. 5. 0. 0. 0. 0.
      0. 61. 2. 0. 1. 0. 0. 0. 0. 0. 64. 0. 0. 0. 0. 0. 0. 0. 0. 64. 0.
      0. 0. 0. 0. 0. 0. 0. 52. 0. 0. 12. 0. 0. 0. 0. 0. 56. 4. 0. 4. 0.
      0. 0. 0. 0. 63. 1. 0. 0. 0. 0. 0. 0. 0. 52. 4. 0. 8. 0. 0. 0. 0.
      0. 49. 7. 0. 8. 0. 0. 0. 0. 0. 60. 3. 0. 1. 0. 0. 0. 0. 0. 64. 0.
      0. 0. 0. 0. 0. 0. 0. 64. 0. 0. 0. 0. 0. 0. 0. 0. 40. 3. 0. 19. 2.
      0. 0. 0. 0. 59. 1. 0. 2. 2. 0. 0. 0. 0. 64. 0. 0. 0. 0. 0. 0. 0.
      0. 57. 6. 0. 1. 0. 0. 0. 0. 0. 58. 1. 0. 4. 1. 0. 0. 0. 0. 60. 4.
      0. 0. 0. 0. 0. 0. 0. 64. 0. 0. 0. 0. 0. 0. 0. 0. 64. 0. 0. 0. 0.
      0. 0. 0. 0. 51. 0. 0. 11. 2. 0. 0. 0. 0. 55. 4. 0. 4. 1. 0. 0. 0.
      0. 60. 3. 0. 1. 0. 0. 0. 0. 0. 54. 8. 0. 1. 1. 0. 0. 0. 0. 51. 7.
      0. 5. 1. 0. 0. 0. 0. 55. 6. 0. 3. 0. 0. 0. 0. 0. 64. 0. 0. 0. 0.
      0. 0. 0. 0. 64. 0. 0. 0. 0. 0. 0. 0. 0. 61. 0. 0. 3. 0. 0. 0. 0.
      0. 47. 0. 0. 14. 3. 0. 0. 0. 0. 64. 0. 0. 0. 0. 0. 0. 0. 0. 46.
      13. 0. 4. 1. 0. 0. 0. 0. 55. 5. 0. 4. 0. 0. 0. 0. 0. 48. 14. 0. 2.
      0. 0. 0. 0. 0. 55. 8. 0. 1. 0. 0. 0. 0. 0. 60. 4. 0. 0. 0. 0. 0.
      0. 0. 48. 7. 0. 2. 7. 0. 0. 0. 0. 47. 5. 0. 7. 5. 0. 0. 0. 0. 64.
      0. 0. 0. 0. 0. 0. 0. 0. 39. 14. 0. 8. 3. 0. 0. 0. 0. 42. 20. 0. 1.
      1. 0. 0. 0. 0. 49. 12. 0. 1. 2. 0. 0. 0. 0. 48. 16. 0. 0. 0. 0. 0.
      0. 0. 48. 14. 0. 2. 0. 0. 0. 0. 0. 33. 4. 0. 20. 7. 0. 0. 0. 0.
      53. 5. 0. 5. 1. 0. 0. 0. 0. 61. 3. 0. 0. 0. 0. 0. 0. 0. 41. 6. 0.
      11. 6. 0. 0. 0. 0. 41. 8. 0. 8. 7. 0. 0. 0. 0. 22. 25. 0. 17. 0.
      0. 0. 0. 0. 52. 4. 0. 5. 3. 0. 0. 0. 0. 47. 17. 0. 0. 0. 0. 0. 0.
      0. 36. 7. 0. 15. 6. 0. 0. 0. 0. 44. 8. 0. 12. 0. 0. 0. 0. 0. 60.
      2. 0. 2. 0. 0. 0. 0. 0. 62. 0. 0. 2. 0. 0. 0. 0. 0. 57. 0. 0. 7.
      0. 0. 0. 0. 0. 60. 0. 0. 4. 0. 0. 0. 0. 0. 42. 5. 0. 12. 5. 0. 0.
      0. 0. 42. 11. 0. 11. 0. 0. 0. 0. 0. 29. 8. 0. 23. 4. 0. 0. 0. 0.
      49. 6. 0. 8. 1. 0. 0. 0. 0. 52. 7. 0. 5. 0. 0. 0. 0. 0. 62. 0. 0.
      2. 0. 0. 0. 0. 0. 58. 0. 0. 6. 0. 0. 0. 0. 0. 58. 0. 0. 5. 1. 0.
      0. 0. 0. 43. 0. 0. 21. 0. 0. 0. 0. 0. 62. 0. 0. 2. 0. 0. 0. 0. 0.
      50. 0. 0. 14. 0. 0. 0. 0. 0. 56. 0. 0. 8. 0. 0. 0. 0. 0. 60. 0. 0.
      4. 0.</_>
    <_>
      0. 0. 0. 0. 38. 13. 0. 12. 1. 0. 0. 0. 0. 46. 13. 0. 2. 3. 0. 0.
      0. 0. 44. 12. 0. 4. 4. 0. 0. 0. 0. 39. 10. 0. 9. 6. 0. 0. 0. 0.
      47. 12. 0. 5. 0. 0. 0. 0. 0. 53. 7. 0. 2. 2. 0. 0. 0. 0. 51. 5. 0.
      7. 1. 0. 0. 0. 0. 52. 10. 0. 2. 0. 0. 0. 0. 0. 39. 16. 0. 8. 1. 0.
      0. 0. 0. 35. 14. 0. 13. 2. 0. 0. 0. 0. 38. 9. 0. 11. 6. 0. 0. 0.
      0. 64. 0. 0. 0. 0. 0. 0. 0. 0. 45. 2. 0. 11. 6. 0. 0. 0. 0. 40.
      13. 0. 9. 2. 0. 0. 0. 0. 43. 15. 0. 5. 1. 0. 0. 0. 0. 44. 7. 0.
      11. 2. 0. 0. 0. 0. 45. 10. 0. 3. 6. 0. 0. 0. 0. 32. 10. 0. 14. 8.
      0. 0. 0. 0. 42. 12. 0. 7. 3. 0. 0. 0. 0. 62. 2. 0. 0. 0. 0. 0. 0.
      0. 34. 6. 0. 16. 8. 0. 0. 0. 0. 39. 16. 0. 8. 1. 0. 0. 0. 0. 49.
      8. 0. 5. 2. 0. 0. 0. 0. 43. 14. 0. 5. 2. 0. 0. 0. 0. 39. 16. 0. 8.
      1. 0. 0. 0. 0. 39. 8. 0. 13. 4. 0. 0. 0. 0. 62. 1. 0. 1. 0. 0. 0.
      0. 0. 55. 0. 0. 9. 0. 0. 0. 0. 0. 50. 0. 0. 12. 2. 0. 0. 0. 0. 46.
      0. 0. 14. 4. 0. 0. 0. 0. 50. 14. 0. 0. 0. 0. 0. 0. 0. 53. 7. 0. 3.
      1. 0. 0. 0. 0. 51. 9. 0. 3. 1. 0. 0. 0. 0. 44. 9. 0. 6. 5. 0. 0.
      0. 0. 60. 4. 0. 0. 0. 0. 0. 0. 0. 50. 13. 0. 1. 0. 0. 0. 0. 0. 45.
      14. 0. 5. 0. 0. 0. 0. 0. 48. 11. 0. 1. 4. 0. 0. 0. 0. 38. 11. 0.
      14. 1. 0. 0. 0. 0. 42. 12. 0. 6. 4. 0. 0. 0. 0. 47. 7. 0. 10. 0.
      0. 0. 0. 0. 44. 6. 0. 11. 3. 0. 0. 0. 0. 55. 2. 0. 7. 0. 0. 0. 0.
      0. 56. 8. 0. 0. 0. 0. 0. 0. 0. 43. 16. 0. 5. 0. 0. 0. 0. 0. 43. 1.
      0. 13. 7. 0. 0. 0. 0. 37. 13. 0. 10. 4. 0. 0. 0. 0. 59. 2. 0. 3.
      0. 0. 0. 0. 0. 45. 15. 0. 1. 3. 0. 0. 0. 0. 46. 13. 0. 1. 4. 0. 0.
      0. 0. 34. 19. 0. 3. 8. 0. 0. 0. 0. 48. 16. 0. 0. 0. 0. 0. 0. 0.
      45. 12. 0. 6. 1. 0. 0. 0. 0. 31. 17. 0. 9. 7. 0. 0. 0. 0. 48. 4.
      0. 10. 2. 0. 0. 0. 0. 38. 14. 0. 6. 6. 0. 0. 0. 0. 56. 2. 0. 5. 1.
      0. 0. 0. 0. 45. 6. 0. 11. 2. 0. 0. 0. 0. 56. 6. 0. 2. 0. 0. 0. 0.
      0. 64. 0. 0. 0. 0. 0. 0. 0. 0. 61. 0. 0. 3. 0. 0. 0. 0. 0. 38. 1.
      0. 22. 3. 0. 0. 0. 0. 26. 15. 0. 16. 7. 0. 0. 0. 0. 53. 8. 0. 2.
      1. 0. 0. 0. 0. 49. 0. 0. 15. 0. 0. 0. 0. 0. 36. 6. 0. 19. 3. 0. 0.
      0. 0. 64. 0. 0. 0. 0. 0. 0. 0. 0. 64. 0. 0. 0. 0. 0. 0. 0. 0. 64.
      0. 0. 0. 0. 0. 0. 0. 0. 41. 5. 0. 15. 3. 0. 0. 0. 0. 43. 1. 0. 16.
      4. 0. 0. 0. 0. 28. 13. 0. 16. 7. 0. 0. 0. 0. 51. 8. 0. 5. 0. 0. 0.
      0. 0. 44. 13. 0. 3. 4. 0. 0. 0. 0. 64. 0. 0. 0. 0. 0. 0. 0. 0. 64.
      0. 0. 0. 0. 0. 0. 0. 0. 64. 0. 0. 0. 0. 0. 0. 0. 0. 48. 0. 0. 16.
      0. 0. 0. 0. 0. 46. 5. 0. 8. 5. 0. 0. 0. 0. 26. 7. 0. 19. 12. 0. 0.
      0. 0. 48. 14. 0. 2. 0. 0. 0. 0. 0. 47. 8. 0. 8. 1. 0. 0. 0. 0. 63.
      1. 0. 0. 0. 0. 0. 0. 0. 64. 0. 0. 0. 0. 0. 0. 0. 0. 64. 0. 0. 0.
      0. 0. 0. 0. 0. 60. 0. 0. 4. 0. 0. 0. 0. 0. 37. 11. 0. 11. 5. 0. 0.
      0. 0. 23. 17. 0. 10. 14. 0. 0. 0. 0. 32. 16. 0. 13. 3. 0. 0. 0. 0.
      40. 16. 0. 5. 3. 0. 0. 0. 0. 60. 4. 0. 0. 0. 0. 0. 0. 0. 60. 0. 0.
      4. 0. 0. 0. 0. 0. 63. 1. 0. 0. 0. 0. 0. 0. 0. 64. 0. 0. 0. 0. 0.
      0. 0. 0. 29. 9. 0. 21. 5. 0. 0. 0. 0. 37. 16. 0. 6. 5. 0. 0. 0. 0.
      40. 5. 0. 18. 1. 0. 0. 0. 0. 47. 11. 0. 5. 1. 0. 0. 0. 0. 62. 2.
      0. 0. 0. 0. 0. 0. 0. 64. 0. 0. 0. 0. 0. 0. 0. 0. 54. 5. 0. 4. 1.
      0. 0. 0. 0. 64. 0. 0. 0. 0. 0. 0. 0. 0. 25. 8. 0. 23. 8. 0. 0. 0.
      0. 49. 4. 0. 11. 0. 0. 0. 0. 0. 48. 0. 0. 16. 0. 0. 0. 0. 0. 57.
      0. 0. 7. 0. 0. 0. 0. 0. 30. 15. 0. 13. 6. 0. 0. 0. 0. 57. 4. 0. 0.
      3. 0. 0. 0. 0. 44. 4. 0. 8. 8. 0. 0. 0. 0. 64. 0. 0. 0. 0. 0. 0.
      0. 0. 34. 3. 0. 24. 3. 0. 0. 0. 0. 34. 2. 0. 20. 8. 0. 0. 0. 0.
      38. 7. 0. 17. 2. 0. 0. 0. 0. 49. 3. 0. 10. 2. 0. 0. 0. 0. 41. 9.
      0. 14. 0. 0. 0. 0. 0. 38. 12. 0. 10. 4. 0. 0. 0. 0. 44. 8. 0. 9.
      3. 0. 0. 0. 0. 45. 5. 0. 9. 5. 0. 0. 0. 0. 48. 0. 0. 14. 2. 0. 0.
      0. 0. 53. 3. 0. 7. 1. 0. 0. 0. 0. 40. 4. 0. 18. 2. 0. 0. 0. 0. 42.
      7. 0. 12. 3. 0. 0. 0. 0. 33. 4. 0. 21. 6. 0. 0. 0. 0. 29. 18. 0.
      13. 4. 0. 0. 0. 0. 56. 3. 0. 3. 2. 0. 0. 0. 0. 33. 2. 0. 23. 6. 0.
      0. 0. 0. 54. 0. 0. 10. 0. 0. 0. 0. 0. 55. 0. 0. 9. 0.</_>
    <_>
      0. 0. 0. 0. 34. 17. 0. 11. 2. 0. 0. 0. 0. 45. 6. 0. 8. 5. 0. 0. 0.
      0. 47. 10. 0. 7. 0. 0. 0. 0. 0. 42. 13. 0. 7. 2. 0. 0. 0. 0. 59.
      0. 0. 5. 0. 0. 0. 0. 0. 61. 1. 0. 2. 0. 0. 0. 0. 0. 48. 10. 0. 6.
      0. 0. 0. 0. 0. 54. 5. 0. 5. 0. 0. 0. 0. 0. 43. 13. 0. 6. 2. 0. 0.
      0. 0. 40. 14. 0. 5. 5. 0. 0. 0. 0. 30. 12. 0. 16. 6. 0. 0. 0. 0.
      54. 7. 0. 2. 1. 0. 0. 0. 0. 19. 11. 0. 27. 7. 0. 0. 0. 0. 46. 12.
      0. 4. 2. 0. 0. 0. 0. 50. 6. 0. 7. 1. 0. 0. 0. 0. 44. 9. 0. 9. 2.
      0. 0. 0. 0. 33. 20. 0. 7. 4. 0. 0. 0. 0. 36. 14. 0. 10. 4. 0. 0.
      0. 0. 46. 9. 0. 7. 2. 0. 0. 0. 0. 51. 11. 0. 0. 2. 0. 0. 0. 0. 27.
      1. 0. 26. 10. 0. 0. 0. 0. 41. 18. 0. 5. 0. 0. 0. 0. 0. 38. 18. 0.
      7. 1. 0. 0. 0. 0. 43. 13. 0. 6. 2. 0. 0. 0. 0. 41. 11. 0. 6. 6. 0.
      0. 0. 0. 40. 11. 0. 10. 3. 0. 0. 0. 0. 44. 11. 0. 5. 4. 0. 0. 0.
      0. 42. 17. 0. 3. 2. 0. 0. 0. 0. 50. 4. 0. 9. 1. 0. 0. 0. 0. 44.
      10. 0. 6. 4. 0. 0. 0. 0. 58. 5. 0. 1. 0. 0. 0. 0. 0. 44. 8. 0. 10.
      2. 0. 0. 0. 0. 48. 7. 0. 6. 3. 0. 0. 0. 0. 36. 18. 0. 8. 2. 0. 0.
      0. 0. 45. 8. 0. 4. 7. 0. 0. 0. 0. 44. 12. 0. 0. 8. 0. 0. 0. 0. 62.
      0. 0. 2. 0. 0. 0. 0. 0. 39. 2. 0. 20. 3. 0. 0. 0. 0. 55. 9. 0. 0.
      0. 0. 0. 0. 0. 43. 16. 0. 3. 2. 0. 0. 0. 0. 45. 10. 0. 4. 5. 0. 0.
      0. 0. 50. 7. 0. 7. 0. 0. 0. 0. 0. 49. 7. 0. 5. 3. 0. 0. 0. 0. 55.
      9. 0. 0. 0. 0. 0. 0. 0. 43. 4. 0. 14. 3. 0. 0. 0. 0. 39. 1. 0. 19.
      5. 0. 0. 0. 0. 52. 6. 0. 4. 2. 0. 0. 0. 0. 46. 11. 0. 7. 0. 0. 0.
      0. 0. 51. 6. 0. 5. 2. 0. 0. 0. 0. 20. 27. 0. 9. 8. 0. 0. 0. 0. 43.
      10. 0. 6. 5. 0. 0. 0. 0. 38. 26. 0. 0. 0. 0. 0. 0. 0. 53. 8. 0. 3.
      0. 0. 0. 0. 0. 31. 8. 0. 20. 5. 0. 0. 0. 0. 36. 8. 0. 13. 7. 0. 0.
      0. 0. 38. 3. 0. 20. 3. 0. 0. 0. 0. 40. 1. 0. 21. 2. 0. 0. 0. 0.
      35. 6. 0. 16. 7. 0. 0. 0. 0. 45. 14. 0. 2. 3. 0. 0. 0. 0. 59. 5.
      0. 0. 0. 0. 0. 0. 0. 60. 0. 0. 3. 1. 0. 0. 0. 0. 32. 3. 0. 25. 4.
      0. 0. 0. 0. 45. 12. 0. 5. 2. 0. 0. 0. 0. 37. 1. 0. 22. 4. 0. 0. 0.
      0. 46. 3. 0. 15. 0. 0. 0. 0. 0. 55. 3. 0. 6. 0. 0. 0. 0. 0. 53. 8.
      0. 3. 0. 0. 0. 0. 0. 58. 6. 0. 0. 0. 0. 0. 0. 0. 62. 0. 0. 2. 0.
      0. 0. 0. 0. 33. 3. 0. 18. 10. 0. 0. 0. 0. 33. 12. 0. 12. 7. 0. 0.
      0. 0. 47. 3. 0. 12. 2. 0. 0. 0. 0. 37. 15. 0. 7. 5. 0. 0. 0. 0.
      49. 9. 0. 4. 2. 0. 0. 0. 0. 57. 7. 0. 0. 0. 0. 0. 0. 0. 54. 10. 0.
      0. 0. 0. 0. 0. 0. 63. 0. 0. 1. 0. 0. 0. 0. 0. 25. 5. 0. 21. 13. 0.
      0. 0. 0. 25. 16. 0. 12. 11. 0. 0. 0. 0. 42. 16. 0. 4. 2. 0. 0. 0.
      0. 50. 7. 0. 6. 1. 0. 0. 0. 0. 60. 3. 0. 1. 0. 0. 0. 0. 0. 63. 1.
      0. 0. 0. 0. 0. 0. 0. 39. 22. 0. 2. 1. 0. 0. 0. 0. 52. 5. 0. 5. 2.
      0. 0. 0. 0. 26. 11. 0. 10. 17. 0. 0. 0. 0. 42. 18. 0. 4. 0. 0. 0.
      0. 0. 39. 5. 0. 17. 3. 0. 0. 0. 0. 39. 18. 0. 4. 3. 0. 0. 0. 0.
      50. 10. 0. 4. 0. 0. 0. 0. 0. 39. 7. 0. 13. 5. 0. 0. 0. 0. 41. 12.
      0. 5. 6. 0. 0. 0. 0. 45. 10. 0. 6. 3. 0. 0. 0. 0. 35. 3. 0. 16.
      10. 0. 0. 0. 0. 42. 6. 0. 4. 12. 0. 0. 0. 0. 30. 23. 0. 6. 5. 0.
      0. 0. 0. 53. 2. 0. 9. 0. 0. 0. 0. 0. 41. 6. 0. 17. 0. 0. 0. 0. 0.
      41. 15. 0. 6. 2. 0. 0. 0. 0. 27. 12. 0. 20. 5. 0. 0. 0. 0. 25. 22.
      0. 5. 12. 0. 0. 0. 0. 26. 16. 0. 15. 7. 0. 0. 0. 0. 29. 12. 0. 19.
      4. 0. 0. 0. 0. 46. 4. 0. 14. 0. 0. 0. 0. 0. 53. 0. 0. 11. 0. 0. 0.
      0. 0. 37. 0. 0. 27. 0. 0. 0. 0. 0. 40. 20. 0. 3. 1. 0. 0. 0. 0.
      17. 5. 0. 35. 7. 0. 0. 0. 0. 39. 7. 0. 18. 0. 0. 0. 0. 0. 35. 18.
      0. 10. 1. 0. 0. 0. 0. 37. 5. 0. 18. 4. 0. 0. 0. 0. 51. 1. 0. 10.
      2. 0. 0. 0. 0. 37. 9. 0. 18. 0. 0. 0. 0. 0. 40. 3. 0. 16. 5. 0. 0.
