<?xml version="1.0"?>
<opencv_storage>
<opencv_ml_svm>
  <format>3</format>
  <svmType>C_SVC</svmType>
  <kernel>
    <type>LINEAR</type></kernel>
  <C>1.</C>
  <term_criteria><iterations>100</iterations></term_criteria>
  <var_count>1152</var_count>
  <class_count>2</class_count>
  <class_labels type_id="opencv-matrix">
    <rows>2</rows>
    <cols>1</cols>
    <dt>i</dt>
    <data>
      -1 1</data></class_labels>
  <sv_total>1</sv_total>
  <support_vectors>
    <_>
      0. 0. 0. 0. 1.58659695e-03 -7.64139768e-05 0. -6.19232072e-04
      -8.90950905e-04 0. 0. 0. 0. 2.46901705e-04 6.75472838e-04 0.
      2.28589308e-03 -3.20826750e-03 0. 0. 0. 0. -3.63249012e-04
      4.77143622e-04 0. 2.54534930e-03 -2.65924376e-03 0. 0. 0. 0.
      4.44463035e-03 -5.66809089e-04 0. -4.87555866e-04 -3.39026563e-03
      0. 0. 0. 0. 1.55139889e-03 -1.70337211e-03 0. 1.76093495e-03
      -1.60896173e-03 0. 0. 0. 0. 2.39353417e-03 -3.46773682e-04 0.
      1.17393746e-03 -3.22069786e-03 0. 0. 0. 0. -1.20135327e-03
      1.77157810e-03 0. -2.34416821e-05 -5.46783151e-04 0. 0. 0. 0.
      -7.06200371e-04 -1.75689079e-03 0. 2.51456047e-03 -5.14692183e-05
      0. 0. 0. 0. 1.95551175e-03 -7.93801504e-04 0. 7.71974912e-04
      -1.93368515e-03 0. 0. 0. 0. -1.07655709e-03 1.70899834e-03 0.
      2.00027163e-04 -8.32468446e-04 0. 0. 0. 0. 1.97724695e-03
      -1.72061182e-03 0. -3.23844230e-04 6.72090027e-05 0. 0. 0. 0.
      -1.43043557e-03 1.54773612e-03 0. 5.86193113e-04 -7.03493715e-04
      0. 0. 0. 0. -7.34659261e-04 3.48223420e-03 0. -1.37716089e-03
      -1.37041404e-03 0. 0. 0. 0. -1.01580657e-03 3.04576615e-03 0.
      -1.24150096e-03 -7.88458623e-04 0. 0. 0. 0. -3.44594184e-04
      4.05569212e-04 0. 1.48392748e-03 -1.54490245e-03 0. 0. 0. 0.
      9.23679618e-05 -1.05957661e-05 0. 1.85322948e-03 -1.93500158e-03
      0. 0. 0. 0. 3.23357148e-04 -1.10566756e-03 0. -1.97072484e-04
      9.79382894e-04 0. 0. 0. 0. -2.34800787e-03 5.59627688e-06 0.
      5.61299792e-04 1.78111170e-03 0. 0. 0. 0. 5.86733920e-04
      -3.34975339e-04 0. -1.35344290e-03 1.10168429e-03 0. 0. 0. 0.
      2.19616713e-03 -3.74965416e-03 0. 1.21998892e-03 3.33498116e-04 0.
      0. 0. 0. 2.28998088e-03 2.11092737e-03 0. -4.13583970e-04
      -3.98732442e-03 0. 0. 0. 0. 2.85591581e-04 1.63961260e-04 0.
      2.09651026e-03 -2.54606316e-03 0. 0. 0. 0. 1.72979737e-04
      -1.41353591e-03 0. -1.17877004e-04 1.35843316e-03 0. 0. 0. 0.
      5.72066492e-05 -3.00759129e-04 0. 2.44137409e-04 -5.84920372e-07
      0. 0. 0. 0. 8.87933595e-04 3.78369150e-04 0. -1.20499858e-03
      -6.13041848e-05 0. 0. 0. 0. 2.09947117e-04 -3.56398785e-04 0.
      -1.39944954e-03 1.54590118e-03 0. 0. 0. 0. -3.82525672e-04
      -5.97514329e-04 0. 1.08770584e-03 -1.07665815e-04 0. 0. 0. 0.
      1.27347565e-04 1.62629120e-03 0. -2.13051005e-03 3.76871321e-04 0.
      0. 0. 0. -7.83173542e-04 1.87176291e-03 0. -1.23438332e-03
      1.45794009e-04 0. 0. 0. 0. -4.15849529e-04 -3.63024219e-06 0.
      -4.90135979e-04 9.09615715e-04 0. 0. 0. 0. -1.21787796e-03
      -2.66390108e-03 0. 3.30899144e-03 5.72787481e-04 0. 0. 0. 0.
      -1.86658450e-04 -4.37800976e-04 0. 2.37551285e-03 -1.75105338e-03
      0. 0. 0. 0. -4.67749516e-04 2.44862604e-04 0. 3.24961555e-04
      -1.02074671e-04 0. 0. 0. 0. -1.25224015e-03 -3.14929843e-04 0.
      9.29371163e-04 6.37798803e-04 0. 0. 0. 0. -1.53424137e-03
      -1.20920513e-03 0. 1.89279171e-03 8.50654789e-04 0. 0. 0. 0.
      -6.18810300e-04 -4.11196466e-04 0. 6.30177674e-04 3.99829092e-04
      0. 0. 0. 0. -2.37168372e-03 2.63039256e-03 0. -6.62068080e-04
      4.03359358e-04 0. 0. 0. 0. 1.93166765e-04 7.16252602e-04 0.
      1.01126367e-04 -1.01054576e-03 0. 0. 0. 0. 1.29598222e-04
      1.12021109e-03 0. -2.99329200e-04 -9.50480113e-04 0. 0. 0. 0.
      -3.22167587e-04 -1.68973493e-04 0. 3.59964906e-04 1.31176173e-04
      0. 0. 0. 0. -1.15530929e-05 -5.19443885e-04 0. 2.16204018e-04
      3.14792967e-04 0. 0. 0. 0. -2.33148923e-04 -1.28328369e-03 0.
      5.96504135e-04 9.19928483e-04 0. 0. 0. 0. 1.53177779e-03
      -2.92883697e-03 0. 2.81304121e-03 -1.41598203e-03 0. 0. 0. 0.
      -7.18835043e-04 -1.24881009e-03 0. 2.33524153e-03 -3.67596396e-04
      0. 0. 0. 0. -1.02561619e-03 1.63622457e-03 0. -9.43426043e-04
      3.32817639e-04 0. 0. 0. 0. 7.71399646e-04 1.64381956e-04 0.
      1.32380880e-03 -2.25959043e-03 0. 0. 0. 0. 1.12338807e-03
      -1.96788260e-05 0. 1.53823674e-03 -2.64194608e-03 0. 0. 0. 0.
      8.75823724e-04 9.67037980e-04 0. -1.52024056e-03 -3.22621170e-04
      0. 0. 0. 0. -1.35579577e-03 1.09441113e-03 0. 2.67536525e-04
      -6.15178897e-06 0. 0. 0. 0. -1.94990227e-03 -9.01446561e-04 0.
      1.91508292e-03 9.36265918e-04 0. 0. 0. 0. -6.56951743e-05
      -1.44742080e-03 0. 9.53013950e-04 5.60102053e-04 0. 0. 0. 0.
      -1.08790211e-03 -2.24717078e-03 0. 2.63506174e-03 7.00011151e-04
      0. 0. 0. 0. -3.18271486e-04 7.63242366e-04 0. -8.59223073e-04
      4.14252194e-04 0. 0. 0. 0. 2.86960928e-03 1.64707401e-03 0.
      -1.65619340e-03 -2.86048977e-03 0. 0. 0. 0. 6.78651151e-04
      4.11710789e-04 0. -2.31683749e-04 -8.58678250e-04 0. 0. 0. 0.
      1.37130346e-03 4.16045106e-04 0. -2.32657441e-03 5.39225701e-04 0.
      0. 0. 0. 8.15835665e-04 6.00069528e-04 0. -9.59583442e-04
      -4.56321752e-04 0. 0. 0. 0. -7.40791947e-05 1.31121208e-03 0.
      -2.04804633e-03 8.10913392e-04 0. 0. 0. 0. -1.18861812e-04
      -9.59512719e-04 0. 6.69382280e-04 4.08992200e-04 0. 0. 0. 0.
      -2.62621278e-03 -4.02825644e-05 0. 1.13854429e-03 1.52795110e-03
      0. 0. 0. 0. -2.45587580e-04 4.08825668e-04 0. 2.36273117e-05
      -1.86865407e-04 0. 0. 0. 0. -1.23249053e-03 1.77589117e-03 0.
      1.02568789e-04 -6.45969412e-04 0. 0. 0. 0. -7.96460896e-04
      4.74433211e-04 0. -1.64870071e-04 4.86897799e-04 0. 0. 0. 0.
      -6.64044812e-04 1.20680907e-03 0. -9.39291087e-04 3.96526797e-04
      0. 0. 0. 0. 1.12969498e-03 6.90689660e-04 0. -5.26978751e-04
      -1.29340589e-03 0. 0. 0. 0. 1.92628242e-04 -8.54040773e-05 0.
      3.12707940e-04 -4.19932127e-04 0. 0. 0. 0. -2.11653722e-04
      -6.12977718e-04 0. 1.44429482e-03 -6.19663333e-04 0. 0. 0. 0.
      1.41877634e-03 -1.26031926e-03 0. 3.15190322e-04 -4.73647407e-04
      0. 0. 0. 0. -4.27779683e-04 -7.57912814e-04 0. 1.90682616e-03
      -7.21133722e-04 0. 0. 0. 0. 1.34678476e-03 5.90662647e-04 0.
      -1.92722466e-04 -1.74472493e-03 0. 0. 0. 0. -1.14055420e-03
      1.76147954e-03 0. 4.81841387e-04 -1.10276672e-03 0. 0. 0. 0.
      7.64357392e-04 1.50738272e-03 0. 3.33859847e-04 -2.60560005e-03 0.
      0. 0. 0. 1.29441338e-04 1.31114468e-03 0. -1.48563040e-03
      4.50443113e-05 0. 0. 0. 0. -2.22040777e-04 1.26114988e-03 0.
      -1.64870245e-04 -8.74238845e-04 0. 0. 0. 0. -1.33543904e-03
      -2.19927658e-03 0. 2.39193370e-03 1.14278193e-03 0. 0. 0. 0.
      -2.80194776e-03 4.15469287e-04 0. 2.42749648e-03 -4.10180583e-05
      0. 0. 0. 0. -6.31055518e-05 4.88195976e-04 0. 1.11610442e-03
      -1.54119486e-03 0. 0. 0. 0. 9.19459620e-04 1.78835681e-03 0.
      4.85601377e-05 -2.75637652e-03 0. 0. 0. 0. 6.84204395e-04
      7.21698219e-04 0. 2.12456821e-03 -3.53047089e-03 0. 0. 0. 0.
      -3.16456892e-04 -1.19779573e-03 0. 2.27503944e-03 -7.60786934e-04
      0. 0. 0. 0. 1.02905289e-03 1.04935293e-03 0. 7.65612291e-04
      -2.84401816e-03 0. 0. 0. 0. 7.00558303e-04 1.71087668e-04 0.
      -7.38704868e-04 -1.32941102e-04 0. 0. 0. 0. -1.04290235e-03
      1.03429484e-03 0. 9.75771458e-04 -9.67164000e-04 0. 0. 0. 0.
      2.92983628e-03 -2.43502180e-03 0. 9.17715312e-04 -1.41252985e-03
      0. 0. 0. 0. -1.35100738e-03 2.52361409e-03 0. 8.91479940e-05
      -1.26175489e-03 0. 0. 0. 0. -1.52092334e-03 3.16859526e-03 0.
      -1.60053722e-03 -4.71347084e-05 0. 0. 0. 0. 1.04077929e-03
      -8.02748313e-04 0. 2.60372157e-03 -2.84175272e-03 0. 0. 0. 0.
      -8.08496086e-04 -3.36162338e-04 0. 3.48129286e-03 -2.33663456e-03
      0. 0. 0. 0. 1.51224982e-03 -7.35049893e-04 0. 1.35214912e-04
      -9.12414747e-04 0. 0. 0. 0. 4.73058783e-04 -2.55232386e-04 0.
      1.87201356e-03 -2.08983989e-03 0. 0. 0. 0. -1.56427710e-03
      -9.68023494e-04 0. 2.05850159e-03 4.73799038e-04 0. 0. 0. 0.
      -1.07270363e-03 1.42750319e-03 0. -1.13474135e-03 7.79941911e-04
      0. 0. 0. 0. -3.95703828e-04 6.85468549e-04 0. 2.87533967e-05
      -3.18518112e-04 0. 0. 0. 0. -1.13865139e-03 6.11084048e-04 0.
      1.11697579e-03 -5.89408504e-04 0. 0. 0. 0. 8.63698719e-04
      -1.02473900e-03 0. 2.60797935e-03 -2.44693900e-03 0. 0. 0. 0.
      4.93647647e-04 -1.16081571e-03 0. -2.03958974e-04 8.71127122e-04
      0. 0. 0. 0. -5.25982759e-04 2.13930989e-03 0. -1.58196443e-03
      -3.13626806e-05 0. 0. 0. 0. -2.07834179e-03 8.81227723e-04 0.
      7.48144288e-04 4.48969746e-04 0. 0. 0. 0. 5.04762575e-04
      -1.98605572e-04 0. 1.11286098e-03 -1.41901791e-03 0. 0. 0. 0.
      -7.64629920e-04 3.42044717e-04 0. 3.88201501e-04 3.43837310e-05 0.
      0. 0. 0. -1.36881473e-03 2.17967154e-05 0. 1.67939917e-03
      -3.32381111e-04 0. 0. 0. 0. 8.08133453e-04 9.34309675e-04 0.
      -8.32689402e-04 -9.09753726e-04 0. 0. 0. 0. -9.32163617e-04
      6.37737103e-04 0. 1.34624064e-03 -1.05181406e-03 0. 0. 0. 0.
      -6.15784491e-04 1.48861948e-03 0. -1.31862948e-03 4.45794460e-04
      0. 0. 0. 0. 2.13971781e-03 -1.00658997e-03 0. -1.53470319e-03
      4.01575468e-04 0. 0. 0. 0. 1.30944594e-03 -3.12276359e-04 0.
      -1.25707989e-03 2.59910244e-04 0. 0. 0. 0. -3.85927066e-04
      -7.63959601e-04 0. 2.02490902e-03 -8.75022262e-04 0. 0. 0. 0.
      -7.74042273e-04 -1.48562185e-05 0. 1.50258804e-03 -7.13689544e-04
      0. 0. 0. 0. -1.04290037e-03 8.09401274e-04 0. 3.85811320e-04
      -1.52312263e-04 0. 0. 0. 0. 1.58229974e-04 -1.15904410e-03 0.
      1.16492028e-03 -1.64106066e-04 0. 0. 0. 0. -1.67359563e-03
      9.50240763e-04 0. -2.15145948e-04 9.38500802e-04 0. 0. 0. 0.
      -1.60790260e-05 1.45345565e-03 0. -2.35470850e-03 9.17331956e-04
      0. 0. 0. 0. -9.74839379e-04 1.76749425e-03 0. -2.39544455e-03
      1.60278974e-03 0. 0. 0. 0. 1.32326328e-04 1.38038641e-03 0.
      -1.82115473e-03 3.08441930e-04 0. 0. 0. 0. 6.81921840e-04
      8.17136082e-04 0. -1.11870037e-03 -3.80357495e-04 0. 0. 0. 0.
      1.28198089e-03 -2.30107200e-03 0. 8.75643862e-04 1.43447207e-04 0.
      0. 0. 0. 2.23764870e-03 -1.56802373e-04 0. -2.33414792e-03
      2.53301521e-04 0. 0. 0. 0. 2.98097008e-03 -1.76870020e-03 0.
      -1.18325313e-03 -2.90167609e-05 0. 0. 0. 0. 1.93125196e-03
      -4.41477605e-04 0. -2.51530274e-03 1.02552841e-03 0. 0. 0. 0.
      4.69783205e-04 1.50277585e-04 0. -2.14157975e-03 1.52151892e-03 0.
      0. 0. 0. -1.39835221e-03 3.56889766e-04 0. 3.24265711e-05
      1.00903586e-03 0. 0. 0. 0. -3.73534014e-04 9.58845194e-04 0.
      -1.90602173e-03 1.32071052e-03 0. 0. 0. 0. -2.14639469e-03
      1.31536997e-03 0. -5.34368737e-05 8.84461624e-04 0. 0. 0. 0.
      -1.55489799e-03 9.99463606e-04 0. -8.18264962e-04 1.37369928e-03
      0. 0. 0. 0. -2.28696014e-03 1.83417019e-03 0. -3.62438121e-04
      8.15228152e-04 0. 0. 0. 0. -5.90498326e-04 1.70489468e-04 0.
      -2.32193488e-05 4.43228200e-04 0. 0. 0. 0. -2.34995666e-03
      2.02897354e-03 0. -6.09643117e-04 9.30626353e-04 0. 0. 0. 0.
      -3.22004431e-03 2.71245698e-03 0. -1.34815974e-03 1.85574684e-03</_></support_vectors>
  <uncompressed_sv_total>155</uncompressed_sv_total>
  <uncompressed_support_vectors>
    <_>
      0. 0. 0. 0. 64. 0. 0. 0. 0. 0. 0. 0. 0. 64. 0. 0. 0. 0. 0. 0. 0.
      0. 64. 0. 0. 0. 0. 0. 0. 0. 0. 50. 7. 0. 2. 5. 0. 0. 0. 0. 54. 9.
      0. 0. 1. 0. 0. 0. 0. 64. 0. 0. 0. 0. 0. 0. 0. 0. 64. 0. 0. 0. 0.
      0. 0. 0. 0. 62. 2. 0. 0. 0. 0. 0. 0. 0. 64. 0. 0. 0. 0. 0. 0. 0.
      0. 60. 2. 0. 2. 0. 0. 0. 0. 0. 64. 0. 0. 0. 0. 0. 0. 0. 0. 58. 3.
      0. 2. 1. 0. 0. 0. 0. 44. 0. 0. 17. 3. 0. 0. 0. 0. 63. 1. 0. 0. 0.
      0. 0. 0. 0. 64. 0. 0. 0. 0. 0. 0. 0. 0. 64. 0. 0. 0. 0. 0. 0. 0.
      0. 61. 2. 0. 1. 0. 0. 0. 0. 0. 64. 0. 0. 0. 0. 0. 0. 0. 0. 60. 2.
      0. 2. 0. 0. 0. 0. 0. 53. 11. 0. 0. 0. 0. 0. 0. 0. 34. 3. 0. 15.
      12. 0. 0. 0. 0. 63. 0. 0. 1. 0. 0. 0. 0. 0. 64. 0. 0. 0. 0. 0. 0.
      0. 0. 64. 0. 0. 0. 0. 0. 0. 0. 0. 59. 3. 0. 2. 0. 0. 0. 0. 0. 64.
      0. 0. 0. 0. 0. 0. 0. 0. 58. 4. 0. 2. 0. 0. 0. 0. 0. 61. 1. 0. 2.
      0. 0. 0. 0. 0. 42. 2. 0. 19. 1. 0. 0. 0. 0. 55. 0. 0. 9. 0. 0. 0.
      0. 0. 64. 0. 0. 0. 0. 0. 0. 0. 0. 64. 0. 0. 0. 0. 0. 0. 0. 0. 57.
      4. 0. 3. 0. 0. 0. 0. 0. 62. 1. 0. 1. 0. 0. 0. 0. 0. 62. 2. 0. 0.
      0. 0. 0. 0. 0. 57. 2. 0. 2. 3. 0. 0. 0. 0. 62. 0. 0. 2. 0. 0. 0.
      0. 0. 32. 3. 0. 26. 3. 0. 0. 0. 0. 60. 1. 0. 3. 0. 0. 0. 0. 0. 64.
      0. 0. 0. 0. 0. 0. 0. 0. 61. 1. 0. 2. 0. 0. 0. 0. 0. 49. 12. 0. 3.
      0. 0. 0. 0. 0. 50. 12. 0. 2. 0. 0. 0. 0. 0. 57. 2. 0. 4. 1. 0. 0.
      0. 0. 54. 0. 0. 7. 3. 0. 0. 0. 0. 27. 3. 0. 24. 10. 0. 0. 0. 0.
      55. 0. 0. 6. 3. 0. 0. 0. 0. 64. 0. 0. 0. 0. 0. 0. 0. 0. 63. 0. 0.
      1. 0. 0. 0. 0. 0. 62. 2. 0. 0. 0. 0. 0. 0. 0. 58. 3. 0. 3. 0. 0.
      0. 0. 0. 59. 5. 0. 0. 0. 0. 0. 0. 0. 44. 2. 0. 17. 1. 0. 0. 0. 0.
      23. 0. 0. 38. 3. 0. 0. 0. 0. 51. 4. 0. 7. 2. 0. 0. 0. 0. 63. 0. 0.
      1. 0. 0. 0. 0. 0. 58. 3. 0. 2. 1. 0. 0. 0. 0. 59. 5. 0. 0. 0. 0.
      0. 0. 0. 48. 2. 0. 10. 4. 0. 0. 0. 0. 61. 3. 0. 0. 0. 0. 0. 0. 0.
      60. 0. 0. 4. 0. 0. 0. 0. 0. 32. 0. 0. 32. 0. 0. 0. 0. 0. 48. 0. 0.
      14. 2. 0. 0. 0. 0. 64. 0. 0. 0. 0. 0. 0. 0. 0. 56. 6. 0. 1. 1. 0.
      0. 0. 0. 60. 4. 0. 0. 0. 0. 0. 0. 0. 43. 3. 0. 17. 1. 0. 0. 0. 0.
      61. 3. 0. 0. 0. 0. 0. 0. 0. 63. 0. 0. 1. 0. 0. 0. 0. 0. 33. 0. 0.
      31. 0. 0. 0. 0. 0. 40. 6. 0. 15. 3. 0. 0. 0. 0. 58. 4. 0. 2. 0. 0.
      0. 0. 0. 62. 2. 0. 0. 0. 0. 0. 0. 0. 55. 7. 0. 2. 0. 0. 0. 0. 0.
      39. 14. 0. 8. 3. 0. 0. 0. 0. 59. 3. 0. 2. 0. 0. 0. 0. 0. 64. 0. 0.
      0. 0. 0. 0. 0. 0. 27. 0. 0. 35. 2. 0. 0. 0. 0. 49. 4. 0. 7. 4. 0.
      0. 0. 0. 59. 4. 0. 1. 0. 0. 0. 0. 0. 45. 7. 0. 8. 4. 0. 0. 0. 0.
      53. 5. 0. 6. 0. 0. 0. 0. 0. 55. 8. 0. 0. 1. 0. 0. 0. 0. 52. 12. 0.
      0. 0. 0. 0. 0. 0. 53. 11. 0. 0. 0. 0. 0. 0. 0. 24. 2. 0. 35. 3. 0.
      0. 0. 0. 48. 3. 0. 9. 4. 0. 0. 0. 0. 61. 2. 0. 1. 0. 0. 0. 0. 0.
      37. 8. 0. 9. 10. 0. 0. 0. 0. 40. 15. 0. 4. 5. 0. 0. 0. 0. 50. 13.
      0. 0. 1. 0. 0. 0. 0. 33. 24. 0. 3. 4. 0. 0. 0. 0. 42. 12. 0. 8. 2.
      0. 0. 0. 0. 36. 4. 0. 17. 7. 0. 0. 0. 0. 49. 4. 0. 10. 1. 0. 0. 0.
      0. 63. 1. 0. 0. 0. 0. 0. 0. 0. 45. 6. 0. 10. 3. 0. 0. 0. 0. 36.
      11. 0. 12. 5. 0. 0. 0. 0. 38. 16. 0. 6. 4. 0. 0. 0. 0. 42. 13. 0.
      7. 2. 0. 0. 0. 0. 37. 13. 0. 9. 5. 0. 0. 0. 0. 31. 0. 0. 25. 8. 0.
      0. 0. 0. 48. 8. 0. 3. 5. 0. 0. 0. 0. 63. 1. 0. 0. 0. 0. 0. 0. 0.
      44. 8. 0. 7. 5. 0. 0. 0. 0. 60. 0. 0. 4. 0. 0. 0. 0. 0. 55. 0. 0.
      9. 0. 0. 0. 0. 0. 44. 6. 0. 11. 3. 0. 0. 0. 0. 45. 5. 0. 14. 0. 0.
      0. 0. 0. 39. 3. 0. 16. 6. 0. 0. 0. 0. 50. 8. 0. 5. 1. 0. 0. 0. 0.
      58. 6. 0. 0. 0. 0. 0. 0. 0. 43. 4. 0. 17. 0. 0. 0. 0. 0. 62. 0. 0.
      2. 0. 0. 0. 0. 0. 60. 0. 0. 4. 0. 0. 0. 0. 0. 48. 0. 0. 16. 0. 0.
      0. 0. 0. 59. 2. 0. 3. 0. 0. 0. 0. 0. 47. 0. 0. 15. 2. 0. 0. 0. 0.
      60. 0. 0. 4. 0. 0. 0. 0. 0. 63. 0. 0. 1. 0. 0. 0. 0. 0. 43. 12. 0.
      6. 3. 0. 0. 0. 0. 47. 0. 0. 17. 0. 0. 0. 0. 0. 61. 0. 0. 3. 0. 0.
      0. 0. 0. 63. 0. 0. 1. 0. 0. 0. 0. 0. 62. 1. 0. 1. 0. 0. 0. 0. 0.
      52. 0. 0. 12. 0. 0. 0. 0. 0. 61. 0. 0. 3. 0. 0. 0. 0. 0. 60. 0. 0.
      4. 0.</_>
    <_>
      0. 0. 0. 0. 63. 1. 0. 0. 0. 0. 0. 0. 0. 64. 0. 0. 0. 0. 0. 0. 0.
      0. 64. 0. 0. 0. 0. 0. 0. 0. 0. 49. 6. 0. 2. 7. 0. 0. 0. 0. 55. 9.
      0. 0. 0. 0. 0. 0. 0. 64. 0. 0. 0. 0. 0. 0. 0. 0. 64. 0. 0. 0. 0.
      0. 0. 0. 0. 64. 0. 0. 0. 0. 0. 0. 0. 0. 62. 2. 0. 0. 0. 0. 0. 0.
      0. 64. 0. 0. 0. 0. 0. 0. 0. 0. 64. 0. 0. 0. 0. 0. 0. 0. 0. 59. 2.
      0. 3. 0. 0. 0. 0. 0. 44. 1. 0. 19. 0. 0. 0. 0. 0. 64. 0. 0. 0. 0.
      0. 0. 0. 0. 64. 0. 0. 0. 0. 0. 0. 0. 0. 64. 0. 0. 0. 0. 0. 0. 0.
      0. 63. 0. 0. 1. 0. 0. 0. 0. 0. 64. 0. 0. 0. 0. 0. 0. 0. 0. 58. 2.
      0. 4. 0. 0. 0. 0. 0. 54. 9. 0. 1. 0. 0. 0. 0. 0. 40. 0. 0. 14. 10.
      0. 0. 0. 0. 64. 0. 0. 0. 0. 0. 0. 0. 0. 64. 0. 0. 0. 0. 0. 0. 0.
      0. 64. 0. 0. 0. 0. 0. 0. 0. 0. 60. 4. 0. 0. 0. 0. 0. 0. 0. 63. 0.
      0. 1. 0. 0. 0. 0. 0. 57. 0. 0. 5. 2. 0. 0. 0. 0. 64. 0. 0. 0. 0.
      0. 0. 0. 0. 44. 4. 0. 8. 8. 0. 0. 0. 0. 37. 3. 0. 21. 3. 0. 0. 0.
      0. 63. 0. 0. 1. 0. 0. 0. 0. 0. 64. 0. 0. 0. 0. 0. 0. 0. 0. 59. 4.
      0. 1. 0. 0. 0. 0. 0. 52. 10. 0. 1. 1. 0. 0. 0. 0. 37. 17. 0. 2. 8.
      0. 0. 0. 0. 30. 20. 0. 5. 9. 0. 0. 0. 0. 38. 10. 0. 8. 8. 0. 0. 0.
      0. 62. 1. 0. 1. 0. 0. 0. 0. 0. 45. 2. 0. 15. 2. 0. 0. 0. 0. 64. 0.
      0. 0. 0. 0. 0. 0. 0. 60. 1. 0. 3. 0. 0. 0. 0. 0. 61. 0. 0. 3. 0.
      0. 0. 0. 0. 60. 4. 0. 0. 0. 0. 0. 0. 0. 43. 16. 0. 4. 1. 0. 0. 0.
      0. 30. 7. 0. 8. 19. 0. 0. 0. 0. 42. 13. 0. 4. 5. 0. 0. 0. 0. 44.
      7. 0. 9. 4. 0. 0. 0. 0. 59. 2. 0. 3. 0. 0. 0. 0. 0. 63. 0. 0. 1.
      0. 0. 0. 0. 0. 64. 0. 0. 0. 0. 0. 0. 0. 0. 63. 1. 0. 0. 0. 0. 0.
      0. 0. 54. 9. 0. 0. 1. 0. 0. 0. 0. 46. 1. 0. 15. 2. 0. 0. 0. 0. 48.
      0. 0. 11. 5. 0. 0. 0. 0. 58. 4. 0. 2. 0. 0. 0. 0. 0. 61. 3. 0. 0.
      0. 0. 0. 0. 0. 63. 1. 0. 0. 0. 0. 0. 0. 0. 62. 2. 0. 0. 0. 0. 0.
      0. 0. 64. 0. 0. 0. 0. 0. 0. 0. 0. 64. 0. 0. 0. 0. 0. 0. 0. 0. 56.
      0. 0. 8. 0. 0. 0. 0. 0. 43. 4. 0. 14. 3. 0. 0. 0. 0. 62. 2. 0. 0.
      0. 0. 0. 0. 0. 62. 2. 0. 0. 0. 0. 0. 0. 0. 61. 2. 0. 1. 0. 0. 0.
      0. 0. 53. 8. 0. 2. 1. 0. 0. 0. 0. 62. 1. 0. 1. 0. 0. 0. 0. 0. 63.
      0. 0. 1. 0. 0. 0. 0. 0. 61. 2. 0. 1. 0. 0. 0. 0. 0. 45. 2. 0. 14.
      3. 0. 0. 0. 0. 51. 6. 0. 4. 3. 0. 0. 0. 0. 61. 2. 0. 1. 0. 0. 0.
      0. 0. 59. 3. 0. 2. 0. 0. 0. 0. 0. 58. 3. 0. 3. 0. 0. 0. 0. 0. 63.
      1. 0. 0. 0. 0. 0. 0. 0. 62. 2. 0. 0. 0. 0. 0. 0. 0. 63. 0. 0. 1.
      0. 0. 0. 0. 0. 42. 1. 0. 18. 3. 0. 0. 0. 0. 53. 7. 0. 4. 0. 0. 0.
      0. 0. 61. 3. 0. 0. 0. 0. 0. 0. 0. 50. 7. 0. 7. 0. 0. 0. 0. 0. 48.
      11. 0. 4. 1. 0. 0. 0. 0. 56. 7. 0. 0. 1. 0. 0. 0. 0. 52. 0. 0. 12.
      0. 0. 0. 0. 0. 61. 2. 0. 1. 0. 0. 0. 0. 0. 44. 0. 0. 17. 3. 0. 0.
      0. 0. 46. 7. 0. 8. 3. 0. 0. 0. 0. 62. 2. 0. 0. 0. 0. 0. 0. 0. 39.
      16. 0. 8. 1. 0. 0. 0. 0. 50. 7. 0. 5. 2. 0. 0. 0. 0. 50. 12. 0. 2.
      0. 0. 0. 0. 0. 39. 6. 0. 15. 4. 0. 0. 0. 0. 41. 19. 0. 1. 3. 0. 0.
      0. 0. 45. 8. 0. 10. 1. 0. 0. 0. 0. 44. 10. 0. 7. 3. 0. 0. 0. 0.
      63. 0. 0. 1. 0. 0. 0. 0. 0. 38. 14. 0. 9. 3. 0. 0. 0. 0. 51. 7. 0.
      4. 2. 0. 0. 0. 0. 51. 11. 0. 1. 1. 0. 0. 0. 0. 55. 0. 0. 7. 2. 0.
      0. 0. 0. 34. 14. 0. 13. 3. 0. 0. 0. 0. 43. 20. 0. 1. 0. 0. 0. 0.
      0. 33. 7. 0. 18. 6. 0. 0. 0. 0. 62. 2. 0. 0. 0. 0. 0. 0. 0. 34. 9.
      0. 14. 7. 0. 0. 0. 0. 45. 10. 0. 9. 0. 0. 0. 0. 0. 32. 13. 0. 14.
      5. 0. 0. 0. 0. 41. 9. 0. 11. 3. 0. 0. 0. 0. 30. 17. 0. 14. 3. 0.
      0. 0. 0. 51. 6. 0. 6. 1. 0. 0. 0. 0. 29. 10. 0. 20. 5. 0. 0. 0. 0.
      58. 4. 0. 2. 0. 0. 0. 0. 0. 58. 3. 0. 1. 2. 0. 0. 0. 0. 59. 0. 0.
      5. 0. 0. 0. 0. 0. 63. 0. 0. 1. 0. 0. 0. 0. 0. 45. 2. 0. 15. 2. 0.
      0. 0. 0. 40. 1. 0. 21. 2. 0. 0. 0. 0. 63. 1. 0. 0. 0. 0. 0. 0. 0.
      33. 8. 0. 21. 2. 0. 0. 0. 0. 59. 0. 0. 5. 0. 0. 0. 0. 0. 55. 1. 0.
      7. 1. 0. 0. 0. 0. 61. 0. 0. 3. 0. 0. 0. 0. 0. 61. 0. 0. 3. 0. 0.
      0. 0. 0. 58. 0. 0. 6. 0. 0. 0. 0. 0. 56. 0. 0. 8. 0. 0. 0. 0. 0.
      63. 0. 0. 1. 0. 0. 0. 0. 0. 57. 0. 0. 7. 0. 0. 0. 0. 0. 60. 0. 0.
      4. 0.</_>
    <_>
      0. 0. 0. 0. 64. 0. 0. 0. 0. 0. 0. 0. 0. 64. 0. 0. 0. 0. 0. 0. 0.
      0. 64. 0. 0. 0. 0. 0. 0. 0. 0. 53. 4. 0. 1. 6. 0. 0. 0. 0. 48. 13.
      0. 2. 1. 0. 0. 0. 0. 64. 0. 0. 0. 0. 0. 0. 0. 0. 64. 0. 0. 0. 0.
      0. 0. 0. 0. 64. 0. 0. 0. 0. 0. 0. 0. 0. 63. 1. 0. 0. 0. 0. 0. 0.
      0. 64. 0. 0. 0. 0. 0. 0. 0. 0. 64. 0. 0. 0. 0. 0. 0. 0. 0. 60. 0.
      0. 3. 1. 0. 0. 0. 0. 47. 1. 0. 13. 3. 0. 0. 0. 0. 64. 0. 0. 0. 0.
      0. 0. 0. 0. 64. 0. 0. 0. 0. 0. 0. 0. 0. 64. 0. 0. 0. 0. 0. 0. 0.
      0. 60. 1. 0. 3. 0. 0. 0. 0. 0. 62. 0. 0. 2. 0. 0. 0. 0. 0. 63. 0.
      0. 1. 0. 0. 0. 0. 0. 56. 6. 0. 2. 0. 0. 0. 0. 0. 42. 2. 0. 13. 7.
      0. 0. 0. 0. 64. 0. 0. 0. 0. 0. 0. 0. 0. 63. 1. 0. 0. 0. 0. 0. 0.
      0. 64. 0. 0. 0. 0. 0. 0. 0. 0. 54. 8. 0. 2. 0. 0. 0. 0. 0. 51. 7.
      0. 3. 3. 0. 0. 0. 0. 28. 28. 0. 4. 4. 0. 0. 0. 0. 39. 9. 0. 8. 8.
      0. 0. 0. 0. 59. 0. 0. 4. 1. 0. 0. 0. 0. 49. 0. 0. 15. 0. 0. 0. 0.
      0. 63. 0. 0. 1. 0. 0. 0. 0. 0. 64. 0. 0. 0. 0. 0. 0. 0. 0. 57. 7.
      0. 0. 0. 0. 0. 0. 0. 35. 24. 0. 0. 5. 0. 0. 0. 0. 44. 9. 0. 10. 1.
      0. 0. 0. 0. 59. 2. 0. 3. 0. 0. 0. 0. 0. 60. 0. 0. 4. 0. 0. 0. 0.
      0. 58. 1. 0. 5. 0. 0. 0. 0. 0. 49. 0. 0. 14. 1. 0. 0. 0. 0. 62. 2.
      0. 0. 0. 0. 0. 0. 0. 60. 1. 0. 3. 0. 0. 0. 0. 0. 59. 5. 0. 0. 0.
      0. 0. 0. 0. 60. 4. 0. 0. 0. 0. 0. 0. 0. 58. 0. 0. 6. 0. 0. 0. 0.
      0. 50. 6. 0. 8. 0. 0. 0. 0. 0. 38. 10. 0. 12. 4. 0. 0. 0. 0. 38.
      4. 0. 15. 7. 0. 0. 0. 0. 62. 1. 0. 1. 0. 0. 0. 0. 0. 60. 3. 0. 1.
      0. 0. 0. 0. 0. 56. 2. 0. 6. 0. 0. 0. 0. 0. 58. 5. 0. 1. 0. 0. 0.
      0. 0. 64. 0. 0. 0. 0. 0. 0. 0. 0. 49. 12. 0. 3. 0. 0. 0. 0. 0. 35.
      11. 0. 9. 9. 0. 0. 0. 0. 60. 2. 0. 0. 2. 0. 0. 0. 0. 63. 1. 0. 0.
      0. 0. 0. 0. 0. 62. 1. 0. 1. 0. 0. 0. 0. 0. 61. 3. 0. 0. 0. 0. 0.
      0. 0. 60. 3. 0. 1. 0. 0. 0. 0. 0. 64. 0. 0. 0. 0. 0. 0. 0. 0. 57.
      0. 0. 7. 0. 0. 0. 0. 0. 42. 2. 0. 19. 1. 0. 0. 0. 0. 63. 1. 0. 0.
      0. 0. 0. 0. 0. 64. 0. 0. 0. 0. 0. 0. 0. 0. 58. 5. 0. 1. 0. 0. 0.
      0. 0. 57. 4. 0. 3. 0. 0. 0. 0. 0. 60. 3. 0. 1. 0. 0. 0. 0. 0. 64.
      0. 0. 0. 0. 0. 0. 0. 0. 64. 0. 0. 0. 0. 0. 0. 0. 0. 46. 2. 0. 14.
      2. 0. 0. 0. 0. 57. 3. 0. 3. 1. 0. 0. 0. 0. 62. 2. 0. 0. 0. 0. 0.
      0. 0. 59. 1. 0. 4. 0. 0. 0. 0. 0. 54. 7. 0. 3. 0. 0. 0. 0. 0. 64.
      0. 0. 0. 0. 0. 0. 0. 0. 64. 0. 0. 0. 0. 0. 0. 0. 0. 52. 9. 0. 2.
      1. 0. 0. 0. 0. 48. 0. 0. 13. 3. 0. 0. 0. 0. 47. 8. 0. 6. 3. 0. 0.
      0. 0. 60. 4. 0. 0. 0. 0. 0. 0. 0. 62. 2. 0. 0. 0. 0. 0. 0. 0. 53.
      5. 0. 5. 1. 0. 0. 0. 0. 53. 10. 0. 1. 0. 0. 0. 0. 0. 56. 1. 0. 7.
      0. 0. 0. 0. 0. 29. 24. 0. 9. 2. 0. 0. 0. 0. 57. 0. 0. 7. 0. 0. 0.
      0. 0. 39. 6. 0. 15. 4. 0. 0. 0. 0. 62. 2. 0. 0. 0. 0. 0. 0. 0. 54.
      6. 0. 3. 1. 0. 0. 0. 0. 42. 15. 0. 6. 1. 0. 0. 0. 0. 41. 12. 0.
      10. 1. 0. 0. 0. 0. 39. 7. 0. 13. 5. 0. 0. 0. 0. 39. 11. 0. 10. 4.
      0. 0. 0. 0. 53. 8. 0. 3. 0. 0. 0. 0. 0. 41. 5. 0. 12. 6. 0. 0. 0.
      0. 64. 0. 0. 0. 0. 0. 0. 0. 0. 43. 14. 0. 4. 3. 0. 0. 0. 0. 37.
      12. 0. 14. 1. 0. 0. 0. 0. 37. 19. 0. 4. 4. 0. 0. 0. 0. 43. 4. 0.
      13. 4. 0. 0. 0. 0. 44. 10. 0. 6. 4. 0. 0. 0. 0. 47. 14. 0. 2. 1.
      0. 0. 0. 0. 38. 3. 0. 15. 8. 0. 0. 0. 0. 61. 1. 0. 2. 0. 0. 0. 0.
      0. 38. 11. 0. 8. 7. 0. 0. 0. 0. 42. 7. 0. 9. 6. 0. 0. 0. 0. 34.
      11. 0. 15. 4. 0. 0. 0. 0. 41. 7. 0. 11. 5. 0. 0. 0. 0. 35. 15. 0.
      11. 3. 0. 0. 0. 0. 50. 8. 0. 5. 1. 0. 0. 0. 0. 35. 7. 0. 14. 8. 0.
      0. 0. 0. 59. 2. 0. 2. 1. 0. 0. 0. 0. 55. 4. 0. 5. 0. 0. 0. 0. 0.
      62. 0. 0. 2. 0. 0. 0. 0. 0. 55. 0. 0. 9. 0. 0. 0. 0. 0. 45. 0. 0.
      16. 3. 0. 0. 0. 0. 43. 2. 0. 15. 4. 0. 0. 0. 0. 60. 0. 0. 4. 0. 0.
      0. 0. 0. 43. 5. 0. 13. 3. 0. 0. 0. 0. 52. 0. 0. 12. 0. 0. 0. 0. 0.
      61. 2. 0. 1. 0. 0. 0. 0. 0. 62. 0. 0. 2. 0. 0. 0. 0. 0. 64. 0. 0.
      0. 0. 0. 0. 0. 0. 52. 0. 0. 12. 0. 0. 0. 0. 0. 59. 0. 0. 5. 0. 0.
      0. 0. 0. 64. 0. 0. 0. 0. 0. 0. 0. 0. 60. 1. 0. 3. 0. 0. 0. 0. 0.
      58. 0. 0. 6. 0.</_>
    <_>
      0. 0. 0. 0. 63. 0. 0. 1. 0. 0. 0. 0. 0. 64. 0. 0. 0. 0. 0. 0. 0.
      0. 64. 0. 0. 0. 0. 0. 0. 0. 0. 50. 5. 0. 5. 4. 0. 0. 0. 0. 44. 15.
      0. 4. 1. 0. 0. 0. 0. 64. 0. 0. 0. 0. 0. 0. 0. 0. 64. 0. 0. 0. 0.
      0. 0. 0. 0. 64. 0. 0. 0. 0. 0. 0. 0. 0. 64. 0. 0. 0. 0. 0. 0. 0.
      0. 64. 0. 0. 0. 0. 0. 0. 0. 0. 64. 0. 0. 0. 0. 0. 0. 0. 0. 64. 0.
      0. 0. 0. 0. 0. 0. 0. 47. 0. 0. 17. 0. 0. 0. 0. 0. 56. 3. 0. 4. 1.
      0. 0. 0. 0. 51. 0. 0. 13. 0. 0. 0. 0. 0. 64. 0. 0. 0. 0. 0. 0. 0.
      0. 61. 3. 0. 0. 0. 0. 0. 0. 0. 64. 0. 0. 0. 0. 0. 0. 0. 0. 64. 0.
      0. 0. 0. 0. 0. 0. 0. 52. 12. 0. 0. 0. 0. 0. 0. 0. 35. 9. 0. 10.
      10. 0. 0. 0. 0. 55. 5. 0. 3. 1. 0. 0. 0. 0. 39. 11. 0. 14. 0. 0.
      0. 0. 0. 62. 0. 0. 2. 0. 0. 0. 0. 0. 52. 4. 0. 7. 1. 0. 0. 0. 0.
      58. 3. 0. 1. 2. 0. 0. 0. 0. 64. 0. 0. 0. 0. 0. 0. 0. 0. 62. 0. 0.
      2. 0. 0. 0. 0. 0. 61. 0. 0. 3. 0. 0. 0. 0. 0. 56. 1. 0. 5. 2. 0.
      0. 0. 0. 58. 1. 0. 5. 0. 0. 0. 0. 0. 50. 0. 0. 13. 1. 0. 0. 0. 0.
      49. 15. 0. 0. 0. 0. 0. 0. 0. 48. 16. 0. 0. 0. 0. 0. 0. 0. 58. 6.
      0. 0. 0. 0. 0. 0. 0. 49. 5. 0. 9. 1. 0. 0. 0. 0. 58. 2. 0. 3. 1.
      0. 0. 0. 0. 51. 7. 0. 3. 3. 0. 0. 0. 0. 48. 14. 0. 0. 2. 0. 0. 0.
      0. 47. 3. 0. 13. 1. 0. 0. 0. 0. 64. 0. 0. 0. 0. 0. 0. 0. 0. 61. 2.
      0. 1. 0. 0. 0. 0. 0. 57. 7. 0. 0. 0. 0. 0. 0. 0. 55. 6. 0. 3. 0.
      0. 0. 0. 0. 63. 1. 0. 0. 0. 0. 0. 0. 0. 45. 0. 0. 18. 1. 0. 0. 0.
      0. 61. 2. 0. 1. 0. 0. 0. 0. 0. 63. 0. 0. 1. 0. 0. 0. 0. 0. 60. 1.
      0. 3. 0. 0. 0. 0. 0. 55. 3. 0. 5. 1. 0. 0. 0. 0. 63. 1. 0. 0. 0.
      0. 0. 0. 0. 64. 0. 0. 0. 0. 0. 0. 0. 0. 64. 0. 0. 0. 0. 0. 0. 0.
      0. 47. 1. 0. 12. 4. 0. 0. 0. 0. 64. 0. 0. 0. 0. 0. 0. 0. 0. 62. 1.
      0. 1. 0. 0. 0. 0. 0. 63. 0. 0. 1. 0. 0. 0. 0. 0. 55. 2. 0. 7. 0.
      0. 0. 0. 0. 58. 6. 0. 0. 0. 0. 0. 0. 0. 64. 0. 0. 0. 0. 0. 0. 0.
      0. 64. 0. 0. 0. 0. 0. 0. 0. 0. 46. 0. 0. 16. 2. 0. 0. 0. 0. 63. 1.
      0. 0. 0. 0. 0. 0. 0. 62. 2. 0. 0. 0. 0. 0. 0. 0. 56. 3. 0. 4. 1.
      0. 0. 0. 0. 62. 1. 0. 1. 0. 0. 0. 0. 0. 58. 4. 0. 2. 0. 0. 0. 0.
      0. 60. 0. 0. 4. 0. 0. 0. 0. 0. 62. 0. 0. 2. 0. 0. 0. 0. 0. 46. 1.
      0. 15. 2. 0. 0. 0. 0. 62. 0. 0. 2. 0. 0. 0. 0. 0. 60. 1. 0. 3. 0.
      0. 0. 0. 0. 60. 1. 0. 1. 2. 0. 0. 0. 0. 62. 0. 0. 2. 0. 0. 0. 0.
      0. 58. 5. 0. 1. 0. 0. 0. 0. 0. 47. 0. 0. 17. 0. 0. 0. 0. 0. 60. 0.
      0. 4. 0. 0. 0. 0. 0. 42. 1. 0. 19. 2. 0. 0. 0. 0. 62. 0. 0. 2. 0.
      0. 0. 0. 0. 64. 0. 0. 0. 0. 0. 0. 0. 0. 60. 4. 0. 0. 0. 0. 0. 0.
      0. 63. 1. 0. 0. 0. 0. 0. 0. 0. 59. 2. 0. 3. 0. 0. 0. 0. 0. 55. 0.
      0. 9. 0. 0. 0. 0. 0. 52. 0. 0. 12. 0. 0. 0. 0. 0. 52. 0. 0. 12. 0.
      0. 0. 0. 0. 54. 2. 0. 6. 2. 0. 0. 0. 0. 61. 3. 0. 0. 0. 0. 0. 0.
      0. 56. 4. 0. 4. 0. 0. 0. 0. 0. 51. 7. 0. 6. 0. 0. 0. 0. 0. 44. 15.
      0. 4. 1. 0. 0. 0. 0. 51. 0. 0. 10. 3. 0. 0. 0. 0. 40. 12. 0. 8. 4.
      0. 0. 0. 0. 38. 14. 0. 4. 8. 0. 0. 0. 0. 57. 0. 0. 7. 0. 0. 0. 0.
      0. 62. 0. 0. 2. 0. 0. 0. 0. 0. 49. 10. 0. 2. 3. 0. 0. 0. 0. 39.
      12. 0. 11. 2. 0. 0. 0. 0. 62. 2. 0. 0. 0. 0. 0. 0. 0. 40. 3. 0.
      11. 10. 0. 0. 0. 0. 56. 3. 0. 3. 2. 0. 0. 0. 0. 50. 2. 0. 10. 2.
      0. 0. 0. 0. 63. 0. 0. 1. 0. 0. 0. 0. 0. 62. 2. 0. 0. 0. 0. 0. 0.
      0. 43. 14. 0. 3. 4. 0. 0. 0. 0. 41. 14. 0. 4. 5. 0. 0. 0. 0. 52.
      6. 0. 5. 1. 0. 0. 0. 0. 35. 11. 0. 6. 12. 0. 0. 0. 0. 42. 4. 0.
      12. 6. 0. 0. 0. 0. 55. 8. 0. 0. 1. 0. 0. 0. 0. 59. 4. 0. 1. 0. 0.
      0. 0. 0. 64. 0. 0. 0. 0. 0. 0. 0. 0. 59. 0. 0. 5. 0. 0. 0. 0. 0.
      50. 1. 0. 13. 0. 0. 0. 0. 0. 48. 3. 0. 9. 4. 0. 0. 0. 0. 43. 6. 0.
      14. 1. 0. 0. 0. 0. 42. 3. 0. 12. 7. 0. 0. 0. 0. 43. 10. 0. 10. 1.
      0. 0. 0. 0. 55. 4. 0. 5. 0. 0. 0. 0. 0. 60. 4. 0. 0. 0. 0. 0. 0.
      0. 56. 0. 0. 8. 0. 0. 0. 0. 0. 58. 2. 0. 4. 0. 0. 0. 0. 0. 61. 2.
      0. 1. 0. 0. 0. 0. 0. 43. 0. 0. 21. 0. 0. 0. 0. 0. 51. 0. 0. 13. 0.
      0. 0. 0. 0. 57. 0. 0. 7. 0. 0. 0. 0. 0. 60. 0. 0. 4. 0. 0. 0. 0.
      0. 54. 8. 0. 2. 0.</_>
    <_>
      0. 0. 0. 0. 62. 0. 0. 2. 0. 0. 0. 0. 0. 64. 0. 0. 0. 0. 0. 0. 0.
      0. 64. 0. 0. 0. 0. 0. 0. 0. 0. 49. 4. 0. 5. 6. 0. 0. 0. 0. 50. 12.
      0. 2. 0. 0. 0. 0. 0. 64. 0. 0. 0. 0. 0. 0. 0. 0. 64. 0. 0. 0. 0.
      0. 0. 0. 0. 64. 0. 0. 0. 0. 0. 0. 0. 0. 62. 2. 0. 0. 0. 0. 0. 0.
      0. 64. 0. 0. 0. 0. 0. 0. 0. 0. 64. 0. 0. 0. 0. 0. 0. 0. 0. 60. 2.
      0. 2. 0. 0. 0. 0. 0. 42. 0. 0. 21. 1. 0. 0. 0. 0. 63. 1. 0. 0. 0.
      0. 0. 0. 0. 64. 0. 0. 0. 0. 0. 0. 0. 0. 64. 0. 0. 0. 0. 0. 0. 0.
      0. 61. 2. 0. 1. 0. 0. 0. 0. 0. 62. 2. 0. 0. 0. 0. 0. 0. 0. 62. 0.
      0. 2. 0. 0. 0. 0. 0. 50. 14. 0. 0. 0. 0. 0. 0. 0. 36. 3. 0. 15.
      10. 0. 0. 0. 0. 63. 0. 0. 1. 0. 0. 0. 0. 0. 63. 0. 0. 1. 0. 0. 0.
      0. 0. 64. 0. 0. 0. 0. 0. 0. 0. 0. 64. 0. 0. 0. 0. 0. 0. 0. 0. 60.
      2. 0. 2. 0. 0. 0. 0. 0. 62. 2. 0. 0. 0. 0. 0. 0. 0. 48. 1. 0. 15.
      0. 0. 0. 0. 0. 57. 3. 0. 4. 0. 0. 0. 0. 0. 46. 9. 0. 2. 7. 0. 0.
      0. 0. 42. 6. 0. 12. 4. 0. 0. 0. 0. 64. 0. 0. 0. 0. 0. 0. 0. 0. 60.
      1. 0. 3. 0. 0. 0. 0. 0. 64. 0. 0. 0. 0. 0. 0. 0. 0. 42. 22. 0. 0.
      0. 0. 0. 0. 0. 39. 11. 0. 1. 13. 0. 0. 0. 0. 40. 8. 0. 1. 15. 0.
      0. 0. 0. 50. 5. 0. 5. 4. 0. 0. 0. 0. 48. 0. 0. 15. 1. 0. 0. 0. 0.
      64. 0. 0. 0. 0. 0. 0. 0. 0. 61. 3. 0. 0. 0. 0. 0. 0. 0. 59. 4. 0.
      1. 0. 0. 0. 0. 0. 58. 4. 0. 2. 0. 0. 0. 0. 0. 55. 3. 0. 6. 0. 0.
      0. 0. 0. 59. 1. 0. 4. 0. 0. 0. 0. 0. 54. 1. 0. 9. 0. 0. 0. 0. 0.
      43. 2. 0. 13. 6. 0. 0. 0. 0. 62. 2. 0. 0. 0. 0. 0. 0. 0. 51. 3. 0.
      7. 3. 0. 0. 0. 0. 58. 4. 0. 2. 0. 0. 0. 0. 0. 52. 11. 0. 1. 0. 0.
      0. 0. 0. 36. 25. 0. 1. 2. 0. 0. 0. 0. 36. 22. 0. 3. 3. 0. 0. 0. 0.
      35. 14. 0. 9. 6. 0. 0. 0. 0. 59. 1. 0. 2. 2. 0. 0. 0. 0. 63. 1. 0.
      0. 0. 0. 0. 0. 0. 56. 6. 0. 2. 0. 0. 0. 0. 0. 63. 1. 0. 0. 0. 0.
      0. 0. 0. 60. 2. 0. 2. 0. 0. 0. 0. 0. 63. 1. 0. 0. 0. 0. 0. 0. 0.
      63. 0. 0. 1. 0. 0. 0. 0. 0. 47. 1. 0. 15. 1. 0. 0. 0. 0. 62. 2. 0.
      0. 0. 0. 0. 0. 0. 64. 0. 0. 0. 0. 0. 0. 0. 0. 64. 0. 0. 0. 0. 0.
      0. 0. 0. 61. 1. 0. 2. 0. 0. 0. 0. 0. 63. 1. 0. 0. 0. 0. 0. 0. 0.
      62. 2. 0. 0. 0. 0. 0. 0. 0. 60. 2. 0. 2. 0. 0. 0. 0. 0. 31. 7. 0.
      23. 3. 0. 0. 0. 0. 64. 0. 0. 0. 0. 0. 0. 0. 0. 63. 0. 0. 1. 0. 0.
      0. 0. 0. 52. 9. 0. 3. 0. 0. 0. 0. 0. 61. 0. 0. 3. 0. 0. 0. 0. 0.
      63. 1. 0. 0. 0. 0. 0. 0. 0. 64. 0. 0. 0. 0. 0. 0. 0. 0. 64. 0. 0.
      0. 0. 0. 0. 0. 0. 27. 3. 0. 28. 6. 0. 0. 0. 0. 57. 5. 0. 2. 0. 0.
      0. 0. 0. 62. 1. 0. 1. 0. 0. 0. 0. 0. 58. 3. 0. 3. 0. 0. 0. 0. 0.
      54. 6. 0. 4. 0. 0. 0. 0. 0. 64. 0. 0. 0. 0. 0. 0. 0. 0. 49. 8. 0.
      7. 0. 0. 0. 0. 0. 63. 0. 0. 1. 0. 0. 0. 0. 0. 19. 0. 0. 45. 0. 0.
      0. 0. 0. 49. 6. 0. 6. 3. 0. 0. 0. 0. 63. 1. 0. 0. 0. 0. 0. 0. 0.
      48. 10. 0. 4. 2. 0. 0. 0. 0. 51. 10. 0. 3. 0. 0. 0. 0. 0. 51. 12.
      0. 1. 0. 0. 0. 0. 0. 37. 7. 0. 15. 5. 0. 0. 0. 0. 54. 5. 0. 5. 0.
      0. 0. 0. 0. 31. 8. 0. 16. 9. 0. 0. 0. 0. 57. 2. 0. 4. 1. 0. 0. 0.
      0. 63. 1. 0. 0. 0. 0. 0. 0. 0. 32. 23. 0. 7. 2. 0. 0. 0. 0. 42.
      16. 0. 5. 1. 0. 0. 0. 0. 57. 5. 0. 1. 1. 0. 0. 0. 0. 48. 0. 0. 14.
      2. 0. 0. 0. 0. 41. 17. 0. 3. 3. 0. 0. 0. 0. 28. 5. 0. 23. 8. 0. 0.
      0. 0. 58. 6. 0. 0. 0. 0. 0. 0. 0. 62. 2. 0. 0. 0. 0. 0. 0. 0. 43.
      8. 0. 6. 7. 0. 0. 0. 0. 41. 8. 0. 11. 4. 0. 0. 0. 0. 41. 15. 0. 3.
      5. 0. 0. 0. 0. 36. 8. 0. 11. 9. 0. 0. 0. 0. 44. 14. 0. 5. 1. 0. 0.
      0. 0. 34. 10. 0. 13. 7. 0. 0. 0. 0. 52. 7. 0. 3. 2. 0. 0. 0. 0.
      60. 4. 0. 0. 0. 0. 0. 0. 0. 59. 2. 0. 3. 0. 0. 0. 0. 0. 48. 4. 0.
      10. 2. 0. 0. 0. 0. 56. 1. 0. 7. 0. 0. 0. 0. 0. 40. 3. 0. 21. 0. 0.
      0. 0. 0. 48. 10. 0. 5. 1. 0. 0. 0. 0. 33. 6. 0. 22. 3. 0. 0. 0. 0.
      53. 6. 0. 2. 3. 0. 0. 0. 0. 54. 8. 0. 2. 0. 0. 0. 0. 0. 63. 0. 0.
      1. 0. 0. 0. 0. 0. 58. 0. 0. 6. 0. 0. 0. 0. 0. 56. 0. 0. 8. 0. 0.
      0. 0. 0. 47. 0. 0. 16. 1. 0. 0. 0. 0. 59. 0. 0. 5. 0. 0. 0. 0. 0.
      49. 0. 0. 15. 0. 0. 0. 0. 0. 56. 0. 0. 8. 0. 0. 0. 0. 0. 61. 1. 0.
      2. 0.</_>
    <_>
      0. 0. 0. 0. 64. 0. 0. 0. 0. 0. 0. 0. 0. 64. 0. 0. 0. 0. 0. 0. 0.
      0. 64. 0. 0. 0. 0. 0. 0. 0. 0. 53. 5. 0. 2. 4. 0. 0. 0. 0. 51. 13.
      0. 0. 0. 0. 0. 0. 0. 64. 0. 0. 0. 0. 0. 0. 0. 0. 64. 0. 0. 0. 0.
      0. 0. 0. 0. 64. 0. 0. 0. 0. 0. 0. 0. 0. 63. 1. 0. 0. 0. 0. 0. 0.
      0. 64. 0. 0. 0. 0. 0. 0. 0. 0. 64. 0. 0. 0. 0. 0. 0. 0. 0. 60. 3.
      0. 1. 0. 0. 0. 0. 0. 42. 1. 0. 19. 2. 0. 0. 0. 0. 64. 0. 0. 0. 0.
      0. 0. 0. 0. 64. 0. 0. 0. 0. 0. 0. 0. 0. 64. 0. 0. 0. 0. 0. 0. 0.
      0. 64. 0. 0. 0. 0. 0. 0. 0. 0. 64. 0. 0. 0. 0. 0. 0. 0. 0. 61. 2.
      0. 1. 0. 0. 0. 0. 0. 55. 8. 0. 1. 0. 0. 0. 0. 0. 61. 0. 0. 1. 2.
      0. 0. 0. 0. 45. 5. 0. 10. 4. 0. 0. 0. 0. 64. 0. 0. 0. 0. 0. 0. 0.
      0. 64. 0. 0. 0. 0. 0. 0. 0. 0. 62. 1. 0. 1. 0. 0. 0. 0. 0. 62. 0.
      0. 2. 0. 0. 0. 0. 0. 61. 1. 0. 2. 0. 0. 0. 0. 0. 52. 2. 0. 2. 8.
      0. 0. 0. 0. 40. 7. 0. 4. 13. 0. 0. 0. 0. 52. 0. 0. 12. 0. 0. 0. 0.
      0. 64. 0. 0. 0. 0. 0. 0. 0. 0. 64. 0. 0. 0. 0. 0. 0. 0. 0. 59. 3.
      0. 2. 0. 0. 0. 0. 0. 59. 3. 0. 2. 0. 0. 0. 0. 0. 58. 0. 0. 5. 1.
      0. 0. 0. 0. 42. 3. 0. 7. 12. 0. 0. 0. 0. 64. 0. 0. 0. 0. 0. 0. 0.
      0. 49. 1. 0. 14. 0. 0. 0. 0. 0. 57. 0. 0. 7. 0. 0. 0. 0. 0. 64. 0.
      0. 0. 0. 0. 0. 0. 0. 56. 7. 0. 1. 0. 0. 0. 0. 0. 54. 10. 0. 0. 0.
      0. 0. 0. 0. 40. 23. 0. 0. 1. 0. 0. 0. 0. 29. 26. 0. 5. 4. 0. 0. 0.
      0. 30. 27. 0. 7. 0. 0. 0. 0. 0. 35. 9. 0. 10. 10. 0. 0. 0. 0. 57.
      0. 0. 5. 2. 0. 0. 0. 0. 63. 1. 0. 0. 0. 0. 0. 0. 0. 55. 4. 0. 5.
      0. 0. 0. 0. 0. 63. 1. 0. 0. 0. 0. 0. 0. 0. 58. 6. 0. 0. 0. 0. 0.
      0. 0. 64. 0. 0. 0. 0. 0. 0. 0. 0. 56. 4. 0. 4. 0. 0. 0. 0. 0. 45.
      2. 0. 13. 4. 0. 0. 0. 0. 64. 0. 0. 0. 0. 0. 0. 0. 0. 62. 1. 0. 1.
      0. 0. 0. 0. 0. 63. 1. 0. 0. 0. 0. 0. 0. 0. 64. 0. 0. 0. 0. 0. 0.
      0. 0. 58. 3. 0. 3. 0. 0. 0. 0. 0. 64. 0. 0. 0. 0. 0. 0. 0. 0. 56.
      0. 0. 8. 0. 0. 0. 0. 0. 45. 1. 0. 17. 1. 0. 0. 0. 0. 62. 2. 0. 0.
      0. 0. 0. 0. 0. 63. 1. 0. 0. 0. 0. 0. 0. 0. 61. 2. 0. 1. 0. 0. 0.
      0. 0. 63. 1. 0. 0. 0. 0. 0. 0. 0. 60. 4. 0. 0. 0. 0. 0. 0. 0. 64.
      0. 0. 0. 0. 0. 0. 0. 0. 60. 0. 0. 4. 0. 0. 0. 0. 0. 46. 1. 0. 13.
      4. 0. 0. 0. 0. 55. 3. 0. 5. 1. 0. 0. 0. 0. 63. 1. 0. 0. 0. 0. 0.
      0. 0. 61. 3. 0. 0. 0. 0. 0. 0. 0. 54. 5. 0. 5. 0. 0. 0. 0. 0. 62.
      2. 0. 0. 0. 0. 0. 0. 0. 63. 1. 0. 0. 0. 0. 0. 0. 0. 64. 0. 0. 0.
      0. 0. 0. 0. 0. 41. 0. 0. 19. 4. 0. 0. 0. 0. 54. 6. 0. 4. 0. 0. 0.
      0. 0. 63. 1. 0. 0. 0. 0. 0. 0. 0. 58. 6. 0. 0. 0. 0. 0. 0. 0. 58.
      3. 0. 3. 0. 0. 0. 0. 0. 60. 4. 0. 0. 0. 0. 0. 0. 0. 60. 4. 0. 0.
      0. 0. 0. 0. 0. 58. 0. 0. 6. 0. 0. 0. 0. 0. 44. 1. 0. 18. 1. 0. 0.
      0. 0. 56. 3. 0. 3. 2. 0. 0. 0. 0. 58. 5. 0. 1. 0. 0. 0. 0. 0. 59.
      5. 0. 0. 0. 0. 0. 0. 0. 54. 5. 0. 5. 0. 0. 0. 0. 0. 49. 11. 0. 3.
      1. 0. 0. 0. 0. 64. 0. 0. 0. 0. 0. 0. 0. 0. 57. 1. 0. 4. 2. 0. 0.
      0. 0. 38. 10. 0. 11. 5. 0. 0. 0. 0. 58. 2. 0. 4. 0. 0. 0. 0. 0.
      62. 2. 0. 0. 0. 0. 0. 0. 0. 36. 13. 0. 13. 2. 0. 0. 0. 0. 48. 9.
      0. 4. 3. 0. 0. 0. 0. 52. 12. 0. 0. 0. 0. 0. 0. 0. 36. 18. 0. 6. 4.
      0. 0. 0. 0. 48. 7. 0. 7. 2. 0. 0. 0. 0. 33. 11. 0. 15. 5. 0. 0. 0.
      0. 52. 7. 0. 4. 1. 0. 0. 0. 0. 61. 0. 0. 3. 0. 0. 0. 0. 0. 30. 16.
      0. 12. 6. 0. 0. 0. 0. 35. 9. 0. 14. 6. 0. 0. 0. 0. 34. 19. 0. 8.
      3. 0. 0. 0. 0. 42. 1. 0. 17. 4. 0. 0. 0. 0. 36. 23. 0. 5. 0. 0. 0.
      0. 0. 37. 4. 0. 15. 8. 0. 0. 0. 0. 51. 6. 0. 5. 2. 0. 0. 0. 0. 59.
      5. 0. 0. 0. 0. 0. 0. 0. 59. 2. 0. 3. 0. 0. 0. 0. 0. 53. 2. 0. 7.
      2. 0. 0. 0. 0. 52. 2. 0. 10. 0. 0. 0. 0. 0. 43. 0. 0. 21. 0. 0. 0.
      0. 0. 37. 12. 0. 12. 3. 0. 0. 0. 0. 47. 9. 0. 8. 0. 0. 0. 0. 0.
      42. 7. 0. 10. 5. 0. 0. 0. 0. 55. 4. 0. 5. 0. 0. 0. 0. 0. 62. 0. 0.
      2. 0. 0. 0. 0. 0. 59. 0. 0. 5. 0. 0. 0. 0. 0. 58. 0. 0. 6. 0. 0.
      0. 0. 0. 49. 0. 0. 14. 1. 0. 0. 0. 0. 61. 0. 0. 3. 0. 0. 0. 0. 0.
      60. 0. 0. 4. 0. 0. 0. 0. 0. 45. 0. 0. 19. 0. 0. 0. 0. 0. 58. 1. 0.
      5. 0.</_>
    <_>
      0. 0. 0. 0. 61. 1. 0. 2. 0. 0. 0. 0. 0. 63. 1. 0. 0. 0. 0. 0. 0.
      0. 63. 1. 0. 0. 0. 0. 0. 0. 0. 53. 4. 0. 3. 4. 0. 0. 0. 0. 46. 11.
      0. 5. 2. 0. 0. 0. 0. 64. 0. 0. 0. 0. 0. 0. 0. 0. 64. 0. 0. 0. 0.
      0. 0. 0. 0. 64. 0. 0. 0. 0. 0. 0. 0. 0. 61. 2. 0. 1. 0. 0. 0. 0.
      0. 63. 0. 0. 1. 0. 0. 0. 0. 0. 64. 0. 0. 0. 0. 0. 0. 0. 0. 58. 4.
      0. 2. 0. 0. 0. 0. 0. 47. 2. 0. 13. 2. 0. 0. 0. 0. 63. 0. 0. 1. 0.
      0. 0. 0. 0. 64. 0. 0. 0. 0. 0. 0. 0. 0. 64. 0. 0. 0. 0. 0. 0. 0.
      0. 63. 1. 0. 0. 0. 0. 0. 0. 0. 62. 1. 0. 1. 0. 0. 0. 0. 0. 50. 1.
      0. 12. 1. 0. 0. 0. 0. 41. 7. 0. 16. 0. 0. 0. 0. 0. 37. 8. 0. 13.
      6. 0. 0. 0. 0. 62. 0. 0. 2. 0. 0. 0. 0. 0. 64. 0. 0. 0. 0. 0. 0.
      0. 0. 64. 0. 0. 0. 0. 0. 0. 0. 0. 64. 0. 0. 0. 0. 0. 0. 0. 0. 55.
      7. 0. 2. 0. 0. 0. 0. 0. 36. 18. 0. 2. 8. 0. 0. 0. 0. 43. 13. 0. 8.
      0. 0. 0. 0. 0. 52. 2. 0. 10. 0. 0. 0. 0. 0. 44. 0. 0. 20. 0. 0. 0.
      0. 0. 63. 1. 0. 0. 0. 0. 0. 0. 0. 64. 0. 0. 0. 0. 0. 0. 0. 0. 61.
      2. 0. 1. 0. 0. 0. 0. 0. 59. 5. 0. 0. 0. 0. 0. 0. 0. 34. 4. 0. 20.
      6. 0. 0. 0. 0. 55. 7. 0. 2. 0. 0. 0. 0. 0. 32. 27. 0. 5. 0. 0. 0.
      0. 0. 32. 3. 0. 24. 5. 0. 0. 0. 0. 61. 2. 0. 1. 0. 0. 0. 0. 0. 64.
      0. 0. 0. 0. 0. 0. 0. 0. 49. 10. 0. 5. 0. 0. 0. 0. 0. 52. 8. 0. 0.
      4. 0. 0. 0. 0. 50. 7. 0. 2. 5. 0. 0. 0. 0. 59. 5. 0. 0. 0. 0. 0.
      0. 0. 60. 4. 0. 0. 0. 0. 0. 0. 0. 33. 3. 0. 22. 6. 0. 0. 0. 0. 61.
      1. 0. 2. 0. 0. 0. 0. 0. 63. 1. 0. 0. 0. 0. 0. 0. 0. 61. 2. 0. 1.
      0. 0. 0. 0. 0. 63. 1. 0. 0. 0. 0. 0. 0. 0. 64. 0. 0. 0. 0. 0. 0.
      0. 0. 62. 1. 0. 1. 0. 0. 0. 0. 0. 61. 0. 0. 3. 0. 0. 0. 0. 0. 41.
      1. 0. 21. 1. 0. 0. 0. 0. 60. 3. 0. 1. 0. 0. 0. 0. 0. 64. 0. 0. 0.
      0. 0. 0. 0. 0. 61. 2. 0. 1. 0. 0. 0. 0. 0. 61. 1. 0. 2. 0. 0. 0.
      0. 0. 57. 4. 0. 3. 0. 0. 0. 0. 0. 64. 0. 0. 0. 0. 0. 0. 0. 0. 60.
      0. 0. 4. 0. 0. 0. 0. 0. 40. 3. 0. 18. 3. 0. 0. 0. 0. 63. 1. 0. 0.
      0. 0. 0. 0. 0. 64. 0. 0. 0. 0. 0. 0. 0. 0. 63. 1. 0. 0. 0. 0. 0.
      0. 0. 57. 3. 0. 4. 0. 0. 0. 0. 0. 57. 5. 0. 1. 1. 0. 0. 0. 0. 64.
      0. 0. 0. 0. 0. 0. 0. 0. 60. 0. 0. 4. 0. 0. 0. 0. 0. 30. 2. 0. 30.
      2. 0. 0. 0. 0. 57. 3. 0. 4. 0. 0. 0. 0. 0. 64. 0. 0. 0. 0. 0. 0.
      0. 0. 61. 2. 0. 1. 0. 0. 0. 0. 0. 56. 3. 0. 4. 1. 0. 0. 0. 0. 58.
      5. 0. 1. 0. 0. 0. 0. 0. 64. 0. 0. 0. 0. 0. 0. 0. 0. 62. 0. 0. 2.
      0. 0. 0. 0. 0. 37. 3. 0. 22. 2. 0. 0. 0. 0. 59. 3. 0. 2. 0. 0. 0.
      0. 0. 60. 4. 0. 0. 0. 0. 0. 0. 0. 45. 11. 0. 7. 1. 0. 0. 0. 0. 55.
      4. 0. 5. 0. 0. 0. 0. 0. 57. 4. 0. 2. 1. 0. 0. 0. 0. 64. 0. 0. 0.
      0. 0. 0. 0. 0. 57. 0. 0. 7. 0. 0. 0. 0. 0. 45. 1. 0. 15. 3. 0. 0.
      0. 0. 55. 5. 0. 3. 1. 0. 0. 0. 0. 63. 1. 0. 0. 0. 0. 0. 0. 0. 49.
      7. 0. 7. 1. 0. 0. 0. 0. 48. 8. 0. 7. 1. 0. 0. 0. 0. 54. 9. 0. 1.
      0. 0. 0. 0. 0. 61. 3. 0. 0. 0. 0. 0. 0. 0. 44. 13. 0. 4. 3. 0. 0.
      0. 0. 49. 1. 0. 8. 6. 0. 0. 0. 0. 54. 4. 0. 5. 1. 0. 0. 0. 0. 64.
      0. 0. 0. 0. 0. 0. 0. 0. 44. 16. 0. 3. 1. 0. 0. 0. 0. 48. 11. 0. 4.
      1. 0. 0. 0. 0. 49. 11. 0. 4. 0. 0. 0. 0. 0. 32. 28. 0. 3. 1. 0. 0.
      0. 0. 56. 6. 0. 2. 0. 0. 0. 0. 0. 33. 8. 0. 19. 4. 0. 0. 0. 0. 42.
      10. 0. 10. 2. 0. 0. 0. 0. 61. 2. 0. 1. 0. 0. 0. 0. 0. 31. 10. 0.
      15. 8. 0. 0. 0. 0. 36. 16. 0. 11. 1. 0. 0. 0. 0. 33. 20. 0. 6. 5.
      0. 0. 0. 0. 45. 3. 0. 13. 3. 0. 0. 0. 0. 41. 17. 0. 4. 2. 0. 0. 0.
      0. 41. 8. 0. 14. 1. 0. 0. 0. 0. 35. 10. 0. 18. 1. 0. 0. 0. 0. 62.
      1. 0. 1. 0. 0. 0. 0. 0. 60. 0. 0. 4. 0. 0. 0. 0. 0. 54. 1. 0. 9.
      0. 0. 0. 0. 0. 47. 3. 0. 14. 0. 0. 0. 0. 0. 45. 3. 0. 16. 0. 0. 0.
      0. 0. 44. 6. 0. 11. 3. 0. 0. 0. 0. 55. 5. 0. 4. 0. 0. 0. 0. 0. 42.
      1. 0. 16. 5. 0. 0. 0. 0. 56. 1. 0. 7. 0. 0. 0. 0. 0. 61. 1. 0. 2.
      0. 0. 0. 0. 0. 64. 0. 0. 0. 0. 0. 0. 0. 0. 57. 0. 0. 7. 0. 0. 0.
      0. 0. 41. 0. 0. 22. 1. 0. 0. 0. 0. 62. 0. 0. 2. 0. 0. 0. 0. 0. 63.
      0. 0. 1. 0. 0. 0. 0. 0. 46. 0. 0. 10. 8. 0. 0. 0. 0. 58. 0. 0. 6.
      0.</_>
    <_>
      0. 0. 0. 0. 63. 1. 0. 0. 0. 0. 0. 0. 0. 63. 0. 0. 1. 0. 0. 0. 0.
      0. 64. 0. 0. 0. 0. 0. 0. 0. 0. 60. 0. 0. 4. 0. 0. 0. 0. 0. 46. 11.
      0. 5. 2. 0. 0. 0. 0. 63. 0. 0. 1. 0. 0. 0. 0. 0. 64. 0. 0. 0. 0.
      0. 0. 0. 0. 64. 0. 0. 0. 0. 0. 0. 0. 0. 62. 2. 0. 0. 0. 0. 0. 0.
      0. 60. 0. 0. 4. 0. 0. 0. 0. 0. 63. 1. 0. 0. 0. 0. 0. 0. 0. 28. 25.
      0. 5. 6. 0. 0. 0. 0. 36. 2. 0. 22. 4. 0. 0. 0. 0. 64. 0. 0. 0. 0.
      0. 0. 0. 0. 64. 0. 0. 0. 0. 0. 0. 0. 0. 64. 0. 0. 0. 0. 0. 0. 0.
      0. 62. 2. 0. 0. 0. 0. 0. 0. 0. 45. 1. 0. 15. 3. 0. 0. 0. 0. 59. 2.
      0. 3. 0. 0. 0. 0. 0. 38. 26. 0. 0. 0. 0. 0. 0. 0. 41. 12. 0. 10.
      1. 0. 0. 0. 0. 59. 0. 0. 5. 0. 0. 0. 0. 0. 64. 0. 0. 0. 0. 0. 0.
      0. 0. 64. 0. 0. 0. 0. 0. 0. 0. 0. 58. 6. 0. 0. 0. 0. 0. 0. 0. 47.
      1. 0. 9. 7. 0. 0. 0. 0. 60. 1. 0. 2. 1. 0. 0. 0. 0. 55. 9. 0. 0.
      0. 0. 0. 0. 0. 47. 16. 0. 0. 1. 0. 0. 0. 0. 46. 2. 0. 15. 1. 0. 0.
      0. 0. 64. 0. 0. 0. 0. 0. 0. 0. 0. 64. 0. 0. 0. 0. 0. 0. 0. 0. 57.
      6. 0. 1. 0. 0. 0. 0. 0. 41. 3. 0. 19. 1. 0. 0. 0. 0. 62. 2. 0. 0.
      0. 0. 0. 0. 0. 63. 0. 0. 1. 0. 0. 0. 0. 0. 55. 9. 0. 0. 0. 0. 0.
      0. 0. 34. 11. 0. 8. 11. 0. 0. 0. 0. 61. 1. 0. 2. 0. 0. 0. 0. 0.
      62. 2. 0. 0. 0. 0. 0. 0. 0. 58. 2. 0. 4. 0. 0. 0. 0. 0. 40. 16. 0.
      4. 4. 0. 0. 0. 0. 44. 15. 0. 1. 4. 0. 0. 0. 0. 58. 5. 0. 1. 0. 0.
      0. 0. 0. 62. 0. 0. 2. 0. 0. 0. 0. 0. 34. 2. 0. 24. 4. 0. 0. 0. 0.
      62. 0. 0. 2. 0. 0. 0. 0. 0. 64. 0. 0. 0. 0. 0. 0. 0. 0. 59. 2. 0.
      3. 0. 0. 0. 0. 0. 55. 8. 0. 1. 0. 0. 0. 0. 0. 61. 3. 0. 0. 0. 0.
      0. 0. 0. 62. 2. 0. 0. 0. 0. 0. 0. 0. 62. 0. 0. 2. 0. 0. 0. 0. 0.
      43. 0. 0. 16. 5. 0. 0. 0. 0. 60. 3. 0. 1. 0. 0. 0. 0. 0. 63. 1. 0.
      0. 0. 0. 0. 0. 0. 63. 1. 0. 0. 0. 0. 0. 0. 0. 64. 0. 0. 0. 0. 0.
      0. 0. 0. 51. 5. 0. 8. 0. 0. 0. 0. 0. 64. 0. 0. 0. 0. 0. 0. 0. 0.
      60. 0. 0. 4. 0. 0. 0. 0. 0. 42. 2. 0. 17. 3. 0. 0. 0. 0. 63. 1. 0.
      0. 0. 0. 0. 0. 0. 63. 1. 0. 0. 0. 0. 0. 0. 0. 60. 3. 0. 0. 1. 0.
      0. 0. 0. 60. 3. 0. 1. 0. 0. 0. 0. 0. 60. 4. 0. 0. 0. 0. 0. 0. 0.
      64. 0. 0. 0. 0. 0. 0. 0. 0. 59. 0. 0. 5. 0. 0. 0. 0. 0. 32. 5. 0.
      22. 5. 0. 0. 0. 0. 57. 4. 0. 3. 0. 0. 0. 0. 0. 64. 0. 0. 0. 0. 0.
      0. 0. 0. 59. 4. 0. 0. 1. 0. 0. 0. 0. 58. 3. 0. 3. 0. 0. 0. 0. 0.
      61. 2. 0. 1. 0. 0. 0. 0. 0. 64. 0. 0. 0. 0. 0. 0. 0. 0. 51. 0. 0.
      13. 0. 0. 0. 0. 0. 35. 2. 0. 22. 5. 0. 0. 0. 0. 59. 4. 0. 0. 1. 0.
      0. 0. 0. 60. 4. 0. 0. 0. 0. 0. 0. 0. 51. 7. 0. 3. 3. 0. 0. 0. 0.
      54. 5. 0. 5. 0. 0. 0. 0. 0. 54. 5. 0. 2. 3. 0. 0. 0. 0. 64. 0. 0.
      0. 0. 0. 0. 0. 0. 45. 0. 0. 18. 1. 0. 0. 0. 0. 44. 5. 0. 12. 3. 0.
      0. 0. 0. 50. 5. 0. 5. 4. 0. 0. 0. 0. 61. 1. 0. 2. 0. 0. 0. 0. 0.
      50. 6. 0. 6. 2. 0. 0. 0. 0. 60. 2. 0. 2. 0. 0. 0. 0. 0. 51. 11. 0.
      2. 0. 0. 0. 0. 0. 57. 6. 0. 1. 0. 0. 0. 0. 0. 31. 9. 0. 15. 9. 0.
      0. 0. 0. 60. 0. 0. 4. 0. 0. 0. 0. 0. 50. 6. 0. 7. 1. 0. 0. 0. 0.
      64. 0. 0. 0. 0. 0. 0. 0. 0. 44. 16. 0. 3. 1. 0. 0. 0. 0. 46. 9. 0.
      6. 3. 0. 0. 0. 0. 52. 11. 0. 1. 0. 0. 0. 0. 0. 35. 27. 0. 2. 0. 0.
      0. 0. 0. 49. 4. 0. 10. 1. 0. 0. 0. 0. 41. 9. 0. 12. 2. 0. 0. 0. 0.
      41. 11. 0. 12. 0. 0. 0. 0. 0. 63. 0. 0. 1. 0. 0. 0. 0. 0. 36. 7.
      0. 13. 8. 0. 0. 0. 0. 38. 15. 0. 9. 2. 0. 0. 0. 0. 34. 15. 0. 7.
      8. 0. 0. 0. 0. 43. 7. 0. 11. 3. 0. 0. 0. 0. 45. 15. 0. 2. 2. 0. 0.
      0. 0. 39. 4. 0. 20. 1. 0. 0. 0. 0. 39. 9. 0. 13. 3. 0. 0. 0. 0.
      60. 2. 0. 2. 0. 0. 0. 0. 0. 59. 1. 0. 4. 0. 0. 0. 0. 0. 57. 0. 0.
      7. 0. 0. 0. 0. 0. 55. 2. 0. 6. 1. 0. 0. 0. 0. 46. 3. 0. 15. 0. 0.
      0. 0. 0. 37. 13. 0. 12. 2. 0. 0. 0. 0. 49. 4. 0. 9. 2. 0. 0. 0. 0.
      36. 11. 0. 13. 4. 0. 0. 0. 0. 57. 1. 0. 6. 0. 0. 0. 0. 0. 64. 0.
      0. 0. 0. 0. 0. 0. 0. 61. 0. 0. 3. 0. 0. 0. 0. 0. 62. 0. 0. 2. 0.
      0. 0. 0. 0. 48. 0. 0. 15. 1. 0. 0. 0. 0. 59. 0. 0. 5. 0. 0. 0. 0.
      0. 59. 0. 0. 4. 1. 0. 0. 0. 0. 43. 0. 0. 13. 8. 0. 0. 0. 0. 54. 0.
      0. 10. 0.</_>
    <_>
      0. 0. 0. 0. 64. 0. 0. 0. 0. 0. 0. 0. 0. 63. 1. 0. 0. 0. 0. 0. 0.
      0. 64. 0. 0. 0. 0. 0. 0. 0. 0. 53. 3. 0. 2. 6. 0. 0. 0. 0. 46. 14.
      0. 4. 0. 0. 0. 0. 0. 64. 0. 0. 0. 0. 0. 0. 0. 0. 64. 0. 0. 0. 0.
      0. 0. 0. 0. 64. 0. 0. 0. 0. 0. 0. 0. 0. 63. 1. 0. 0. 0. 0. 0. 0.
      0. 64. 0. 0. 0. 0. 0. 0. 0. 0. 63. 1. 0. 0. 0. 0. 0. 0. 0. 57. 4.
      0. 3. 0. 0. 0. 0. 0. 59. 0. 0. 5. 0. 0. 0. 0. 0. 52. 0. 0. 11. 1.
      0. 0. 0. 0. 64. 0. 0. 0. 0. 0. 0. 0. 0. 64. 0. 0. 0. 0. 0. 0. 0.
      0. 60. 2. 0. 2. 0. 0. 0. 0. 0. 58. 2. 0. 4. 0. 0. 0. 0. 0. 50. 4.
      0. 10. 0. 0. 0. 0. 0. 54. 8. 0. 2. 0. 0. 0. 0. 0. 59. 1. 0. 2. 2.
      0. 0. 0. 0. 49. 2. 0. 10. 3. 0. 0. 0. 0. 63. 0. 0. 1. 0. 0. 0. 0.
      0. 64. 0. 0. 0. 0. 0. 0. 0. 0. 60. 4. 0. 0. 0. 0. 0. 0. 0. 43. 16.
      0. 3. 2. 0. 0. 0. 0. 35. 15. 0. 6. 8. 0. 0. 0. 0. 50. 0. 0. 14. 0.
      0. 0. 0. 0. 39. 4. 0. 6. 15. 0. 0. 0. 0. 39. 1. 0. 23. 1. 0. 0. 0.
      0. 64. 0. 0. 0. 0. 0. 0. 0. 0. 64. 0. 0. 0. 0. 0. 0. 0. 0. 56. 4.
      0. 4. 0. 0. 0. 0. 0. 59. 1. 0. 3. 1. 0. 0. 0. 0. 30. 29. 0. 1. 4.
      0. 0. 0. 0. 30. 26. 0. 3. 5. 0. 0. 0. 0. 33. 10. 0. 14. 7. 0. 0.
      0. 0. 18. 1. 0. 29. 16. 0. 0. 0. 0. 64. 0. 0. 0. 0. 0. 0. 0. 0.
      63. 1. 0. 0. 0. 0. 0. 0. 0. 63. 1. 0. 0. 0. 0. 0. 0. 0. 62. 1. 0.
      1. 0. 0. 0. 0. 0. 58. 3. 0. 3. 0. 0. 0. 0. 0. 62. 1. 0. 1. 0. 0.
      0. 0. 0. 39. 12. 0. 9. 4. 0. 0. 0. 0. 36. 3. 0. 21. 4. 0. 0. 0. 0.
      63. 1. 0. 0. 0. 0. 0. 0. 0. 63. 1. 0. 0. 0. 0. 0. 0. 0. 53. 4. 0.
      7. 0. 0. 0. 0. 0. 61. 1. 0. 2. 0. 0. 0. 0. 0. 56. 5. 0. 3. 0. 0.
      0. 0. 0. 64. 0. 0. 0. 0. 0. 0. 0. 0. 52. 0. 0. 12. 0. 0. 0. 0. 0.
      43. 0. 0. 17. 4. 0. 0. 0. 0. 61. 3. 0. 0. 0. 0. 0. 0. 0. 63. 1. 0.
      0. 0. 0. 0. 0. 0. 60. 1. 0. 3. 0. 0. 0. 0. 0. 56. 4. 0. 4. 0. 0.
      0. 0. 0. 59. 0. 0. 5. 0. 0. 0. 0. 0. 64. 0. 0. 0. 0. 0. 0. 0. 0.
      59. 0. 0. 5. 0. 0. 0. 0. 0. 36. 2. 0. 23. 3. 0. 0. 0. 0. 60. 3. 0.
      1. 0. 0. 0. 0. 0. 63. 1. 0. 0. 0. 0. 0. 0. 0. 57. 1. 0. 6. 0. 0.
      0. 0. 0. 56. 5. 0. 3. 0. 0. 0. 0. 0. 57. 7. 0. 0. 0. 0. 0. 0. 0.
      64. 0. 0. 0. 0. 0. 0. 0. 0. 64. 0. 0. 0. 0. 0. 0. 0. 0. 36. 2. 0.
      21. 5. 0. 0. 0. 0. 53. 6. 0. 4. 1. 0. 0. 0. 0. 64. 0. 0. 0. 0. 0.
      0. 0. 0. 62. 0. 0. 2. 0. 0. 0. 0. 0. 50. 11. 0. 3. 0. 0. 0. 0. 0.
      61. 3. 0. 0. 0. 0. 0. 0. 0. 64. 0. 0. 0. 0. 0. 0. 0. 0. 64. 0. 0.
      0. 0. 0. 0. 0. 0. 35. 0. 0. 28. 1. 0. 0. 0. 0. 51. 6. 0. 6. 1. 0.
      0. 0. 0. 59. 4. 0. 0. 1. 0. 0. 0. 0. 52. 8. 0. 4. 0. 0. 0. 0. 0.
      60. 1. 0. 3. 0. 0. 0. 0. 0. 63. 1. 0. 0. 0. 0. 0. 0. 0. 64. 0. 0.
      0. 0. 0. 0. 0. 0. 64. 0. 0. 0. 0. 0. 0. 0. 0. 39. 0. 0. 23. 2. 0.
      0. 0. 0. 48. 6. 0. 5. 5. 0. 0. 0. 0. 62. 2. 0. 0. 0. 0. 0. 0. 0.
      54. 7. 0. 2. 1. 0. 0. 0. 0. 55. 8. 0. 1. 0. 0. 0. 0. 0. 42. 18. 0.
      3. 1. 0. 0. 0. 0. 51. 6. 0. 5. 2. 0. 0. 0. 0. 50. 7. 0. 5. 2. 0.
      0. 0. 0. 44. 3. 0. 10. 7. 0. 0. 0. 0. 47. 5. 0. 11. 1. 0. 0. 0. 0.
      62. 1. 0. 1. 0. 0. 0. 0. 0. 42. 19. 0. 2. 1. 0. 0. 0. 0. 37. 15.
      0. 10. 2. 0. 0. 0. 0. 42. 12. 0. 8. 2. 0. 0. 0. 0. 56. 2. 0. 5. 1.
      0. 0. 0. 0. 34. 17. 0. 8. 5. 0. 0. 0. 0. 37. 5. 0. 21. 1. 0. 0. 0.
      0. 39. 11. 0. 8. 6. 0. 0. 0. 0. 63. 0. 0. 1. 0. 0. 0. 0. 0. 36. 7.
      0. 13. 8. 0. 0. 0. 0. 50. 8. 0. 3. 3. 0. 0. 0. 0. 33. 16. 0. 6. 9.
      0. 0. 0. 0. 42. 13. 0. 7. 2. 0. 0. 0. 0. 25. 12. 0. 17. 10. 0. 0.
      0. 0. 43. 9. 0. 10. 2. 0. 0. 0. 0. 37. 9. 0. 16. 2. 0. 0. 0. 0.
      60. 3. 0. 1. 0. 0. 0. 0. 0. 53. 3. 0. 7. 1. 0. 0. 0. 0. 57. 0. 0.
      7. 0. 0. 0. 0. 0. 55. 0. 0. 9. 0. 0. 0. 0. 0. 56. 4. 0. 4. 0. 0.
      0. 0. 0. 28. 7. 0. 24. 5. 0. 0. 0. 0. 41. 6. 0. 11. 6. 0. 0. 0. 0.
      34. 9. 0. 12. 9. 0. 0. 0. 0. 56. 7. 0. 1. 0. 0. 0. 0. 0. 56. 0. 0.
      7. 1. 0. 0. 0. 0. 62. 0. 0. 2. 0. 0. 0. 0. 0. 62. 0. 0. 2. 0. 0.
      0. 0. 0. 45. 0. 0. 19. 0. 0. 0. 0. 0. 52. 0. 0. 10. 2. 0. 0. 0. 0.
      60. 2. 0. 2. 0. 0. 0. 0. 0. 43. 0. 0. 21. 0. 0. 0. 0. 0. 61. 0. 0.
      3. 0.</_>
    <_>
      0. 0. 0. 0. 64. 0. 0. 0. 0. 0. 0. 0. 0. 64. 0. 0. 0. 0. 0. 0. 0.
      0. 64. 0. 0. 0. 0. 0. 0. 0. 0. 57. 0. 0. 6. 1. 0. 0. 0. 0. 45. 14.
      0. 2. 3. 0. 0. 0. 0. 64. 0. 0. 0. 0. 0. 0. 0. 0. 64. 0. 0. 0. 0.
      0. 0. 0. 0. 64. 0. 0. 0. 0. 0. 0. 0. 0. 62. 2. 0. 0. 0. 0. 0. 0.
      0. 64. 0. 0. 0. 0. 0. 0. 0. 0. 62. 1. 0. 1. 0. 0. 0. 0. 0. 59. 2.
      0. 2. 1. 0. 0. 0. 0. 61. 0. 0. 3. 0. 0. 0. 0. 0. 50. 0. 0. 12. 2.
      0. 0. 0. 0. 63. 0. 0. 1. 0. 0. 0. 0. 0. 64. 0. 0. 0. 0. 0. 0. 0.
      0. 58. 4. 0. 2. 0. 0. 0. 0. 0. 63. 0. 0. 1. 0. 0. 0. 0. 0. 63. 0.
      0. 1. 0. 0. 0. 0. 0. 57. 4. 0. 3. 0. 0. 0. 0. 0. 42. 5. 0. 12. 5.
      0. 0. 0. 0. 56. 0. 0. 5. 3. 0. 0. 0. 0. 64. 0. 0. 0. 0. 0. 0. 0.
      0. 64. 0. 0. 0. 0. 0. 0. 0. 0. 60. 4. 0. 0. 0. 0. 0. 0. 0. 59. 1.
      0. 4. 0. 0. 0. 0. 0. 64. 0. 0. 0. 0. 0. 0. 0. 0. 60. 0. 0. 4. 0.
      0. 0. 0. 0. 52. 0. 0. 12. 0. 0. 0. 0. 0. 57. 0. 0. 7. 0. 0. 0. 0.
      0. 55. 0. 0. 9. 0. 0. 0. 0. 0. 54. 0. 0. 7. 3. 0. 0. 0. 0. 59. 4.
      0. 1. 0. 0. 0. 0. 0. 62. 1. 0. 1. 0. 0. 0. 0. 0. 54. 5. 0. 4. 1.
      0. 0. 0. 0. 47. 17. 0. 0. 0. 0. 0. 0. 0. 41. 22. 0. 0. 1. 0. 0. 0.
      0. 34. 14. 0. 8. 8. 0. 0. 0. 0. 43. 11. 0. 3. 7. 0. 0. 0. 0. 62.
      0. 0. 1. 1. 0. 0. 0. 0. 62. 2. 0. 0. 0. 0. 0. 0. 0. 63. 0. 0. 1.
      0. 0. 0. 0. 0. 57. 4. 0. 2. 1. 0. 0. 0. 0. 48. 13. 0. 0. 3. 0. 0.
      0. 0. 44. 9. 0. 6. 5. 0. 0. 0. 0. 26. 1. 0. 36. 1. 0. 0. 0. 0. 63.
      1. 0. 0. 0. 0. 0. 0. 0. 60. 3. 0. 1. 0. 0. 0. 0. 0. 59. 1. 0. 4.
      0. 0. 0. 0. 0. 43. 16. 0. 3. 2. 0. 0. 0. 0. 42. 15. 0. 5. 2. 0. 0.
      0. 0. 57. 3. 0. 4. 0. 0. 0. 0. 0. 64. 0. 0. 0. 0. 0. 0. 0. 0. 31.
      0. 0. 33. 0. 0. 0. 0. 0. 61. 1. 0. 2. 0. 0. 0. 0. 0. 64. 0. 0. 0.
      0. 0. 0. 0. 0. 59. 3. 0. 2. 0. 0. 0. 0. 0. 58. 3. 0. 3. 0. 0. 0.
      0. 0. 61. 1. 0. 2. 0. 0. 0. 0. 0. 56. 0. 0. 8. 0. 0. 0. 0. 0. 64.
      0. 0. 0. 0. 0. 0. 0. 0. 38. 0. 0. 26. 0. 0. 0. 0. 0. 58. 1. 0. 5.
      0. 0. 0. 0. 0. 63. 1. 0. 0. 0. 0. 0. 0. 0. 57. 1. 0. 6. 0. 0. 0.
      0. 0. 59. 5. 0. 0. 0. 0. 0. 0. 0. 57. 7. 0. 0. 0. 0. 0. 0. 0. 58.
      3. 0. 2. 1. 0. 0. 0. 0. 64. 0. 0. 0. 0. 0. 0. 0. 0. 50. 0. 0. 14.
      0. 0. 0. 0. 0. 44. 6. 0. 11. 3. 0. 0. 0. 0. 63. 1. 0. 0. 0. 0. 0.
      0. 0. 63. 1. 0. 0. 0. 0. 0. 0. 0. 53. 8. 0. 3. 0. 0. 0. 0. 0. 63.
      1. 0. 0. 0. 0. 0. 0. 0. 64. 0. 0. 0. 0. 0. 0. 0. 0. 57. 0. 0. 7.
      0. 0. 0. 0. 0. 56. 0. 0. 8. 0. 0. 0. 0. 0. 31. 4. 0. 26. 3. 0. 0.
      0. 0. 61. 3. 0. 0. 0. 0. 0. 0. 0. 46. 12. 0. 6. 0. 0. 0. 0. 0. 61.
      1. 0. 2. 0. 0. 0. 0. 0. 64. 0. 0. 0. 0. 0. 0. 0. 0. 61. 3. 0. 0.
      0. 0. 0. 0. 0. 51. 0. 0. 13. 0. 0. 0. 0. 0. 55. 0. 0. 9. 0. 0. 0.
      0. 0. 34. 4. 0. 22. 4. 0. 0. 0. 0. 61. 3. 0. 0. 0. 0. 0. 0. 0. 44.
      11. 0. 8. 1. 0. 0. 0. 0. 52. 9. 0. 3. 0. 0. 0. 0. 0. 39. 21. 0. 3.
      1. 0. 0. 0. 0. 54. 9. 0. 0. 1. 0. 0. 0. 0. 44. 6. 0. 9. 5. 0. 0.
      0. 0. 48. 2. 0. 12. 2. 0. 0. 0. 0. 32. 12. 0. 13. 7. 0. 0. 0. 0.
      61. 3. 0. 0. 0. 0. 0. 0. 0. 48. 14. 0. 0. 2. 0. 0. 0. 0. 34. 16.
      0. 10. 4. 0. 0. 0. 0. 46. 11. 0. 5. 2. 0. 0. 0. 0. 59. 5. 0. 0. 0.
      0. 0. 0. 0. 32. 14. 0. 8. 10. 0. 0. 0. 0. 38. 9. 0. 15. 2. 0. 0.
      0. 0. 35. 11. 0. 9. 9. 0. 0. 0. 0. 64. 0. 0. 0. 0. 0. 0. 0. 0. 36.
      8. 0. 12. 8. 0. 0. 0. 0. 41. 12. 0. 6. 5. 0. 0. 0. 0. 37. 14. 0.
      6. 7. 0. 0. 0. 0. 49. 14. 0. 1. 0. 0. 0. 0. 0. 24. 12. 0. 18. 10.
      0. 0. 0. 0. 37. 9. 0. 13. 5. 0. 0. 0. 0. 41. 7. 0. 13. 3. 0. 0. 0.
      0. 63. 0. 0. 1. 0. 0. 0. 0. 0. 53. 3. 0. 5. 3. 0. 0. 0. 0. 51. 0.
      0. 13. 0. 0. 0. 0. 0. 55. 0. 0. 9. 0. 0. 0. 0. 0. 52. 5. 0. 7. 0.
      0. 0. 0. 0. 30. 8. 0. 19. 7. 0. 0. 0. 0. 37. 3. 0. 19. 5. 0. 0. 0.
      0. 35. 11. 0. 13. 5. 0. 0. 0. 0. 60. 2. 0. 2. 0. 0. 0. 0. 0. 56.
      1. 0. 7. 0. 0. 0. 0. 0. 64. 0. 0. 0. 0. 0. 0. 0. 0. 60. 0. 0. 4.
      0. 0. 0. 0. 0. 49. 0. 0. 14. 1. 0. 0. 0. 0. 53. 1. 0. 9. 1. 0. 0.
      0. 0. 50. 1. 0. 13. 0. 0. 0. 0. 0. 52. 0. 0. 12. 0. 0. 0. 0. 0.
      61. 0. 0. 3. 0.</_>
    <_>
      0. 0. 0. 0. 64. 0. 0. 0. 0. 0. 0. 0. 0. 64. 0. 0. 0. 0. 0. 0. 0.
      0. 64. 0. 0. 0. 0. 0. 0. 0. 0. 57. 2. 0. 2. 3. 0. 0. 0. 0. 46. 12.
      0. 2. 4. 0. 0. 0. 0. 64. 0. 0. 0. 0. 0. 0. 0. 0. 64. 0. 0. 0. 0.
      0. 0. 0. 0. 64. 0. 0. 0. 0. 0. 0. 0. 0. 64. 0. 0. 0. 0. 0. 0. 0.
      0. 64. 0. 0. 0. 0. 0. 0. 0. 0. 63. 0. 0. 1. 0. 0. 0. 0. 0. 63. 0.
      0. 1. 0. 0. 0. 0. 0. 58. 4. 0. 2. 0. 0. 0. 0. 0. 49. 1. 0. 11. 3.
      0. 0. 0. 0. 64. 0. 0. 0. 0. 0. 0. 0. 0. 64. 0. 0. 0. 0. 0. 0. 0.
      0. 60. 4. 0. 0. 0. 0. 0. 0. 0. 62. 1. 0. 0. 1. 0. 0. 0. 0. 62. 2.
      0. 0. 0. 0. 0. 0. 0. 51. 9. 0. 3. 1. 0. 0. 0. 0. 42. 8. 0. 11. 3.
      0. 0. 0. 0. 56. 0. 0. 5. 3. 0. 0. 0. 0. 64. 0. 0. 0. 0. 0. 0. 0.
      0. 62. 1. 0. 1. 0. 0. 0. 0. 0. 63. 0. 0. 1. 0. 0. 0. 0. 0. 64. 0.
      0. 0. 0. 0. 0. 0. 0. 63. 0. 0. 1. 0. 0. 0. 0. 0. 44. 3. 0. 8. 9.
      0. 0. 0. 0. 50. 3. 0. 8. 3. 0. 0. 0. 0. 49. 4. 0. 11. 0. 0. 0. 0.
      0. 62. 1. 0. 0. 1. 0. 0. 0. 0. 64. 0. 0. 0. 0. 0. 0. 0. 0. 61. 2.
      0. 1. 0. 0. 0. 0. 0. 64. 0. 0. 0. 0. 0. 0. 0. 0. 33. 6. 0. 8. 17.
      0. 0. 0. 0. 58. 0. 0. 6. 0. 0. 0. 0. 0. 55. 0. 0. 9. 0. 0. 0. 0.
      0. 51. 0. 0. 12. 1. 0. 0. 0. 0. 51. 0. 0. 12. 1. 0. 0. 0. 0. 64.
      0. 0. 0. 0. 0. 0. 0. 0. 61. 2. 0. 1. 0. 0. 0. 0. 0. 48. 15. 0. 0.
      1. 0. 0. 0. 0. 51. 2. 0. 1. 10. 0. 0. 0. 0. 58. 2. 0. 4. 0. 0. 0.
      0. 0. 53. 2. 0. 9. 0. 0. 0. 0. 0. 45. 1. 0. 15. 3. 0. 0. 0. 0. 45.
      3. 0. 12. 4. 0. 0. 0. 0. 62. 1. 0. 1. 0. 0. 0. 0. 0. 52. 4. 0. 5.
      3. 0. 0. 0. 0. 58. 2. 0. 3. 1. 0. 0. 0. 0. 62. 2. 0. 0. 0. 0. 0.
      0. 0. 64. 0. 0. 0. 0. 0. 0. 0. 0. 53. 0. 0. 11. 0. 0. 0. 0. 0. 49.
      2. 0. 5. 8. 0. 0. 0. 0. 56. 0. 0. 6. 2. 0. 0. 0. 0. 64. 0. 0. 0.
      0. 0. 0. 0. 0. 59. 2. 0. 3. 0. 0. 0. 0. 0. 58. 4. 0. 2. 0. 0. 0.
      0. 0. 58. 4. 0. 1. 1. 0. 0. 0. 0. 64. 0. 0. 0. 0. 0. 0. 0. 0. 63.
      0. 0. 1. 0. 0. 0. 0. 0. 32. 1. 0. 23. 8. 0. 0. 0. 0. 64. 0. 0. 0.
      0. 0. 0. 0. 0. 64. 0. 0. 0. 0. 0. 0. 0. 0. 62. 1. 0. 1. 0. 0. 0.
      0. 0. 58. 2. 0. 3. 1. 0. 0. 0. 0. 59. 4. 0. 1. 0. 0. 0. 0. 0. 61.
      0. 0. 3. 0. 0. 0. 0. 0. 63. 1. 0. 0. 0. 0. 0. 0. 0. 27. 1. 0. 32.
      4. 0. 0. 0. 0. 64. 0. 0. 0. 0. 0. 0. 0. 0. 63. 0. 0. 1. 0. 0. 0.
      0. 0. 55. 6. 0. 3. 0. 0. 0. 0. 0. 60. 2. 0. 1. 1. 0. 0. 0. 0. 57.
      6. 0. 0. 1. 0. 0. 0. 0. 63. 0. 0. 1. 0. 0. 0. 0. 0. 44. 0. 0. 20.
      0. 0. 0. 0. 0. 20. 2. 0. 38. 4. 0. 0. 0. 0. 59. 4. 0. 1. 0. 0. 0.
      0. 0. 57. 3. 0. 4. 0. 0. 0. 0. 0. 62. 1. 0. 1. 0. 0. 0. 0. 0. 46.
      11. 0. 7. 0. 0. 0. 0. 0. 52. 9. 0. 2. 1. 0. 0. 0. 0. 62. 1. 0. 1.
      0. 0. 0. 0. 0. 32. 0. 0. 32. 0. 0. 0. 0. 0. 20. 0. 0. 42. 2. 0. 0.
      0. 0. 55. 1. 0. 6. 2. 0. 0. 0. 0. 62. 1. 0. 1. 0. 0. 0. 0. 0. 52.
      10. 0. 1. 1. 0. 0. 0. 0. 54. 5. 0. 5. 0. 0. 0. 0. 0. 45. 14. 0. 4.
      1. 0. 0. 0. 0. 56. 7. 0. 0. 1. 0. 0. 0. 0. 38. 1. 0. 22. 3. 0. 0.
      0. 0. 36. 8. 0. 11. 9. 0. 0. 0. 0. 57. 1. 0. 3. 3. 0. 0. 0. 0. 60.
      1. 0. 3. 0. 0. 0. 0. 0. 35. 20. 0. 9. 0. 0. 0. 0. 0. 44. 12. 0. 5.
      3. 0. 0. 0. 0. 54. 6. 0. 3. 1. 0. 0. 0. 0. 58. 4. 0. 0. 2. 0. 0.
      0. 0. 35. 8. 0. 5. 16. 0. 0. 0. 0. 28. 13. 0. 16. 7. 0. 0. 0. 0.
      63. 1. 0. 0. 0. 0. 0. 0. 0. 63. 1. 0. 0. 0. 0. 0. 0. 0. 41. 12. 0.
      9. 2. 0. 0. 0. 0. 36. 14. 0. 12. 2. 0. 0. 0. 0. 51. 11. 0. 1. 1.
      0. 0. 0. 0. 31. 14. 0. 6. 13. 0. 0. 0. 0. 47. 1. 0. 10. 6. 0. 0.
      0. 0. 37. 11. 0. 9. 7. 0. 0. 0. 0. 57. 5. 0. 2. 0. 0. 0. 0. 0. 62.
      1. 0. 1. 0. 0. 0. 0. 0. 62. 0. 0. 2. 0. 0. 0. 0. 0. 47. 0. 0. 17.
      0. 0. 0. 0. 0. 57. 1. 0. 6. 0. 0. 0. 0. 0. 28. 8. 0. 23. 5. 0. 0.
      0. 0. 43. 1. 0. 14. 6. 0. 0. 0. 0. 40. 12. 0. 8. 4. 0. 0. 0. 0.
      55. 3. 0. 6. 0. 0. 0. 0. 0. 56. 8. 0. 0. 0. 0. 0. 0. 0. 60. 0. 0.
      4. 0. 0. 0. 0. 0. 58. 0. 0. 6. 0. 0. 0. 0. 0. 61. 0. 0. 3. 0. 0.
      0. 0. 0. 44. 2. 0. 14. 4. 0. 0. 0. 0. 51. 1. 0. 12. 0. 0. 0. 0. 0.
      51. 0. 0. 13. 0. 0. 0. 0. 0. 57. 0. 0. 7. 0. 0. 0. 0. 0. 58. 0. 0.
      6. 0.</_>
    <_>
      0. 0. 0. 0. 64. 0. 0. 0. 0. 0. 0. 0. 0. 64. 0. 0. 0. 0. 0. 0. 0.
      0. 64. 0. 0. 0. 0. 0. 0. 0. 0. 60. 0. 0. 2. 2. 0. 0. 0. 0. 45. 13.
      0. 3. 3. 0. 0. 0. 0. 61. 3. 0. 0. 0. 0. 0. 0. 0. 64. 0. 0. 0. 0.
      0. 0. 0. 0. 64. 0. 0. 0. 0. 0. 0. 0. 0. 62. 2. 0. 0. 0. 0. 0. 0.
      0. 59. 1. 0. 4. 0. 0. 0. 0. 0. 64. 0. 0. 0. 0. 0. 0. 0. 0. 61. 2.
      0. 1. 0. 0. 0. 0. 0. 58. 1. 0. 5. 0. 0. 0. 0. 0. 40. 0. 0. 22. 2.
      0. 0. 0. 0. 64. 0. 0. 0. 0. 0. 0. 0. 0. 64. 0. 0. 0. 0. 0. 0. 0.
      0. 58. 6. 0. 0. 0. 0. 0. 0. 0. 44. 4. 0. 14. 2. 0. 0. 0. 0. 62. 1.
      0. 1. 0. 0. 0. 0. 0. 60. 2. 0. 2. 0. 0. 0. 0. 0. 54. 5. 0. 5. 0.
      0. 0. 0. 0. 46. 0. 0. 9. 9. 0. 0. 0. 0. 64. 0. 0. 0. 0. 0. 0. 0.
      0. 62. 1. 0. 1. 0. 0. 0. 0. 0. 61. 3. 0. 0. 0. 0. 0. 0. 0. 46. 2.
      0. 12. 4. 0. 0. 0. 0. 61. 1. 0. 2. 0. 0. 0. 0. 0. 60. 0. 0. 4. 0.
      0. 0. 0. 0. 50. 0. 0. 11. 3. 0. 0. 0. 0. 48. 2. 0. 14. 0. 0. 0. 0.
      0. 62. 0. 0. 1. 1. 0. 0. 0. 0. 64. 0. 0. 0. 0. 0. 0. 0. 0. 61. 3.
      0. 0. 0. 0. 0. 0. 0. 32. 13. 0. 19. 0. 0. 0. 0. 0. 49. 3. 0. 9. 3.
      0. 0. 0. 0. 61. 2. 0. 1. 0. 0. 0. 0. 0. 59. 0. 0. 5. 0. 0. 0. 0.
      0. 36. 0. 0. 27. 1. 0. 0. 0. 0. 51. 0. 0. 10. 3. 0. 0. 0. 0. 64.
      0. 0. 0. 0. 0. 0. 0. 0. 62. 2. 0. 0. 0. 0. 0. 0. 0. 43. 15. 0. 2.
      4. 0. 0. 0. 0. 49. 6. 0. 3. 6. 0. 0. 0. 0. 62. 1. 0. 1. 0. 0. 0.
      0. 0. 59. 0. 0. 5. 0. 0. 0. 0. 0. 35. 0. 0. 22. 7. 0. 0. 0. 0. 47.
      1. 0. 13. 3. 0. 0. 0. 0. 61. 1. 0. 2. 0. 0. 0. 0. 0. 57. 2. 0. 5.
      0. 0. 0. 0. 0. 61. 1. 0. 0. 2. 0. 0. 0. 0. 64. 0. 0. 0. 0. 0. 0.
      0. 0. 64. 0. 0. 0. 0. 0. 0. 0. 0. 62. 0. 0. 2. 0. 0. 0. 0. 0. 34.
      1. 0. 25. 4. 0. 0. 0. 0. 53. 0. 0. 8. 3. 0. 0. 0. 0. 64. 0. 0. 0.
      0. 0. 0. 0. 0. 63. 1. 0. 0. 0. 0. 0. 0. 0. 61. 2. 0. 1. 0. 0. 0.
      0. 0. 59. 4. 0. 1. 0. 0. 0. 0. 0. 64. 0. 0. 0. 0. 0. 0. 0. 0. 64.
      0. 0. 0. 0. 0. 0. 0. 0. 46. 0. 0. 11. 7. 0. 0. 0. 0. 64. 0. 0. 0.
      0. 0. 0. 0. 0. 64. 0. 0. 0. 0. 0. 0. 0. 0. 60. 2. 0. 2. 0. 0. 0.
      0. 0. 60. 3. 0. 0. 1. 0. 0. 0. 0. 59. 2. 0. 3. 0. 0. 0. 0. 0. 59.
      0. 0. 5. 0. 0. 0. 0. 0. 64. 0. 0. 0. 0. 0. 0. 0. 0. 37. 1. 0. 21.
      5. 0. 0. 0. 0. 61. 2. 0. 1. 0. 0. 0. 0. 0. 57. 4. 0. 3. 0. 0. 0.
      0. 0. 48. 9. 0. 6. 1. 0. 0. 0. 0. 59. 2. 0. 2. 1. 0. 0. 0. 0. 59.
      5. 0. 0. 0. 0. 0. 0. 0. 64. 0. 0. 0. 0. 0. 0. 0. 0. 44. 0. 0. 20.
      0. 0. 0. 0. 0. 22. 3. 0. 37. 2. 0. 0. 0. 0. 59. 4. 0. 1. 0. 0. 0.
      0. 0. 55. 5. 0. 4. 0. 0. 0. 0. 0. 55. 3. 0. 5. 1. 0. 0. 0. 0. 57.
      4. 0. 3. 0. 0. 0. 0. 0. 49. 7. 0. 6. 2. 0. 0. 0. 0. 59. 2. 0. 3.
      0. 0. 0. 0. 0. 31. 0. 0. 33. 0. 0. 0. 0. 0. 14. 1. 0. 45. 4. 0. 0.
      0. 0. 55. 3. 0. 5. 1. 0. 0. 0. 0. 60. 2. 0. 2. 0. 0. 0. 0. 0. 53.
      8. 0. 2. 1. 0. 0. 0. 0. 55. 4. 0. 4. 1. 0. 0. 0. 0. 39. 12. 0. 11.
      2. 0. 0. 0. 0. 40. 22. 0. 0. 2. 0. 0. 0. 0. 49. 0. 0. 14. 1. 0. 0.
      0. 0. 23. 10. 0. 23. 8. 0. 0. 0. 0. 59. 0. 0. 4. 1. 0. 0. 0. 0.
      61. 1. 0. 1. 1. 0. 0. 0. 0. 38. 17. 0. 9. 0. 0. 0. 0. 0. 41. 15.
      0. 7. 1. 0. 0. 0. 0. 44. 9. 0. 7. 4. 0. 0. 0. 0. 57. 5. 0. 1. 1.
      0. 0. 0. 0. 38. 7. 0. 8. 11. 0. 0. 0. 0. 31. 11. 0. 13. 9. 0. 0.
      0. 0. 61. 1. 0. 2. 0. 0. 0. 0. 0. 63. 1. 0. 0. 0. 0. 0. 0. 0. 43.
      15. 0. 5. 1. 0. 0. 0. 0. 37. 11. 0. 11. 5. 0. 0. 0. 0. 47. 13. 0.
      2. 2. 0. 0. 0. 0. 40. 10. 0. 3. 11. 0. 0. 0. 0. 44. 1. 0. 9. 10.
      0. 0. 0. 0. 35. 11. 0. 12. 6. 0. 0. 0. 0. 60. 4. 0. 0. 0. 0. 0. 0.
      0. 62. 2. 0. 0. 0. 0. 0. 0. 0. 56. 1. 0. 7. 0. 0. 0. 0. 0. 52. 2.
      0. 10. 0. 0. 0. 0. 0. 57. 4. 0. 3. 0. 0. 0. 0. 0. 42. 5. 0. 11. 6.
      0. 0. 0. 0. 43. 4. 0. 13. 4. 0. 0. 0. 0. 39. 13. 0. 9. 3. 0. 0. 0.
      0. 60. 2. 0. 2. 0. 0. 0. 0. 0. 57. 7. 0. 0. 0. 0. 0. 0. 0. 62. 0.
      0. 2. 0. 0. 0. 0. 0. 59. 0. 0. 5. 0. 0. 0. 0. 0. 60. 1. 0. 3. 0.
      0. 0. 0. 0. 40. 1. 0. 20. 3. 0. 0. 0. 0. 48. 2. 0. 14. 0. 0. 0. 0.
      0. 54. 0. 0. 10. 0. 0. 0. 0. 0. 59. 0. 0. 5. 0. 0. 0. 0. 0. 58. 3.
      0. 3. 0.</_>
    <_>
      0. 0. 0. 0. 64. 0. 0. 0. 0. 0. 0. 0. 0. 64. 0. 0. 0. 0. 0. 0. 0.
      0. 64. 0. 0. 0. 0. 0. 0. 0. 0. 63. 0. 0. 1. 0. 0. 0. 0. 0. 44. 11.
      0. 6. 3. 0. 0. 0. 0. 58. 5. 0. 1. 0. 0. 0. 0. 0. 64. 0. 0. 0. 0.
      0. 0. 0. 0. 64. 0. 0. 0. 0. 0. 0. 0. 0. 64. 0. 0. 0. 0. 0. 0. 0.
      0. 64. 0. 0. 0. 0. 0. 0. 0. 0. 63. 1. 0. 0. 0. 0. 0. 0. 0. 60. 4.
      0. 0. 0. 0. 0. 0. 0. 57. 3. 0. 4. 0. 0. 0. 0. 0. 45. 0. 0. 18. 1.
      0. 0. 0. 0. 64. 0. 0. 0. 0. 0. 0. 0. 0. 64. 0. 0. 0. 0. 0. 0. 0.
      0. 61. 2. 0. 0. 1. 0. 0. 0. 0. 62. 2. 0. 0. 0. 0. 0. 0. 0. 63. 1.
      0. 0. 0. 0. 0. 0. 0. 58. 6. 0. 0. 0. 0. 0. 0. 0. 50. 8. 0. 2. 4.
      0. 0. 0. 0. 48. 0. 0. 9. 7. 0. 0. 0. 0. 64. 0. 0. 0. 0. 0. 0. 0.
      0. 64. 0. 0. 0. 0. 0. 0. 0. 0. 63. 0. 0. 1. 0. 0. 0. 0. 0. 64. 0.
      0. 0. 0. 0. 0. 0. 0. 59. 3. 0. 2. 0. 0. 0. 0. 0. 62. 0. 0. 2. 0.
      0. 0. 0. 0. 57. 0. 0. 6. 1. 0. 0. 0. 0. 45. 0. 0. 18. 1. 0. 0. 0.
      0. 62. 0. 0. 2. 0. 0. 0. 0. 0. 64. 0. 0. 0. 0. 0. 0. 0. 0. 60. 4.
      0. 0. 0. 0. 0. 0. 0. 63. 0. 0. 1. 0. 0. 0. 0. 0. 57. 2. 0. 5. 0.
      0. 0. 0. 0. 62. 0. 0. 2. 0. 0. 0. 0. 0. 59. 0. 0. 5. 0. 0. 0. 0.
      0. 54. 0. 0. 10. 0. 0. 0. 0. 0. 47. 1. 0. 16. 0. 0. 0. 0. 0. 64.
      0. 0. 0. 0. 0. 0. 0. 0. 59. 3. 0. 2. 0. 0. 0. 0. 0. 62. 1. 0. 1.
      0. 0. 0. 0. 0. 48. 1. 0. 11. 4. 0. 0. 0. 0. 64. 0. 0. 0. 0. 0. 0.
      0. 0. 52. 3. 0. 9. 0. 0. 0. 0. 0. 38. 2. 0. 21. 3. 0. 0. 0. 0. 48.
      0. 0. 15. 1. 0. 0. 0. 0. 60. 3. 0. 1. 0. 0. 0. 0. 0. 51. 7. 0. 2.
      4. 0. 0. 0. 0. 49. 15. 0. 0. 0. 0. 0. 0. 0. 46. 1. 0. 17. 0. 0. 0.
      0. 0. 64. 0. 0. 0. 0. 0. 0. 0. 0. 58. 0. 0. 6. 0. 0. 0. 0. 0. 41.
      6. 0. 12. 5. 0. 0. 0. 0. 44. 4. 0. 14. 2. 0. 0. 0. 0. 63. 0. 0. 1.
      0. 0. 0. 0. 0. 64. 0. 0. 0. 0. 0. 0. 0. 0. 55. 5. 0. 4. 0. 0. 0.
      0. 0. 43. 16. 0. 5. 0. 0. 0. 0. 0. 63. 0. 0. 1. 0. 0. 0. 0. 0. 50.
      0. 0. 14. 0. 0. 0. 0. 0. 43. 1. 0. 19. 1. 0. 0. 0. 0. 48. 8. 0. 3.
      5. 0. 0. 0. 0. 63. 0. 0. 1. 0. 0. 0. 0. 0. 63. 0. 0. 1. 0. 0. 0.
      0. 0. 58. 1. 0. 5. 0. 0. 0. 0. 0. 63. 0. 0. 1. 0. 0. 0. 0. 0. 64.
      0. 0. 0. 0. 0. 0. 0. 0. 57. 0. 0. 7. 0. 0. 0. 0. 0. 38. 0. 0. 24.
      2. 0. 0. 0. 0. 64. 0. 0. 0. 0. 0. 0. 0. 0. 63. 0. 0. 1. 0. 0. 0.
      0. 0. 55. 6. 0. 3. 0. 0. 0. 0. 0. 50. 8. 0. 6. 0. 0. 0. 0. 0. 61.
      2. 0. 1. 0. 0. 0. 0. 0. 64. 0. 0. 0. 0. 0. 0. 0. 0. 60. 0. 0. 4.
      0. 0. 0. 0. 0. 32. 1. 0. 27. 4. 0. 0. 0. 0. 62. 2. 0. 0. 0. 0. 0.
      0. 0. 59. 3. 0. 2. 0. 0. 0. 0. 0. 60. 3. 0. 1. 0. 0. 0. 0. 0. 58.
      3. 0. 2. 1. 0. 0. 0. 0. 63. 1. 0. 0. 0. 0. 0. 0. 0. 61. 0. 0. 3.
      0. 0. 0. 0. 0. 53. 1. 0. 9. 1. 0. 0. 0. 0. 31. 0. 0. 30. 3. 0. 0.
      0. 0. 60. 0. 0. 3. 1. 0. 0. 0. 0. 62. 1. 0. 1. 0. 0. 0. 0. 0. 54.
      9. 0. 1. 0. 0. 0. 0. 0. 57. 3. 0. 3. 1. 0. 0. 0. 0. 48. 14. 0. 2.
      0. 0. 0. 0. 0. 48. 0. 0. 14. 2. 0. 0. 0. 0. 56. 1. 0. 6. 1. 0. 0.
      0. 0. 34. 6. 0. 13. 11. 0. 0. 0. 0. 57. 1. 0. 5. 1. 0. 0. 0. 0.
      59. 3. 0. 1. 1. 0. 0. 0. 0. 41. 15. 0. 8. 0. 0. 0. 0. 0. 45. 9. 0.
      8. 2. 0. 0. 0. 0. 40. 20. 0. 1. 3. 0. 0. 0. 0. 31. 13. 0. 8. 12.
      0. 0. 0. 0. 43. 4. 0. 10. 7. 0. 0. 0. 0. 42. 8. 0. 6. 8. 0. 0. 0.
      0. 62. 1. 0. 1. 0. 0. 0. 0. 0. 62. 2. 0. 0. 0. 0. 0. 0. 0. 42. 7.
      0. 10. 5. 0. 0. 0. 0. 30. 16. 0. 11. 7. 0. 0. 0. 0. 39. 19. 0. 5.
      1. 0. 0. 0. 0. 33. 7. 0. 10. 14. 0. 0. 0. 0. 45. 1. 0. 9. 9. 0. 0.
      0. 0. 46. 10. 0. 4. 4. 0. 0. 0. 0. 58. 3. 0. 3. 0. 0. 0. 0. 0. 61.
      3. 0. 0. 0. 0. 0. 0. 0. 54. 0. 0. 9. 1. 0. 0. 0. 0. 54. 1. 0. 9.
      0. 0. 0. 0. 0. 61. 0. 0. 3. 0. 0. 0. 0. 0. 28. 11. 0. 16. 9. 0. 0.
      0. 0. 37. 3. 0. 20. 4. 0. 0. 0. 0. 42. 12. 0. 7. 3. 0. 0. 0. 0.
      60. 0. 0. 4. 0. 0. 0. 0. 0. 51. 13. 0. 0. 0. 0. 0. 0. 0. 64. 0. 0.
      0. 0. 0. 0. 0. 0. 59. 0. 0. 5. 0. 0. 0. 0. 0. 43. 0. 0. 20. 1. 0.
      0. 0. 0. 43. 6. 0. 15. 0. 0. 0. 0. 0. 44. 2. 0. 18. 0. 0. 0. 0. 0.
      54. 0. 0. 10. 0. 0. 0. 0. 0. 61. 0. 0. 3. 0. 0. 0. 0. 0. 56. 4. 0.
      4. 0.</_>
    <_>
      0. 0. 0. 0. 63. 0. 0. 1. 0. 0. 0. 0. 0. 64. 0. 0. 0. 0. 0. 0. 0.
      0. 64. 0. 0. 0. 0. 0. 0. 0. 0. 53. 4. 0. 6. 1. 0. 0. 0. 0. 50. 11.
      0. 3. 0. 0. 0. 0. 0. 48. 0. 0. 13. 3. 0. 0. 0. 0. 64. 0. 0. 0. 0.
      0. 0. 0. 0. 64. 0. 0. 0. 0. 0. 0. 0. 0. 62. 2. 0. 0. 0. 0. 0. 0.
      0. 64. 0. 0. 0. 0. 0. 0. 0. 0. 64. 0. 0. 0. 0. 0. 0. 0. 0. 64. 0.
      0. 0. 0. 0. 0. 0. 0. 61. 3. 0. 0. 0. 0. 0. 0. 0. 48. 0. 0. 15. 1.
      0. 0. 0. 0. 64. 0. 0. 0. 0. 0. 0. 0. 0. 64. 0. 0. 0. 0. 0. 0. 0.
      0. 62. 1. 0. 1. 0. 0. 0. 0. 0. 62. 2. 0. 0. 0. 0. 0. 0. 0. 62. 1.
      0. 1. 0. 0. 0. 0. 0. 56. 8. 0. 0. 0. 0. 0. 0. 0. 55. 9. 0. 0. 0.
      0. 0. 0. 0. 48. 0. 0. 15. 1. 0. 0. 0. 0. 64. 0. 0. 0. 0. 0. 0. 0.
      0. 64. 0. 0. 0. 0. 0. 0. 0. 0. 64. 0. 0. 0. 0. 0. 0. 0. 0. 63. 0.
      0. 1. 0. 0. 0. 0. 0. 63. 0. 0. 1. 0. 0. 0. 0. 0. 63. 1. 0. 0. 0.
      0. 0. 0. 0. 56. 8. 0. 0. 0. 0. 0. 0. 0. 19. 19. 0. 21. 5. 0. 0. 0.
      0. 58. 0. 0. 5. 1. 0. 0. 0. 0. 64. 0. 0. 0. 0. 0. 0. 0. 0. 61. 3.
      0. 0. 0. 0. 0. 0. 0. 64. 0. 0. 0. 0. 0. 0. 0. 0. 63. 1. 0. 0. 0.
      0. 0. 0. 0. 64. 0. 0. 0. 0. 0. 0. 0. 0. 55. 1. 0. 8. 0. 0. 0. 0.
      0. 31. 12. 0. 12. 9. 0. 0. 0. 0. 64. 0. 0. 0. 0. 0. 0. 0. 0. 64.
      0. 0. 0. 0. 0. 0. 0. 0. 60. 1. 0. 1. 2. 0. 0. 0. 0. 58. 5. 0. 1.
      0. 0. 0. 0. 0. 61. 3. 0. 0. 0. 0. 0. 0. 0. 63. 0. 0. 1. 0. 0. 0.
      0. 0. 53. 0. 0. 11. 0. 0. 0. 0. 0. 44. 0. 0. 18. 2. 0. 0. 0. 0.
      63. 1. 0. 0. 0. 0. 0. 0. 0. 62. 1. 0. 1. 0. 0. 0. 0. 0. 55. 2. 0.
      7. 0. 0. 0. 0. 0. 57. 6. 0. 0. 1. 0. 0. 0. 0. 59. 2. 0. 3. 0. 0.
      0. 0. 0. 64. 0. 0. 0. 0. 0. 0. 0. 0. 57. 0. 0. 7. 0. 0. 0. 0. 0.
      39. 3. 0. 19. 3. 0. 0. 0. 0. 64. 0. 0. 0. 0. 0. 0. 0. 0. 63. 0. 0.
      1. 0. 0. 0. 0. 0. 51. 6. 0. 7. 0. 0. 0. 0. 0. 60. 4. 0. 0. 0. 0.
      0. 0. 0. 56. 3. 0. 3. 2. 0. 0. 0. 0. 64. 0. 0. 0. 0. 0. 0. 0. 0.
      57. 0. 0. 7. 0. 0. 0. 0. 0. 47. 0. 0. 17. 0. 0. 0. 0. 0. 64. 0. 0.
      0. 0. 0. 0. 0. 0. 64. 0. 0. 0. 0. 0. 0. 0. 0. 56. 4. 0. 4. 0. 0.
      0. 0. 0. 59. 2. 0. 3. 0. 0. 0. 0. 0. 60. 0. 0. 2. 2. 0. 0. 0. 0.
      64. 0. 0. 0. 0. 0. 0. 0. 0. 61. 1. 0. 2. 0. 0. 0. 0. 0. 30. 4. 0.
      24. 6. 0. 0. 0. 0. 62. 1. 0. 1. 0. 0. 0. 0. 0. 59. 3. 0. 2. 0. 0.
      0. 0. 0. 54. 6. 0. 3. 1. 0. 0. 0. 0. 53. 9. 0. 2. 0. 0. 0. 0. 0.
      56. 3. 0. 5. 0. 0. 0. 0. 0. 62. 0. 0. 2. 0. 0. 0. 0. 0. 55. 1. 0.
      8. 0. 0. 0. 0. 0. 36. 1. 0. 24. 3. 0. 0. 0. 0. 57. 5. 0. 2. 0. 0.
      0. 0. 0. 57. 3. 0. 3. 1. 0. 0. 0. 0. 55. 4. 0. 5. 0. 0. 0. 0. 0.
      54. 4. 0. 5. 1. 0. 0. 0. 0. 62. 2. 0. 0. 0. 0. 0. 0. 0. 64. 0. 0.
      0. 0. 0. 0. 0. 0. 58. 0. 0. 6. 0. 0. 0. 0. 0. 47. 0. 0. 17. 0. 0.
      0. 0. 0. 48. 3. 0. 11. 2. 0. 0. 0. 0. 63. 1. 0. 0. 0. 0. 0. 0. 0.
      59. 3. 0. 2. 0. 0. 0. 0. 0. 55. 6. 0. 2. 1. 0. 0. 0. 0. 46. 18. 0.
      0. 0. 0. 0. 0. 0. 47. 6. 0. 4. 7. 0. 0. 0. 0. 60. 1. 0. 1. 2. 0.
      0. 0. 0. 46. 10. 0. 2. 6. 0. 0. 0. 0. 54. 2. 0. 6. 2. 0. 0. 0. 0.
      64. 0. 0. 0. 0. 0. 0. 0. 0. 44. 10. 0. 4. 6. 0. 0. 0. 0. 46. 12.
      0. 5. 1. 0. 0. 0. 0. 47. 14. 0. 3. 0. 0. 0. 0. 0. 49. 12. 0. 3. 0.
      0. 0. 0. 0. 43. 9. 0. 10. 2. 0. 0. 0. 0. 40. 11. 0. 8. 5. 0. 0. 0.
      0. 63. 0. 0. 1. 0. 0. 0. 0. 0. 64. 0. 0. 0. 0. 0. 0. 0. 0. 43. 6.
      0. 13. 2. 0. 0. 0. 0. 47. 8. 0. 6. 3. 0. 0. 0. 0. 35. 22. 0. 5. 2.
      0. 0. 0. 0. 53. 9. 0. 0. 2. 0. 0. 0. 0. 40. 9. 0. 9. 6. 0. 0. 0.
      0. 35. 6. 0. 13. 10. 0. 0. 0. 0. 58. 3. 0. 3. 0. 0. 0. 0. 0. 64.
      0. 0. 0. 0. 0. 0. 0. 0. 53. 0. 0. 11. 0. 0. 0. 0. 0. 50. 1. 0. 12.
      1. 0. 0. 0. 0. 52. 2. 0. 10. 0. 0. 0. 0. 0. 50. 6. 0. 7. 1. 0. 0.
      0. 0. 45. 1. 0. 14. 4. 0. 0. 0. 0. 39. 8. 0. 15. 2. 0. 0. 0. 0.
      57. 2. 0. 5. 0. 0. 0. 0. 0. 50. 12. 0. 2. 0. 0. 0. 0. 0. 64. 0. 0.
      0. 0. 0. 0. 0. 0. 57. 0. 0. 7. 0. 0. 0. 0. 0. 59. 1. 0. 4. 0. 0.
      0. 0. 0. 46. 1. 0. 17. 0. 0. 0. 0. 0. 51. 3. 0. 10. 0. 0. 0. 0. 0.
      46. 0. 0. 18. 0. 0. 0. 0. 0. 60. 0. 0. 4. 0. 0. 0. 0. 0. 61. 1. 0.
      2. 0.</_>
    <_>
      0. 0. 0. 0. 64. 0. 0. 0. 0. 0. 0. 0. 0. 64. 0. 0. 0. 0. 0. 0. 0.
      0. 53. 4. 0. 7. 0. 0. 0. 0. 0. 47. 4. 0. 10. 3. 0. 0. 0. 0. 44.
      14. 0. 4. 2. 0. 0. 0. 0. 62. 2. 0. 0. 0. 0. 0. 0. 0. 64. 0. 0. 0.
      0. 0. 0. 0. 0. 64. 0. 0. 0. 0. 0. 0. 0. 0. 64. 0. 0. 0. 0. 0. 0.
      0. 0. 64. 0. 0. 0. 0. 0. 0. 0. 0. 55. 9. 0. 0. 0. 0. 0. 0. 0. 41.
      1. 0. 22. 0. 0. 0. 0. 0. 55. 1. 0. 8. 0. 0. 0. 0. 0. 50. 0. 0. 12.
      2. 0. 0. 0. 0. 64. 0. 0. 0. 0. 0. 0. 0. 0. 64. 0. 0. 0. 0. 0. 0.
      0. 0. 64. 0. 0. 0. 0. 0. 0. 0. 0. 64. 0. 0. 0. 0. 0. 0. 0. 0. 62.
      2. 0. 0. 0. 0. 0. 0. 0. 43. 5. 0. 16. 0. 0. 0. 0. 0. 23. 4. 0. 29.
      8. 0. 0. 0. 0. 57. 0. 0. 5. 2. 0. 0. 0. 0. 64. 0. 0. 0. 0. 0. 0.
      0. 0. 63. 1. 0. 0. 0. 0. 0. 0. 0. 64. 0. 0. 0. 0. 0. 0. 0. 0. 64.
      0. 0. 0. 0. 0. 0. 0. 0. 62. 2. 0. 0. 0. 0. 0. 0. 0. 50. 14. 0. 0.
      0. 0. 0. 0. 0. 23. 19. 0. 21. 1. 0. 0. 0. 0. 34. 0. 0. 28. 2. 0.
      0. 0. 0. 58. 0. 0. 5. 1. 0. 0. 0. 0. 64. 0. 0. 0. 0. 0. 0. 0. 0.
      60. 1. 0. 2. 1. 0. 0. 0. 0. 64. 0. 0. 0. 0. 0. 0. 0. 0. 57. 4. 0.
      3. 0. 0. 0. 0. 0. 63. 1. 0. 0. 0. 0. 0. 0. 0. 51. 10. 0. 3. 0. 0.
      0. 0. 0. 38. 6. 0. 13. 7. 0. 0. 0. 0. 58. 3. 0. 3. 0. 0. 0. 0. 0.
      63. 1. 0. 0. 0. 0. 0. 0. 0. 59. 4. 0. 1. 0. 0. 0. 0. 0. 64. 0. 0.
      0. 0. 0. 0. 0. 0. 53. 11. 0. 0. 0. 0. 0. 0. 0. 62. 1. 0. 1. 0. 0.
      0. 0. 0. 49. 1. 0. 14. 0. 0. 0. 0. 0. 45. 1. 0. 12. 6. 0. 0. 0. 0.
      64. 0. 0. 0. 0. 0. 0. 0. 0. 61. 1. 0. 2. 0. 0. 0. 0. 0. 59. 2. 0.
      3. 0. 0. 0. 0. 0. 64. 0. 0. 0. 0. 0. 0. 0. 0. 59. 5. 0. 0. 0. 0.
      0. 0. 0. 64. 0. 0. 0. 0. 0. 0. 0. 0. 54. 0. 0. 10. 0. 0. 0. 0. 0.
      43. 0. 0. 19. 2. 0. 0. 0. 0. 62. 0. 0. 2. 0. 0. 0. 0. 0. 64. 0. 0.
      0. 0. 0. 0. 0. 0. 57. 2. 0. 4. 1. 0. 0. 0. 0. 54. 8. 0. 2. 0. 0.
      0. 0. 0. 64. 0. 0. 0. 0. 0. 0. 0. 0. 64. 0. 0. 0. 0. 0. 0. 0. 0.
      62. 0. 0. 2. 0. 0. 0. 0. 0. 43. 0. 0. 20. 1. 0. 0. 0. 0. 62. 2. 0.
      0. 0. 0. 0. 0. 0. 64. 0. 0. 0. 0. 0. 0. 0. 0. 56. 8. 0. 0. 0. 0.
      0. 0. 0. 55. 6. 0. 3. 0. 0. 0. 0. 0. 63. 0. 0. 1. 0. 0. 0. 0. 0.
      61. 3. 0. 0. 0. 0. 0. 0. 0. 61. 2. 0. 1. 0. 0. 0. 0. 0. 36. 2. 0.
      20. 6. 0. 0. 0. 0. 63. 1. 0. 0. 0. 0. 0. 0. 0. 64. 0. 0. 0. 0. 0.
      0. 0. 0. 64. 0. 0. 0. 0. 0. 0. 0. 0. 52. 5. 0. 4. 3. 0. 0. 0. 0.
      61. 3. 0. 0. 0. 0. 0. 0. 0. 63. 0. 0. 1. 0. 0. 0. 0. 0. 63. 0. 0.
      1. 0. 0. 0. 0. 0. 34. 2. 0. 26. 2. 0. 0. 0. 0. 56. 7. 0. 1. 0. 0.
      0. 0. 0. 58. 3. 0. 3. 0. 0. 0. 0. 0. 55. 3. 0. 6. 0. 0. 0. 0. 0.
      57. 4. 0. 3. 0. 0. 0. 0. 0. 56. 6. 0. 2. 0. 0. 0. 0. 0. 61. 3. 0.
      0. 0. 0. 0. 0. 0. 64. 0. 0. 0. 0. 0. 0. 0. 0. 38. 0. 0. 25. 1. 0.
      0. 0. 0. 54. 3. 0. 5. 2. 0. 0. 0. 0. 61. 0. 0. 3. 0. 0. 0. 0. 0.
      55. 7. 0. 2. 0. 0. 0. 0. 0. 56. 5. 0. 3. 0. 0. 0. 0. 0. 45. 14. 0.
      4. 1. 0. 0. 0. 0. 57. 5. 0. 2. 0. 0. 0. 0. 0. 64. 0. 0. 0. 0. 0.
      0. 0. 0. 39. 7. 0. 12. 6. 0. 0. 0. 0. 51. 2. 0. 8. 3. 0. 0. 0. 0.
      63. 0. 0. 1. 0. 0. 0. 0. 0. 43. 10. 0. 5. 6. 0. 0. 0. 0. 42. 19.
      0. 1. 2. 0. 0. 0. 0. 59. 5. 0. 0. 0. 0. 0. 0. 0. 55. 8. 0. 1. 0.
      0. 0. 0. 0. 47. 13. 0. 2. 2. 0. 0. 0. 0. 28. 7. 0. 17. 12. 0. 0.
      0. 0. 60. 4. 0. 0. 0. 0. 0. 0. 0. 61. 2. 0. 1. 0. 0. 0. 0. 0. 40.
      11. 0. 6. 7. 0. 0. 0. 0. 40. 8. 0. 15. 1. 0. 0. 0. 0. 36. 15. 0.
      9. 4. 0. 0. 0. 0. 54. 8. 0. 2. 0. 0. 0. 0. 0. 53. 9. 0. 2. 0. 0.
      0. 0. 0. 24. 7. 0. 23. 10. 0. 0. 0. 0. 52. 3. 0. 7. 2. 0. 0. 0. 0.
      61. 3. 0. 0. 0. 0. 0. 0. 0. 59. 0. 0. 5. 0. 0. 0. 0. 0. 57. 0. 0.
      7. 0. 0. 0. 0. 0. 51. 0. 0. 13. 0. 0. 0. 0. 0. 50. 5. 0. 7. 2. 0.
      0. 0. 0. 46. 5. 0. 10. 3. 0. 0. 0. 0. 38. 9. 0. 15. 2. 0. 0. 0. 0.
      55. 5. 0. 2. 2. 0. 0. 0. 0. 48. 12. 0. 4. 0. 0. 0. 0. 0. 64. 0. 0.
      0. 0. 0. 0. 0. 0. 53. 0. 0. 11. 0. 0. 0. 0. 0. 51. 3. 0. 8. 2. 0.
      0. 0. 0. 43. 0. 0. 19. 2. 0. 0. 0. 0. 52. 6. 0. 6. 0. 0. 0. 0. 0.
      39. 0. 0. 25. 0. 0. 0. 0. 0. 61. 0. 0. 3. 0. 0. 0. 0. 0. 58. 2. 0.
      4. 0.</_>
    <_>
      0. 0. 0. 0. 60. 0. 0. 4. 0. 0. 0. 0. 0. 64. 0. 0. 0. 0. 0. 0. 0.
      0. 64. 0. 0. 0. 0. 0. 0. 0. 0. 61. 0. 0. 2. 1. 0. 0. 0. 0. 43. 14.
      0. 4. 3. 0. 0. 0. 0. 57. 6. 0. 1. 0. 0. 0. 0. 0. 64. 0. 0. 0. 0.
      0. 0. 0. 0. 64. 0. 0. 0. 0. 0. 0. 0. 0. 61. 3. 0. 0. 0. 0. 0. 0.
      0. 61. 1. 0. 2. 0. 0. 0. 0. 0. 58. 0. 0. 6. 0. 0. 0. 0. 0. 61. 3.
      0. 0. 0. 0. 0. 0. 0. 61. 1. 0. 2. 0. 0. 0. 0. 0. 42. 0. 0. 20. 2.
      0. 0. 0. 0. 64. 0. 0. 0. 0. 0. 0. 0. 0. 63. 1. 0. 0. 0. 0. 0. 0.
      0. 60. 2. 0. 2. 0. 0. 0. 0. 0. 52. 12. 0. 0. 0. 0. 0. 0. 0. 47. 5.
      0. 12. 0. 0. 0. 0. 0. 52. 8. 0. 4. 0. 0. 0. 0. 0. 48. 13. 0. 3. 0.
      0. 0. 0. 0. 42. 0. 0. 15. 7. 0. 0. 0. 0. 64. 0. 0. 0. 0. 0. 0. 0.
      0. 64. 0. 0. 0. 0. 0. 0. 0. 0. 63. 1. 0. 0. 0. 0. 0. 0. 0. 64. 0.
      0. 0. 0. 0. 0. 0. 0. 51. 13. 0. 0. 0. 0. 0. 0. 0. 46. 7. 0. 11. 0.
      0. 0. 0. 0. 58. 1. 0. 5. 0. 0. 0. 0. 0. 49. 0. 0. 15. 0. 0. 0. 0.
      0. 52. 0. 0. 10. 2. 0. 0. 0. 0. 64. 0. 0. 0. 0. 0. 0. 0. 0. 58. 2.
      0. 4. 0. 0. 0. 0. 0. 61. 2. 0. 1. 0. 0. 0. 0. 0. 59. 4. 0. 1. 0.
      0. 0. 0. 0. 46. 18. 0. 0. 0. 0. 0. 0. 0. 43. 14. 0. 3. 4. 0. 0. 0.
      0. 43. 9. 0. 8. 4. 0. 0. 0. 0. 51. 1. 0. 10. 2. 0. 0. 0. 0. 62. 2.
      0. 0. 0. 0. 0. 0. 0. 60. 1. 0. 3. 0. 0. 0. 0. 0. 63. 1. 0. 0. 0.
      0. 0. 0. 0. 55. 9. 0. 0. 0. 0. 0. 0. 0. 60. 4. 0. 0. 0. 0. 0. 0.
      0. 59. 0. 0. 5. 0. 0. 0. 0. 0. 41. 0. 0. 17. 6. 0. 0. 0. 0. 64. 0.
      0. 0. 0. 0. 0. 0. 0. 63. 1. 0. 0. 0. 0. 0. 0. 0. 60. 0. 0. 4. 0.
      0. 0. 0. 0. 54. 6. 0. 3. 1. 0. 0. 0. 0. 62. 2. 0. 0. 0. 0. 0. 0.
      0. 63. 1. 0. 0. 0. 0. 0. 0. 0. 57. 0. 0. 7. 0. 0. 0. 0. 0. 34. 0.
      0. 27. 3. 0. 0. 0. 0. 62. 0. 0. 2. 0. 0. 0. 0. 0. 64. 0. 0. 0. 0.
      0. 0. 0. 0. 56. 6. 0. 2. 0. 0. 0. 0. 0. 49. 5. 0. 7. 3. 0. 0. 0.
      0. 64. 0. 0. 0. 0. 0. 0. 0. 0. 64. 0. 0. 0. 0. 0. 0. 0. 0. 63. 0.
      0. 1. 0. 0. 0. 0. 0. 40. 0. 0. 23. 1. 0. 0. 0. 0. 62. 1. 0. 1. 0.
      0. 0. 0. 0. 64. 0. 0. 0. 0. 0. 0. 0. 0. 62. 0. 0. 2. 0. 0. 0. 0.
      0. 59. 3. 0. 2. 0. 0. 0. 0. 0. 60. 4. 0. 0. 0. 0. 0. 0. 0. 61. 3.
      0. 0. 0. 0. 0. 0. 0. 60. 4. 0. 0. 0. 0. 0. 0. 0. 38. 2. 0. 18. 6.
      0. 0. 0. 0. 60. 4. 0. 0. 0. 0. 0. 0. 0. 63. 1. 0. 0. 0. 0. 0. 0.
      0. 64. 0. 0. 0. 0. 0. 0. 0. 0. 58. 5. 0. 1. 0. 0. 0. 0. 0. 50. 11.
      0. 3. 0. 0. 0. 0. 0. 63. 1. 0. 0. 0. 0. 0. 0. 0. 64. 0. 0. 0. 0.
      0. 0. 0. 0. 37. 0. 0. 25. 2. 0. 0. 0. 0. 51. 6. 0. 5. 2. 0. 0. 0.
      0. 63. 1. 0. 0. 0. 0. 0. 0. 0. 50. 4. 0. 10. 0. 0. 0. 0. 0. 59. 4.
      0. 0. 1. 0. 0. 0. 0. 63. 1. 0. 0. 0. 0. 0. 0. 0. 64. 0. 0. 0. 0.
      0. 0. 0. 0. 62. 2. 0. 0. 0. 0. 0. 0. 0. 51. 0. 0. 13. 0. 0. 0. 0.
      0. 44. 4. 0. 12. 4. 0. 0. 0. 0. 62. 0. 0. 2. 0. 0. 0. 0. 0. 57. 6.
      0. 1. 0. 0. 0. 0. 0. 60. 3. 0. 1. 0. 0. 0. 0. 0. 47. 12. 0. 4. 1.
      0. 0. 0. 0. 57. 4. 0. 2. 1. 0. 0. 0. 0. 59. 5. 0. 0. 0. 0. 0. 0.
      0. 46. 5. 0. 9. 4. 0. 0. 0. 0. 40. 7. 0. 12. 5. 0. 0. 0. 0. 62. 1.
      0. 1. 0. 0. 0. 0. 0. 41. 14. 0. 6. 3. 0. 0. 0. 0. 41. 14. 0. 5. 4.
      0. 0. 0. 0. 57. 5. 0. 2. 0. 0. 0. 0. 0. 55. 6. 0. 2. 1. 0. 0. 0.
      0. 46. 17. 0. 1. 0. 0. 0. 0. 0. 32. 8. 0. 19. 5. 0. 0. 0. 0. 47.
      13. 0. 3. 1. 0. 0. 0. 0. 64. 0. 0. 0. 0. 0. 0. 0. 0. 33. 11. 0.
      15. 5. 0. 0. 0. 0. 38. 10. 0. 11. 5. 0. 0. 0. 0. 35. 14. 0. 12. 3.
      0. 0. 0. 0. 49. 12. 0. 3. 0. 0. 0. 0. 0. 44. 15. 0. 2. 3. 0. 0. 0.
      0. 25. 5. 0. 23. 11. 0. 0. 0. 0. 43. 13. 0. 6. 2. 0. 0. 0. 0. 54.
      5. 0. 5. 0. 0. 0. 0. 0. 56. 2. 0. 6. 0. 0. 0. 0. 0. 56. 3. 0. 5.
      0. 0. 0. 0. 0. 51. 1. 0. 12. 0. 0. 0. 0. 0. 58. 3. 0. 3. 0. 0. 0.
      0. 0. 45. 4. 0. 12. 3. 0. 0. 0. 0. 39. 4. 0. 13. 8. 0. 0. 0. 0.
      42. 7. 0. 12. 3. 0. 0. 0. 0. 54. 4. 0. 6. 0. 0. 0. 0. 0. 64. 0. 0.
      0. 0. 0. 0. 0. 0. 53. 0. 0. 11. 0. 0. 0. 0. 0. 59. 0. 0. 5. 0. 0.
      0. 0. 0. 48. 0. 0. 16. 0. 0. 0. 0. 0. 49. 1. 0. 13. 1. 0. 0. 0. 0.
      41. 0. 0. 23. 0. 0. 0. 0. 0. 58. 0. 0. 6. 0. 0. 0. 0. 0. 58. 0. 0.
      6. 0.</_>
    <_>
      0. 0. 0. 0. 60. 0. 0. 4. 0. 0. 0. 0. 0. 64. 0. 0. 0. 0. 0. 0. 0.
      0. 64. 0. 0. 0. 0. 0. 0. 0. 0. 49. 9. 0. 4. 2. 0. 0. 0. 0. 55. 9.
      0. 0. 0. 0. 0. 0. 0. 64. 0. 0. 0. 0. 0. 0. 0. 0. 64. 0. 0. 0. 0.
      0. 0. 0. 0. 62. 2. 0. 0. 0. 0. 0. 0. 0. 63. 1. 0. 0. 0. 0. 0. 0.
      0. 63. 0. 0. 1. 0. 0. 0. 0. 0. 64. 0. 0. 0. 0. 0. 0. 0. 0. 64. 0.
      0. 0. 0. 0. 0. 0. 0. 37. 4. 0. 21. 2. 0. 0. 0. 0. 64. 0. 0. 0. 0.
      0. 0. 0. 0. 64. 0. 0. 0. 0. 0. 0. 0. 0. 64. 0. 0. 0. 0. 0. 0. 0.
      0. 60. 4. 0. 0. 0. 0. 0. 0. 0. 63. 1. 0. 0. 0. 0. 0. 0. 0. 59. 5.
      0. 0. 0. 0. 0. 0. 0. 52. 11. 0. 1. 0. 0. 0. 0. 0. 35. 1. 0. 20. 8.
      0. 0. 0. 0. 64. 0. 0. 0. 0. 0. 0. 0. 0. 64. 0. 0. 0. 0. 0. 0. 0.
      0. 64. 0. 0. 0. 0. 0. 0. 0. 0. 58. 4. 0. 2. 0. 0. 0. 0. 0. 61. 1.
      0. 2. 0. 0. 0. 0. 0. 51. 11. 0. 2. 0. 0. 0. 0. 0. 49. 13. 0. 2. 0.
      0. 0. 0. 0. 60. 0. 0. 4. 0. 0. 0. 0. 0. 50. 1. 0. 12. 1. 0. 0. 0.
      0. 64. 0. 0. 0. 0. 0. 0. 0. 0. 64. 0. 0. 0. 0. 0. 0. 0. 0. 62. 0.
      0. 2. 0. 0. 0. 0. 0. 63. 1. 0. 0. 0. 0. 0. 0. 0. 61. 2. 0. 1. 0.
      0. 0. 0. 0. 56. 7. 0. 1. 0. 0. 0. 0. 0. 60. 4. 0. 0. 0. 0. 0. 0.
      0. 49. 0. 0. 15. 0. 0. 0. 0. 0. 63. 0. 0. 1. 0. 0. 0. 0. 0. 64. 0.
      0. 0. 0. 0. 0. 0. 0. 58. 0. 0. 6. 0. 0. 0. 0. 0. 62. 1. 0. 1. 0.
      0. 0. 0. 0. 62. 2. 0. 0. 0. 0. 0. 0. 0. 62. 2. 0. 0. 0. 0. 0. 0.
      0. 50. 13. 0. 1. 0. 0. 0. 0. 0. 57. 1. 0. 3. 3. 0. 0. 0. 0. 54. 0.
      0. 7. 3. 0. 0. 0. 0. 64. 0. 0. 0. 0. 0. 0. 0. 0. 57. 1. 0. 6. 0.
      0. 0. 0. 0. 57. 5. 0. 2. 0. 0. 0. 0. 0. 54. 6. 0. 4. 0. 0. 0. 0.
      0. 64. 0. 0. 0. 0. 0. 0. 0. 0. 42. 4. 0. 4. 14. 0. 0. 0. 0. 41. 5.
      0. 8. 10. 0. 0. 0. 0. 63. 0. 0. 1. 0. 0. 0. 0. 0. 63. 1. 0. 0. 0.
      0. 0. 0. 0. 57. 4. 0. 3. 0. 0. 0. 0. 0. 56. 4. 0. 4. 0. 0. 0. 0.
      0. 57. 5. 0. 2. 0. 0. 0. 0. 0. 55. 4. 0. 4. 1. 0. 0. 0. 0. 29. 0.
      0. 31. 4. 0. 0. 0. 0. 50. 0. 0. 9. 5. 0. 0. 0. 0. 64. 0. 0. 0. 0.
      0. 0. 0. 0. 64. 0. 0. 0. 0. 0. 0. 0. 0. 57. 6. 0. 1. 0. 0. 0. 0.
      0. 47. 6. 0. 10. 1. 0. 0. 0. 0. 58. 5. 0. 0. 1. 0. 0. 0. 0. 64. 0.
      0. 0. 0. 0. 0. 0. 0. 51. 0. 0. 13. 0. 0. 0. 0. 0. 39. 3. 0. 19. 3.
      0. 0. 0. 0. 55. 5. 0. 3. 1. 0. 0. 0. 0. 63. 1. 0. 0. 0. 0. 0. 0.
      0. 60. 4. 0. 0. 0. 0. 0. 0. 0. 58. 4. 0. 2. 0. 0. 0. 0. 0. 57. 4.
      0. 3. 0. 0. 0. 0. 0. 64. 0. 0. 0. 0. 0. 0. 0. 0. 47. 0. 0. 16. 1.
      0. 0. 0. 0. 28. 6. 0. 22. 8. 0. 0. 0. 0. 57. 6. 0. 1. 0. 0. 0. 0.
      0. 60. 3. 0. 1. 0. 0. 0. 0. 0. 55. 4. 0. 5. 0. 0. 0. 0. 0. 55. 8.
      0. 1. 0. 0. 0. 0. 0. 55. 7. 0. 2. 0. 0. 0. 0. 0. 57. 4. 0. 3. 0.
      0. 0. 0. 0. 38. 0. 0. 22. 4. 0. 0. 0. 0. 38. 7. 0. 13. 6. 0. 0. 0.
      0. 58. 4. 0. 0. 2. 0. 0. 0. 0. 62. 2. 0. 0. 0. 0. 0. 0. 0. 51. 10.
      0. 3. 0. 0. 0. 0. 0. 59. 2. 0. 3. 0. 0. 0. 0. 0. 53. 6. 0. 4. 1.
      0. 0. 0. 0. 39. 24. 0. 0. 1. 0. 0. 0. 0. 28. 8. 0. 16. 12. 0. 0.
      0. 0. 44. 0. 0. 13. 7. 0. 0. 0. 0. 56. 3. 0. 4. 1. 0. 0. 0. 0. 64.
      0. 0. 0. 0. 0. 0. 0. 0. 35. 22. 0. 7. 0. 0. 0. 0. 0. 39. 12. 0.
      10. 3. 0. 0. 0. 0. 58. 5. 0. 1. 0. 0. 0. 0. 0. 38. 22. 0. 3. 1. 0.
      0. 0. 0. 53. 11. 0. 0. 0. 0. 0. 0. 0. 33. 9. 0. 17. 5. 0. 0. 0. 0.
      50. 9. 0. 2. 3. 0. 0. 0. 0. 62. 1. 0. 1. 0. 0. 0. 0. 0. 33. 13. 0.
      11. 7. 0. 0. 0. 0. 36. 12. 0. 13. 3. 0. 0. 0. 0. 31. 17. 0. 10. 6.
      0. 0. 0. 0. 53. 9. 0. 2. 0. 0. 0. 0. 0. 42. 13. 0. 7. 2. 0. 0. 0.
      0. 51. 3. 0. 10. 0. 0. 0. 0. 0. 55. 0. 0. 9. 0. 0. 0. 0. 0. 62. 1.
      0. 1. 0. 0. 0. 0. 0. 56. 1. 0. 7. 0. 0. 0. 0. 0. 52. 3. 0. 9. 0.
      0. 0. 0. 0. 47. 3. 0. 14. 0. 0. 0. 0. 0. 61. 0. 0. 3. 0. 0. 0. 0.
      0. 44. 0. 0. 18. 2. 0. 0. 0. 0. 53. 9. 0. 2. 0. 0. 0. 0. 0. 53. 0.
      0. 10. 1. 0. 0. 0. 0. 46. 6. 0. 10. 2. 0. 0. 0. 0. 64. 0. 0. 0. 0.
      0. 0. 0. 0. 52. 0. 0. 12. 0. 0. 0. 0. 0. 60. 0. 0. 4. 0. 0. 0. 0.
      0. 47. 0. 0. 17. 0. 0. 0. 0. 0. 49. 0. 0. 15. 0. 0. 0. 0. 0. 53.
      4. 0. 7. 0. 0. 0. 0. 0. 51. 4. 0. 7. 2. 0. 0. 0. 0. 48. 2. 0. 12.
      2.</_>
    <_>
      0. 0. 0. 0. 63. 1. 0. 0. 0. 0. 0. 0. 0. 64. 0. 0. 0. 0. 0. 0. 0.
      0. 64. 0. 0. 0. 0. 0. 0. 0. 0. 58. 2. 0. 4. 0. 0. 0. 0. 0. 51. 8.
      0. 5. 0. 0. 0. 0. 0. 64. 0. 0. 0. 0. 0. 0. 0. 0. 64. 0. 0. 0. 0.
      0. 0. 0. 0. 62. 2. 0. 0. 0. 0. 0. 0. 0. 59. 3. 0. 2. 0. 0. 0. 0.
      0. 64. 0. 0. 0. 0. 0. 0. 0. 0. 60. 4. 0. 0. 0. 0. 0. 0. 0. 31. 33.
      0. 0. 0. 0. 0. 0. 0. 46. 1. 0. 16. 1. 0. 0. 0. 0. 64. 0. 0. 0. 0.
      0. 0. 0. 0. 64. 0. 0. 0. 0. 0. 0. 0. 0. 64. 0. 0. 0. 0. 0. 0. 0.
      0. 61. 2. 0. 1. 0. 0. 0. 0. 0. 64. 0. 0. 0. 0. 0. 0. 0. 0. 60. 4.
      0. 0. 0. 0. 0. 0. 0. 50. 11. 0. 3. 0. 0. 0. 0. 0. 44. 13. 0. 6. 1.
      0. 0. 0. 0. 51. 0. 0. 11. 2. 0. 0. 0. 0. 64. 0. 0. 0. 0. 0. 0. 0.
      0. 64. 0. 0. 0. 0. 0. 0. 0. 0. 56. 4. 0. 4. 0. 0. 0. 0. 0. 59. 0.
      0. 4. 1. 0. 0. 0. 0. 64. 0. 0. 0. 0. 0. 0. 0. 0. 57. 7. 0. 0. 0.
      0. 0. 0. 0. 56. 8. 0. 0. 0. 0. 0. 0. 0. 42. 6. 0. 15. 1. 0. 0. 0.
      0. 64. 0. 0. 0. 0. 0. 0. 0. 0. 64. 0. 0. 0. 0. 0. 0. 0. 0. 60. 1.
      0. 3. 0. 0. 0. 0. 0. 61. 3. 0. 0. 0. 0. 0. 0. 0. 53. 7. 0. 3. 1.
      0. 0. 0. 0. 63. 1. 0. 0. 0. 0. 0. 0. 0. 57. 7. 0. 0. 0. 0. 0. 0.
      0. 33. 15. 0. 4. 12. 0. 0. 0. 0. 64. 0. 0. 0. 0. 0. 0. 0. 0. 64.
      0. 0. 0. 0. 0. 0. 0. 0. 53. 5. 0. 5. 1. 0. 0. 0. 0. 63. 0. 0. 1.
      0. 0. 0. 0. 0. 56. 7. 0. 1. 0. 0. 0. 0. 0. 63. 1. 0. 0. 0. 0. 0.
      0. 0. 48. 0. 0. 14. 2. 0. 0. 0. 0. 42. 3. 0. 13. 6. 0. 0. 0. 0.
      64. 0. 0. 0. 0. 0. 0. 0. 0. 62. 2. 0. 0. 0. 0. 0. 0. 0. 57. 2. 0.
      5. 0. 0. 0. 0. 0. 56. 6. 0. 2. 0. 0. 0. 0. 0. 63. 1. 0. 0. 0. 0.
      0. 0. 0. 64. 0. 0. 0. 0. 0. 0. 0. 0. 48. 0. 0. 16. 0. 0. 0. 0. 0.
      46. 1. 0. 16. 1. 0. 0. 0. 0. 62. 2. 0. 0. 0. 0. 0. 0. 0. 62. 2. 0.
      0. 0. 0. 0. 0. 0. 59. 3. 0. 2. 0. 0. 0. 0. 0. 55. 4. 0. 4. 1. 0.
      0. 0. 0. 61. 2. 0. 1. 0. 0. 0. 0. 0. 64. 0. 0. 0. 0. 0. 0. 0. 0.
      58. 0. 0. 6. 0. 0. 0. 0. 0. 35. 2. 0. 26. 1. 0. 0. 0. 0. 64. 0. 0.
      0. 0. 0. 0. 0. 0. 64. 0. 0. 0. 0. 0. 0. 0. 0. 64. 0. 0. 0. 0. 0.
      0. 0. 0. 56. 5. 0. 3. 0. 0. 0. 0. 0. 59. 4. 0. 1. 0. 0. 0. 0. 0.
      64. 0. 0. 0. 0. 0. 0. 0. 0. 64. 0. 0. 0. 0. 0. 0. 0. 0. 39. 0. 0.
      22. 3. 0. 0. 0. 0. 61. 3. 0. 0. 0. 0. 0. 0. 0. 64. 0. 0. 0. 0. 0.
      0. 0. 0. 57. 5. 0. 2. 0. 0. 0. 0. 0. 57. 3. 0. 4. 0. 0. 0. 0. 0.
      61. 3. 0. 0. 0. 0. 0. 0. 0. 64. 0. 0. 0. 0. 0. 0. 0. 0. 63. 0. 0.
      1. 0. 0. 0. 0. 0. 41. 3. 0. 18. 2. 0. 0. 0. 0. 57. 6. 0. 1. 0. 0.
      0. 0. 0. 60. 2. 0. 2. 0. 0. 0. 0. 0. 49. 12. 0. 3. 0. 0. 0. 0. 0.
      56. 6. 0. 2. 0. 0. 0. 0. 0. 58. 5. 0. 0. 1. 0. 0. 0. 0. 56. 7. 0.
      1. 0. 0. 0. 0. 0. 64. 0. 0. 0. 0. 0. 0. 0. 0. 20. 4. 0. 35. 5. 0.
      0. 0. 0. 56. 5. 0. 2. 1. 0. 0. 0. 0. 62. 2. 0. 0. 0. 0. 0. 0. 0.
      46. 12. 0. 5. 1. 0. 0. 0. 0. 56. 4. 0. 4. 0. 0. 0. 0. 0. 50. 11.
      0. 2. 1. 0. 0. 0. 0. 58. 6. 0. 0. 0. 0. 0. 0. 0. 50. 13. 0. 1. 0.
      0. 0. 0. 0. 32. 1. 0. 28. 3. 0. 0. 0. 0. 58. 5. 0. 0. 1. 0. 0. 0.
      0. 64. 0. 0. 0. 0. 0. 0. 0. 0. 40. 17. 0. 7. 0. 0. 0. 0. 0. 34.
      17. 0. 11. 2. 0. 0. 0. 0. 52. 10. 0. 2. 0. 0. 0. 0. 0. 55. 9. 0.
      0. 0. 0. 0. 0. 0. 33. 15. 0. 12. 4. 0. 0. 0. 0. 39. 1. 0. 21. 3.
      0. 0. 0. 0. 50. 6. 0. 5. 3. 0. 0. 0. 0. 63. 0. 0. 1. 0. 0. 0. 0.
      0. 35. 9. 0. 11. 9. 0. 0. 0. 0. 33. 13. 0. 13. 5. 0. 0. 0. 0. 32.
      19. 0. 11. 2. 0. 0. 0. 0. 53. 11. 0. 0. 0. 0. 0. 0. 0. 33. 9. 0.
      16. 6. 0. 0. 0. 0. 41. 18. 0. 4. 1. 0. 0. 0. 0. 46. 0. 0. 17. 1.
      0. 0. 0. 0. 53. 6. 0. 5. 0. 0. 0. 0. 0. 60. 3. 0. 1. 0. 0. 0. 0.
      0. 53. 2. 0. 9. 0. 0. 0. 0. 0. 54. 3. 0. 7. 0. 0. 0. 0. 0. 56. 6.
      0. 2. 0. 0. 0. 0. 0. 39. 2. 0. 20. 3. 0. 0. 0. 0. 52. 8. 0. 2. 2.
      0. 0. 0. 0. 45. 1. 0. 16. 2. 0. 0. 0. 0. 47. 7. 0. 10. 0. 0. 0. 0.
      0. 61. 1. 0. 2. 0. 0. 0. 0. 0. 57. 0. 0. 7. 0. 0. 0. 0. 0. 59. 0.
      0. 5. 0. 0. 0. 0. 0. 58. 0. 0. 6. 0. 0. 0. 0. 0. 46. 0. 0. 17. 1.
      0. 0. 0. 0. 61. 3. 0. 0. 0. 0. 0. 0. 0. 57. 0. 0. 7. 0. 0. 0. 0.
      0. 49. 0. 0. 12. 3.</_>
    <_>
      0. 0. 0. 0. 60. 0. 0. 4. 0. 0. 0. 0. 0. 64. 0. 0. 0. 0. 0. 0. 0.
      0. 63. 1. 0. 0. 0. 0. 0. 0. 0. 46. 12. 0. 3. 3. 0. 0. 0. 0. 57. 0.
      0. 7. 0. 0. 0. 0. 0. 64. 0. 0. 0. 0. 0. 0. 0. 0. 64. 0. 0. 0. 0.
      0. 0. 0. 0. 62. 2. 0. 0. 0. 0. 0. 0. 0. 59. 4. 0. 1. 0. 0. 0. 0.
      0. 64. 0. 0. 0. 0. 0. 0. 0. 0. 63. 1. 0. 0. 0. 0. 0. 0. 0. 60. 2.
      0. 2. 0. 0. 0. 0. 0. 32. 20. 0. 12. 0. 0. 0. 0. 0. 58. 0. 0. 6. 0.
      0. 0. 0. 0. 64. 0. 0. 0. 0. 0. 0. 0. 0. 64. 0. 0. 0. 0. 0. 0. 0.
      0. 62. 2. 0. 0. 0. 0. 0. 0. 0. 62. 2. 0. 0. 0. 0. 0. 0. 0. 60. 4.
      0. 0. 0. 0. 0. 0. 0. 56. 7. 0. 0. 1. 0. 0. 0. 0. 37. 10. 0. 8. 9.
      0. 0. 0. 0. 43. 4. 0. 17. 0. 0. 0. 0. 0. 64. 0. 0. 0. 0. 0. 0. 0.
      0. 64. 0. 0. 0. 0. 0. 0. 0. 0. 54. 5. 0. 5. 0. 0. 0. 0. 0. 60. 2.
      0. 2. 0. 0. 0. 0. 0. 64. 0. 0. 0. 0. 0. 0. 0. 0. 53. 9. 0. 0. 2.
      0. 0. 0. 0. 64. 0. 0. 0. 0. 0. 0. 0. 0. 51. 10. 0. 3. 0. 0. 0. 0.
      0. 50. 1. 0. 12. 1. 0. 0. 0. 0. 64. 0. 0. 0. 0. 0. 0. 0. 0. 58. 3.
      0. 3. 0. 0. 0. 0. 0. 63. 1. 0. 0. 0. 0. 0. 0. 0. 60. 3. 0. 1. 0.
      0. 0. 0. 0. 60. 2. 0. 2. 0. 0. 0. 0. 0. 59. 5. 0. 0. 0. 0. 0. 0.
      0. 28. 22. 0. 5. 9. 0. 0. 0. 0. 59. 0. 0. 1. 4. 0. 0. 0. 0. 64. 0.
      0. 0. 0. 0. 0. 0. 0. 62. 1. 0. 1. 0. 0. 0. 0. 0. 61. 2. 0. 1. 0.
      0. 0. 0. 0. 58. 5. 0. 1. 0. 0. 0. 0. 0. 64. 0. 0. 0. 0. 0. 0. 0.
      0. 52. 0. 0. 12. 0. 0. 0. 0. 0. 39. 4. 0. 18. 3. 0. 0. 0. 0. 63.
      0. 0. 1. 0. 0. 0. 0. 0. 63. 1. 0. 0. 0. 0. 0. 0. 0. 61. 1. 0. 2.
      0. 0. 0. 0. 0. 58. 4. 0. 1. 1. 0. 0. 0. 0. 58. 6. 0. 0. 0. 0. 0.
      0. 0. 63. 1. 0. 0. 0. 0. 0. 0. 0. 51. 0. 0. 13. 0. 0. 0. 0. 0. 40.
      1. 0. 21. 2. 0. 0. 0. 0. 63. 1. 0. 0. 0. 0. 0. 0. 0. 61. 1. 0. 2.
      0. 0. 0. 0. 0. 57. 4. 0. 3. 0. 0. 0. 0. 0. 60. 1. 0. 3. 0. 0. 0.
      0. 0. 63. 1. 0. 0. 0. 0. 0. 0. 0. 64. 0. 0. 0. 0. 0. 0. 0. 0. 56.
      0. 0. 8. 0. 0. 0. 0. 0. 40. 3. 0. 19. 2. 0. 0. 0. 0. 62. 2. 0. 0.
      0. 0. 0. 0. 0. 64. 0. 0. 0. 0. 0. 0. 0. 0. 57. 3. 0. 4. 0. 0. 0.
      0. 0. 56. 4. 0. 4. 0. 0. 0. 0. 0. 61. 2. 0. 1. 0. 0. 0. 0. 0. 64.
      0. 0. 0. 0. 0. 0. 0. 0. 61. 3. 0. 0. 0. 0. 0. 0. 0. 39. 1. 0. 21.
      3. 0. 0. 0. 0. 59. 4. 0. 1. 0. 0. 0. 0. 0. 62. 0. 0. 2. 0. 0. 0.
      0. 0. 61. 2. 0. 1. 0. 0. 0. 0. 0. 58. 2. 0. 4. 0. 0. 0. 0. 0. 61.
      3. 0. 0. 0. 0. 0. 0. 0. 64. 0. 0. 0. 0. 0. 0. 0. 0. 64. 0. 0. 0.
      0. 0. 0. 0. 0. 39. 2. 0. 19. 4. 0. 0. 0. 0. 53. 9. 0. 2. 0. 0. 0.
      0. 0. 57. 5. 0. 2. 0. 0. 0. 0. 0. 47. 11. 0. 6. 0. 0. 0. 0. 0. 55.
      8. 0. 1. 0. 0. 0. 0. 0. 63. 1. 0. 0. 0. 0. 0. 0. 0. 53. 8. 0. 2.
      1. 0. 0. 0. 0. 62. 2. 0. 0. 0. 0. 0. 0. 0. 37. 4. 0. 16. 7. 0. 0.
      0. 0. 58. 5. 0. 0. 1. 0. 0. 0. 0. 64. 0. 0. 0. 0. 0. 0. 0. 0. 53.
      7. 0. 3. 1. 0. 0. 0. 0. 51. 9. 0. 3. 1. 0. 0. 0. 0. 45. 17. 0. 1.
      1. 0. 0. 0. 0. 50. 7. 0. 6. 1. 0. 0. 0. 0. 54. 10. 0. 0. 0. 0. 0.
      0. 0. 33. 0. 0. 30. 1. 0. 0. 0. 0. 55. 6. 0. 3. 0. 0. 0. 0. 0. 63.
      0. 0. 1. 0. 0. 0. 0. 0. 42. 16. 0. 5. 1. 0. 0. 0. 0. 35. 15. 0.
      10. 4. 0. 0. 0. 0. 57. 4. 0. 3. 0. 0. 0. 0. 0. 57. 6. 0. 1. 0. 0.
      0. 0. 0. 33. 15. 0. 10. 6. 0. 0. 0. 0. 40. 4. 0. 14. 6. 0. 0. 0.
      0. 53. 8. 0. 2. 1. 0. 0. 0. 0. 63. 0. 0. 1. 0. 0. 0. 0. 0. 40. 10.
      0. 8. 6. 0. 0. 0. 0. 42. 7. 0. 8. 7. 0. 0. 0. 0. 41. 14. 0. 4. 5.
      0. 0. 0. 0. 52. 12. 0. 0. 0. 0. 0. 0. 0. 35. 9. 0. 17. 3. 0. 0. 0.
      0. 42. 8. 0. 10. 4. 0. 0. 0. 0. 51. 5. 0. 7. 1. 0. 0. 0. 0. 60. 4.
      0. 0. 0. 0. 0. 0. 0. 57. 4. 0. 3. 0. 0. 0. 0. 0. 51. 1. 0. 12. 0.
      0. 0. 0. 0. 44. 1. 0. 17. 2. 0. 0. 0. 0. 60. 3. 0. 1. 0. 0. 0. 0.
      0. 33. 3. 0. 25. 3. 0. 0. 0. 0. 39. 8. 0. 13. 4. 0. 0. 0. 0. 38.
      5. 0. 20. 1. 0. 0. 0. 0. 54. 7. 0. 3. 0. 0. 0. 0. 0. 64. 0. 0. 0.
      0. 0. 0. 0. 0. 59. 0. 0. 5. 0. 0. 0. 0. 0. 54. 1. 0. 7. 2. 0. 0.
      0. 0. 55. 0. 0. 9. 0. 0. 0. 0. 0. 48. 0. 0. 16. 0. 0. 0. 0. 0. 55.
      7. 0. 2. 0. 0. 0. 0. 0. 43. 0. 0. 21. 0. 0. 0. 0. 0. 58. 0. 0. 6.
      0.</_>
    <_>
      0. 0. 0. 0. 64. 0. 0. 0. 0. 0. 0. 0. 0. 64. 0. 0. 0. 0. 0. 0. 0.
      0. 63. 0. 0. 0. 1. 0. 0. 0. 0. 43. 10. 0. 6. 5. 0. 0. 0. 0. 59. 3.
      0. 2. 0. 0. 0. 0. 0. 51. 5. 0. 8. 0. 0. 0. 0. 0. 59. 1. 0. 4. 0.
      0. 0. 0. 0. 64. 0. 0. 0. 0. 0. 0. 0. 0. 61. 2. 0. 1. 0. 0. 0. 0.
      0. 60. 2. 0. 2. 0. 0. 0. 0. 0. 61. 1. 0. 2. 0. 0. 0. 0. 0. 63. 0.
      0. 1. 0. 0. 0. 0. 0. 41. 2. 0. 17. 4. 0. 0. 0. 0. 57. 7. 0. 0. 0.
      0. 0. 0. 0. 46. 2. 0. 13. 3. 0. 0. 0. 0. 64. 0. 0. 0. 0. 0. 0. 0.
      0. 62. 1. 0. 1. 0. 0. 0. 0. 0. 61. 0. 0. 3. 0. 0. 0. 0. 0. 60. 4.
      0. 0. 0. 0. 0. 0. 0. 48. 13. 0. 0. 3. 0. 0. 0. 0. 44. 1. 0. 14. 5.
      0. 0. 0. 0. 62. 2. 0. 0. 0. 0. 0. 0. 0. 48. 0. 0. 15. 1. 0. 0. 0.
      0. 64. 0. 0. 0. 0. 0. 0. 0. 0. 62. 0. 0. 2. 0. 0. 0. 0. 0. 63. 1.
      0. 0. 0. 0. 0. 0. 0. 62. 2. 0. 0. 0. 0. 0. 0. 0. 61. 3. 0. 0. 0.
      0. 0. 0. 0. 64. 0. 0. 0. 0. 0. 0. 0. 0. 52. 10. 0. 0. 2. 0. 0. 0.
      0. 40. 9. 0. 5. 10. 0. 0. 0. 0. 64. 0. 0. 0. 0. 0. 0. 0. 0. 60. 0.
      0. 4. 0. 0. 0. 0. 0. 61. 1. 0. 2. 0. 0. 0. 0. 0. 57. 3. 0. 4. 0.
      0. 0. 0. 0. 61. 2. 0. 1. 0. 0. 0. 0. 0. 64. 0. 0. 0. 0. 0. 0. 0.
      0. 48. 0. 0. 12. 4. 0. 0. 0. 0. 64. 0. 0. 0. 0. 0. 0. 0. 0. 62. 1.
      0. 1. 0. 0. 0. 0. 0. 57. 6. 0. 1. 0. 0. 0. 0. 0. 56. 1. 0. 4. 3.
      0. 0. 0. 0. 58. 3. 0. 2. 1. 0. 0. 0. 0. 58. 6. 0. 0. 0. 0. 0. 0.
      0. 63. 0. 0. 1. 0. 0. 0. 0. 0. 45. 0. 0. 16. 3. 0. 0. 0. 0. 62. 2.
      0. 0. 0. 0. 0. 0. 0. 61. 3. 0. 0. 0. 0. 0. 0. 0. 52. 6. 0. 6. 0.
      0. 0. 0. 0. 55. 4. 0. 5. 0. 0. 0. 0. 0. 56. 3. 0. 3. 2. 0. 0. 0.
      0. 61. 3. 0. 0. 0. 0. 0. 0. 0. 64. 0. 0. 0. 0. 0. 0. 0. 0. 42. 5.
      0. 15. 2. 0. 0. 0. 0. 64. 0. 0. 0. 0. 0. 0. 0. 0. 64. 0. 0. 0. 0.
      0. 0. 0. 0. 57. 2. 0. 5. 0. 0. 0. 0. 0. 57. 2. 0. 5. 0. 0. 0. 0.
      0. 61. 2. 0. 1. 0. 0. 0. 0. 0. 64. 0. 0. 0. 0. 0. 0. 0. 0. 64. 0.
      0. 0. 0. 0. 0. 0. 0. 52. 0. 0. 12. 0. 0. 0. 0. 0. 56. 4. 0. 4. 0.
      0. 0. 0. 0. 63. 1. 0. 0. 0. 0. 0. 0. 0. 52. 4. 0. 8. 0. 0. 0. 0.
      0. 49. 7. 0. 8. 0. 0. 0. 0. 0. 60. 3. 0. 1. 0. 0. 0. 0. 0. 64. 0.
      0. 0. 0. 0. 0. 0. 0. 64. 0. 0. 0. 0. 0. 0. 0. 0. 40. 3. 0. 19. 2.
      0. 0. 0. 0. 59. 1. 0. 2. 2. 0. 0. 0. 0. 64. 0. 0. 0. 0. 0. 0. 0.
      0. 57. 6. 0. 1. 0. 0. 0. 0. 0. 58. 1. 0. 4. 1. 0. 0. 0. 0. 60. 4.
      0. 0. 0. 0. 0. 0. 0. 64. 0. 0. 0. 0. 0. 0. 0. 0. 64. 0. 0. 0. 0.
      0. 0. 0. 0. 51. 0. 0. 11. 2. 0. 0. 0. 0. 55. 4. 0. 4. 1. 0. 0. 0.
      0. 60. 3. 0. 1. 0. 0. 0. 0. 0. 54. 8. 0. 1. 1. 0. 0. 0. 0. 51. 7.
      0. 5. 1. 0. 0. 0. 0. 55. 6. 0. 3. 0. 0. 0. 0. 0. 64. 0. 0. 0. 0.
      0. 0. 0. 0. 64. 0. 0. 0. 0. 0. 0. 0. 0. 61. 0. 0. 3. 0. 0. 0. 0.
      0. 47. 0. 0. 14. 3. 0. 0. 0. 0. 64. 0. 0. 0. 0. 0. 0. 0. 0. 46.
      13. 0. 4. 1. 0. 0. 0. 0. 55. 5. 0. 4. 0. 0. 0. 0. 0. 48. 14. 0. 2.
      0. 0. 0. 0. 0. 55. 8. 0. 1. 0. 0. 0. 0. 0. 60. 4. 0. 0. 0. 0. 0.
      0. 0. 48. 7. 0. 2. 7. 0. 0. 0. 0. 47. 5. 0. 7. 5. 0. 0. 0. 0. 64.
      0. 0. 0. 0. 0. 0. 0. 0. 39. 14. 0. 8. 3. 0. 0. 0. 0. 42. 20. 0. 1.
      1. 0. 0. 0. 0. 49. 12. 0. 1. 2. 0. 0. 0. 0. 48. 16. 0. 0. 0. 0. 0.
      0. 0. 48. 14. 0. 2. 0. 0. 0. 0. 0. 33. 4. 0. 20. 7. 0. 0. 0. 0.
      53. 5. 0. 5. 1. 0. 0. 0. 0. 61. 3. 0. 0. 0. 0. 0. 0. 0. 41. 6. 0.
      11. 6. 0. 0. 0. 0. 41. 8. 0. 8. 7. 0. 0. 0. 0. 22. 25. 0. 17. 0.
      0. 0. 0. 0. 52. 4. 0. 5. 3. 0. 0. 0. 0. 47. 17. 0. 0. 0. 0. 0. 0.
      0. 36. 7. 0. 15. 6. 0. 0. 0. 0. 44. 8. 0. 12. 0. 0. 0. 0. 0. 60.
      2. 0. 2. 0. 0. 0. 0. 0. 62. 0. 0. 2. 0. 0. 0. 0. 0. 57. 0. 0. 7.
      0. 0. 0. 0. 0. 60. 0. 0. 4. 0. 0. 0. 0. 0. 42. 5. 0. 12. 5. 0. 0.
      0. 0. 42. 11. 0. 11. 0. 0. 0. 0. 0. 29. 8. 0. 23. 4. 0. 0. 0. 0.
      49. 6. 0. 8. 1. 0. 0. 0. 0. 52. 7. 0. 5. 0. 0. 0. 0. 0. 62. 0. 0.
      2. 0. 0. 0. 0. 0. 58. 0. 0. 6. 0. 0. 0. 0. 0. 58. 0. 0. 5. 1. 0.
      0. 0. 0. 43. 0. 0. 21. 0. 0. 0. 0. 0. 62. 0. 0. 2. 0. 0. 0. 0. 0.
      50. 0. 0. 14. 0. 0. 0. 0. 0. 56. 0. 0. 8. 0. 0. 0. 0. 0. 60. 0. 0.
      4. 0.</_>
    <_>
      0. 0. 0. 0. 64. 0. 0. 0. 0. 0. 0. 0. 0. 62. 0. 0. 2. 0. 0. 0. 0.
      0. 62. 0. 0. 1. 1. 0. 0. 0. 0. 44. 11. 0. 7. 2. 0. 0. 0. 0. 60. 4.
      0. 0. 0. 0. 0. 0. 0. 64. 0. 0. 0. 0. 0. 0. 0. 0. 64. 0. 0. 0. 0.
      0. 0. 0. 0. 64. 0. 0. 0. 0. 0. 0. 0. 0. 64. 0. 0. 0. 0. 0. 0. 0.
      0. 62. 1. 0. 1. 0. 0. 0. 0. 0. 61. 1. 0. 2. 0. 0. 0. 0. 0. 57. 3.
      0. 4. 0. 0. 0. 0. 0. 48. 7. 0. 6. 3. 0. 0. 0. 0. 55. 1. 0. 8. 0.
      0. 0. 0. 0. 64. 0. 0. 0. 0. 0. 0. 0. 0. 64. 0. 0. 0. 0. 0. 0. 0.
      0. 54. 3. 0. 7. 0. 0. 0. 0. 0. 63. 1. 0. 0. 0. 0. 0. 0. 0. 60. 4.
      0. 0. 0. 0. 0. 0. 0. 51. 4. 0. 6. 3. 0. 0. 0. 0. 34. 4. 0. 20. 6.
      0. 0. 0. 0. 44. 6. 0. 14. 0. 0. 0. 0. 0. 61. 0. 0. 3. 0. 0. 0. 0.
      0. 64. 0. 0. 0. 0. 0. 0. 0. 0. 60. 0. 0. 4. 0. 0. 0. 0. 0. 58. 5.
      0. 1. 0. 0. 0. 0. 0. 63. 0. 0. 1. 0. 0. 0. 0. 0. 57. 7. 0. 0. 0.
      0. 0. 0. 0. 64. 0. 0. 0. 0. 0. 0. 0. 0. 56. 7. 0. 1. 0. 0. 0. 0.
      0. 47. 0. 0. 17. 0. 0. 0. 0. 0. 64. 0. 0. 0. 0. 0. 0. 0. 0. 61. 1.
      0. 2. 0. 0. 0. 0. 0. 64. 0. 0. 0. 0. 0. 0. 0. 0. 57. 4. 0. 2. 1.
      0. 0. 0. 0. 60. 4. 0. 0. 0. 0. 0. 0. 0. 56. 5. 0. 2. 1. 0. 0. 0.
      0. 34. 19. 0. 3. 8. 0. 0. 0. 0. 50. 6. 0. 3. 5. 0. 0. 0. 0. 64. 0.
      0. 0. 0. 0. 0. 0. 0. 55. 3. 0. 5. 1. 0. 0. 0. 0. 53. 2. 0. 6. 3.
      0. 0. 0. 0. 54. 1. 0. 6. 3. 0. 0. 0. 0. 55. 8. 0. 0. 1. 0. 0. 0.
      0. 60. 0. 0. 4. 0. 0. 0. 0. 0. 45. 3. 0. 13. 3. 0. 0. 0. 0. 63. 0.
      0. 1. 0. 0. 0. 0. 0. 62. 2. 0. 0. 0. 0. 0. 0. 0. 57. 4. 0. 3. 0.
      0. 0. 0. 0. 61. 3. 0. 0. 0. 0. 0. 0. 0. 54. 2. 0. 6. 2. 0. 0. 0.
      0. 62. 1. 0. 1. 0. 0. 0. 0. 0. 59. 0. 0. 5. 0. 0. 0. 0. 0. 46. 1.
      0. 15. 2. 0. 0. 0. 0. 62. 1. 0. 1. 0. 0. 0. 0. 0. 61. 1. 0. 2. 0.
      0. 0. 0. 0. 63. 0. 0. 1. 0. 0. 0. 0. 0. 61. 2. 0. 1. 0. 0. 0. 0.
      0. 54. 7. 0. 3. 0. 0. 0. 0. 0. 59. 1. 0. 3. 1. 0. 0. 0. 0. 61. 0.
      0. 3. 0. 0. 0. 0. 0. 31. 5. 0. 27. 1. 0. 0. 0. 0. 61. 3. 0. 0. 0.
      0. 0. 0. 0. 64. 0. 0. 0. 0. 0. 0. 0. 0. 58. 0. 0. 5. 1. 0. 0. 0.
      0. 47. 9. 0. 8. 0. 0. 0. 0. 0. 61. 2. 0. 1. 0. 0. 0. 0. 0. 64. 0.
      0. 0. 0. 0. 0. 0. 0. 64. 0. 0. 0. 0. 0. 0. 0. 0. 43. 1. 0. 17. 3.
      0. 0. 0. 0. 62. 1. 0. 1. 0. 0. 0. 0. 0. 62. 0. 0. 2. 0. 0. 0. 0.
      0. 56. 4. 0. 3. 1. 0. 0. 0. 0. 62. 1. 0. 1. 0. 0. 0. 0. 0. 59. 5.
      0. 0. 0. 0. 0. 0. 0. 64. 0. 0. 0. 0. 0. 0. 0. 0. 53. 0. 0. 11. 0.
      0. 0. 0. 0. 29. 3. 0. 25. 7. 0. 0. 0. 0. 55. 6. 0. 3. 0. 0. 0. 0.
      0. 60. 4. 0. 0. 0. 0. 0. 0. 0. 56. 6. 0. 2. 0. 0. 0. 0. 0. 51. 4.
      0. 8. 1. 0. 0. 0. 0. 53. 7. 0. 2. 2. 0. 0. 0. 0. 62. 2. 0. 0. 0.
      0. 0. 0. 0. 45. 0. 0. 19. 0. 0. 0. 0. 0. 37. 2. 0. 21. 4. 0. 0. 0.
      0. 54. 7. 0. 0. 3. 0. 0. 0. 0. 64. 0. 0. 0. 0. 0. 0. 0. 0. 42. 9.
      0. 9. 4. 0. 0. 0. 0. 48. 9. 0. 6. 1. 0. 0. 0. 0. 58. 3. 0. 2. 1.
      0. 0. 0. 0. 57. 7. 0. 0. 0. 0. 0. 0. 0. 41. 4. 0. 17. 2. 0. 0. 0.
      0. 32. 2. 0. 21. 9. 0. 0. 0. 0. 52. 8. 0. 4. 0. 0. 0. 0. 0. 62. 0.
      0. 2. 0. 0. 0. 0. 0. 41. 11. 0. 7. 5. 0. 0. 0. 0. 36. 20. 0. 5. 3.
      0. 0. 0. 0. 42. 17. 0. 2. 3. 0. 0. 0. 0. 39. 23. 0. 1. 1. 0. 0. 0.
      0. 53. 9. 0. 1. 1. 0. 0. 0. 0. 34. 7. 0. 22. 1. 0. 0. 0. 0. 53. 4.
      0. 3. 4. 0. 0. 0. 0. 59. 3. 0. 2. 0. 0. 0. 0. 0. 37. 11. 0. 9. 7.
      0. 0. 0. 0. 36. 12. 0. 16. 0. 0. 0. 0. 0. 27. 18. 0. 17. 2. 0. 0.
      0. 0. 45. 5. 0. 13. 1. 0. 0. 0. 0. 32. 18. 0. 11. 3. 0. 0. 0. 0.
      37. 21. 0. 5. 1. 0. 0. 0. 0. 42. 3. 0. 17. 2. 0. 0. 0. 0. 60. 2.
      0. 2. 0. 0. 0. 0. 0. 57. 0. 0. 7. 0. 0. 0. 0. 0. 58. 0. 0. 6. 0.
      0. 0. 0. 0. 54. 0. 0. 10. 0. 0. 0. 0. 0. 53. 4. 0. 6. 1. 0. 0. 0.
      0. 40. 6. 0. 13. 5. 0. 0. 0. 0. 46. 10. 0. 7. 1. 0. 0. 0. 0. 51.
      0. 0. 13. 0. 0. 0. 0. 0. 46. 4. 0. 12. 2. 0. 0. 0. 0. 61. 0. 0. 3.
      0. 0. 0. 0. 0. 59. 0. 0. 5. 0. 0. 0. 0. 0. 52. 3. 0. 8. 1. 0. 0.
      0. 0. 45. 0. 0. 19. 0. 0. 0. 0. 0. 57. 0. 0. 7. 0. 0. 0. 0. 0. 64.
      0. 0. 0. 0. 0. 0. 0. 0. 48. 0. 0. 13. 3. 0. 0. 0. 0. 54. 0. 0. 8.
      2.</_>
    <_>
      0. 0. 0. 0. 63. 0. 0. 1. 0. 0. 0. 0. 0. 63. 0. 0. 1. 0. 0. 0. 0.
      0. 64. 0. 0. 0. 0. 0. 0. 0. 0. 63. 0. 0. 1. 0. 0. 0. 0. 0. 47. 9.
      0. 7. 1. 0. 0. 0. 0. 58. 6. 0. 0. 0. 0. 0. 0. 0. 64. 0. 0. 0. 0.
      0. 0. 0. 0. 64. 0. 0. 0. 0. 0. 0. 0. 0. 61. 3. 0. 0. 0. 0. 0. 0.
      0. 64. 0. 0. 0. 0. 0. 0. 0. 0. 63. 1. 0. 0. 0. 0. 0. 0. 0. 60. 1.
      0. 3. 0. 0. 0. 0. 0. 61. 0. 0. 3. 0. 0. 0. 0. 0. 46. 1. 0. 13. 4.
      0. 0. 0. 0. 64. 0. 0. 0. 0. 0. 0. 0. 0. 64. 0. 0. 0. 0. 0. 0. 0.
      0. 56. 5. 0. 3. 0. 0. 0. 0. 0. 64. 0. 0. 0. 0. 0. 0. 0. 0. 64. 0.
      0. 0. 0. 0. 0. 0. 0. 56. 8. 0. 0. 0. 0. 0. 0. 0. 49. 7. 0. 3. 5.
      0. 0. 0. 0. 46. 1. 0. 11. 6. 0. 0. 0. 0. 64. 0. 0. 0. 0. 0. 0. 0.
      0. 64. 0. 0. 0. 0. 0. 0. 0. 0. 60. 1. 0. 3. 0. 0. 0. 0. 0. 64. 0.
      0. 0. 0. 0. 0. 0. 0. 64. 0. 0. 0. 0. 0. 0. 0. 0. 64. 0. 0. 0. 0.
      0. 0. 0. 0. 55. 8. 0. 1. 0. 0. 0. 0. 0. 47. 0. 0. 16. 1. 0. 0. 0.
      0. 64. 0. 0. 0. 0. 0. 0. 0. 0. 64. 0. 0. 0. 0. 0. 0. 0. 0. 63. 1.
      0. 0. 0. 0. 0. 0. 0. 57. 2. 0. 1. 4. 0. 0. 0. 0. 36. 21. 0. 2. 5.
      0. 0. 0. 0. 62. 2. 0. 0. 0. 0. 0. 0. 0. 60. 1. 0. 3. 0. 0. 0. 0.
      0. 51. 4. 0. 9. 0. 0. 0. 0. 0. 47. 1. 0. 15. 1. 0. 0. 0. 0. 64. 0.
      0. 0. 0. 0. 0. 0. 0. 59. 4. 0. 1. 0. 0. 0. 0. 0. 45. 3. 0. 11. 5.
      0. 0. 0. 0. 56. 7. 0. 1. 0. 0. 0. 0. 0. 54. 9. 0. 1. 0. 0. 0. 0.
      0. 61. 3. 0. 0. 0. 0. 0. 0. 0. 48. 11. 0. 2. 3. 0. 0. 0. 0. 43. 1.
      0. 18. 2. 0. 0. 0. 0. 63. 0. 0. 1. 0. 0. 0. 0. 0. 63. 0. 0. 1. 0.
      0. 0. 0. 0. 51. 9. 0. 1. 3. 0. 0. 0. 0. 63. 1. 0. 0. 0. 0. 0. 0.
      0. 64. 0. 0. 0. 0. 0. 0. 0. 0. 57. 0. 0. 7. 0. 0. 0. 0. 0. 47. 0.
      0. 14. 3. 0. 0. 0. 0. 45. 3. 0. 13. 3. 0. 0. 0. 0. 62. 0. 0. 2. 0.
      0. 0. 0. 0. 62. 2. 0. 0. 0. 0. 0. 0. 0. 62. 2. 0. 0. 0. 0. 0. 0.
      0. 64. 0. 0. 0. 0. 0. 0. 0. 0. 62. 2. 0. 0. 0. 0. 0. 0. 0. 63. 0.
      0. 1. 0. 0. 0. 0. 0. 43. 5. 0. 14. 2. 0. 0. 0. 0. 46. 0. 0. 13. 5.
      0. 0. 0. 0. 64. 0. 0. 0. 0. 0. 0. 0. 0. 58. 4. 0. 2. 0. 0. 0. 0.
      0. 59. 2. 0. 3. 0. 0. 0. 0. 0. 61. 1. 0. 2. 0. 0. 0. 0. 0. 62. 2.
      0. 0. 0. 0. 0. 0. 0. 61. 2. 0. 1. 0. 0. 0. 0. 0. 41. 8. 0. 8. 7.
      0. 0. 0. 0. 57. 1. 0. 1. 5. 0. 0. 0. 0. 63. 0. 0. 1. 0. 0. 0. 0.
      0. 57. 6. 0. 0. 1. 0. 0. 0. 0. 55. 5. 0. 4. 0. 0. 0. 0. 0. 63. 1.
      0. 0. 0. 0. 0. 0. 0. 62. 2. 0. 0. 0. 0. 0. 0. 0. 63. 0. 0. 1. 0.
      0. 0. 0. 0. 35. 2. 0. 23. 4. 0. 0. 0. 0. 58. 6. 0. 0. 0. 0. 0. 0.
      0. 55. 8. 0. 1. 0. 0. 0. 0. 0. 55. 7. 0. 2. 0. 0. 0. 0. 0. 45. 9.
      0. 7. 3. 0. 0. 0. 0. 64. 0. 0. 0. 0. 0. 0. 0. 0. 61. 2. 0. 1. 0.
      0. 0. 0. 0. 64. 0. 0. 0. 0. 0. 0. 0. 0. 36. 2. 0. 23. 3. 0. 0. 0.
      0. 62. 2. 0. 0. 0. 0. 0. 0. 0. 60. 2. 0. 2. 0. 0. 0. 0. 0. 50. 4.
      0. 6. 4. 0. 0. 0. 0. 45. 12. 0. 4. 3. 0. 0. 0. 0. 43. 18. 0. 3. 0.
      0. 0. 0. 0. 43. 12. 0. 7. 2. 0. 0. 0. 0. 52. 10. 0. 0. 2. 0. 0. 0.
      0. 31. 5. 0. 18. 10. 0. 0. 0. 0. 64. 0. 0. 0. 0. 0. 0. 0. 0. 60.
      1. 0. 2. 1. 0. 0. 0. 0. 37. 19. 0. 3. 5. 0. 0. 0. 0. 37. 20. 0. 5.
      2. 0. 0. 0. 0. 53. 11. 0. 0. 0. 0. 0. 0. 0. 44. 2. 0. 13. 5. 0. 0.
      0. 0. 34. 18. 0. 9. 3. 0. 0. 0. 0. 35. 3. 0. 23. 3. 0. 0. 0. 0.
      62. 1. 0. 1. 0. 0. 0. 0. 0. 63. 1. 0. 0. 0. 0. 0. 0. 0. 48. 4. 0.
      10. 2. 0. 0. 0. 0. 35. 16. 0. 12. 1. 0. 0. 0. 0. 27. 20. 0. 14. 3.
      0. 0. 0. 0. 41. 6. 0. 9. 8. 0. 0. 0. 0. 36. 15. 0. 8. 5. 0. 0. 0.
      0. 42. 6. 0. 10. 6. 0. 0. 0. 0. 54. 5. 0. 5. 0. 0. 0. 0. 0. 61. 1.
      0. 2. 0. 0. 0. 0. 0. 60. 0. 0. 4. 0. 0. 0. 0. 0. 47. 1. 0. 16. 0.
      0. 0. 0. 0. 60. 0. 0. 4. 0. 0. 0. 0. 0. 38. 2. 0. 22. 2. 0. 0. 0.
      0. 51. 2. 0. 10. 1. 0. 0. 0. 0. 47. 4. 0. 11. 2. 0. 0. 0. 0. 55.
