<?xml version="1.0"?>
<opencv_storage>
<opencv_ml_svm>
  <format>3</format>
  <svmType>C_SVC</svmType>
  <kernel>
    <type>LINEAR</type></kernel>
  <C>1.</C>
  <term_criteria><iterations>100</iterations></term_criteria>
  <var_count>1152</var_count>
  <class_count>2</class_count>
  <class_labels type_id="opencv-matrix">
    <rows>2</rows>
    <cols>1</cols>
    <dt>i</dt>
    <data>
      -1 1</data></class_labels>
  <sv_total>1</sv_total>
  <support_vectors>
    <_>
      0. 0. 0. 0. 9.99267562e-04 1.69564271e-04 0. -7.76069355e-04
      -3.92762508e-04 0. 0. 0. 0. 1.98980840e-03 -4.43281402e-04 0.
      2.74400751e-04 -1.82092760e-03 0. 0. 0. 0. -6.37746067e-04
      5.02665876e-04 0. 1.76090701e-03 -1.62582682e-03 0. 0. 0. 0.
      1.82905758e-03 -2.27836194e-04 0. 6.26213965e-04 -2.22743535e-03
      0. 0. 0. 0. 8.29671917e-04 -1.89283176e-03 0. 3.80734680e-04
      6.82425220e-04 0. 0. 0. 0. 1.44237292e-03 2.77707732e-04 0.
      -4.12571797e-04 -1.30750891e-03 0. 0. 0. 0. -4.29886655e-04
      8.98912840e-04 0. -1.21912606e-04 -3.47113586e-04 0. 0. 0. 0.
      2.70058680e-03 -1.08991330e-03 0. 5.09415928e-04 -2.12008948e-03
      0. 0. 0. 0. 1.79379061e-03 -1.38761441e-03 0. 8.07792705e-04
      -1.21396896e-03 0. 0. 0. 0. -1.44368131e-03 1.56856398e-03 0.
      1.02582555e-04 -2.27465222e-04 0. 0. 0. 0. -1.17084966e-03
      1.26229320e-03 0. -4.09794389e-04 3.18350823e-04 0. 0. 0. 0.
      -1.31142233e-03 2.09674658e-03 0. -1.34012150e-03 5.54797240e-04
      0. 0. 0. 0. -1.74749375e-03 3.36919725e-03 0. -1.21133460e-03
      -4.10368928e-04 0. 0. 0. 0. -1.33082166e-03 3.22182197e-03 0.
      -1.46434025e-03 -4.26660001e-04 0. 0. 0. 0. 1.28775532e-03
      -9.09418741e-05 0. 9.46162618e-04 -2.14297604e-03 0. 0. 0. 0.
      2.21025408e-03 -1.87307189e-03 0. 1.98311685e-03 -2.32029916e-03
      0. 0. 0. 0. 1.37903800e-04 -1.00160330e-04 0. -1.12024450e-03
      1.08250102e-03 0. 0. 0. 0. 4.93934669e-04 -9.78883705e-04 0.
      -8.45426577e-04 1.33037555e-03 0. 0. 0. 0. 8.99510342e-04
      -2.84001883e-03 0. 9.54630203e-04 9.85878287e-04 0. 0. 0. 0.
      -1.60557451e-04 -3.80927557e-03 0. 3.55570274e-03 4.14130278e-04
      0. 0. 0. 0. 1.92968093e-03 5.09443402e-04 0. -3.87556152e-04
      -2.05156812e-03 0. 0. 0. 0. 7.57621718e-04 -7.96518114e-04 0.
      2.07285048e-03 -2.03395425e-03 0. 0. 0. 0. -1.93596457e-03
      -5.84237219e-04 0. 1.41776935e-03 1.10243238e-03 0. 0. 0. 0.
      -2.06534212e-04 -4.87410070e-05 0. 1.68202457e-03 -1.42674928e-03
      0. 0. 0. 0. 1.23604375e-03 -9.50171961e-04 0. 1.66032929e-04
      -4.51904722e-04 0. 0. 0. 0. -1.16604369e-03 8.84678273e-04 0.
      -7.79123395e-04 1.06048887e-03 0. 0. 0. 0. -3.35847028e-04
      -9.75643459e-04 0. 8.58978194e-04 4.52512322e-04 0. 0. 0. 0.
      -5.08701662e-04 -3.22489679e-04 0. -5.47635835e-04 1.37882715e-03
      0. 0. 0. 0. -4.76357964e-05 -1.28507774e-04 0. -2.01473988e-04
      3.77617573e-04 0. 0. 0. 0. 1.82811360e-04 -1.16556522e-03 0.
      -5.40576468e-04 1.52333034e-03 0. 0. 0. 0. 4.20782424e-04
      -1.68761518e-03 0. 1.19757676e-03 6.92560134e-05 0. 0. 0. 0.
      2.70356511e-04 6.91829366e-04 0. 4.17418341e-04 -1.37960422e-03 0.
      0. 0. 0. 1.03400776e-03 -9.69792949e-04 0. 1.13226147e-03
      -1.19647628e-03 0. 0. 0. 0. -1.55900093e-03 -5.18911809e-04 0.
      2.18510488e-03 -1.07192151e-04 0. 0. 0. 0. -5.08058758e-04
      -1.10814604e-03 0. 4.93657019e-04 1.12254778e-03 0. 0. 0. 0.
      -1.21922488e-03 4.36866947e-04 0. -5.42276248e-05 8.36585590e-04
      0. 0. 0. 0. -2.27334141e-03 1.95026014e-03 0. -1.67374921e-04
      4.90456237e-04 0. 0. 0. 0. -7.24779966e-04 1.86101790e-03 0.
      -5.18168963e-05 -1.08442106e-03 0. 0. 0. 0. 5.86431532e-04
      8.47714255e-05 0. 7.59717834e-04 -1.43092079e-03 0. 0. 0. 0.
      -2.01437017e-03 -7.95377360e-04 0. 1.73010712e-03 1.07964035e-03
      0. 0. 0. 0. 2.17578388e-04 -4.72596032e-04 0. 4.47325991e-04
      -1.92308347e-04 0. 0. 0. 0. -2.17573694e-03 -4.36089176e-04 0.
      1.44894631e-03 1.16287987e-03 0. 0. 0. 0. 1.78995228e-03
      -2.74393032e-03 0. 1.53272145e-03 -5.78743464e-04 0. 0. 0. 0.
      -1.47418946e-03 -2.10587736e-04 0. 1.09421532e-03 5.90561947e-04
      0. 0. 0. 0. -1.04081200e-03 1.59820402e-03 0. 1.86267236e-04
      -7.43659330e-04 0. 0. 0. 0. 3.08829331e-04 1.06146676e-03 0.
      5.08115627e-04 -1.87841174e-03 0. 0. 0. 0. 3.52552481e-04
      -1.01816410e-03 0. 2.41100159e-03 -1.74539001e-03 0. 0. 0. 0.
      -2.99612322e-04 2.12722714e-03 0. -1.35446468e-03 -4.73150314e-04
      0. 0. 0. 0. -1.19920250e-03 3.41271516e-04 0. 1.02992298e-03
      -1.71992026e-04 0. 0. 0. 0. -1.02624751e-03 -5.53207065e-04 0.
      1.62642519e-03 -4.69704901e-05 0. 0. 0. 0. 2.28891219e-03
      -1.81679742e-03 0. -1.12173578e-03 6.49621012e-04 0. 0. 0. 0.
      -2.98503111e-03 3.56185017e-04 0. 1.36897562e-03 1.25987048e-03 0.
      0. 0. 0. -7.30774889e-04 1.53516990e-03 0. -1.99596118e-03
      1.19156623e-03 0. 0. 0. 0. -1.35398048e-04 -2.79314590e-05 0.
      1.05292525e-03 -8.89595773e-04 0. 0. 0. 0. 4.77520400e-04
      -3.92155285e-04 0. 5.25951618e-04 -6.11316704e-04 0. 0. 0. 0.
      5.06202749e-04 -1.49317973e-04 0. -1.13892730e-03 7.82042509e-04
      0. 0. 0. 0. -6.00684434e-04 3.63603904e-04 0. -2.20005459e-05
      2.59081047e-04 0. 0. 0. 0. -1.64777006e-03 1.78128039e-03 0.
      -6.03957393e-04 4.70447121e-04 0. 0. 0. 0. 9.66438150e-04
      1.22374017e-03 0. -1.59374496e-03 -5.96433354e-04 0. 0. 0. 0.
      -2.60453857e-03 -1.58840645e-04 0. 1.83805625e-03 9.25322995e-04
      0. 0. 0. 0. -1.54048821e-03 2.56181083e-04 0. 1.00276212e-03
      2.81545043e-04 0. 0. 0. 0. -2.29079174e-04 2.76684790e-04 0.
      -7.66370722e-05 2.90314510e-05 0. 0. 0. 0. 1.36494159e-03
      -7.33734865e-04 0. -1.10046112e-03 4.69254359e-04 0. 0. 0. 0.
      -5.28187316e-04 1.36416010e-03 0. -1.42610702e-03 5.90134296e-04
      0. 0. 0. 0. -4.34763235e-04 7.42906705e-04 0. -4.89596860e-04
      1.81453390e-04 0. 0. 0. 0. 1.49676882e-04 -4.29024694e-05 0.
      -4.01678524e-04 2.94904108e-04 0. 0. 0. 0. 5.72201738e-04
      -4.88828868e-04 0. 4.21866105e-04 -5.05238946e-04 0. 0. 0. 0.
      1.28053676e-03 -2.41100206e-03 0. 8.92235781e-04 2.38229492e-04 0.
      0. 0. 0. -9.90205328e-04 -3.08677903e-04 0. 1.62530609e-03
      -3.26422858e-04 0. 0. 0. 0. -4.93819709e-04 6.55526004e-04 0.
      1.50948612e-03 -1.67119247e-03 0. 0. 0. 0. -9.11377196e-04
      1.24979019e-03 0. 7.81847280e-04 -1.12026022e-03 0. 0. 0. 0.
      4.78942093e-04 9.46078275e-04 0. 1.15743710e-03 -2.58245738e-03 0.
      0. 0. 0. 1.65515696e-03 -1.95129905e-04 0. 1.77934344e-04
      -1.63796137e-03 0. 0. 0. 0. 4.22945566e-04 -2.80934008e-04 0.
      1.31562105e-04 -2.73573678e-04 0. 0. 0. 0. 1.14205643e-03
      -5.87029826e-05 0. -1.19138067e-03 1.08027270e-04 0. 0. 0. 0.
      -1.33427500e-03 8.49258737e-04 0. 7.56339577e-04 -2.71323253e-04
      0. 0. 0. 0. 5.54895785e-04 7.59402232e-04 0. 6.13051699e-04
      -1.92734972e-03 0. 0. 0. 0. -5.78647363e-04 1.94229232e-03 0.
      7.05504499e-04 -2.06914940e-03 0. 0. 0. 0. 1.10828853e-03
      -2.26088261e-04 0. 2.69659888e-03 -3.57879908e-03 0. 0. 0. 0.
      -4.63138247e-04 3.90216701e-05 0. 2.30542477e-03 -1.88130816e-03
      0. 0. 0. 0. 3.43320589e-03 -8.17183405e-04 0. -1.20877649e-03
      -1.40724587e-03 0. 0. 0. 0. 2.29482030e-04 3.07456969e-04 0.
      7.36828486e-04 -1.27376744e-03 0. 0. 0. 0. -1.32061669e-03
      1.55025965e-03 0. 1.25245168e-03 -1.48209464e-03 0. 0. 0. 0.
      1.69237796e-03 -5.80664142e-04 0. 6.80113910e-04 -1.79182773e-03
      0. 0. 0. 0. -4.90372186e-04 4.96957102e-04 0. 9.52643692e-04
      -9.59228550e-04 0. 0. 0. 0. -2.18577567e-03 2.00588955e-03 0.
      -3.85777908e-04 5.65664028e-04 0. 0. 0. 0. 1.33538665e-03
      -1.49321253e-03 0. 2.01610965e-03 -1.85828388e-03 0. 0. 0. 0.
      -7.71998311e-04 -8.59833788e-04 0. 3.90458712e-03 -2.27275514e-03
      0. 0. 0. 0. -7.93312036e-04 7.16395094e-04 0. 8.93357734e-04
      -8.16440792e-04 0. 0. 0. 0. -1.03582992e-04 7.06308114e-04 0.
      8.02751689e-04 -1.40547683e-03 0. 0. 0. 0. 5.20264031e-04
      -1.62754348e-03 0. 7.93015352e-04 3.14264034e-04 0. 0. 0. 0.
      -4.60168580e-04 2.18643690e-03 0. -1.04055111e-03 -6.85717154e-04
      0. 0. 0. 0. -1.06487586e-03 1.08339381e-03 0. 1.01122621e-03
      -1.02974428e-03 0. 0. 0. 0. 1.64907333e-03 -1.09859509e-03 0.
      3.00476822e-04 -8.50955024e-04 0. 0. 0. 0. -2.57441687e-04
      8.00456502e-04 0. 1.71066530e-03 -2.25368026e-03 0. 0. 0. 0.
      -3.76838361e-05 2.80949724e-04 0. -2.08481695e-04 -3.47841778e-05
      0. 0. 0. 0. 1.12849951e-03 -9.55122596e-05 0. -1.38440949e-03
      3.51422234e-04 0. 0. 0. 0. -1.47891894e-03 2.50149262e-03 0.
      1.86554298e-05 -1.04122912e-03 0. 0. 0. 0. 1.18478027e-03
      -1.33449293e-03 0. 8.17157212e-04 -6.67444488e-04 0. 0. 0. 0.
      -7.05543149e-04 1.62946421e-03 0. 2.19519585e-04 -1.14344072e-03
      0. 0. 0. 0. -2.34998035e-04 4.20126453e-04 0. 8.19836918e-04
      -1.00496528e-03 0. 0. 0. 0. 6.69349160e-04 1.94421649e-04 0.
      -2.50080629e-04 -6.13690179e-04 0. 0. 0. 0. 1.29908603e-03
      1.04825723e-03 0. -4.91954968e-04 -1.85538828e-03 0. 0. 0. 0.
      -9.42368701e-04 1.90715492e-03 0. -1.23826915e-03 2.73482903e-04
      0. 0. 0. 0. 2.78961234e-04 -6.75562245e-04 0. -3.18003804e-05
      4.28401370e-04 0. 0. 0. 0. -1.05500403e-04 1.05142547e-03 0.
      -2.44516414e-03 1.49923912e-03 0. 0. 0. 0. 1.33303518e-03
      -3.30240837e-05 0. -1.09282020e-03 -2.07190868e-04 0. 0. 0. 0.
      -1.06717041e-03 1.38177245e-03 0. 9.93815484e-04 -1.30841741e-03
      0. 0. 0. 0. 5.25554002e-04 -1.51419110e-04 0. -2.90238910e-04
      -8.38959531e-05 0. 0. 0. 0. -1.26178970e-03 3.51118972e-04 0.
      9.32011288e-04 -2.13405492e-05 0. 0. 0. 0. -1.70106860e-03
      6.20857696e-04 0. 8.11664271e-04 2.68546661e-04 0. 0. 0. 0.
      -1.06600125e-03 2.21927441e-03 0. -1.31728721e-03 1.64014011e-04
      0. 0. 0. 0. -2.72501679e-03 2.10864353e-03 0. -1.38679182e-03
      2.00316519e-03 0. 0. 0. 0. -2.43673753e-03 9.43570572e-04 0.
      -1.09111767e-04 1.60227867e-03 0. 0. 0. 0. 2.82059866e-03
      9.85537099e-06 0. -3.21901869e-03 3.88564658e-04 0. 0. 0. 0.
      2.29827687e-03 -2.13065417e-03 0. -1.02443725e-03 8.56814557e-04
      0. 0. 0. 0. 1.27685757e-03 -8.29562923e-05 0. -5.06720680e-04
      -6.87180611e-04 0. 0. 0. 0. 1.36355974e-03 -1.61833747e-03 0.
      1.98057431e-04 5.67203351e-05 0. 0. 0. 0. -1.74861008e-04
      9.69797897e-04 0. -1.50316663e-03 7.08229723e-04 0. 0. 0. 0.
      6.30643452e-04 2.25389027e-03 0. -2.74697458e-03 -1.37559182e-04
      0. 0. 0. 0. -2.70745996e-03 8.02275492e-04 0. 9.73201997e-04
      9.31982533e-04 0. 0. 0. 0. -2.73907813e-03 1.19718642e-03 0.
      4.15515911e-04 1.12637586e-03 0. 0. 0. 0. -8.19172477e-04
      1.94838271e-03 0. -2.36252113e-03 1.23331102e-03 0. 0. 0. 0.
      -1.43085606e-03 6.85736886e-04 0. -1.02067750e-03 1.76579668e-03
      0. 0. 0. 0. -2.42316560e-03 2.38473597e-03 0. -5.97274862e-04
      6.35704491e-04 0. 0. 0. 0. -6.54763426e-04 -1.03963166e-03 0.
      1.09328621e-03 6.01108826e-04 0. 0. 0. 0. -2.35757511e-03
      1.13989576e-03 0. -2.83024623e-04 1.50070386e-03 0. 0. 0. 0.
      -3.61671741e-03 1.24674966e-03 0. 5.00537339e-04 1.86943030e-03</_></support_vectors>
  <uncompressed_sv_total>148</uncompressed_sv_total>
  <uncompressed_support_vectors>
    <_>
      0. 0. 0. 0. 63. 0. 0. 1. 0. 0. 0. 0. 0. 63. 1. 0. 0. 0. 0. 0. 0.
      0. 63. 0. 0. 1. 0. 0. 0. 0. 0. 50. 7. 0. 5. 2. 0. 0. 0. 0. 50. 10.
      0. 3. 1. 0. 0. 0. 0. 64. 0. 0. 0. 0. 0. 0. 0. 0. 64. 0. 0. 0. 0.
      0. 0. 0. 0. 58. 4. 0. 2. 0. 0. 0. 0. 0. 61. 2. 0. 1. 0. 0. 0. 0.
      0. 61. 2. 0. 1. 0. 0. 0. 0. 0. 64. 0. 0. 0. 0. 0. 0. 0. 0. 59. 1.
      0. 4. 0. 0. 0. 0. 0. 40. 0. 0. 19. 5. 0. 0. 0. 0. 64. 0. 0. 0. 0.
      0. 0. 0. 0. 64. 0. 0. 0. 0. 0. 0. 0. 0. 64. 0. 0. 0. 0. 0. 0. 0.
      0. 60. 0. 0. 4. 0. 0. 0. 0. 0. 60. 3. 0. 1. 0. 0. 0. 0. 0. 62. 2.
      0. 0. 0. 0. 0. 0. 0. 53. 11. 0. 0. 0. 0. 0. 0. 0. 41. 2. 0. 14. 7.
      0. 0. 0. 0. 63. 1. 0. 0. 0. 0. 0. 0. 0. 64. 0. 0. 0. 0. 0. 0. 0.
      0. 58. 3. 0. 3. 0. 0. 0. 0. 0. 59. 3. 0. 0. 2. 0. 0. 0. 0. 60. 0.
      0. 3. 1. 0. 0. 0. 0. 61. 1. 0. 2. 0. 0. 0. 0. 0. 64. 0. 0. 0. 0.
      0. 0. 0. 0. 46. 2. 0. 16. 0. 0. 0. 0. 0. 51. 0. 0. 13. 0. 0. 0. 0.
      0. 64. 0. 0. 0. 0. 0. 0. 0. 0. 64. 0. 0. 0. 0. 0. 0. 0. 0. 59. 2.
      0. 3. 0. 0. 0. 0. 0. 62. 2. 0. 0. 0. 0. 0. 0. 0. 62. 2. 0. 0. 0.
      0. 0. 0. 0. 64. 0. 0. 0. 0. 0. 0. 0. 0. 62. 0. 0. 2. 0. 0. 0. 0.
      0. 40. 7. 0. 15. 2. 0. 0. 0. 0. 52. 1. 0. 11. 0. 0. 0. 0. 0. 63.
      1. 0. 0. 0. 0. 0. 0. 0. 62. 0. 0. 1. 1. 0. 0. 0. 0. 54. 9. 0. 1.
      0. 0. 0. 0. 0. 62. 2. 0. 0. 0. 0. 0. 0. 0. 64. 0. 0. 0. 0. 0. 0.
      0. 0. 52. 0. 0. 12. 0. 0. 0. 0. 0. 38. 0. 0. 24. 2. 0. 0. 0. 0.
      47. 4. 0. 11. 2. 0. 0. 0. 0. 63. 0. 0. 1. 0. 0. 0. 0. 0. 57. 3. 0.
      4. 0. 0. 0. 0. 0. 57. 3. 0. 4. 0. 0. 0. 0. 0. 54. 6. 0. 4. 0. 0.
      0. 0. 0. 62. 2. 0. 0. 0. 0. 0. 0. 0. 54. 1. 0. 9. 0. 0. 0. 0. 0.
      33. 1. 0. 30. 0. 0. 0. 0. 0. 49. 0. 0. 12. 3. 0. 0. 0. 0. 64. 0.
      0. 0. 0. 0. 0. 0. 0. 62. 1. 0. 1. 0. 0. 0. 0. 0. 58. 4. 0. 2. 0.
      0. 0. 0. 0. 50. 1. 0. 7. 6. 0. 0. 0. 0. 63. 1. 0. 0. 0. 0. 0. 0.
      0. 56. 0. 0. 8. 0. 0. 0. 0. 0. 31. 5. 0. 25. 3. 0. 0. 0. 0. 48. 0.
      0. 12. 4. 0. 0. 0. 0. 64. 0. 0. 0. 0. 0. 0. 0. 0. 62. 0. 0. 2. 0.
      0. 0. 0. 0. 60. 3. 0. 1. 0. 0. 0. 0. 0. 42. 6. 0. 15. 1. 0. 0. 0.
      0. 62. 2. 0. 0. 0. 0. 0. 0. 0. 64. 0. 0. 0. 0. 0. 0. 0. 0. 29. 0.
      0. 35. 0. 0. 0. 0. 0. 46. 2. 0. 13. 3. 0. 0. 0. 0. 61. 3. 0. 0. 0.
      0. 0. 0. 0. 55. 5. 0. 3. 1. 0. 0. 0. 0. 48. 11. 0. 3. 2. 0. 0. 0.
      0. 56. 2. 0. 4. 2. 0. 0. 0. 0. 64. 0. 0. 0. 0. 0. 0. 0. 0. 64. 0.
      0. 0. 0. 0. 0. 0. 0. 24. 0. 0. 37. 3. 0. 0. 0. 0. 51. 6. 0. 4. 3.
      0. 0. 0. 0. 57. 3. 0. 4. 0. 0. 0. 0. 0. 50. 12. 0. 2. 0. 0. 0. 0.
      0. 55. 5. 0. 4. 0. 0. 0. 0. 0. 58. 5. 0. 1. 0. 0. 0. 0. 0. 56. 4.
      0. 2. 2. 0. 0. 0. 0. 60. 4. 0. 0. 0. 0. 0. 0. 0. 30. 1. 0. 32. 1.
      0. 0. 0. 0. 49. 2. 0. 11. 2. 0. 0. 0. 0. 64. 0. 0. 0. 0. 0. 0. 0.
      0. 39. 13. 0. 5. 7. 0. 0. 0. 0. 44. 14. 0. 4. 2. 0. 0. 0. 0. 41.
      21. 0. 0. 2. 0. 0. 0. 0. 20. 26. 0. 6. 12. 0. 0. 0. 0. 53. 7. 0.
      4. 0. 0. 0. 0. 0. 26. 11. 0. 14. 13. 0. 0. 0. 0. 61. 2. 0. 0. 1.
      0. 0. 0. 0. 63. 1. 0. 0. 0. 0. 0. 0. 0. 41. 3. 0. 12. 8. 0. 0. 0.
      0. 39. 12. 0. 11. 2. 0. 0. 0. 0. 38. 18. 0. 4. 4. 0. 0. 0. 0. 24.
      18. 0. 13. 9. 0. 0. 0. 0. 48. 12. 0. 4. 0. 0. 0. 0. 0. 31. 5. 0.
      21. 7. 0. 0. 0. 0. 56. 6. 0. 2. 0. 0. 0. 0. 0. 61. 3. 0. 0. 0. 0.
      0. 0. 0. 47. 5. 0. 10. 2. 0. 0. 0. 0. 61. 0. 0. 3. 0. 0. 0. 0. 0.
      48. 3. 0. 12. 1. 0. 0. 0. 0. 36. 2. 0. 22. 4. 0. 0. 0. 0. 59. 4.
      0. 1. 0. 0. 0. 0. 0. 33. 7. 0. 19. 5. 0. 0. 0. 0. 52. 3. 0. 8. 1.
      0. 0. 0. 0. 52. 10. 0. 2. 0. 0. 0. 0. 0. 44. 3. 0. 15. 2. 0. 0. 0.
      0. 60. 0. 0. 4. 0. 0. 0. 0. 0. 63. 0. 0. 1. 0. 0. 0. 0. 0. 42. 0.
      0. 22. 0. 0. 0. 0. 0. 58. 3. 0. 3. 0. 0. 0. 0. 0. 45. 0. 0. 17. 2.
      0. 0. 0. 0. 63. 0. 0. 1. 0. 0. 0. 0. 0. 63. 0. 0. 1. 0. 0. 0. 0.
      0. 39. 8. 0. 14. 3. 0. 0. 0. 0. 54. 0. 0. 10. 0. 0. 0. 0. 0. 63.
      0. 0. 1. 0. 0. 0. 0. 0. 63. 0. 0. 1. 0. 0. 0. 0. 0. 63. 1. 0. 0.
      0. 0. 0. 0. 0. 45. 0. 0. 19. 0. 0. 0. 0. 0. 63. 0. 0. 1. 0. 0. 0.
      0. 0. 59. 0. 0. 5. 0.</_>
    <_>
      0. 0. 0. 0. 64. 0. 0. 0. 0. 0. 0. 0. 0. 64. 0. 0. 0. 0. 0. 0. 0.
      0. 64. 0. 0. 0. 0. 0. 0. 0. 0. 50. 7. 0. 2. 5. 0. 0. 0. 0. 54. 9.
      0. 0. 1. 0. 0. 0. 0. 64. 0. 0. 0. 0. 0. 0. 0. 0. 64. 0. 0. 0. 0.
      0. 0. 0. 0. 62. 2. 0. 0. 0. 0. 0. 0. 0. 64. 0. 0. 0. 0. 0. 0. 0.
      0. 60. 2. 0. 2. 0. 0. 0. 0. 0. 64. 0. 0. 0. 0. 0. 0. 0. 0. 58. 3.
      0. 2. 1. 0. 0. 0. 0. 44. 0. 0. 17. 3. 0. 0. 0. 0. 63. 1. 0. 0. 0.
      0. 0. 0. 0. 64. 0. 0. 0. 0. 0. 0. 0. 0. 64. 0. 0. 0. 0. 0. 0. 0.
      0. 61. 2. 0. 1. 0. 0. 0. 0. 0. 64. 0. 0. 0. 0. 0. 0. 0. 0. 60. 2.
      0. 2. 0. 0. 0. 0. 0. 53. 11. 0. 0. 0. 0. 0. 0. 0. 34. 3. 0. 15.
      12. 0. 0. 0. 0. 63. 0. 0. 1. 0. 0. 0. 0. 0. 64. 0. 0. 0. 0. 0. 0.
      0. 0. 64. 0. 0. 0. 0. 0. 0. 0. 0. 59. 3. 0. 2. 0. 0. 0. 0. 0. 64.
      0. 0. 0. 0. 0. 0. 0. 0. 58. 4. 0. 2. 0. 0. 0. 0. 0. 61. 1. 0. 2.
      0. 0. 0. 0. 0. 42. 2. 0. 19. 1. 0. 0. 0. 0. 55. 0. 0. 9. 0. 0. 0.
      0. 0. 64. 0. 0. 0. 0. 0. 0. 0. 0. 64. 0. 0. 0. 0. 0. 0. 0. 0. 57.
      4. 0. 3. 0. 0. 0. 0. 0. 62. 1. 0. 1. 0. 0. 0. 0. 0. 62. 2. 0. 0.
      0. 0. 0. 0. 0. 57. 2. 0. 2. 3. 0. 0. 0. 0. 62. 0. 0. 2. 0. 0. 0.
      0. 0. 32. 3. 0. 26. 3. 0. 0. 0. 0. 60. 1. 0. 3. 0. 0. 0. 0. 0. 64.
      0. 0. 0. 0. 0. 0. 0. 0. 61. 1. 0. 2. 0. 0. 0. 0. 0. 49. 12. 0. 3.
      0. 0. 0. 0. 0. 50. 12. 0. 2. 0. 0. 0. 0. 0. 57. 2. 0. 4. 1. 0. 0.
      0. 0. 54. 0. 0. 7. 3. 0. 0. 0. 0. 27. 3. 0. 24. 10. 0. 0. 0. 0.
      55. 0. 0. 6. 3. 0. 0. 0. 0. 64. 0. 0. 0. 0. 0. 0. 0. 0. 63. 0. 0.
      1. 0. 0. 0. 0. 0. 62. 2. 0. 0. 0. 0. 0. 0. 0. 58. 3. 0. 3. 0. 0.
      0. 0. 0. 59. 5. 0. 0. 0. 0. 0. 0. 0. 44. 2. 0. 17. 1. 0. 0. 0. 0.
      23. 0. 0. 38. 3. 0. 0. 0. 0. 51. 4. 0. 7. 2. 0. 0. 0. 0. 63. 0. 0.
      1. 0. 0. 0. 0. 0. 58. 3. 0. 2. 1. 0. 0. 0. 0. 59. 5. 0. 0. 0. 0.
      0. 0. 0. 48. 2. 0. 10. 4. 0. 0. 0. 0. 61. 3. 0. 0. 0. 0. 0. 0. 0.
      60. 0. 0. 4. 0. 0. 0. 0. 0. 32. 0. 0. 32. 0. 0. 0. 0. 0. 48. 0. 0.
      14. 2. 0. 0. 0. 0. 64. 0. 0. 0. 0. 0. 0. 0. 0. 56. 6. 0. 1. 1. 0.
      0. 0. 0. 60. 4. 0. 0. 0. 0. 0. 0. 0. 43. 3. 0. 17. 1. 0. 0. 0. 0.
      61. 3. 0. 0. 0. 0. 0. 0. 0. 63. 0. 0. 1. 0. 0. 0. 0. 0. 33. 0. 0.
      31. 0. 0. 0. 0. 0. 40. 6. 0. 15. 3. 0. 0. 0. 0. 58. 4. 0. 2. 0. 0.
      0. 0. 0. 62. 2. 0. 0. 0. 0. 0. 0. 0. 55. 7. 0. 2. 0. 0. 0. 0. 0.
      39. 14. 0. 8. 3. 0. 0. 0. 0. 59. 3. 0. 2. 0. 0. 0. 0. 0. 64. 0. 0.
      0. 0. 0. 0. 0. 0. 27. 0. 0. 35. 2. 0. 0. 0. 0. 49. 4. 0. 7. 4. 0.
      0. 0. 0. 59. 4. 0. 1. 0. 0. 0. 0. 0. 45. 7. 0. 8. 4. 0. 0. 0. 0.
      53. 5. 0. 6. 0. 0. 0. 0. 0. 55. 8. 0. 0. 1. 0. 0. 0. 0. 52. 12. 0.
      0. 0. 0. 0. 0. 0. 53. 11. 0. 0. 0. 0. 0. 0. 0. 24. 2. 0. 35. 3. 0.
      0. 0. 0. 48. 3. 0. 9. 4. 0. 0. 0. 0. 61. 2. 0. 1. 0. 0. 0. 0. 0.
      37. 8. 0. 9. 10. 0. 0. 0. 0. 40. 15. 0. 4. 5. 0. 0. 0. 0. 50. 13.
      0. 0. 1. 0. 0. 0. 0. 33. 24. 0. 3. 4. 0. 0. 0. 0. 42. 12. 0. 8. 2.
      0. 0. 0. 0. 36. 4. 0. 17. 7. 0. 0. 0. 0. 49. 4. 0. 10. 1. 0. 0. 0.
      0. 63. 1. 0. 0. 0. 0. 0. 0. 0. 45. 6. 0. 10. 3. 0. 0. 0. 0. 36.
      11. 0. 12. 5. 0. 0. 0. 0. 38. 16. 0. 6. 4. 0. 0. 0. 0. 42. 13. 0.
      7. 2. 0. 0. 0. 0. 37. 13. 0. 9. 5. 0. 0. 0. 0. 31. 0. 0. 25. 8. 0.
      0. 0. 0. 48. 8. 0. 3. 5. 0. 0. 0. 0. 63. 1. 0. 0. 0. 0. 0. 0. 0.
      44. 8. 0. 7. 5. 0. 0. 0. 0. 60. 0. 0. 4. 0. 0. 0. 0. 0. 55. 0. 0.
      9. 0. 0. 0. 0. 0. 44. 6. 0. 11. 3. 0. 0. 0. 0. 45. 5. 0. 14. 0. 0.
      0. 0. 0. 39. 3. 0. 16. 6. 0. 0. 0. 0. 50. 8. 0. 5. 1. 0. 0. 0. 0.
      58. 6. 0. 0. 0. 0. 0. 0. 0. 43. 4. 0. 17. 0. 0. 0. 0. 0. 62. 0. 0.
      2. 0. 0. 0. 0. 0. 60. 0. 0. 4. 0. 0. 0. 0. 0. 48. 0. 0. 16. 0. 0.
      0. 0. 0. 59. 2. 0. 3. 0. 0. 0. 0. 0. 47. 0. 0. 15. 2. 0. 0. 0. 0.
      60. 0. 0. 4. 0. 0. 0. 0. 0. 63. 0. 0. 1. 0. 0. 0. 0. 0. 43. 12. 0.
      6. 3. 0. 0. 0. 0. 47. 0. 0. 17. 0. 0. 0. 0. 0. 61. 0. 0. 3. 0. 0.
      0. 0. 0. 63. 0. 0. 1. 0. 0. 0. 0. 0. 62. 1. 0. 1. 0. 0. 0. 0. 0.
      52. 0. 0. 12. 0. 0. 0. 0. 0. 61. 0. 0. 3. 0. 0. 0. 0. 0. 60. 0. 0.
      4. 0.</_>
    <_>
      0. 0. 0. 0. 63. 1. 0. 0. 0. 0. 0. 0. 0. 64. 0. 0. 0. 0. 0. 0. 0.
      0. 64. 0. 0. 0. 0. 0. 0. 0. 0. 49. 6. 0. 2. 7. 0. 0. 0. 0. 55. 9.
      0. 0. 0. 0. 0. 0. 0. 64. 0. 0. 0. 0. 0. 0. 0. 0. 64. 0. 0. 0. 0.
      0. 0. 0. 0. 64. 0. 0. 0. 0. 0. 0. 0. 0. 62. 2. 0. 0. 0. 0. 0. 0.
      0. 64. 0. 0. 0. 0. 0. 0. 0. 0. 64. 0. 0. 0. 0. 0. 0. 0. 0. 59. 2.
      0. 3. 0. 0. 0. 0. 0. 44. 1. 0. 19. 0. 0. 0. 0. 0. 64. 0. 0. 0. 0.
      0. 0. 0. 0. 64. 0. 0. 0. 0. 0. 0. 0. 0. 64. 0. 0. 0. 0. 0. 0. 0.
      0. 63. 0. 0. 1. 0. 0. 0. 0. 0. 64. 0. 0. 0. 0. 0. 0. 0. 0. 58. 2.
      0. 4. 0. 0. 0. 0. 0. 54. 9. 0. 1. 0. 0. 0. 0. 0. 40. 0. 0. 14. 10.
      0. 0. 0. 0. 64. 0. 0. 0. 0. 0. 0. 0. 0. 64. 0. 0. 0. 0. 0. 0. 0.
      0. 64. 0. 0. 0. 0. 0. 0. 0. 0. 60. 4. 0. 0. 0. 0. 0. 0. 0. 63. 0.
      0. 1. 0. 0. 0. 0. 0. 57. 0. 0. 5. 2. 0. 0. 0. 0. 64. 0. 0. 0. 0.
      0. 0. 0. 0. 44. 4. 0. 8. 8. 0. 0. 0. 0. 37. 3. 0. 21. 3. 0. 0. 0.
      0. 63. 0. 0. 1. 0. 0. 0. 0. 0. 64. 0. 0. 0. 0. 0. 0. 0. 0. 59. 4.
      0. 1. 0. 0. 0. 0. 0. 52. 10. 0. 1. 1. 0. 0. 0. 0. 37. 17. 0. 2. 8.
      0. 0. 0. 0. 30. 20. 0. 5. 9. 0. 0. 0. 0. 38. 10. 0. 8. 8. 0. 0. 0.
      0. 62. 1. 0. 1. 0. 0. 0. 0. 0. 45. 2. 0. 15. 2. 0. 0. 0. 0. 64. 0.
      0. 0. 0. 0. 0. 0. 0. 60. 1. 0. 3. 0. 0. 0. 0. 0. 61. 0. 0. 3. 0.
      0. 0. 0. 0. 60. 4. 0. 0. 0. 0. 0. 0. 0. 43. 16. 0. 4. 1. 0. 0. 0.
      0. 30. 7. 0. 8. 19. 0. 0. 0. 0. 42. 13. 0. 4. 5. 0. 0. 0. 0. 44.
      7. 0. 9. 4. 0. 0. 0. 0. 59. 2. 0. 3. 0. 0. 0. 0. 0. 63. 0. 0. 1.
      0. 0. 0. 0. 0. 64. 0. 0. 0. 0. 0. 0. 0. 0. 63. 1. 0. 0. 0. 0. 0.
      0. 0. 54. 9. 0. 0. 1. 0. 0. 0. 0. 46. 1. 0. 15. 2. 0. 0. 0. 0. 48.
      0. 0. 11. 5. 0. 0. 0. 0. 58. 4. 0. 2. 0. 0. 0. 0. 0. 61. 3. 0. 0.
      0. 0. 0. 0. 0. 63. 1. 0. 0. 0. 0. 0. 0. 0. 62. 2. 0. 0. 0. 0. 0.
      0. 0. 64. 0. 0. 0. 0. 0. 0. 0. 0. 64. 0. 0. 0. 0. 0. 0. 0. 0. 56.
      0. 0. 8. 0. 0. 0. 0. 0. 43. 4. 0. 14. 3. 0. 0. 0. 0. 62. 2. 0. 0.
      0. 0. 0. 0. 0. 62. 2. 0. 0. 0. 0. 0. 0. 0. 61. 2. 0. 1. 0. 0. 0.
      0. 0. 53. 8. 0. 2. 1. 0. 0. 0. 0. 62. 1. 0. 1. 0. 0. 0. 0. 0. 63.
      0. 0. 1. 0. 0. 0. 0. 0. 61. 2. 0. 1. 0. 0. 0. 0. 0. 45. 2. 0. 14.
      3. 0. 0. 0. 0. 51. 6. 0. 4. 3. 0. 0. 0. 0. 61. 2. 0. 1. 0. 0. 0.
      0. 0. 59. 3. 0. 2. 0. 0. 0. 0. 0. 58. 3. 0. 3. 0. 0. 0. 0. 0. 63.
      1. 0. 0. 0. 0. 0. 0. 0. 62. 2. 0. 0. 0. 0. 0. 0. 0. 63. 0. 0. 1.
      0. 0. 0. 0. 0. 42. 1. 0. 18. 3. 0. 0. 0. 0. 53. 7. 0. 4. 0. 0. 0.
      0. 0. 61. 3. 0. 0. 0. 0. 0. 0. 0. 50. 7. 0. 7. 0. 0. 0. 0. 0. 48.
      11. 0. 4. 1. 0. 0. 0. 0. 56. 7. 0. 0. 1. 0. 0. 0. 0. 52. 0. 0. 12.
      0. 0. 0. 0. 0. 61. 2. 0. 1. 0. 0. 0. 0. 0. 44. 0. 0. 17. 3. 0. 0.
      0. 0. 46. 7. 0. 8. 3. 0. 0. 0. 0. 62. 2. 0. 0. 0. 0. 0. 0. 0. 39.
      16. 0. 8. 1. 0. 0. 0. 0. 50. 7. 0. 5. 2. 0. 0. 0. 0. 50. 12. 0. 2.
      0. 0. 0. 0. 0. 39. 6. 0. 15. 4. 0. 0. 0. 0. 41. 19. 0. 1. 3. 0. 0.
      0. 0. 45. 8. 0. 10. 1. 0. 0. 0. 0. 44. 10. 0. 7. 3. 0. 0. 0. 0.
      63. 0. 0. 1. 0. 0. 0. 0. 0. 38. 14. 0. 9. 3. 0. 0. 0. 0. 51. 7. 0.
      4. 2. 0. 0. 0. 0. 51. 11. 0. 1. 1. 0. 0. 0. 0. 55. 0. 0. 7. 2. 0.
      0. 0. 0. 34. 14. 0. 13. 3. 0. 0. 0. 0. 43. 20. 0. 1. 0. 0. 0. 0.
      0. 33. 7. 0. 18. 6. 0. 0. 0. 0. 62. 2. 0. 0. 0. 0. 0. 0. 0. 34. 9.
      0. 14. 7. 0. 0. 0. 0. 45. 10. 0. 9. 0. 0. 0. 0. 0. 32. 13. 0. 14.
      5. 0. 0. 0. 0. 41. 9. 0. 11. 3. 0. 0. 0. 0. 30. 17. 0. 14. 3. 0.
      0. 0. 0. 51. 6. 0. 6. 1. 0. 0. 0. 0. 29. 10. 0. 20. 5. 0. 0. 0. 0.
      58. 4. 0. 2. 0. 0. 0. 0. 0. 58. 3. 0. 1. 2. 0. 0. 0. 0. 59. 0. 0.
      5. 0. 0. 0. 0. 0. 63. 0. 0. 1. 0. 0. 0. 0. 0. 45. 2. 0. 15. 2. 0.
      0. 0. 0. 40. 1. 0. 21. 2. 0. 0. 0. 0. 63. 1. 0. 0. 0. 0. 0. 0. 0.
      33. 8. 0. 21. 2. 0. 0. 0. 0. 59. 0. 0. 5. 0. 0. 0. 0. 0. 55. 1. 0.
      7. 1. 0. 0. 0. 0. 61. 0. 0. 3. 0. 0. 0. 0. 0. 61. 0. 0. 3. 0. 0.
      0. 0. 0. 58. 0. 0. 6. 0. 0. 0. 0. 0. 56. 0. 0. 8. 0. 0. 0. 0. 0.
      63. 0. 0. 1. 0. 0. 0. 0. 0. 57. 0. 0. 7. 0. 0. 0. 0. 0. 60. 0. 0.
      4. 0.</_>
    <_>
      0. 0. 0. 0. 64. 0. 0. 0. 0. 0. 0. 0. 0. 64. 0. 0. 0. 0. 0. 0. 0.
      0. 64. 0. 0. 0. 0. 0. 0. 0. 0. 53. 3. 0. 4. 4. 0. 0. 0. 0. 45. 13.
      0. 5. 1. 0. 0. 0. 0. 62. 2. 0. 0. 0. 0. 0. 0. 0. 54. 0. 0. 10. 0.
      0. 0. 0. 0. 64. 0. 0. 0. 0. 0. 0. 0. 0. 62. 1. 0. 1. 0. 0. 0. 0.
      0. 64. 0. 0. 0. 0. 0. 0. 0. 0. 64. 0. 0. 0. 0. 0. 0. 0. 0. 58. 5.
      0. 1. 0. 0. 0. 0. 0. 44. 1. 0. 16. 3. 0. 0. 0. 0. 51. 8. 0. 5. 0.
      0. 0. 0. 0. 46. 2. 0. 16. 0. 0. 0. 0. 0. 64. 0. 0. 0. 0. 0. 0. 0.
      0. 41. 7. 0. 13. 3. 0. 0. 0. 0. 64. 0. 0. 0. 0. 0. 0. 0. 0. 62. 1.
      0. 1. 0. 0. 0. 0. 0. 47. 14. 0. 3. 0. 0. 0. 0. 0. 32. 11. 0. 11.
      10. 0. 0. 0. 0. 56. 2. 0. 6. 0. 0. 0. 0. 0. 48. 8. 0. 7. 1. 0. 0.
      0. 0. 55. 0. 0. 9. 0. 0. 0. 0. 0. 50. 8. 0. 6. 0. 0. 0. 0. 0. 64.
      0. 0. 0. 0. 0. 0. 0. 0. 64. 0. 0. 0. 0. 0. 0. 0. 0. 64. 0. 0. 0.
      0. 0. 0. 0. 0. 63. 0. 0. 1. 0. 0. 0. 0. 0. 63. 0. 0. 1. 0. 0. 0.
      0. 0. 58. 3. 0. 3. 0. 0. 0. 0. 0. 46. 2. 0. 15. 1. 0. 0. 0. 0. 52.
      9. 0. 1. 2. 0. 0. 0. 0. 48. 15. 0. 0. 1. 0. 0. 0. 0. 60. 4. 0. 0.
      0. 0. 0. 0. 0. 49. 6. 0. 8. 1. 0. 0. 0. 0. 57. 0. 0. 7. 0. 0. 0.
      0. 0. 47. 3. 0. 7. 7. 0. 0. 0. 0. 47. 14. 0. 0. 3. 0. 0. 0. 0. 57.
      3. 0. 0. 4. 0. 0. 0. 0. 62. 1. 0. 1. 0. 0. 0. 0. 0. 62. 2. 0. 0.
      0. 0. 0. 0. 0. 55. 4. 0. 5. 0. 0. 0. 0. 0. 64. 0. 0. 0. 0. 0. 0.
      0. 0. 56. 1. 0. 7. 0. 0. 0. 0. 0. 46. 0. 0. 16. 2. 0. 0. 0. 0. 61.
      1. 0. 2. 0. 0. 0. 0. 0. 62. 1. 0. 1. 0. 0. 0. 0. 0. 62. 0. 0. 2.
      0. 0. 0. 0. 0. 55. 2. 0. 7. 0. 0. 0. 0. 0. 63. 1. 0. 0. 0. 0. 0.
      0. 0. 64. 0. 0. 0. 0. 0. 0. 0. 0. 62. 0. 0. 2. 0. 0. 0. 0. 0. 44.
      1. 0. 17. 2. 0. 0. 0. 0. 64. 0. 0. 0. 0. 0. 0. 0. 0. 63. 1. 0. 0.
      0. 0. 0. 0. 0. 58. 2. 0. 4. 0. 0. 0. 0. 0. 58. 0. 0. 6. 0. 0. 0.
      0. 0. 57. 7. 0. 0. 0. 0. 0. 0. 0. 64. 0. 0. 0. 0. 0. 0. 0. 0. 64.
      0. 0. 0. 0. 0. 0. 0. 0. 48. 0. 0. 16. 0. 0. 0. 0. 0. 64. 0. 0. 0.
      0. 0. 0. 0. 0. 63. 0. 0. 1. 0. 0. 0. 0. 0. 58. 0. 0. 4. 2. 0. 0.
      0. 0. 59. 4. 0. 0. 1. 0. 0. 0. 0. 59. 4. 0. 1. 0. 0. 0. 0. 0. 64.
      0. 0. 0. 0. 0. 0. 0. 0. 63. 0. 0. 1. 0. 0. 0. 0. 0. 42. 2. 0. 16.
      4. 0. 0. 0. 0. 63. 1. 0. 0. 0. 0. 0. 0. 0. 63. 0. 0. 1. 0. 0. 0.
      0. 0. 55. 7. 0. 2. 0. 0. 0. 0. 0. 63. 1. 0. 0. 0. 0. 0. 0. 0. 59.
      4. 0. 1. 0. 0. 0. 0. 0. 55. 0. 0. 9. 0. 0. 0. 0. 0. 64. 0. 0. 0.
      0. 0. 0. 0. 0. 39. 1. 0. 22. 2. 0. 0. 0. 0. 60. 3. 0. 1. 0. 0. 0.
      0. 0. 61. 2. 0. 1. 0. 0. 0. 0. 0. 62. 1. 0. 1. 0. 0. 0. 0. 0. 58.
      5. 0. 1. 0. 0. 0. 0. 0. 53. 6. 0. 5. 0. 0. 0. 0. 0. 41. 0. 0. 22.
      1. 0. 0. 0. 0. 61. 3. 0. 0. 0. 0. 0. 0. 0. 42. 0. 0. 22. 0. 0. 0.
      0. 0. 57. 2. 0. 5. 0. 0. 0. 0. 0. 63. 1. 0. 0. 0. 0. 0. 0. 0. 60.
      4. 0. 0. 0. 0. 0. 0. 0. 51. 6. 0. 6. 1. 0. 0. 0. 0. 51. 9. 0. 2.
      2. 0. 0. 0. 0. 41. 5. 0. 13. 5. 0. 0. 0. 0. 43. 19. 0. 1. 1. 0. 0.
      0. 0. 36. 9. 0. 8. 11. 0. 0. 0. 0. 61. 1. 0. 2. 0. 0. 0. 0. 0. 59.
      2. 0. 3. 0. 0. 0. 0. 0. 46. 10. 0. 6. 2. 0. 0. 0. 0. 54. 5. 0. 4.
      1. 0. 0. 0. 0. 54. 9. 0. 0. 1. 0. 0. 0. 0. 44. 2. 0. 16. 2. 0. 0.
      0. 0. 60. 4. 0. 0. 0. 0. 0. 0. 0. 44. 4. 0. 14. 2. 0. 0. 0. 0. 62.
      0. 0. 2. 0. 0. 0. 0. 0. 64. 0. 0. 0. 0. 0. 0. 0. 0. 37. 19. 0. 6.
      2. 0. 0. 0. 0. 43. 7. 0. 12. 2. 0. 0. 0. 0. 47. 13. 0. 3. 1. 0. 0.
      0. 0. 33. 8. 0. 14. 9. 0. 0. 0. 0. 41. 11. 0. 8. 4. 0. 0. 0. 0.
      47. 4. 0. 8. 5. 0. 0. 0. 0. 60. 3. 0. 1. 0. 0. 0. 0. 0. 64. 0. 0.
      0. 0. 0. 0. 0. 0. 56. 1. 0. 7. 0. 0. 0. 0. 0. 47. 3. 0. 14. 0. 0.
      0. 0. 0. 60. 0. 0. 4. 0. 0. 0. 0. 0. 32. 0. 0. 28. 4. 0. 0. 0. 0.
      40. 1. 0. 15. 8. 0. 0. 0. 0. 46. 9. 0. 5. 4. 0. 0. 0. 0. 52. 4. 0.
      8. 0. 0. 0. 0. 0. 58. 6. 0. 0. 0. 0. 0. 0. 0. 57. 0. 0. 7. 0. 0.
      0. 0. 0. 50. 3. 0. 9. 2. 0. 0. 0. 0. 57. 0. 0. 7. 0. 0. 0. 0. 0.
      29. 0. 0. 34. 1. 0. 0. 0. 0. 57. 0. 0. 7. 0. 0. 0. 0. 0. 52. 0. 0.
      12. 0. 0. 0. 0. 0. 57. 0. 0. 7. 0. 0. 0. 0. 0. 54. 9. 0. 1. 0.</_>
    <_>
      0. 0. 0. 0. 63. 0. 0. 1. 0. 0. 0. 0. 0. 64. 0. 0. 0. 0. 0. 0. 0.
      0. 64. 0. 0. 0. 0. 0. 0. 0. 0. 50. 5. 0. 5. 4. 0. 0. 0. 0. 44. 15.
      0. 4. 1. 0. 0. 0. 0. 64. 0. 0. 0. 0. 0. 0. 0. 0. 64. 0. 0. 0. 0.
      0. 0. 0. 0. 64. 0. 0. 0. 0. 0. 0. 0. 0. 64. 0. 0. 0. 0. 0. 0. 0.
      0. 64. 0. 0. 0. 0. 0. 0. 0. 0. 64. 0. 0. 0. 0. 0. 0. 0. 0. 64. 0.
      0. 0. 0. 0. 0. 0. 0. 47. 0. 0. 17. 0. 0. 0. 0. 0. 56. 3. 0. 4. 1.
      0. 0. 0. 0. 51. 0. 0. 13. 0. 0. 0. 0. 0. 64. 0. 0. 0. 0. 0. 0. 0.
      0. 61. 3. 0. 0. 0. 0. 0. 0. 0. 64. 0. 0. 0. 0. 0. 0. 0. 0. 64. 0.
      0. 0. 0. 0. 0. 0. 0. 52. 12. 0. 0. 0. 0. 0. 0. 0. 35. 9. 0. 10.
      10. 0. 0. 0. 0. 55. 5. 0. 3. 1. 0. 0. 0. 0. 39. 11. 0. 14. 0. 0.
      0. 0. 0. 62. 0. 0. 2. 0. 0. 0. 0. 0. 52. 4. 0. 7. 1. 0. 0. 0. 0.
      58. 3. 0. 1. 2. 0. 0. 0. 0. 64. 0. 0. 0. 0. 0. 0. 0. 0. 62. 0. 0.
      2. 0. 0. 0. 0. 0. 61. 0. 0. 3. 0. 0. 0. 0. 0. 56. 1. 0. 5. 2. 0.
      0. 0. 0. 58. 1. 0. 5. 0. 0. 0. 0. 0. 50. 0. 0. 13. 1. 0. 0. 0. 0.
      49. 15. 0. 0. 0. 0. 0. 0. 0. 48. 16. 0. 0. 0. 0. 0. 0. 0. 58. 6.
      0. 0. 0. 0. 0. 0. 0. 49. 5. 0. 9. 1. 0. 0. 0. 0. 58. 2. 0. 3. 1.
      0. 0. 0. 0. 51. 7. 0. 3. 3. 0. 0. 0. 0. 48. 14. 0. 0. 2. 0. 0. 0.
      0. 47. 3. 0. 13. 1. 0. 0. 0. 0. 64. 0. 0. 0. 0. 0. 0. 0. 0. 61. 2.
      0. 1. 0. 0. 0. 0. 0. 57. 7. 0. 0. 0. 0. 0. 0. 0. 55. 6. 0. 3. 0.
      0. 0. 0. 0. 63. 1. 0. 0. 0. 0. 0. 0. 0. 45. 0. 0. 18. 1. 0. 0. 0.
      0. 61. 2. 0. 1. 0. 0. 0. 0. 0. 63. 0. 0. 1. 0. 0. 0. 0. 0. 60. 1.
      0. 3. 0. 0. 0. 0. 0. 55. 3. 0. 5. 1. 0. 0. 0. 0. 63. 1. 0. 0. 0.
      0. 0. 0. 0. 64. 0. 0. 0. 0. 0. 0. 0. 0. 64. 0. 0. 0. 0. 0. 0. 0.
      0. 47. 1. 0. 12. 4. 0. 0. 0. 0. 64. 0. 0. 0. 0. 0. 0. 0. 0. 62. 1.
      0. 1. 0. 0. 0. 0. 0. 63. 0. 0. 1. 0. 0. 0. 0. 0. 55. 2. 0. 7. 0.
      0. 0. 0. 0. 58. 6. 0. 0. 0. 0. 0. 0. 0. 64. 0. 0. 0. 0. 0. 0. 0.
      0. 64. 0. 0. 0. 0. 0. 0. 0. 0. 46. 0. 0. 16. 2. 0. 0. 0. 0. 63. 1.
      0. 0. 0. 0. 0. 0. 0. 62. 2. 0. 0. 0. 0. 0. 0. 0. 56. 3. 0. 4. 1.
      0. 0. 0. 0. 62. 1. 0. 1. 0. 0. 0. 0. 0. 58. 4. 0. 2. 0. 0. 0. 0.
      0. 60. 0. 0. 4. 0. 0. 0. 0. 0. 62. 0. 0. 2. 0. 0. 0. 0. 0. 46. 1.
      0. 15. 2. 0. 0. 0. 0. 62. 0. 0. 2. 0. 0. 0. 0. 0. 60. 1. 0. 3. 0.
      0. 0. 0. 0. 60. 1. 0. 1. 2. 0. 0. 0. 0. 62. 0. 0. 2. 0. 0. 0. 0.
      0. 58. 5. 0. 1. 0. 0. 0. 0. 0. 47. 0. 0. 17. 0. 0. 0. 0. 0. 60. 0.
      0. 4. 0. 0. 0. 0. 0. 42. 1. 0. 19. 2. 0. 0. 0. 0. 62. 0. 0. 2. 0.
      0. 0. 0. 0. 64. 0. 0. 0. 0. 0. 0. 0. 0. 60. 4. 0. 0. 0. 0. 0. 0.
      0. 63. 1. 0. 0. 0. 0. 0. 0. 0. 59. 2. 0. 3. 0. 0. 0. 0. 0. 55. 0.
      0. 9. 0. 0. 0. 0. 0. 52. 0. 0. 12. 0. 0. 0. 0. 0. 52. 0. 0. 12. 0.
      0. 0. 0. 0. 54. 2. 0. 6. 2. 0. 0. 0. 0. 61. 3. 0. 0. 0. 0. 0. 0.
      0. 56. 4. 0. 4. 0. 0. 0. 0. 0. 51. 7. 0. 6. 0. 0. 0. 0. 0. 44. 15.
      0. 4. 1. 0. 0. 0. 0. 51. 0. 0. 10. 3. 0. 0. 0. 0. 40. 12. 0. 8. 4.
      0. 0. 0. 0. 38. 14. 0. 4. 8. 0. 0. 0. 0. 57. 0. 0. 7. 0. 0. 0. 0.
      0. 62. 0. 0. 2. 0. 0. 0. 0. 0. 49. 10. 0. 2. 3. 0. 0. 0. 0. 39.
      12. 0. 11. 2. 0. 0. 0. 0. 62. 2. 0. 0. 0. 0. 0. 0. 0. 40. 3. 0.
      11. 10. 0. 0. 0. 0. 56. 3. 0. 3. 2. 0. 0. 0. 0. 50. 2. 0. 10. 2.
      0. 0. 0. 0. 63. 0. 0. 1. 0. 0. 0. 0. 0. 62. 2. 0. 0. 0. 0. 0. 0.
      0. 43. 14. 0. 3. 4. 0. 0. 0. 0. 41. 14. 0. 4. 5. 0. 0. 0. 0. 52.
      6. 0. 5. 1. 0. 0. 0. 0. 35. 11. 0. 6. 12. 0. 0. 0. 0. 42. 4. 0.
      12. 6. 0. 0. 0. 0. 55. 8. 0. 0. 1. 0. 0. 0. 0. 59. 4. 0. 1. 0. 0.
      0. 0. 0. 64. 0. 0. 0. 0. 0. 0. 0. 0. 59. 0. 0. 5. 0. 0. 0. 0. 0.
      50. 1. 0. 13. 0. 0. 0. 0. 0. 48. 3. 0. 9. 4. 0. 0. 0. 0. 43. 6. 0.
      14. 1. 0. 0. 0. 0. 42. 3. 0. 12. 7. 0. 0. 0. 0. 43. 10. 0. 10. 1.
      0. 0. 0. 0. 55. 4. 0. 5. 0. 0. 0. 0. 0. 60. 4. 0. 0. 0. 0. 0. 0.
      0. 56. 0. 0. 8. 0. 0. 0. 0. 0. 58. 2. 0. 4. 0. 0. 0. 0. 0. 61. 2.
      0. 1. 0. 0. 0. 0. 0. 43. 0. 0. 21. 0. 0. 0. 0. 0. 51. 0. 0. 13. 0.
      0. 0. 0. 0. 57. 0. 0. 7. 0. 0. 0. 0. 0. 60. 0. 0. 4. 0. 0. 0. 0.
      0. 54. 8. 0. 2. 0.</_>
    <_>
      0. 0. 0. 0. 64. 0. 0. 0. 0. 0. 0. 0. 0. 64. 0. 0. 0. 0. 0. 0. 0.
      0. 64. 0. 0. 0. 0. 0. 0. 0. 0. 54. 2. 0. 2. 6. 0. 0. 0. 0. 47. 13.
      0. 2. 2. 0. 0. 0. 0. 64. 0. 0. 0. 0. 0. 0. 0. 0. 64. 0. 0. 0. 0.
      0. 0. 0. 0. 64. 0. 0. 0. 0. 0. 0. 0. 0. 64. 0. 0. 0. 0. 0. 0. 0.
      0. 64. 0. 0. 0. 0. 0. 0. 0. 0. 62. 1. 0. 1. 0. 0. 0. 0. 0. 61. 2.
      0. 1. 0. 0. 0. 0. 0. 52. 0. 0. 12. 0. 0. 0. 0. 0. 55. 1. 0. 6. 2.
      0. 0. 0. 0. 64. 0. 0. 0. 0. 0. 0. 0. 0. 64. 0. 0. 0. 0. 0. 0. 0.
      0. 64. 0. 0. 0. 0. 0. 0. 0. 0. 60. 1. 0. 3. 0. 0. 0. 0. 0. 59. 3.
      0. 2. 0. 0. 0. 0. 0. 52. 11. 0. 1. 0. 0. 0. 0. 0. 37. 12. 0. 8. 7.
      0. 0. 0. 0. 61. 0. 0. 3. 0. 0. 0. 0. 0. 54. 0. 0. 10. 0. 0. 0. 0.
      0. 63. 0. 0. 1. 0. 0. 0. 0. 0. 61. 1. 0. 2. 0. 0. 0. 0. 0. 63. 1.
      0. 0. 0. 0. 0. 0. 0. 63. 1. 0. 0. 0. 0. 0. 0. 0. 63. 0. 0. 1. 0.
      0. 0. 0. 0. 52. 6. 0. 5. 1. 0. 0. 0. 0. 37. 11. 0. 15. 1. 0. 0. 0.
      0. 44. 4. 0. 14. 2. 0. 0. 0. 0. 64. 0. 0. 0. 0. 0. 0. 0. 0. 46.
      13. 0. 2. 3. 0. 0. 0. 0. 48. 16. 0. 0. 0. 0. 0. 0. 0. 55. 8. 0. 0.
      1. 0. 0. 0. 0. 60. 0. 0. 4. 0. 0. 0. 0. 0. 59. 0. 0. 5. 0. 0. 0.
      0. 0. 60. 0. 0. 4. 0. 0. 0. 0. 0. 42. 6. 0. 13. 3. 0. 0. 0. 0. 64.
      0. 0. 0. 0. 0. 0. 0. 0. 60. 2. 0. 2. 0. 0. 0. 0. 0. 61. 1. 0. 1.
      1. 0. 0. 0. 0. 61. 3. 0. 0. 0. 0. 0. 0. 0. 63. 1. 0. 0. 0. 0. 0.
      0. 0. 53. 2. 0. 9. 0. 0. 0. 0. 0. 39. 8. 0. 12. 5. 0. 0. 0. 0. 42.
      9. 0. 6. 7. 0. 0. 0. 0. 63. 0. 0. 1. 0. 0. 0. 0. 0. 61. 3. 0. 0.
      0. 0. 0. 0. 0. 59. 1. 0. 4. 0. 0. 0. 0. 0. 64. 0. 0. 0. 0. 0. 0.
      0. 0. 62. 1. 0. 1. 0. 0. 0. 0. 0. 57. 3. 0. 4. 0. 0. 0. 0. 0. 46.
      1. 0. 16. 1. 0. 0. 0. 0. 64. 0. 0. 0. 0. 0. 0. 0. 0. 62. 2. 0. 0.
      0. 0. 0. 0. 0. 59. 3. 0. 2. 0. 0. 0. 0. 0. 58. 0. 0. 6. 0. 0. 0.
      0. 0. 61. 3. 0. 0. 0. 0. 0. 0. 0. 63. 0. 0. 1. 0. 0. 0. 0. 0. 62.
      0. 0. 2. 0. 0. 0. 0. 0. 43. 1. 0. 14. 6. 0. 0. 0. 0. 63. 1. 0. 0.
      0. 0. 0. 0. 0. 60. 1. 0. 3. 0. 0. 0. 0. 0. 62. 0. 0. 2. 0. 0. 0.
      0. 0. 53. 1. 0. 6. 4. 0. 0. 0. 0. 54. 10. 0. 0. 0. 0. 0. 0. 0. 59.
      1. 0. 4. 0. 0. 0. 0. 0. 55. 2. 0. 7. 0. 0. 0. 0. 0. 41. 1. 0. 21.
      1. 0. 0. 0. 0. 63. 1. 0. 0. 0. 0. 0. 0. 0. 61. 1. 0. 2. 0. 0. 0.
      0. 0. 59. 1. 0. 4. 0. 0. 0. 0. 0. 61. 0. 0. 3. 0. 0. 0. 0. 0. 55.
      5. 0. 3. 1. 0. 0. 0. 0. 49. 0. 0. 15. 0. 0. 0. 0. 0. 58. 0. 0. 6.
      0. 0. 0. 0. 0. 37. 1. 0. 26. 0. 0. 0. 0. 0. 61. 2. 0. 1. 0. 0. 0.
      0. 0. 64. 0. 0. 0. 0. 0. 0. 0. 0. 63. 0. 0. 1. 0. 0. 0. 0. 0. 53.
      7. 0. 2. 2. 0. 0. 0. 0. 61. 2. 0. 1. 0. 0. 0. 0. 0. 64. 0. 0. 0.
      0. 0. 0. 0. 0. 38. 1. 0. 25. 0. 0. 0. 0. 0. 48. 0. 0. 16. 0. 0. 0.
      0. 0. 53. 2. 0. 9. 0. 0. 0. 0. 0. 63. 0. 0. 1. 0. 0. 0. 0. 0. 52.
      8. 0. 4. 0. 0. 0. 0. 0. 37. 16. 0. 11. 0. 0. 0. 0. 0. 48. 14. 0.
      2. 0. 0. 0. 0. 0. 59. 0. 0. 2. 3. 0. 0. 0. 0. 41. 3. 0. 13. 7. 0.
      0. 0. 0. 41. 15. 0. 3. 5. 0. 0. 0. 0. 58. 0. 0. 3. 3. 0. 0. 0. 0.
      61. 2. 0. 1. 0. 0. 0. 0. 0. 51. 10. 0. 1. 2. 0. 0. 0. 0. 43. 11.
      0. 10. 0. 0. 0. 0. 0. 64. 0. 0. 0. 0. 0. 0. 0. 0. 36. 10. 0. 4.
      14. 0. 0. 0. 0. 49. 3. 0. 8. 4. 0. 0. 0. 0. 50. 7. 0. 4. 3. 0. 0.
      0. 0. 62. 1. 0. 1. 0. 0. 0. 0. 0. 64. 0. 0. 0. 0. 0. 0. 0. 0. 37.
      13. 0. 12. 2. 0. 0. 0. 0. 40. 14. 0. 8. 2. 0. 0. 0. 0. 47. 4. 0.
      2. 11. 0. 0. 0. 0. 51. 7. 0. 3. 3. 0. 0. 0. 0. 45. 3. 0. 12. 4. 0.
      0. 0. 0. 50. 10. 0. 4. 0. 0. 0. 0. 0. 62. 2. 0. 0. 0. 0. 0. 0. 0.
      64. 0. 0. 0. 0. 0. 0. 0. 0. 52. 0. 0. 11. 1. 0. 0. 0. 0. 59. 1. 0.
      2. 2. 0. 0. 0. 0. 39. 2. 0. 21. 2. 0. 0. 0. 0. 36. 11. 0. 15. 2.
      0. 0. 0. 0. 39. 3. 0. 15. 7. 0. 0. 0. 0. 50. 10. 0. 4. 0. 0. 0. 0.
      0. 56. 5. 0. 3. 0. 0. 0. 0. 0. 61. 3. 0. 0. 0. 0. 0. 0. 0. 57. 0.
      0. 7. 0. 0. 0. 0. 0. 61. 1. 0. 2. 0. 0. 0. 0. 0. 44. 0. 0. 20. 0.
      0. 0. 0. 0. 57. 0. 0. 7. 0. 0. 0. 0. 0. 48. 0. 0. 16. 0. 0. 0. 0.
      0. 61. 0. 0. 3. 0. 0. 0. 0. 0. 56. 0. 0. 8. 0. 0. 0. 0. 0. 52. 11.
      0. 1. 0.</_>
    <_>
      0. 0. 0. 0. 64. 0. 0. 0. 0. 0. 0. 0. 0. 64. 0. 0. 0. 0. 0. 0. 0.
      0. 64. 0. 0. 0. 0. 0. 0. 0. 0. 53. 5. 0. 2. 4. 0. 0. 0. 0. 51. 13.
      0. 0. 0. 0. 0. 0. 0. 64. 0. 0. 0. 0. 0. 0. 0. 0. 64. 0. 0. 0. 0.
      0. 0. 0. 0. 64. 0. 0. 0. 0. 0. 0. 0. 0. 63. 1. 0. 0. 0. 0. 0. 0.
      0. 64. 0. 0. 0. 0. 0. 0. 0. 0. 64. 0. 0. 0. 0. 0. 0. 0. 0. 60. 3.
      0. 1. 0. 0. 0. 0. 0. 42. 1. 0. 19. 2. 0. 0. 0. 0. 64. 0. 0. 0. 0.
      0. 0. 0. 0. 64. 0. 0. 0. 0. 0. 0. 0. 0. 64. 0. 0. 0. 0. 0. 0. 0.
      0. 64. 0. 0. 0. 0. 0. 0. 0. 0. 64. 0. 0. 0. 0. 0. 0. 0. 0. 61. 2.
      0. 1. 0. 0. 0. 0. 0. 55. 8. 0. 1. 0. 0. 0. 0. 0. 61. 0. 0. 1. 2.
      0. 0. 0. 0. 45. 5. 0. 10. 4. 0. 0. 0. 0. 64. 0. 0. 0. 0. 0. 0. 0.
      0. 64. 0. 0. 0. 0. 0. 0. 0. 0. 62. 1. 0. 1. 0. 0. 0. 0. 0. 62. 0.
      0. 2. 0. 0. 0. 0. 0. 61. 1. 0. 2. 0. 0. 0. 0. 0. 52. 2. 0. 2. 8.
      0. 0. 0. 0. 40. 7. 0. 4. 13. 0. 0. 0. 0. 52. 0. 0. 12. 0. 0. 0. 0.
      0. 64. 0. 0. 0. 0. 0. 0. 0. 0. 64. 0. 0. 0. 0. 0. 0. 0. 0. 59. 3.
      0. 2. 0. 0. 0. 0. 0. 59. 3. 0. 2. 0. 0. 0. 0. 0. 58. 0. 0. 5. 1.
      0. 0. 0. 0. 42. 3. 0. 7. 12. 0. 0. 0. 0. 64. 0. 0. 0. 0. 0. 0. 0.
      0. 49. 1. 0. 14. 0. 0. 0. 0. 0. 57. 0. 0. 7. 0. 0. 0. 0. 0. 64. 0.
      0. 0. 0. 0. 0. 0. 0. 56. 7. 0. 1. 0. 0. 0. 0. 0. 54. 10. 0. 0. 0.
      0. 0. 0. 0. 40. 23. 0. 0. 1. 0. 0. 0. 0. 29. 26. 0. 5. 4. 0. 0. 0.
      0. 30. 27. 0. 7. 0. 0. 0. 0. 0. 35. 9. 0. 10. 10. 0. 0. 0. 0. 57.
      0. 0. 5. 2. 0. 0. 0. 0. 63. 1. 0. 0. 0. 0. 0. 0. 0. 55. 4. 0. 5.
      0. 0. 0. 0. 0. 63. 1. 0. 0. 0. 0. 0. 0. 0. 58. 6. 0. 0. 0. 0. 0.
      0. 0. 64. 0. 0. 0. 0. 0. 0. 0. 0. 56. 4. 0. 4. 0. 0. 0. 0. 0. 45.
      2. 0. 13. 4. 0. 0. 0. 0. 64. 0. 0. 0. 0. 0. 0. 0. 0. 62. 1. 0. 1.
      0. 0. 0. 0. 0. 63. 1. 0. 0. 0. 0. 0. 0. 0. 64. 0. 0. 0. 0. 0. 0.
      0. 0. 58. 3. 0. 3. 0. 0. 0. 0. 0. 64. 0. 0. 0. 0. 0. 0. 0. 0. 56.
      0. 0. 8. 0. 0. 0. 0. 0. 45. 1. 0. 17. 1. 0. 0. 0. 0. 62. 2. 0. 0.
      0. 0. 0. 0. 0. 63. 1. 0. 0. 0. 0. 0. 0. 0. 61. 2. 0. 1. 0. 0. 0.
      0. 0. 63. 1. 0. 0. 0. 0. 0. 0. 0. 60. 4. 0. 0. 0. 0. 0. 0. 0. 64.
      0. 0. 0. 0. 0. 0. 0. 0. 60. 0. 0. 4. 0. 0. 0. 0. 0. 46. 1. 0. 13.
      4. 0. 0. 0. 0. 55. 3. 0. 5. 1. 0. 0. 0. 0. 63. 1. 0. 0. 0. 0. 0.
      0. 0. 61. 3. 0. 0. 0. 0. 0. 0. 0. 54. 5. 0. 5. 0. 0. 0. 0. 0. 62.
      2. 0. 0. 0. 0. 0. 0. 0. 63. 1. 0. 0. 0. 0. 0. 0. 0. 64. 0. 0. 0.
      0. 0. 0. 0. 0. 41. 0. 0. 19. 4. 0. 0. 0. 0. 54. 6. 0. 4. 0. 0. 0.
      0. 0. 63. 1. 0. 0. 0. 0. 0. 0. 0. 58. 6. 0. 0. 0. 0. 0. 0. 0. 58.
      3. 0. 3. 0. 0. 0. 0. 0. 60. 4. 0. 0. 0. 0. 0. 0. 0. 60. 4. 0. 0.
      0. 0. 0. 0. 0. 58. 0. 0. 6. 0. 0. 0. 0. 0. 44. 1. 0. 18. 1. 0. 0.
      0. 0. 56. 3. 0. 3. 2. 0. 0. 0. 0. 58. 5. 0. 1. 0. 0. 0. 0. 0. 59.
      5. 0. 0. 0. 0. 0. 0. 0. 54. 5. 0. 5. 0. 0. 0. 0. 0. 49. 11. 0. 3.
      1. 0. 0. 0. 0. 64. 0. 0. 0. 0. 0. 0. 0. 0. 57. 1. 0. 4. 2. 0. 0.
      0. 0. 38. 10. 0. 11. 5. 0. 0. 0. 0. 58. 2. 0. 4. 0. 0. 0. 0. 0.
      62. 2. 0. 0. 0. 0. 0. 0. 0. 36. 13. 0. 13. 2. 0. 0. 0. 0. 48. 9.
      0. 4. 3. 0. 0. 0. 0. 52. 12. 0. 0. 0. 0. 0. 0. 0. 36. 18. 0. 6. 4.
      0. 0. 0. 0. 48. 7. 0. 7. 2. 0. 0. 0. 0. 33. 11. 0. 15. 5. 0. 0. 0.
      0. 52. 7. 0. 4. 1. 0. 0. 0. 0. 61. 0. 0. 3. 0. 0. 0. 0. 0. 30. 16.
      0. 12. 6. 0. 0. 0. 0. 35. 9. 0. 14. 6. 0. 0. 0. 0. 34. 19. 0. 8.
      3. 0. 0. 0. 0. 42. 1. 0. 17. 4. 0. 0. 0. 0. 36. 23. 0. 5. 0. 0. 0.
      0. 0. 37. 4. 0. 15. 8. 0. 0. 0. 0. 51. 6. 0. 5. 2. 0. 0. 0. 0. 59.
      5. 0. 0. 0. 0. 0. 0. 0. 59. 2. 0. 3. 0. 0. 0. 0. 0. 53. 2. 0. 7.
      2. 0. 0. 0. 0. 52. 2. 0. 10. 0. 0. 0. 0. 0. 43. 0. 0. 21. 0. 0. 0.
      0. 0. 37. 12. 0. 12. 3. 0. 0. 0. 0. 47. 9. 0. 8. 0. 0. 0. 0. 0.
      42. 7. 0. 10. 5. 0. 0. 0. 0. 55. 4. 0. 5. 0. 0. 0. 0. 0. 62. 0. 0.
      2. 0. 0. 0. 0. 0. 59. 0. 0. 5. 0. 0. 0. 0. 0. 58. 0. 0. 6. 0. 0.
      0. 0. 0. 49. 0. 0. 14. 1. 0. 0. 0. 0. 61. 0. 0. 3. 0. 0. 0. 0. 0.
      60. 0. 0. 4. 0. 0. 0. 0. 0. 45. 0. 0. 19. 0. 0. 0. 0. 0. 58. 1. 0.
      5. 0.</_>
    <_>
      0. 0. 0. 0. 61. 1. 0. 2. 0. 0. 0. 0. 0. 63. 1. 0. 0. 0. 0. 0. 0.
      0. 63. 1. 0. 0. 0. 0. 0. 0. 0. 53. 4. 0. 3. 4. 0. 0. 0. 0. 46. 11.
      0. 5. 2. 0. 0. 0. 0. 64. 0. 0. 0. 0. 0. 0. 0. 0. 64. 0. 0. 0. 0.
      0. 0. 0. 0. 64. 0. 0. 0. 0. 0. 0. 0. 0. 61. 2. 0. 1. 0. 0. 0. 0.
      0. 63. 0. 0. 1. 0. 0. 0. 0. 0. 64. 0. 0. 0. 0. 0. 0. 0. 0. 58. 4.
      0. 2. 0. 0. 0. 0. 0. 47. 2. 0. 13. 2. 0. 0. 0. 0. 63. 0. 0. 1. 0.
      0. 0. 0. 0. 64. 0. 0. 0. 0. 0. 0. 0. 0. 64. 0. 0. 0. 0. 0. 0. 0.
      0. 63. 1. 0. 0. 0. 0. 0. 0. 0. 62. 1. 0. 1. 0. 0. 0. 0. 0. 50. 1.
      0. 12. 1. 0. 0. 0. 0. 41. 7. 0. 16. 0. 0. 0. 0. 0. 37. 8. 0. 13.
      6. 0. 0. 0. 0. 62. 0. 0. 2. 0. 0. 0. 0. 0. 64. 0. 0. 0. 0. 0. 0.
      0. 0. 64. 0. 0. 0. 0. 0. 0. 0. 0. 64. 0. 0. 0. 0. 0. 0. 0. 0. 55.
      7. 0. 2. 0. 0. 0. 0. 0. 36. 18. 0. 2. 8. 0. 0. 0. 0. 43. 13. 0. 8.
      0. 0. 0. 0. 0. 52. 2. 0. 10. 0. 0. 0. 0. 0. 44. 0. 0. 20. 0. 0. 0.
      0. 0. 63. 1. 0. 0. 0. 0. 0. 0. 0. 64. 0. 0. 0. 0. 0. 0. 0. 0. 61.
      2. 0. 1. 0. 0. 0. 0. 0. 59. 5. 0. 0. 0. 0. 0. 0. 0. 34. 4. 0. 20.
      6. 0. 0. 0. 0. 55. 7. 0. 2. 0. 0. 0. 0. 0. 32. 27. 0. 5. 0. 0. 0.
      0. 0. 32. 3. 0. 24. 5. 0. 0. 0. 0. 61. 2. 0. 1. 0. 0. 0. 0. 0. 64.
      0. 0. 0. 0. 0. 0. 0. 0. 49. 10. 0. 5. 0. 0. 0. 0. 0. 52. 8. 0. 0.
      4. 0. 0. 0. 0. 50. 7. 0. 2. 5. 0. 0. 0. 0. 59. 5. 0. 0. 0. 0. 0.
      0. 0. 60. 4. 0. 0. 0. 0. 0. 0. 0. 33. 3. 0. 22. 6. 0. 0. 0. 0. 61.
      1. 0. 2. 0. 0. 0. 0. 0. 63. 1. 0. 0. 0. 0. 0. 0. 0. 61. 2. 0. 1.
      0. 0. 0. 0. 0. 63. 1. 0. 0. 0. 0. 0. 0. 0. 64. 0. 0. 0. 0. 0. 0.
      0. 0. 62. 1. 0. 1. 0. 0. 0. 0. 0. 61. 0. 0. 3. 0. 0. 0. 0. 0. 41.
      1. 0. 21. 1. 0. 0. 0. 0. 60. 3. 0. 1. 0. 0. 0. 0. 0. 64. 0. 0. 0.
      0. 0. 0. 0. 0. 61. 2. 0. 1. 0. 0. 0. 0. 0. 61. 1. 0. 2. 0. 0. 0.
      0. 0. 57. 4. 0. 3. 0. 0. 0. 0. 0. 64. 0. 0. 0. 0. 0. 0. 0. 0. 60.
      0. 0. 4. 0. 0. 0. 0. 0. 40. 3. 0. 18. 3. 0. 0. 0. 0. 63. 1. 0. 0.
      0. 0. 0. 0. 0. 64. 0. 0. 0. 0. 0. 0. 0. 0. 63. 1. 0. 0. 0. 0. 0.
      0. 0. 57. 3. 0. 4. 0. 0. 0. 0. 0. 57. 5. 0. 1. 1. 0. 0. 0. 0. 64.
      0. 0. 0. 0. 0. 0. 0. 0. 60. 0. 0. 4. 0. 0. 0. 0. 0. 30. 2. 0. 30.
      2. 0. 0. 0. 0. 57. 3. 0. 4. 0. 0. 0. 0. 0. 64. 0. 0. 0. 0. 0. 0.
      0. 0. 61. 2. 0. 1. 0. 0. 0. 0. 0. 56. 3. 0. 4. 1. 0. 0. 0. 0. 58.
      5. 0. 1. 0. 0. 0. 0. 0. 64. 0. 0. 0. 0. 0. 0. 0. 0. 62. 0. 0. 2.
      0. 0. 0. 0. 0. 37. 3. 0. 22. 2. 0. 0. 0. 0. 59. 3. 0. 2. 0. 0. 0.
      0. 0. 60. 4. 0. 0. 0. 0. 0. 0. 0. 45. 11. 0. 7. 1. 0. 0. 0. 0. 55.
      4. 0. 5. 0. 0. 0. 0. 0. 57. 4. 0. 2. 1. 0. 0. 0. 0. 64. 0. 0. 0.
      0. 0. 0. 0. 0. 57. 0. 0. 7. 0. 0. 0. 0. 0. 45. 1. 0. 15. 3. 0. 0.
      0. 0. 55. 5. 0. 3. 1. 0. 0. 0. 0. 63. 1. 0. 0. 0. 0. 0. 0. 0. 49.
      7. 0. 7. 1. 0. 0. 0. 0. 48. 8. 0. 7. 1. 0. 0. 0. 0. 54. 9. 0. 1.
      0. 0. 0. 0. 0. 61. 3. 0. 0. 0. 0. 0. 0. 0. 44. 13. 0. 4. 3. 0. 0.
      0. 0. 49. 1. 0. 8. 6. 0. 0. 0. 0. 54. 4. 0. 5. 1. 0. 0. 0. 0. 64.
      0. 0. 0. 0. 0. 0. 0. 0. 44. 16. 0. 3. 1. 0. 0. 0. 0. 48. 11. 0. 4.
      1. 0. 0. 0. 0. 49. 11. 0. 4. 0. 0. 0. 0. 0. 32. 28. 0. 3. 1. 0. 0.
      0. 0. 56. 6. 0. 2. 0. 0. 0. 0. 0. 33. 8. 0. 19. 4. 0. 0. 0. 0. 42.
      10. 0. 10. 2. 0. 0. 0. 0. 61. 2. 0. 1. 0. 0. 0. 0. 0. 31. 10. 0.
      15. 8. 0. 0. 0. 0. 36. 16. 0. 11. 1. 0. 0. 0. 0. 33. 20. 0. 6. 5.
      0. 0. 0. 0. 45. 3. 0. 13. 3. 0. 0. 0. 0. 41. 17. 0. 4. 2. 0. 0. 0.
      0. 41. 8. 0. 14. 1. 0. 0. 0. 0. 35. 10. 0. 18. 1. 0. 0. 0. 0. 62.
      1. 0. 1. 0. 0. 0. 0. 0. 60. 0. 0. 4. 0. 0. 0. 0. 0. 54. 1. 0. 9.
      0. 0. 0. 0. 0. 47. 3. 0. 14. 0. 0. 0. 0. 0. 45. 3. 0. 16. 0. 0. 0.
      0. 0. 44. 6. 0. 11. 3. 0. 0. 0. 0. 55. 5. 0. 4. 0. 0. 0. 0. 0. 42.
      1. 0. 16. 5. 0. 0. 0. 0. 56. 1. 0. 7. 0. 0. 0. 0. 0. 61. 1. 0. 2.
      0. 0. 0. 0. 0. 64. 0. 0. 0. 0. 0. 0. 0. 0. 57. 0. 0. 7. 0. 0. 0.
      0. 0. 41. 0. 0. 22. 1. 0. 0. 0. 0. 62. 0. 0. 2. 0. 0. 0. 0. 0. 63.
      0. 0. 1. 0. 0. 0. 0. 0. 46. 0. 0. 10. 8. 0. 0. 0. 0. 58. 0. 0. 6.
      0.</_>
    <_>
      0. 0. 0. 0. 63. 1. 0. 0. 0. 0. 0. 0. 0. 63. 0. 0. 1. 0. 0. 0. 0.
      0. 64. 0. 0. 0. 0. 0. 0. 0. 0. 60. 0. 0. 4. 0. 0. 0. 0. 0. 46. 11.
      0. 5. 2. 0. 0. 0. 0. 63. 0. 0. 1. 0. 0. 0. 0. 0. 64. 0. 0. 0. 0.
      0. 0. 0. 0. 64. 0. 0. 0. 0. 0. 0. 0. 0. 62. 2. 0. 0. 0. 0. 0. 0.
      0. 60. 0. 0. 4. 0. 0. 0. 0. 0. 63. 1. 0. 0. 0. 0. 0. 0. 0. 28. 25.
      0. 5. 6. 0. 0. 0. 0. 36. 2. 0. 22. 4. 0. 0. 0. 0. 64. 0. 0. 0. 0.
      0. 0. 0. 0. 64. 0. 0. 0. 0. 0. 0. 0. 0. 64. 0. 0. 0. 0. 0. 0. 0.
      0. 62. 2. 0. 0. 0. 0. 0. 0. 0. 45. 1. 0. 15. 3. 0. 0. 0. 0. 59. 2.
      0. 3. 0. 0. 0. 0. 0. 38. 26. 0. 0. 0. 0. 0. 0. 0. 41. 12. 0. 10.
      1. 0. 0. 0. 0. 59. 0. 0. 5. 0. 0. 0. 0. 0. 64. 0. 0. 0. 0. 0. 0.
      0. 0. 64. 0. 0. 0. 0. 0. 0. 0. 0. 58. 6. 0. 0. 0. 0. 0. 0. 0. 47.
      1. 0. 9. 7. 0. 0. 0. 0. 60. 1. 0. 2. 1. 0. 0. 0. 0. 55. 9. 0. 0.
      0. 0. 0. 0. 0. 47. 16. 0. 0. 1. 0. 0. 0. 0. 46. 2. 0. 15. 1. 0. 0.
      0. 0. 64. 0. 0. 0. 0. 0. 0. 0. 0. 64. 0. 0. 0. 0. 0. 0. 0. 0. 57.
      6. 0. 1. 0. 0. 0. 0. 0. 41. 3. 0. 19. 1. 0. 0. 0. 0. 62. 2. 0. 0.
      0. 0. 0. 0. 0. 63. 0. 0. 1. 0. 0. 0. 0. 0. 55. 9. 0. 0. 0. 0. 0.
      0. 0. 34. 11. 0. 8. 11. 0. 0. 0. 0. 61. 1. 0. 2. 0. 0. 0. 0. 0.
      62. 2. 0. 0. 0. 0. 0. 0. 0. 58. 2. 0. 4. 0. 0. 0. 0. 0. 40. 16. 0.
      4. 4. 0. 0. 0. 0. 44. 15. 0. 1. 4. 0. 0. 0. 0. 58. 5. 0. 1. 0. 0.
      0. 0. 0. 62. 0. 0. 2. 0. 0. 0. 0. 0. 34. 2. 0. 24. 4. 0. 0. 0. 0.
      62. 0. 0. 2. 0. 0. 0. 0. 0. 64. 0. 0. 0. 0. 0. 0. 0. 0. 59. 2. 0.
      3. 0. 0. 0. 0. 0. 55. 8. 0. 1. 0. 0. 0. 0. 0. 61. 3. 0. 0. 0. 0.
      0. 0. 0. 62. 2. 0. 0. 0. 0. 0. 0. 0. 62. 0. 0. 2. 0. 0. 0. 0. 0.
      43. 0. 0. 16. 5. 0. 0. 0. 0. 60. 3. 0. 1. 0. 0. 0. 0. 0. 63. 1. 0.
      0. 0. 0. 0. 0. 0. 63. 1. 0. 0. 0. 0. 0. 0. 0. 64. 0. 0. 0. 0. 0.
      0. 0. 0. 51. 5. 0. 8. 0. 0. 0. 0. 0. 64. 0. 0. 0. 0. 0. 0. 0. 0.
      60. 0. 0. 4. 0. 0. 0. 0. 0. 42. 2. 0. 17. 3. 0. 0. 0. 0. 63. 1. 0.
      0. 0. 0. 0. 0. 0. 63. 1. 0. 0. 0. 0. 0. 0. 0. 60. 3. 0. 0. 1. 0.
      0. 0. 0. 60. 3. 0. 1. 0. 0. 0. 0. 0. 60. 4. 0. 0. 0. 0. 0. 0. 0.
      64. 0. 0. 0. 0. 0. 0. 0. 0. 59. 0. 0. 5. 0. 0. 0. 0. 0. 32. 5. 0.
      22. 5. 0. 0. 0. 0. 57. 4. 0. 3. 0. 0. 0. 0. 0. 64. 0. 0. 0. 0. 0.
      0. 0. 0. 59. 4. 0. 0. 1. 0. 0. 0. 0. 58. 3. 0. 3. 0. 0. 0. 0. 0.
      61. 2. 0. 1. 0. 0. 0. 0. 0. 64. 0. 0. 0. 0. 0. 0. 0. 0. 51. 0. 0.
      13. 0. 0. 0. 0. 0. 35. 2. 0. 22. 5. 0. 0. 0. 0. 59. 4. 0. 0. 1. 0.
      0. 0. 0. 60. 4. 0. 0. 0. 0. 0. 0. 0. 51. 7. 0. 3. 3. 0. 0. 0. 0.
      54. 5. 0. 5. 0. 0. 0. 0. 0. 54. 5. 0. 2. 3. 0. 0. 0. 0. 64. 0. 0.
      0. 0. 0. 0. 0. 0. 45. 0. 0. 18. 1. 0. 0. 0. 0. 44. 5. 0. 12. 3. 0.
      0. 0. 0. 50. 5. 0. 5. 4. 0. 0. 0. 0. 61. 1. 0. 2. 0. 0. 0. 0. 0.
      50. 6. 0. 6. 2. 0. 0. 0. 0. 60. 2. 0. 2. 0. 0. 0. 0. 0. 51. 11. 0.
      2. 0. 0. 0. 0. 0. 57. 6. 0. 1. 0. 0. 0. 0. 0. 31. 9. 0. 15. 9. 0.
      0. 0. 0. 60. 0. 0. 4. 0. 0. 0. 0. 0. 50. 6. 0. 7. 1. 0. 0. 0. 0.
      64. 0. 0. 0. 0. 0. 0. 0. 0. 44. 16. 0. 3. 1. 0. 0. 0. 0. 46. 9. 0.
      6. 3. 0. 0. 0. 0. 52. 11. 0. 1. 0. 0. 0. 0. 0. 35. 27. 0. 2. 0. 0.
      0. 0. 0. 49. 4. 0. 10. 1. 0. 0. 0. 0. 41. 9. 0. 12. 2. 0. 0. 0. 0.
      41. 11. 0. 12. 0. 0. 0. 0. 0. 63. 0. 0. 1. 0. 0. 0. 0. 0. 36. 7.
      0. 13. 8. 0. 0. 0. 0. 38. 15. 0. 9. 2. 0. 0. 0. 0. 34. 15. 0. 7.
      8. 0. 0. 0. 0. 43. 7. 0. 11. 3. 0. 0. 0. 0. 45. 15. 0. 2. 2. 0. 0.
      0. 0. 39. 4. 0. 20. 1. 0. 0. 0. 0. 39. 9. 0. 13. 3. 0. 0. 0. 0.
      60. 2. 0. 2. 0. 0. 0. 0. 0. 59. 1. 0. 4. 0. 0. 0. 0. 0. 57. 0. 0.
      7. 0. 0. 0. 0. 0. 55. 2. 0. 6. 1. 0. 0. 0. 0. 46. 3. 0. 15. 0. 0.
      0. 0. 0. 37. 13. 0. 12. 2. 0. 0. 0. 0. 49. 4. 0. 9. 2. 0. 0. 0. 0.
      36. 11. 0. 13. 4. 0. 0. 0. 0. 57. 1. 0. 6. 0. 0. 0. 0. 0. 64. 0.
      0. 0. 0. 0. 0. 0. 0. 61. 0. 0. 3. 0. 0. 0. 0. 0. 62. 0. 0. 2. 0.
      0. 0. 0. 0. 48. 0. 0. 15. 1. 0. 0. 0. 0. 59. 0. 0. 5. 0. 0. 0. 0.
      0. 59. 0. 0. 4. 1. 0. 0. 0. 0. 43. 0. 0. 13. 8. 0. 0. 0. 0. 54. 0.
      0. 10. 0.</_>
    <_>
      0. 0. 0. 0. 64. 0. 0. 0. 0. 0. 0. 0. 0. 64. 0. 0. 0. 0. 0. 0. 0.
      0. 64. 0. 0. 0. 0. 0. 0. 0. 0. 57. 0. 0. 6. 1. 0. 0. 0. 0. 45. 14.
      0. 2. 3. 0. 0. 0. 0. 64. 0. 0. 0. 0. 0. 0. 0. 0. 64. 0. 0. 0. 0.
      0. 0. 0. 0. 64. 0. 0. 0. 0. 0. 0. 0. 0. 62. 2. 0. 0. 0. 0. 0. 0.
      0. 64. 0. 0. 0. 0. 0. 0. 0. 0. 62. 1. 0. 1. 0. 0. 0. 0. 0. 59. 2.
      0. 2. 1. 0. 0. 0. 0. 61. 0. 0. 3. 0. 0. 0. 0. 0. 50. 0. 0. 12. 2.
      0. 0. 0. 0. 63. 0. 0. 1. 0. 0. 0. 0. 0. 64. 0. 0. 0. 0. 0. 0. 0.
      0. 58. 4. 0. 2. 0. 0. 0. 0. 0. 63. 0. 0. 1. 0. 0. 0. 0. 0. 63. 0.
      0. 1. 0. 0. 0. 0. 0. 57. 4. 0. 3. 0. 0. 0. 0. 0. 42. 5. 0. 12. 5.
      0. 0. 0. 0. 56. 0. 0. 5. 3. 0. 0. 0. 0. 64. 0. 0. 0. 0. 0. 0. 0.
      0. 64. 0. 0. 0. 0. 0. 0. 0. 0. 60. 4. 0. 0. 0. 0. 0. 0. 0. 59. 1.
      0. 4. 0. 0. 0. 0. 0. 64. 0. 0. 0. 0. 0. 0. 0. 0. 60. 0. 0. 4. 0.
      0. 0. 0. 0. 52. 0. 0. 12. 0. 0. 0. 0. 0. 57. 0. 0. 7. 0. 0. 0. 0.
      0. 55. 0. 0. 9. 0. 0. 0. 0. 0. 54. 0. 0. 7. 3. 0. 0. 0. 0. 59. 4.
      0. 1. 0. 0. 0. 0. 0. 62. 1. 0. 1. 0. 0. 0. 0. 0. 54. 5. 0. 4. 1.
      0. 0. 0. 0. 47. 17. 0. 0. 0. 0. 0. 0. 0. 41. 22. 0. 0. 1. 0. 0. 0.
      0. 34. 14. 0. 8. 8. 0. 0. 0. 0. 43. 11. 0. 3. 7. 0. 0. 0. 0. 62.
      0. 0. 1. 1. 0. 0. 0. 0. 62. 2. 0. 0. 0. 0. 0. 0. 0. 63. 0. 0. 1.
      0. 0. 0. 0. 0. 57. 4. 0. 2. 1. 0. 0. 0. 0. 48. 13. 0. 0. 3. 0. 0.
      0. 0. 44. 9. 0. 6. 5. 0. 0. 0. 0. 26. 1. 0. 36. 1. 0. 0. 0. 0. 63.
      1. 0. 0. 0. 0. 0. 0. 0. 60. 3. 0. 1. 0. 0. 0. 0. 0. 59. 1. 0. 4.
      0. 0. 0. 0. 0. 43. 16. 0. 3. 2. 0. 0. 0. 0. 42. 15. 0. 5. 2. 0. 0.
      0. 0. 57. 3. 0. 4. 0. 0. 0. 0. 0. 64. 0. 0. 0. 0. 0. 0. 0. 0. 31.
      0. 0. 33. 0. 0. 0. 0. 0. 61. 1. 0. 2. 0. 0. 0. 0. 0. 64. 0. 0. 0.
      0. 0. 0. 0. 0. 59. 3. 0. 2. 0. 0. 0. 0. 0. 58. 3. 0. 3. 0. 0. 0.
      0. 0. 61. 1. 0. 2. 0. 0. 0. 0. 0. 56. 0. 0. 8. 0. 0. 0. 0. 0. 64.
      0. 0. 0. 0. 0. 0. 0. 0. 38. 0. 0. 26. 0. 0. 0. 0. 0. 58. 1. 0. 5.
      0. 0. 0. 0. 0. 63. 1. 0. 0. 0. 0. 0. 0. 0. 57. 1. 0. 6. 0. 0. 0.
      0. 0. 59. 5. 0. 0. 0. 0. 0. 0. 0. 57. 7. 0. 0. 0. 0. 0. 0. 0. 58.
      3. 0. 2. 1. 0. 0. 0. 0. 64. 0. 0. 0. 0. 0. 0. 0. 0. 50. 0. 0. 14.
      0. 0. 0. 0. 0. 44. 6. 0. 11. 3. 0. 0. 0. 0. 63. 1. 0. 0. 0. 0. 0.
      0. 0. 63. 1. 0. 0. 0. 0. 0. 0. 0. 53. 8. 0. 3. 0. 0. 0. 0. 0. 63.
      1. 0. 0. 0. 0. 0. 0. 0. 64. 0. 0. 0. 0. 0. 0. 0. 0. 57. 0. 0. 7.
      0. 0. 0. 0. 0. 56. 0. 0. 8. 0. 0. 0. 0. 0. 31. 4. 0. 26. 3. 0. 0.
      0. 0. 61. 3. 0. 0. 0. 0. 0. 0. 0. 46. 12. 0. 6. 0. 0. 0. 0. 0. 61.
      1. 0. 2. 0. 0. 0. 0. 0. 64. 0. 0. 0. 0. 0. 0. 0. 0. 61. 3. 0. 0.
      0. 0. 0. 0. 0. 51. 0. 0. 13. 0. 0. 0. 0. 0. 55. 0. 0. 9. 0. 0. 0.
      0. 0. 34. 4. 0. 22. 4. 0. 0. 0. 0. 61. 3. 0. 0. 0. 0. 0. 0. 0. 44.
      11. 0. 8. 1. 0. 0. 0. 0. 52. 9. 0. 3. 0. 0. 0. 0. 0. 39. 21. 0. 3.
      1. 0. 0. 0. 0. 54. 9. 0. 0. 1. 0. 0. 0. 0. 44. 6. 0. 9. 5. 0. 0.
      0. 0. 48. 2. 0. 12. 2. 0. 0. 0. 0. 32. 12. 0. 13. 7. 0. 0. 0. 0.
      61. 3. 0. 0. 0. 0. 0. 0. 0. 48. 14. 0. 0. 2. 0. 0. 0. 0. 34. 16.
      0. 10. 4. 0. 0. 0. 0. 46. 11. 0. 5. 2. 0. 0. 0. 0. 59. 5. 0. 0. 0.
      0. 0. 0. 0. 32. 14. 0. 8. 10. 0. 0. 0. 0. 38. 9. 0. 15. 2. 0. 0.
      0. 0. 35. 11. 0. 9. 9. 0. 0. 0. 0. 64. 0. 0. 0. 0. 0. 0. 0. 0. 36.
      8. 0. 12. 8. 0. 0. 0. 0. 41. 12. 0. 6. 5. 0. 0. 0. 0. 37. 14. 0.
      6. 7. 0. 0. 0. 0. 49. 14. 0. 1. 0. 0. 0. 0. 0. 24. 12. 0. 18. 10.
      0. 0. 0. 0. 37. 9. 0. 13. 5. 0. 0. 0. 0. 41. 7. 0. 13. 3. 0. 0. 0.
      0. 63. 0. 0. 1. 0. 0. 0. 0. 0. 53. 3. 0. 5. 3. 0. 0. 0. 0. 51. 0.
      0. 13. 0. 0. 0. 0. 0. 55. 0. 0. 9. 0. 0. 0. 0. 0. 52. 5. 0. 7. 0.
      0. 0. 0. 0. 30. 8. 0. 19. 7. 0. 0. 0. 0. 37. 3. 0. 19. 5. 0. 0. 0.
      0. 35. 11. 0. 13. 5. 0. 0. 0. 0. 60. 2. 0. 2. 0. 0. 0. 0. 0. 56.
      1. 0. 7. 0. 0. 0. 0. 0. 64. 0. 0. 0. 0. 0. 0. 0. 0. 60. 0. 0. 4.
      0. 0. 0. 0. 0. 49. 0. 0. 14. 1. 0. 0. 0. 0. 53. 1. 0. 9. 1. 0. 0.
      0. 0. 50. 1. 0. 13. 0. 0. 0. 0. 0. 52. 0. 0. 12. 0. 0. 0. 0. 0.
      61. 0. 0. 3. 0.</_>
    <_>
      0. 0. 0. 0. 64. 0. 0. 0. 0. 0. 0. 0. 0. 64. 0. 0. 0. 0. 0. 0. 0.
      0. 64. 0. 0. 0. 0. 0. 0. 0. 0. 62. 0. 0. 2. 0. 0. 0. 0. 0. 47. 10.
      0. 2. 5. 0. 0. 0. 0. 58. 6. 0. 0. 0. 0. 0. 0. 0. 64. 0. 0. 0. 0.
      0. 0. 0. 0. 64. 0. 0. 0. 0. 0. 0. 0. 0. 64. 0. 0. 0. 0. 0. 0. 0.
      0. 64. 0. 0. 0. 0. 0. 0. 0. 0. 64. 0. 0. 0. 0. 0. 0. 0. 0. 61. 3.
      0. 0. 0. 0. 0. 0. 0. 64. 0. 0. 0. 0. 0. 0. 0. 0. 47. 0. 0. 17. 0.
      0. 0. 0. 0. 60. 0. 0. 4. 0. 0. 0. 0. 0. 59. 0. 0. 5. 0. 0. 0. 0.
      0. 62. 2. 0. 0. 0. 0. 0. 0. 0. 62. 2. 0. 0. 0. 0. 0. 0. 0. 62. 2.
      0. 0. 0. 0. 0. 0. 0. 55. 2. 0. 7. 0. 0. 0. 0. 0. 57. 3. 0. 4. 0.
      0. 0. 0. 0. 56. 1. 0. 6. 1. 0. 0. 0. 0. 42. 7. 0. 6. 9. 0. 0. 0.
      0. 55. 1. 0. 4. 4. 0. 0. 0. 0. 63. 0. 0. 1. 0. 0. 0. 0. 0. 64. 0.
      0. 0. 0. 0. 0. 0. 0. 63. 0. 0. 1. 0. 0. 0. 0. 0. 57. 7. 0. 0. 0.
      0. 0. 0. 0. 45. 9. 0. 3. 7. 0. 0. 0. 0. 33. 6. 0. 14. 11. 0. 0. 0.
      0. 58. 1. 0. 5. 0. 0. 0. 0. 0. 64. 0. 0. 0. 0. 0. 0. 0. 0. 62. 2.
      0. 0. 0. 0. 0. 0. 0. 63. 0. 0. 1. 0. 0. 0. 0. 0. 60. 2. 0. 2. 0.
      0. 0. 0. 0. 49. 14. 0. 1. 0. 0. 0. 0. 0. 45. 3. 0. 10. 6. 0. 0. 0.
      0. 48. 0. 0. 16. 0. 0. 0. 0. 0. 48. 0. 0. 15. 1. 0. 0. 0. 0. 63.
      1. 0. 0. 0. 0. 0. 0. 0. 61. 2. 0. 1. 0. 0. 0. 0. 0. 59. 0. 0. 5.
      0. 0. 0. 0. 0. 54. 5. 0. 4. 1. 0. 0. 0. 0. 59. 2. 0. 3. 0. 0. 0.
      0. 0. 50. 0. 0. 14. 0. 0. 0. 0. 0. 27. 5. 0. 22. 10. 0. 0. 0. 0.
      45. 3. 0. 9. 7. 0. 0. 0. 0. 63. 0. 0. 1. 0. 0. 0. 0. 0. 53. 5. 0.
      4. 2. 0. 0. 0. 0. 63. 1. 0. 0. 0. 0. 0. 0. 0. 59. 3. 0. 2. 0. 0.
      0. 0. 0. 64. 0. 0. 0. 0. 0. 0. 0. 0. 51. 0. 0. 11. 2. 0. 0. 0. 0.
      38. 0. 0. 26. 0. 0. 0. 0. 0. 48. 0. 0. 15. 1. 0. 0. 0. 0. 63. 0.
      0. 1. 0. 0. 0. 0. 0. 62. 1. 0. 0. 1. 0. 0. 0. 0. 63. 1. 0. 0. 0.
      0. 0. 0. 0. 60. 0. 0. 4. 0. 0. 0. 0. 0. 64. 0. 0. 0. 0. 0. 0. 0.
      0. 57. 2. 0. 5. 0. 0. 0. 0. 0. 42. 1. 0. 14. 7. 0. 0. 0. 0. 59. 2.
      0. 2. 1. 0. 0. 0. 0. 64. 0. 0. 0. 0. 0. 0. 0. 0. 62. 1. 0. 1. 0.
      0. 0. 0. 0. 57. 4. 0. 3. 0. 0. 0. 0. 0. 55. 4. 0. 5. 0. 0. 0. 0.
      0. 62. 1. 0. 1. 0. 0. 0. 0. 0. 59. 0. 0. 4. 1. 0. 0. 0. 0. 42. 2.
      0. 20. 0. 0. 0. 0. 0. 64. 0. 0. 0. 0. 0. 0. 0. 0. 63. 0. 0. 1. 0.
      0. 0. 0. 0. 55. 8. 0. 1. 0. 0. 0. 0. 0. 53. 5. 0. 4. 2. 0. 0. 0.
      0. 59. 5. 0. 0. 0. 0. 0. 0. 0. 58. 0. 0. 6. 0. 0. 0. 0. 0. 62. 0.
      0. 2. 0. 0. 0. 0. 0. 36. 0. 0. 27. 1. 0. 0. 0. 0. 53. 4. 0. 7. 0.
      0. 0. 0. 0. 55. 5. 0. 4. 0. 0. 0. 0. 0. 63. 0. 0. 1. 0. 0. 0. 0.
      0. 55. 5. 0. 4. 0. 0. 0. 0. 0. 53. 7. 0. 2. 2. 0. 0. 0. 0. 57. 0.
      0. 7. 0. 0. 0. 0. 0. 42. 0. 0. 22. 0. 0. 0. 0. 0. 39. 0. 0. 25. 0.
      0. 0. 0. 0. 47. 0. 0. 16. 1. 0. 0. 0. 0. 64. 0. 0. 0. 0. 0. 0. 0.
      0. 47. 12. 0. 3. 2. 0. 0. 0. 0. 59. 2. 0. 3. 0. 0. 0. 0. 0. 42.
      17. 0. 3. 2. 0. 0. 0. 0. 62. 2. 0. 0. 0. 0. 0. 0. 0. 37. 0. 0. 22.
      5. 0. 0. 0. 0. 37. 8. 0. 12. 7. 0. 0. 0. 0. 53. 1. 0. 5. 5. 0. 0.
      0. 0. 61. 1. 0. 1. 1. 0. 0. 0. 0. 40. 15. 0. 6. 3. 0. 0. 0. 0. 43.
      12. 0. 9. 0. 0. 0. 0. 0. 47. 10. 0. 6. 1. 0. 0. 0. 0. 46. 12. 0.
      2. 4. 0. 0. 0. 0. 38. 11. 0. 7. 8. 0. 0. 0. 0. 28. 12. 0. 15. 9.
      0. 0. 0. 0. 62. 0. 0. 2. 0. 0. 0. 0. 0. 64. 0. 0. 0. 0. 0. 0. 0.
      0. 45. 12. 0. 2. 5. 0. 0. 0. 0. 34. 12. 0. 14. 4. 0. 0. 0. 0. 39.
      22. 0. 2. 1. 0. 0. 0. 0. 24. 20. 0. 10. 10. 0. 0. 0. 0. 52. 1. 0.
      7. 4. 0. 0. 0. 0. 34. 10. 0. 15. 5. 0. 0. 0. 0. 64. 0. 0. 0. 0. 0.
      0. 0. 0. 62. 2. 0. 0. 0. 0. 0. 0. 0. 53. 1. 0. 10. 0. 0. 0. 0. 0.
      57. 0. 0. 7. 0. 0. 0. 0. 0. 62. 0. 0. 2. 0. 0. 0. 0. 0. 35. 6. 0.
      15. 8. 0. 0. 0. 0. 46. 0. 0. 10. 8. 0. 0. 0. 0. 41. 11. 0. 7. 5.
      0. 0. 0. 0. 58. 1. 0. 5. 0. 0. 0. 0. 0. 56. 8. 0. 0. 0. 0. 0. 0.
      0. 61. 0. 0. 3. 0. 0. 0. 0. 0. 60. 0. 0. 4. 0. 0. 0. 0. 0. 59. 2.
      0. 3. 0. 0. 0. 0. 0. 37. 1. 0. 21. 5. 0. 0. 0. 0. 49. 2. 0. 13. 0.
      0. 0. 0. 0. 49. 0. 0. 15. 0. 0. 0. 0. 0. 59. 0. 0. 5. 0. 0. 0. 0.
      0. 58. 4. 0. 2. 0.</_>
    <_>
      0. 0. 0. 0. 64. 0. 0. 0. 0. 0. 0. 0. 0. 64. 0. 0. 0. 0. 0. 0. 0.
      0. 64. 0. 0. 0. 0. 0. 0. 0. 0. 63. 0. 0. 1. 0. 0. 0. 0. 0. 44. 11.
      0. 6. 3. 0. 0. 0. 0. 58. 5. 0. 1. 0. 0. 0. 0. 0. 64. 0. 0. 0. 0.
      0. 0. 0. 0. 64. 0. 0. 0. 0. 0. 0. 0. 0. 64. 0. 0. 0. 0. 0. 0. 0.
      0. 64. 0. 0. 0. 0. 0. 0. 0. 0. 63. 1. 0. 0. 0. 0. 0. 0. 0. 60. 4.
      0. 0. 0. 0. 0. 0. 0. 57. 3. 0. 4. 0. 0. 0. 0. 0. 45. 0. 0. 18. 1.
      0. 0. 0. 0. 64. 0. 0. 0. 0. 0. 0. 0. 0. 64. 0. 0. 0. 0. 0. 0. 0.
      0. 61. 2. 0. 0. 1. 0. 0. 0. 0. 62. 2. 0. 0. 0. 0. 0. 0. 0. 63. 1.
      0. 0. 0. 0. 0. 0. 0. 58. 6. 0. 0. 0. 0. 0. 0. 0. 50. 8. 0. 2. 4.
      0. 0. 0. 0. 48. 0. 0. 9. 7. 0. 0. 0. 0. 64. 0. 0. 0. 0. 0. 0. 0.
      0. 64. 0. 0. 0. 0. 0. 0. 0. 0. 63. 0. 0. 1. 0. 0. 0. 0. 0. 64. 0.
      0. 0. 0. 0. 0. 0. 0. 59. 3. 0. 2. 0. 0. 0. 0. 0. 62. 0. 0. 2. 0.
      0. 0. 0. 0. 57. 0. 0. 6. 1. 0. 0. 0. 0. 45. 0. 0. 18. 1. 0. 0. 0.
      0. 62. 0. 0. 2. 0. 0. 0. 0. 0. 64. 0. 0. 0. 0. 0. 0. 0. 0. 60. 4.
      0. 0. 0. 0. 0. 0. 0. 63. 0. 0. 1. 0. 0. 0. 0. 0. 57. 2. 0. 5. 0.
      0. 0. 0. 0. 62. 0. 0. 2. 0. 0. 0. 0. 0. 59. 0. 0. 5. 0. 0. 0. 0.
      0. 54. 0. 0. 10. 0. 0. 0. 0. 0. 47. 1. 0. 16. 0. 0. 0. 0. 0. 64.
      0. 0. 0. 0. 0. 0. 0. 0. 59. 3. 0. 2. 0. 0. 0. 0. 0. 62. 1. 0. 1.
      0. 0. 0. 0. 0. 48. 1. 0. 11. 4. 0. 0. 0. 0. 64. 0. 0. 0. 0. 0. 0.
      0. 0. 52. 3. 0. 9. 0. 0. 0. 0. 0. 38. 2. 0. 21. 3. 0. 0. 0. 0. 48.
      0. 0. 15. 1. 0. 0. 0. 0. 60. 3. 0. 1. 0. 0. 0. 0. 0. 51. 7. 0. 2.
      4. 0. 0. 0. 0. 49. 15. 0. 0. 0. 0. 0. 0. 0. 46. 1. 0. 17. 0. 0. 0.
      0. 0. 64. 0. 0. 0. 0. 0. 0. 0. 0. 58. 0. 0. 6. 0. 0. 0. 0. 0. 41.
      6. 0. 12. 5. 0. 0. 0. 0. 44. 4. 0. 14. 2. 0. 0. 0. 0. 63. 0. 0. 1.
      0. 0. 0. 0. 0. 64. 0. 0. 0. 0. 0. 0. 0. 0. 55. 5. 0. 4. 0. 0. 0.
      0. 0. 43. 16. 0. 5. 0. 0. 0. 0. 0. 63. 0. 0. 1. 0. 0. 0. 0. 0. 50.
      0. 0. 14. 0. 0. 0. 0. 0. 43. 1. 0. 19. 1. 0. 0. 0. 0. 48. 8. 0. 3.
      5. 0. 0. 0. 0. 63. 0. 0. 1. 0. 0. 0. 0. 0. 63. 0. 0. 1. 0. 0. 0.
      0. 0. 58. 1. 0. 5. 0. 0. 0. 0. 0. 63. 0. 0. 1. 0. 0. 0. 0. 0. 64.
      0. 0. 0. 0. 0. 0. 0. 0. 57. 0. 0. 7. 0. 0. 0. 0. 0. 38. 0. 0. 24.
      2. 0. 0. 0. 0. 64. 0. 0. 0. 0. 0. 0. 0. 0. 63. 0. 0. 1. 0. 0. 0.
      0. 0. 55. 6. 0. 3. 0. 0. 0. 0. 0. 50. 8. 0. 6. 0. 0. 0. 0. 0. 61.
      2. 0. 1. 0. 0. 0. 0. 0. 64. 0. 0. 0. 0. 0. 0. 0. 0. 60. 0. 0. 4.
      0. 0. 0. 0. 0. 32. 1. 0. 27. 4. 0. 0. 0. 0. 62. 2. 0. 0. 0. 0. 0.
      0. 0. 59. 3. 0. 2. 0. 0. 0. 0. 0. 60. 3. 0. 1. 0. 0. 0. 0. 0. 58.
      3. 0. 2. 1. 0. 0. 0. 0. 63. 1. 0. 0. 0. 0. 0. 0. 0. 61. 0. 0. 3.
      0. 0. 0. 0. 0. 53. 1. 0. 9. 1. 0. 0. 0. 0. 31. 0. 0. 30. 3. 0. 0.
      0. 0. 60. 0. 0. 3. 1. 0. 0. 0. 0. 62. 1. 0. 1. 0. 0. 0. 0. 0. 54.
      9. 0. 1. 0. 0. 0. 0. 0. 57. 3. 0. 3. 1. 0. 0. 0. 0. 48. 14. 0. 2.
      0. 0. 0. 0. 0. 48. 0. 0. 14. 2. 0. 0. 0. 0. 56. 1. 0. 6. 1. 0. 0.
      0. 0. 34. 6. 0. 13. 11. 0. 0. 0. 0. 57. 1. 0. 5. 1. 0. 0. 0. 0.
      59. 3. 0. 1. 1. 0. 0. 0. 0. 41. 15. 0. 8. 0. 0. 0. 0. 0. 45. 9. 0.
      8. 2. 0. 0. 0. 0. 40. 20. 0. 1. 3. 0. 0. 0. 0. 31. 13. 0. 8. 12.
      0. 0. 0. 0. 43. 4. 0. 10. 7. 0. 0. 0. 0. 42. 8. 0. 6. 8. 0. 0. 0.
      0. 62. 1. 0. 1. 0. 0. 0. 0. 0. 62. 2. 0. 0. 0. 0. 0. 0. 0. 42. 7.
      0. 10. 5. 0. 0. 0. 0. 30. 16. 0. 11. 7. 0. 0. 0. 0. 39. 19. 0. 5.
      1. 0. 0. 0. 0. 33. 7. 0. 10. 14. 0. 0. 0. 0. 45. 1. 0. 9. 9. 0. 0.
      0. 0. 46. 10. 0. 4. 4. 0. 0. 0. 0. 58. 3. 0. 3. 0. 0. 0. 0. 0. 61.
      3. 0. 0. 0. 0. 0. 0. 0. 54. 0. 0. 9. 1. 0. 0. 0. 0. 54. 1. 0. 9.
      0. 0. 0. 0. 0. 61. 0. 0. 3. 0. 0. 0. 0. 0. 28. 11. 0. 16. 9. 0. 0.
      0. 0. 37. 3. 0. 20. 4. 0. 0. 0. 0. 42. 12. 0. 7. 3. 0. 0. 0. 0.
      60. 0. 0. 4. 0. 0. 0. 0. 0. 51. 13. 0. 0. 0. 0. 0. 0. 0. 64. 0. 0.
      0. 0. 0. 0. 0. 0. 59. 0. 0. 5. 0. 0. 0. 0. 0. 43. 0. 0. 20. 1. 0.
      0. 0. 0. 43. 6. 0. 15. 0. 0. 0. 0. 0. 44. 2. 0. 18. 0. 0. 0. 0. 0.
      54. 0. 0. 10. 0. 0. 0. 0. 0. 61. 0. 0. 3. 0. 0. 0. 0. 0. 56. 4. 0.
      4. 0.</_>
    <_>
      0. 0. 0. 0. 64. 0. 0. 0. 0. 0. 0. 0. 0. 64. 0. 0. 0. 0. 0. 0. 0.
      0. 53. 4. 0. 7. 0. 0. 0. 0. 0. 47. 4. 0. 10. 3. 0. 0. 0. 0. 44.
      14. 0. 4. 2. 0. 0. 0. 0. 62. 2. 0. 0. 0. 0. 0. 0. 0. 64. 0. 0. 0.
      0. 0. 0. 0. 0. 64. 0. 0. 0. 0. 0. 0. 0. 0. 64. 0. 0. 0. 0. 0. 0.
      0. 0. 64. 0. 0. 0. 0. 0. 0. 0. 0. 55. 9. 0. 0. 0. 0. 0. 0. 0. 41.
      1. 0. 22. 0. 0. 0. 0. 0. 55. 1. 0. 8. 0. 0. 0. 0. 0. 50. 0. 0. 12.
      2. 0. 0. 0. 0. 64. 0. 0. 0. 0. 0. 0. 0. 0. 64. 0. 0. 0. 0. 0. 0.
      0. 0. 64. 0. 0. 0. 0. 0. 0. 0. 0. 64. 0. 0. 0. 0. 0. 0. 0. 0. 62.
      2. 0. 0. 0. 0. 0. 0. 0. 43. 5. 0. 16. 0. 0. 0. 0. 0. 23. 4. 0. 29.
      8. 0. 0. 0. 0. 57. 0. 0. 5. 2. 0. 0. 0. 0. 64. 0. 0. 0. 0. 0. 0.
      0. 0. 63. 1. 0. 0. 0. 0. 0. 0. 0. 64. 0. 0. 0. 0. 0. 0. 0. 0. 64.
      0. 0. 0. 0. 0. 0. 0. 0. 62. 2. 0. 0. 0. 0. 0. 0. 0. 50. 14. 0. 0.
      0. 0. 0. 0. 0. 23. 19. 0. 21. 1. 0. 0. 0. 0. 34. 0. 0. 28. 2. 0.
      0. 0. 0. 58. 0. 0. 5. 1. 0. 0. 0. 0. 64. 0. 0. 0. 0. 0. 0. 0. 0.
      60. 1. 0. 2. 1. 0. 0. 0. 0. 64. 0. 0. 0. 0. 0. 0. 0. 0. 57. 4. 0.
      3. 0. 0. 0. 0. 0. 63. 1. 0. 0. 0. 0. 0. 0. 0. 51. 10. 0. 3. 0. 0.
      0. 0. 0. 38. 6. 0. 13. 7. 0. 0. 0. 0. 58. 3. 0. 3. 0. 0. 0. 0. 0.
      63. 1. 0. 0. 0. 0. 0. 0. 0. 59. 4. 0. 1. 0. 0. 0. 0. 0. 64. 0. 0.
      0. 0. 0. 0. 0. 0. 53. 11. 0. 0. 0. 0. 0. 0. 0. 62. 1. 0. 1. 0. 0.
      0. 0. 0. 49. 1. 0. 14. 0. 0. 0. 0. 0. 45. 1. 0. 12. 6. 0. 0. 0. 0.
      64. 0. 0. 0. 0. 0. 0. 0. 0. 61. 1. 0. 2. 0. 0. 0. 0. 0. 59. 2. 0.
      3. 0. 0. 0. 0. 0. 64. 0. 0. 0. 0. 0. 0. 0. 0. 59. 5. 0. 0. 0. 0.
      0. 0. 0. 64. 0. 0. 0. 0. 0. 0. 0. 0. 54. 0. 0. 10. 0. 0. 0. 0. 0.
      43. 0. 0. 19. 2. 0. 0. 0. 0. 62. 0. 0. 2. 0. 0. 0. 0. 0. 64. 0. 0.
      0. 0. 0. 0. 0. 0. 57. 2. 0. 4. 1. 0. 0. 0. 0. 54. 8. 0. 2. 0. 0.
      0. 0. 0. 64. 0. 0. 0. 0. 0. 0. 0. 0. 64. 0. 0. 0. 0. 0. 0. 0. 0.
      62. 0. 0. 2. 0. 0. 0. 0. 0. 43. 0. 0. 20. 1. 0. 0. 0. 0. 62. 2. 0.
      0. 0. 0. 0. 0. 0. 64. 0. 0. 0. 0. 0. 0. 0. 0. 56. 8. 0. 0. 0. 0.
      0. 0. 0. 55. 6. 0. 3. 0. 0. 0. 0. 0. 63. 0. 0. 1. 0. 0. 0. 0. 0.
      61. 3. 0. 0. 0. 0. 0. 0. 0. 61. 2. 0. 1. 0. 0. 0. 0. 0. 36. 2. 0.
      20. 6. 0. 0. 0. 0. 63. 1. 0. 0. 0. 0. 0. 0. 0. 64. 0. 0. 0. 0. 0.
      0. 0. 0. 64. 0. 0. 0. 0. 0. 0. 0. 0. 52. 5. 0. 4. 3. 0. 0. 0. 0.
      61. 3. 0. 0. 0. 0. 0. 0. 0. 63. 0. 0. 1. 0. 0. 0. 0. 0. 63. 0. 0.
      1. 0. 0. 0. 0. 0. 34. 2. 0. 26. 2. 0. 0. 0. 0. 56. 7. 0. 1. 0. 0.
      0. 0. 0. 58. 3. 0. 3. 0. 0. 0. 0. 0. 55. 3. 0. 6. 0. 0. 0. 0. 0.
      57. 4. 0. 3. 0. 0. 0. 0. 0. 56. 6. 0. 2. 0. 0. 0. 0. 0. 61. 3. 0.
      0. 0. 0. 0. 0. 0. 64. 0. 0. 0. 0. 0. 0. 0. 0. 38. 0. 0. 25. 1. 0.
      0. 0. 0. 54. 3. 0. 5. 2. 0. 0. 0. 0. 61. 0. 0. 3. 0. 0. 0. 0. 0.
      55. 7. 0. 2. 0. 0. 0. 0. 0. 56. 5. 0. 3. 0. 0. 0. 0. 0. 45. 14. 0.
      4. 1. 0. 0. 0. 0. 57. 5. 0. 2. 0. 0. 0. 0. 0. 64. 0. 0. 0. 0. 0.
      0. 0. 0. 39. 7. 0. 12. 6. 0. 0. 0. 0. 51. 2. 0. 8. 3. 0. 0. 0. 0.
      63. 0. 0. 1. 0. 0. 0. 0. 0. 43. 10. 0. 5. 6. 0. 0. 0. 0. 42. 19.
      0. 1. 2. 0. 0. 0. 0. 59. 5. 0. 0. 0. 0. 0. 0. 0. 55. 8. 0. 1. 0.
      0. 0. 0. 0. 47. 13. 0. 2. 2. 0. 0. 0. 0. 28. 7. 0. 17. 12. 0. 0.
      0. 0. 60. 4. 0. 0. 0. 0. 0. 0. 0. 61. 2. 0. 1. 0. 0. 0. 0. 0. 40.
      11. 0. 6. 7. 0. 0. 0. 0. 40. 8. 0. 15. 1. 0. 0. 0. 0. 36. 15. 0.
      9. 4. 0. 0. 0. 0. 54. 8. 0. 2. 0. 0. 0. 0. 0. 53. 9. 0. 2. 0. 0.
      0. 0. 0. 24. 7. 0. 23. 10. 0. 0. 0. 0. 52. 3. 0. 7. 2. 0. 0. 0. 0.
      61. 3. 0. 0. 0. 0. 0. 0. 0. 59. 0. 0. 5. 0. 0. 0. 0. 0. 57. 0. 0.
      7. 0. 0. 0. 0. 0. 51. 0. 0. 13. 0. 0. 0. 0. 0. 50. 5. 0. 7. 2. 0.
      0. 0. 0. 46. 5. 0. 10. 3. 0. 0. 0. 0. 38. 9. 0. 15. 2. 0. 0. 0. 0.
      55. 5. 0. 2. 2. 0. 0. 0. 0. 48. 12. 0. 4. 0. 0. 0. 0. 0. 64. 0. 0.
      0. 0. 0. 0. 0. 0. 53. 0. 0. 11. 0. 0. 0. 0. 0. 51. 3. 0. 8. 2. 0.
      0. 0. 0. 43. 0. 0. 19. 2. 0. 0. 0. 0. 52. 6. 0. 6. 0. 0. 0. 0. 0.
      39. 0. 0. 25. 0. 0. 0. 0. 0. 61. 0. 0. 3. 0. 0. 0. 0. 0. 58. 2. 0.
      4. 0.</_>
    <_>
      0. 0. 0. 0. 63. 1. 0. 0. 0. 0. 0. 0. 0. 64. 0. 0. 0. 0. 0. 0. 0.
      0. 64. 0. 0. 0. 0. 0. 0. 0. 0. 58. 2. 0. 4. 0. 0. 0. 0. 0. 51. 8.
      0. 5. 0. 0. 0. 0. 0. 64. 0. 0. 0. 0. 0. 0. 0. 0. 64. 0. 0. 0. 0.
      0. 0. 0. 0. 62. 2. 0. 0. 0. 0. 0. 0. 0. 59. 3. 0. 2. 0. 0. 0. 0.
      0. 64. 0. 0. 0. 0. 0. 0. 0. 0. 60. 4. 0. 0. 0. 0. 0. 0. 0. 31. 33.
      0. 0. 0. 0. 0. 0. 0. 46. 1. 0. 16. 1. 0. 0. 0. 0. 64. 0. 0. 0. 0.
      0. 0. 0. 0. 64. 0. 0. 0. 0. 0. 0. 0. 0. 64. 0. 0. 0. 0. 0. 0. 0.
      0. 61. 2. 0. 1. 0. 0. 0. 0. 0. 64. 0. 0. 0. 0. 0. 0. 0. 0. 60. 4.
      0. 0. 0. 0. 0. 0. 0. 50. 11. 0. 3. 0. 0. 0. 0. 0. 44. 13. 0. 6. 1.
      0. 0. 0. 0. 51. 0. 0. 11. 2. 0. 0. 0. 0. 64. 0. 0. 0. 0. 0. 0. 0.
      0. 64. 0. 0. 0. 0. 0. 0. 0. 0. 56. 4. 0. 4. 0. 0. 0. 0. 0. 59. 0.
      0. 4. 1. 0. 0. 0. 0. 64. 0. 0. 0. 0. 0. 0. 0. 0. 57. 7. 0. 0. 0.
      0. 0. 0. 0. 56. 8. 0. 0. 0. 0. 0. 0. 0. 42. 6. 0. 15. 1. 0. 0. 0.
      0. 64. 0. 0. 0. 0. 0. 0. 0. 0. 64. 0. 0. 0. 0. 0. 0. 0. 0. 60. 1.
      0. 3. 0. 0. 0. 0. 0. 61. 3. 0. 0. 0. 0. 0. 0. 0. 53. 7. 0. 3. 1.
      0. 0. 0. 0. 63. 1. 0. 0. 0. 0. 0. 0. 0. 57. 7. 0. 0. 0. 0. 0. 0.
      0. 33. 15. 0. 4. 12. 0. 0. 0. 0. 64. 0. 0. 0. 0. 0. 0. 0. 0. 64.
      0. 0. 0. 0. 0. 0. 0. 0. 53. 5. 0. 5. 1. 0. 0. 0. 0. 63. 0. 0. 1.
      0. 0. 0. 0. 0. 56. 7. 0. 1. 0. 0. 0. 0. 0. 63. 1. 0. 0. 0. 0. 0.
      0. 0. 48. 0. 0. 14. 2. 0. 0. 0. 0. 42. 3. 0. 13. 6. 0. 0. 0. 0.
      64. 0. 0. 0. 0. 0. 0. 0. 0. 62. 2. 0. 0. 0. 0. 0. 0. 0. 57. 2. 0.
      5. 0. 0. 0. 0. 0. 56. 6. 0. 2. 0. 0. 0. 0. 0. 63. 1. 0. 0. 0. 0.
      0. 0. 0. 64. 0. 0. 0. 0. 0. 0. 0. 0. 48. 0. 0. 16. 0. 0. 0. 0. 0.
      46. 1. 0. 16. 1. 0. 0. 0. 0. 62. 2. 0. 0. 0. 0. 0. 0. 0. 62. 2. 0.
      0. 0. 0. 0. 0. 0. 59. 3. 0. 2. 0. 0. 0. 0. 0. 55. 4. 0. 4. 1. 0.
      0. 0. 0. 61. 2. 0. 1. 0. 0. 0. 0. 0. 64. 0. 0. 0. 0. 0. 0. 0. 0.
      58. 0. 0. 6. 0. 0. 0. 0. 0. 35. 2. 0. 26. 1. 0. 0. 0. 0. 64. 0. 0.
      0. 0. 0. 0. 0. 0. 64. 0. 0. 0. 0. 0. 0. 0. 0. 64. 0. 0. 0. 0. 0.
      0. 0. 0. 56. 5. 0. 3. 0. 0. 0. 0. 0. 59. 4. 0. 1. 0. 0. 0. 0. 0.
      64. 0. 0. 0. 0. 0. 0. 0. 0. 64. 0. 0. 0. 0. 0. 0. 0. 0. 39. 0. 0.
      22. 3. 0. 0. 0. 0. 61. 3. 0. 0. 0. 0. 0. 0. 0. 64. 0. 0. 0. 0. 0.
      0. 0. 0. 57. 5. 0. 2. 0. 0. 0. 0. 0. 57. 3. 0. 4. 0. 0. 0. 0. 0.
      61. 3. 0. 0. 0. 0. 0. 0. 0. 64. 0. 0. 0. 0. 0. 0. 0. 0. 63. 0. 0.
      1. 0. 0. 0. 0. 0. 41. 3. 0. 18. 2. 0. 0. 0. 0. 57. 6. 0. 1. 0. 0.
      0. 0. 0. 60. 2. 0. 2. 0. 0. 0. 0. 0. 49. 12. 0. 3. 0. 0. 0. 0. 0.
      56. 6. 0. 2. 0. 0. 0. 0. 0. 58. 5. 0. 0. 1. 0. 0. 0. 0. 56. 7. 0.
      1. 0. 0. 0. 0. 0. 64. 0. 0. 0. 0. 0. 0. 0. 0. 20. 4. 0. 35. 5. 0.
      0. 0. 0. 56. 5. 0. 2. 1. 0. 0. 0. 0. 62. 2. 0. 0. 0. 0. 0. 0. 0.
      46. 12. 0. 5. 1. 0. 0. 0. 0. 56. 4. 0. 4. 0. 0. 0. 0. 0. 50. 11.
      0. 2. 1. 0. 0. 0. 0. 58. 6. 0. 0. 0. 0. 0. 0. 0. 50. 13. 0. 1. 0.
      0. 0. 0. 0. 32. 1. 0. 28. 3. 0. 0. 0. 0. 58. 5. 0. 0. 1. 0. 0. 0.
      0. 64. 0. 0. 0. 0. 0. 0. 0. 0. 40. 17. 0. 7. 0. 0. 0. 0. 0. 34.
      17. 0. 11. 2. 0. 0. 0. 0. 52. 10. 0. 2. 0. 0. 0. 0. 0. 55. 9. 0.
      0. 0. 0. 0. 0. 0. 33. 15. 0. 12. 4. 0. 0. 0. 0. 39. 1. 0. 21. 3.
      0. 0. 0. 0. 50. 6. 0. 5. 3. 0. 0. 0. 0. 63. 0. 0. 1. 0. 0. 0. 0.
      0. 35. 9. 0. 11. 9. 0. 0. 0. 0. 33. 13. 0. 13. 5. 0. 0. 0. 0. 32.
      19. 0. 11. 2. 0. 0. 0. 0. 53. 11. 0. 0. 0. 0. 0. 0. 0. 33. 9. 0.
      16. 6. 0. 0. 0. 0. 41. 18. 0. 4. 1. 0. 0. 0. 0. 46. 0. 0. 17. 1.
      0. 0. 0. 0. 53. 6. 0. 5. 0. 0. 0. 0. 0. 60. 3. 0. 1. 0. 0. 0. 0.
      0. 53. 2. 0. 9. 0. 0. 0. 0. 0. 54. 3. 0. 7. 0. 0. 0. 0. 0. 56. 6.
      0. 2. 0. 0. 0. 0. 0. 39. 2. 0. 20. 3. 0. 0. 0. 0. 52. 8. 0. 2. 2.
      0. 0. 0. 0. 45. 1. 0. 16. 2. 0. 0. 0. 0. 47. 7. 0. 10. 0. 0. 0. 0.
      0. 61. 1. 0. 2. 0. 0. 0. 0. 0. 57. 0. 0. 7. 0. 0. 0. 0. 0. 59. 0.
      0. 5. 0. 0. 0. 0. 0. 58. 0. 0. 6. 0. 0. 0. 0. 0. 46. 0. 0. 17. 1.
      0. 0. 0. 0. 61. 3. 0. 0. 0. 0. 0. 0. 0. 57. 0. 0. 7. 0. 0. 0. 0.
      0. 49. 0. 0. 12. 3.</_>
    <_>
      0. 0. 0. 0. 63. 0. 0. 1. 0. 0. 0. 0. 0. 63. 1. 0. 0. 0. 0. 0. 0.
      0. 62. 0. 0. 2. 0. 0. 0. 0. 0. 60. 0. 0. 2. 2. 0. 0. 0. 0. 45. 15.
      0. 3. 1. 0. 0. 0. 0. 59. 5. 0. 0. 0. 0. 0. 0. 0. 64. 0. 0. 0. 0.
      0. 0. 0. 0. 64. 0. 0. 0. 0. 0. 0. 0. 0. 62. 1. 0. 1. 0. 0. 0. 0.
      0. 57. 3. 0. 1. 3. 0. 0. 0. 0. 46. 4. 0. 9. 5. 0. 0. 0. 0. 60. 2.
      0. 1. 1. 0. 0. 0. 0. 63. 0. 0. 1. 0. 0. 0. 0. 0. 48. 0. 0. 16. 0.
      0. 0. 0. 0. 64. 0. 0. 0. 0. 0. 0. 0. 0. 64. 0. 0. 0. 0. 0. 0. 0.
      0. 62. 2. 0. 0. 0. 0. 0. 0. 0. 47. 0. 0. 12. 5. 0. 0. 0. 0. 63. 0.
      0. 1. 0. 0. 0. 0. 0. 56. 5. 0. 3. 0. 0. 0. 0. 0. 55. 6. 0. 2. 1.
      0. 0. 0. 0. 45. 0. 0. 11. 8. 0. 0. 0. 0. 64. 0. 0. 0. 0. 0. 0. 0.
      0. 64. 0. 0. 0. 0. 0. 0. 0. 0. 60. 1. 0. 3. 0. 0. 0. 0. 0. 47. 1.
      0. 13. 3. 0. 0. 0. 0. 64. 0. 0. 0. 0. 0. 0. 0. 0. 49. 0. 0. 15. 0.
      0. 0. 0. 0. 34. 4. 0. 23. 3. 0. 0. 0. 0. 53. 0. 0. 11. 0. 0. 0. 0.
      0. 64. 0. 0. 0. 0. 0. 0. 0. 0. 64. 0. 0. 0. 0. 0. 0. 0. 0. 48. 15.
      0. 1. 0. 0. 0. 0. 0. 41. 22. 0. 0. 1. 0. 0. 0. 0. 54. 10. 0. 0. 0.
      0. 0. 0. 0. 62. 0. 0. 2. 0. 0. 0. 0. 0. 41. 0. 0. 23. 0. 0. 0. 0.
      0. 38. 0. 0. 25. 1. 0. 0. 0. 0. 63. 1. 0. 0. 0. 0. 0. 0. 0. 63. 1.
      0. 0. 0. 0. 0. 0. 0. 54. 4. 0. 6. 0. 0. 0. 0. 0. 56. 3. 0. 5. 0.
      0. 0. 0. 0. 58. 6. 0. 0. 0. 0. 0. 0. 0. 57. 1. 0. 6. 0. 0. 0. 0.
      0. 44. 1. 0. 18. 1. 0. 0. 0. 0. 36. 3. 0. 22. 3. 0. 0. 0. 0. 58.
      1. 0. 4. 1. 0. 0. 0. 0. 63. 1. 0. 0. 0. 0. 0. 0. 0. 61. 1. 0. 2.
      0. 0. 0. 0. 0. 59. 3. 0. 2. 0. 0. 0. 0. 0. 63. 1. 0. 0. 0. 0. 0.
      0. 0. 64. 0. 0. 0. 0. 0. 0. 0. 0. 55. 0. 0. 8. 1. 0. 0. 0. 0. 29.
      8. 0. 20. 7. 0. 0. 0. 0. 64. 0. 0. 0. 0. 0. 0. 0. 0. 63. 0. 0. 1.
      0. 0. 0. 0. 0. 57. 3. 0. 4. 0. 0. 0. 0. 0. 56. 5. 0. 3. 0. 0. 0.
      0. 0. 64. 0. 0. 0. 0. 0. 0. 0. 0. 61. 0. 0. 3. 0. 0. 0. 0. 0. 47.
      0. 0. 17. 0. 0. 0. 0. 0. 38. 3. 0. 19. 4. 0. 0. 0. 0. 63. 1. 0. 0.
      0. 0. 0. 0. 0. 64. 0. 0. 0. 0. 0. 0. 0. 0. 59. 3. 0. 2. 0. 0. 0.
      0. 0. 55. 6. 0. 3. 0. 0. 0. 0. 0. 60. 4. 0. 0. 0. 0. 0. 0. 0. 64.
      0. 0. 0. 0. 0. 0. 0. 0. 50. 0. 0. 14. 0. 0. 0. 0. 0. 31. 1. 0. 32.
      0. 0. 0. 0. 0. 58. 2. 0. 4. 0. 0. 0. 0. 0. 63. 0. 0. 1. 0. 0. 0.
      0. 0. 54. 4. 0. 5. 1. 0. 0. 0. 0. 61. 2. 0. 1. 0. 0. 0. 0. 0. 62.
      2. 0. 0. 0. 0. 0. 0. 0. 61. 0. 0. 3. 0. 0. 0. 0. 0. 39. 0. 0. 25.
      0. 0. 0. 0. 0. 39. 1. 0. 19. 5. 0. 0. 0. 0. 54. 7. 0. 1. 2. 0. 0.
      0. 0. 61. 1. 0. 1. 1. 0. 0. 0. 0. 55. 4. 0. 5. 0. 0. 0. 0. 0. 55.
      4. 0. 4. 1. 0. 0. 0. 0. 58. 5. 0. 1. 0. 0. 0. 0. 0. 64. 0. 0. 0.
      0. 0. 0. 0. 0. 37. 0. 0. 27. 0. 0. 0. 0. 0. 36. 1. 0. 23. 4. 0. 0.
      0. 0. 59. 4. 0. 0. 1. 0. 0. 0. 0. 62. 2. 0. 0. 0. 0. 0. 0. 0. 48.
      14. 0. 1. 1. 0. 0. 0. 0. 52. 7. 0. 5. 0. 0. 0. 0. 0. 47. 14. 0. 3.
      0. 0. 0. 0. 0. 59. 5. 0. 0. 0. 0. 0. 0. 0. 44. 1. 0. 17. 2. 0. 0.
      0. 0. 46. 0. 0. 14. 4. 0. 0. 0. 0. 58. 4. 0. 1. 1. 0. 0. 0. 0. 64.
      0. 0. 0. 0. 0. 0. 0. 0. 37. 16. 0. 8. 3. 0. 0. 0. 0. 40. 16. 0. 6.
      2. 0. 0. 0. 0. 53. 9. 0. 1. 1. 0. 0. 0. 0. 56. 8. 0. 0. 0. 0. 0.
      0. 0. 39. 3. 0. 6. 16. 0. 0. 0. 0. 38. 6. 0. 13. 7. 0. 0. 0. 0.
      57. 5. 0. 1. 1. 0. 0. 0. 0. 64. 0. 0. 0. 0. 0. 0. 0. 0. 36. 9. 0.
      13. 6. 0. 0. 0. 0. 33. 11. 0. 18. 2. 0. 0. 0. 0. 31. 21. 0. 11. 1.
      0. 0. 0. 0. 31. 29. 0. 1. 3. 0. 0. 0. 0. 51. 1. 0. 5. 7. 0. 0. 0.
      0. 25. 14. 0. 17. 8. 0. 0. 0. 0. 48. 5. 0. 11. 0. 0. 0. 0. 0. 59.
      3. 0. 2. 0. 0. 0. 0. 0. 62. 0. 0. 2. 0. 0. 0. 0. 0. 57. 1. 0. 6.
      0. 0. 0. 0. 0. 51. 0. 0. 13. 0. 0. 0. 0. 0. 46. 5. 0. 8. 5. 0. 0.
      0. 0. 45. 3. 0. 13. 3. 0. 0. 0. 0. 27. 16. 0. 16. 5. 0. 0. 0. 0.
      55. 3. 0. 3. 3. 0. 0. 0. 0. 46. 11. 0. 7. 0. 0. 0. 0. 0. 61. 0. 0.
      3. 0. 0. 0. 0. 0. 58. 0. 0. 6. 0. 0. 0. 0. 0. 53. 4. 0. 4. 3. 0.
      0. 0. 0. 39. 0. 0. 25. 0. 0. 0. 0. 0. 61. 0. 0. 3. 0. 0. 0. 0. 0.
      45. 0. 0. 19. 0. 0. 0. 0. 0. 60. 0. 0. 4. 0. 0. 0. 0. 0. 62. 0. 0.
      2. 0.</_>
    <_>
      0. 0. 0. 0. 63. 1. 0. 0. 0. 0. 0. 0. 0. 64. 0. 0. 0. 0. 0. 0. 0.
      0. 64. 0. 0. 0. 0. 0. 0. 0. 0. 64. 0. 0. 0. 0. 0. 0. 0. 0. 42. 11.
      0. 8. 3. 0. 0. 0. 0. 64. 0. 0. 0. 0. 0. 0. 0. 0. 64. 0. 0. 0. 0.
      0. 0. 0. 0. 64. 0. 0. 0. 0. 0. 0. 0. 0. 64. 0. 0. 0. 0. 0. 0. 0.
      0. 58. 1. 0. 2. 3. 0. 0. 0. 0. 48. 3. 0. 7. 6. 0. 0. 0. 0. 60. 3.
      0. 1. 0. 0. 0. 0. 0. 60. 1. 0. 3. 0. 0. 0. 0. 0. 47. 0. 0. 13. 4.
      0. 0. 0. 0. 64. 0. 0. 0. 0. 0. 0. 0. 0. 64. 0. 0. 0. 0. 0. 0. 0.
      0. 61. 3. 0. 0. 0. 0. 0. 0. 0. 47. 1. 0. 11. 5. 0. 0. 0. 0. 61. 0.
      0. 3. 0. 0. 0. 0. 0. 55. 5. 0. 4. 0. 0. 0. 0. 0. 44. 10. 0. 7. 3.
      0. 0. 0. 0. 49. 1. 0. 10. 4. 0. 0. 0. 0. 64. 0. 0. 0. 0. 0. 0. 0.
      0. 62. 1. 0. 1. 0. 0. 0. 0. 0. 64. 0. 0. 0. 0. 0. 0. 0. 0. 49. 0.
      0. 15. 0. 0. 0. 0. 0. 64. 0. 0. 0. 0. 0. 0. 0. 0. 47. 0. 0. 17. 0.
      0. 0. 0. 0. 31. 2. 0. 28. 3. 0. 0. 0. 0. 62. 0. 0. 2. 0. 0. 0. 0.
      0. 63. 1. 0. 0. 0. 0. 0. 0. 0. 64. 0. 0. 0. 0. 0. 0. 0. 0. 50. 14.
      0. 0. 0. 0. 0. 0. 0. 39. 18. 0. 5. 2. 0. 0. 0. 0. 54. 9. 0. 0. 1.
      0. 0. 0. 0. 62. 0. 0. 2. 0. 0. 0. 0. 0. 33. 2. 0. 22. 7. 0. 0. 0.
      0. 47. 1. 0. 12. 4. 0. 0. 0. 0. 64. 0. 0. 0. 0. 0. 0. 0. 0. 63. 1.
      0. 0. 0. 0. 0. 0. 0. 58. 3. 0. 2. 1. 0. 0. 0. 0. 54. 1. 0. 8. 1.
      0. 0. 0. 0. 57. 6. 0. 1. 0. 0. 0. 0. 0. 59. 0. 0. 5. 0. 0. 0. 0.
      0. 42. 0. 0. 20. 2. 0. 0. 0. 0. 37. 0. 0. 24. 3. 0. 0. 0. 0. 62.
      2. 0. 0. 0. 0. 0. 0. 0. 64. 0. 0. 0. 0. 0. 0. 0. 0. 61. 2. 0. 1.
      0. 0. 0. 0. 0. 57. 2. 0. 5. 0. 0. 0. 0. 0. 63. 0. 0. 1. 0. 0. 0.
      0. 0. 61. 0. 0. 3. 0. 0. 0. 0. 0. 37. 2. 0. 21. 4. 0. 0. 0. 0. 44.
      7. 0. 7. 6. 0. 0. 0. 0. 63. 1. 0. 0. 0. 0. 0. 0. 0. 62. 0. 0. 2.
      0. 0. 0. 0. 0. 60. 3. 0. 1. 0. 0. 0. 0. 0. 61. 2. 0. 1. 0. 0. 0.
      0. 0. 61. 2. 0. 1. 0. 0. 0. 0. 0. 57. 0. 0. 7. 0. 0. 0. 0. 0. 43.
      0. 0. 21. 0. 0. 0. 0. 0. 48. 2. 0. 11. 3. 0. 0. 0. 0. 63. 1. 0. 0.
      0. 0. 0. 0. 0. 64. 0. 0. 0. 0. 0. 0. 0. 0. 45. 10. 0. 7. 2. 0. 0.
      0. 0. 55. 6. 0. 3. 0. 0. 0. 0. 0. 61. 3. 0. 0. 0. 0. 0. 0. 0. 58.
      0. 0. 6. 0. 0. 0. 0. 0. 45. 0. 0. 19. 0. 0. 0. 0. 0. 31. 5. 0. 28.
      0. 0. 0. 0. 0. 64. 0. 0. 0. 0. 0. 0. 0. 0. 63. 0. 0. 1. 0. 0. 0.
      0. 0. 59. 1. 0. 4. 0. 0. 0. 0. 0. 58. 2. 0. 4. 0. 0. 0. 0. 0. 59.
      5. 0. 0. 0. 0. 0. 0. 0. 64. 0. 0. 0. 0. 0. 0. 0. 0. 30. 0. 0. 34.
      0. 0. 0. 0. 0. 37. 3. 0. 22. 2. 0. 0. 0. 0. 60. 2. 0. 1. 1. 0. 0.
      0. 0. 61. 2. 0. 1. 0. 0. 0. 0. 0. 59. 4. 0. 1. 0. 0. 0. 0. 0. 43.
      11. 0. 7. 3. 0. 0. 0. 0. 57. 6. 0. 1. 0. 0. 0. 0. 0. 61. 0. 0. 3.
      0. 0. 0. 0. 0. 37. 0. 0. 27. 0. 0. 0. 0. 0. 31. 4. 0. 26. 3. 0. 0.
      0. 0. 62. 1. 0. 1. 0. 0. 0. 0. 0. 64. 0. 0. 0. 0. 0. 0. 0. 0. 50.
      8. 0. 2. 4. 0. 0. 0. 0. 56. 3. 0. 4. 1. 0. 0. 0. 0. 49. 10. 0. 2.
      3. 0. 0. 0. 0. 49. 13. 0. 2. 0. 0. 0. 0. 0. 32. 0. 0. 31. 1. 0. 0.
      0. 0. 26. 5. 0. 28. 5. 0. 0. 0. 0. 57. 4. 0. 2. 1. 0. 0. 0. 0. 56.
      4. 0. 3. 1. 0. 0. 0. 0. 38. 8. 0. 12. 6. 0. 0. 0. 0. 46. 14. 0. 2.
      2. 0. 0. 0. 0. 47. 8. 0. 7. 2. 0. 0. 0. 0. 63. 1. 0. 0. 0. 0. 0.
      0. 0. 35. 6. 0. 6. 17. 0. 0. 0. 0. 35. 6. 0. 19. 4. 0. 0. 0. 0.
      64. 0. 0. 0. 0. 0. 0. 0. 0. 63. 1. 0. 0. 0. 0. 0. 0. 0. 36. 11. 0.
      15. 2. 0. 0. 0. 0. 38. 15. 0. 9. 2. 0. 0. 0. 0. 51. 11. 0. 2. 0.
      0. 0. 0. 0. 35. 14. 0. 2. 13. 0. 0. 0. 0. 45. 4. 0. 8. 7. 0. 0. 0.
      0. 33. 9. 0. 13. 9. 0. 0. 0. 0. 61. 2. 0. 1. 0. 0. 0. 0. 0. 63. 1.
      0. 0. 0. 0. 0. 0. 0. 57. 0. 0. 7. 0. 0. 0. 0. 0. 53. 0. 0. 11. 0.
      0. 0. 0. 0. 55. 0. 0. 6. 3. 0. 0. 0. 0. 42. 3. 0. 15. 4. 0. 0. 0.
      0. 37. 5. 0. 15. 7. 0. 0. 0. 0. 40. 14. 0. 5. 5. 0. 0. 0. 0. 55.
      0. 0. 9. 0. 0. 0. 0. 0. 52. 12. 0. 0. 0. 0. 0. 0. 0. 61. 0. 0. 3.
      0. 0. 0. 0. 0. 58. 0. 0. 6. 0. 0. 0. 0. 0. 43. 0. 0. 20. 1. 0. 0.
      0. 0. 58. 0. 0. 6. 0. 0. 0. 0. 0. 55. 0. 0. 9. 0. 0. 0. 0. 0. 51.
      0. 0. 13. 0. 0. 0. 0. 0. 59. 0. 0. 5. 0. 0. 0. 0. 0. 60. 1. 0. 3.
      0.</_>
    <_>
      0. 0. 0. 0. 64. 0. 0. 0. 0. 0. 0. 0. 0. 62. 0. 0. 2. 0. 0. 0. 0.
      0. 62. 0. 0. 1. 1. 0. 0. 0. 0. 44. 11. 0. 7. 2. 0. 0. 0. 0. 60. 4.
      0. 0. 0. 0. 0. 0. 0. 64. 0. 0. 0. 0. 0. 0. 0. 0. 64. 0. 0. 0. 0.
      0. 0. 0. 0. 64. 0. 0. 0. 0. 0. 0. 0. 0. 64. 0. 0. 0. 0. 0. 0. 0.
      0. 62. 1. 0. 1. 0. 0. 0. 0. 0. 61. 1. 0. 2. 0. 0. 0. 0. 0. 57. 3.
      0. 4. 0. 0. 0. 0. 0. 48. 7. 0. 6. 3. 0. 0. 0. 0. 55. 1. 0. 8. 0.
      0. 0. 0. 0. 64. 0. 0. 0. 0. 0. 0. 0. 0. 64. 0. 0. 0. 0. 0. 0. 0.
      0. 54. 3. 0. 7. 0. 0. 0. 0. 0. 63. 1. 0. 0. 0. 0. 0. 0. 0. 60. 4.
      0. 0. 0. 0. 0. 0. 0. 51. 4. 0. 6. 3. 0. 0. 0. 0. 34. 4. 0. 20. 6.
      0. 0. 0. 0. 44. 6. 0. 14. 0. 0. 0. 0. 0. 61. 0. 0. 3. 0. 0. 0. 0.
      0. 64. 0. 0. 0. 0. 0. 0. 0. 0. 60. 0. 0. 4. 0. 0. 0. 0. 0. 58. 5.
      0. 1. 0. 0. 0. 0. 0. 63. 0. 0. 1. 0. 0. 0. 0. 0. 57. 7. 0. 0. 0.
      0. 0. 0. 0. 64. 0. 0. 0. 0. 0. 0. 0. 0. 56. 7. 0. 1. 0. 0. 0. 0.
      0. 47. 0. 0. 17. 0. 0. 0. 0. 0. 64. 0. 0. 0. 0. 0. 0. 0. 0. 61. 1.
      0. 2. 0. 0. 0. 0. 0. 64. 0. 0. 0. 0. 0. 0. 0. 0. 57. 4. 0. 2. 1.
      0. 0. 0. 0. 60. 4. 0. 0. 0. 0. 0. 0. 0. 56. 5. 0. 2. 1. 0. 0. 0.
      0. 34. 19. 0. 3. 8. 0. 0. 0. 0. 50. 6. 0. 3. 5. 0. 0. 0. 0. 64. 0.
      0. 0. 0. 0. 0. 0. 0. 55. 3. 0. 5. 1. 0. 0. 0. 0. 53. 2. 0. 6. 3.
      0. 0. 0. 0. 54. 1. 0. 6. 3. 0. 0. 0. 0. 55. 8. 0. 0. 1. 0. 0. 0.
      0. 60. 0. 0. 4. 0. 0. 0. 0. 0. 45. 3. 0. 13. 3. 0. 0. 0. 0. 63. 0.
      0. 1. 0. 0. 0. 0. 0. 62. 2. 0. 0. 0. 0. 0. 0. 0. 57. 4. 0. 3. 0.
      0. 0. 0. 0. 61. 3. 0. 0. 0. 0. 0. 0. 0. 54. 2. 0. 6. 2. 0. 0. 0.
      0. 62. 1. 0. 1. 0. 0. 0. 0. 0. 59. 0. 0. 5. 0. 0. 0. 0. 0. 46. 1.
      0. 15. 2. 0. 0. 0. 0. 62. 1. 0. 1. 0. 0. 0. 0. 0. 61. 1. 0. 2. 0.
      0. 0. 0. 0. 63. 0. 0. 1. 0. 0. 0. 0. 0. 61. 2. 0. 1. 0. 0. 0. 0.
      0. 54. 7. 0. 3. 0. 0. 0. 0. 0. 59. 1. 0. 3. 1. 0. 0. 0. 0. 61. 0.
      0. 3. 0. 0. 0. 0. 0. 31. 5. 0. 27. 1. 0. 0. 0. 0. 61. 3. 0. 0. 0.
      0. 0. 0. 0. 64. 0. 0. 0. 0. 0. 0. 0. 0. 58. 0. 0. 5. 1. 0. 0. 0.
      0. 47. 9. 0. 8. 0. 0. 0. 0. 0. 61. 2. 0. 1. 0. 0. 0. 0. 0. 64. 0.
      0. 0. 0. 0. 0. 0. 0. 64. 0. 0. 0. 0. 0. 0. 0. 0. 43. 1. 0. 17. 3.
      0. 0. 0. 0. 62. 1. 0. 1. 0. 0. 0. 0. 0. 62. 0. 0. 2. 0. 0. 0. 0.
      0. 56. 4. 0. 3. 1. 0. 0. 0. 0. 62. 1. 0. 1. 0. 0. 0. 0. 0. 59. 5.
      0. 0. 0. 0. 0. 0. 0. 64. 0. 0. 0. 0. 0. 0. 0. 0. 53. 0. 0. 11. 0.
      0. 0. 0. 0. 29. 3. 0. 25. 7. 0. 0. 0. 0. 55. 6. 0. 3. 0. 0. 0. 0.
      0. 60. 4. 0. 0. 0. 0. 0. 0. 0. 56. 6. 0. 2. 0. 0. 0. 0. 0. 51. 4.
      0. 8. 1. 0. 0. 0. 0. 53. 7. 0. 2. 2. 0. 0. 0. 0. 62. 2. 0. 0. 0.
      0. 0. 0. 0. 45. 0. 0. 19. 0. 0. 0. 0. 0. 37. 2. 0. 21. 4. 0. 0. 0.
      0. 54. 7. 0. 0. 3. 0. 0. 0. 0. 64. 0. 0. 0. 0. 0. 0. 0. 0. 42. 9.
      0. 9. 4. 0. 0. 0. 0. 48. 9. 0. 6. 1. 0. 0. 0. 0. 58. 3. 0. 2. 1.
      0. 0. 0. 0. 57. 7. 0. 0. 0. 0. 0. 0. 0. 41. 4. 0. 17. 2. 0. 0. 0.
      0. 32. 2. 0. 21. 9. 0. 0. 0. 0. 52. 8. 0. 4. 0. 0. 0. 0. 0. 62. 0.
      0. 2. 0. 0. 0. 0. 0. 41. 11. 0. 7. 5. 0. 0. 0. 0. 36. 20. 0. 5. 3.
      0. 0. 0. 0. 42. 17. 0. 2. 3. 0. 0. 0. 0. 39. 23. 0. 1. 1. 0. 0. 0.
      0. 53. 9. 0. 1. 1. 0. 0. 0. 0. 34. 7. 0. 22. 1. 0. 0. 0. 0. 53. 4.
      0. 3. 4. 0. 0. 0. 0. 59. 3. 0. 2. 0. 0. 0. 0. 0. 37. 11. 0. 9. 7.
      0. 0. 0. 0. 36. 12. 0. 16. 0. 0. 0. 0. 0. 27. 18. 0. 17. 2. 0. 0.
      0. 0. 45. 5. 0. 13. 1. 0. 0. 0. 0. 32. 18. 0. 11. 3. 0. 0. 0. 0.
      37. 21. 0. 5. 1. 0. 0. 0. 0. 42. 3. 0. 17. 2. 0. 0. 0. 0. 60. 2.
      0. 2. 0. 0. 0. 0. 0. 57. 0. 0. 7. 0. 0. 0. 0. 0. 58. 0. 0. 6. 0.
      0. 0. 0. 0. 54. 0. 0. 10. 0. 0. 0. 0. 0. 53. 4. 0. 6. 1. 0. 0. 0.
      0. 40. 6. 0. 13. 5. 0. 0. 0. 0. 46. 10. 0. 7. 1. 0. 0. 0. 0. 51.
      0. 0. 13. 0. 0. 0. 0. 0. 46. 4. 0. 12. 2. 0. 0. 0. 0. 61. 0. 0. 3.
      0. 0. 0. 0. 0. 59. 0. 0. 5. 0. 0. 0. 0. 0. 52. 3. 0. 8. 1. 0. 0.
      0. 0. 45. 0. 0. 19. 0. 0. 0. 0. 0. 57. 0. 0. 7. 0. 0. 0. 0. 0. 64.
      0. 0. 0. 0. 0. 0. 0. 0. 48. 0. 0. 13. 3. 0. 0. 0. 0. 54. 0. 0. 8.
      2.</_>
    <_>
      0. 0. 0. 0. 44. 4. 0. 16. 0. 0. 0. 0. 0. 42. 17. 0. 4. 1. 0. 0. 0.
      0. 34. 14. 0. 12. 4. 0. 0. 0. 0. 45. 11. 0. 5. 3. 0. 0. 0. 0. 36.
      16. 0. 4. 8. 0. 0. 0. 0. 36. 20. 0. 4. 4. 0. 0. 0. 0. 48. 5. 0. 9.
      2. 0. 0. 0. 0. 42. 10. 0. 12. 0. 0. 0. 0. 0. 47. 10. 0. 4. 3. 0.
      0. 0. 0. 47. 13. 0. 3. 1. 0. 0. 0. 0. 37. 10. 0. 7. 10. 0. 0. 0.
      0. 39. 11. 0. 10. 4. 0. 0. 0. 0. 60. 1. 0. 3. 0. 0. 0. 0. 0. 31.
      11. 0. 18. 4. 0. 0. 0. 0. 37. 21. 0. 5. 1. 0. 0. 0. 0. 50. 10. 0.
      3. 1. 0. 0. 0. 0. 37. 17. 0. 10. 0. 0. 0. 0. 0. 29. 14. 0. 8. 13.
      0. 0. 0. 0. 36. 15. 0. 10. 3. 0. 0. 0. 0. 34. 17. 0. 9. 4. 0. 0.
      0. 0. 64. 0. 0. 0. 0. 0. 0. 0. 0. 38. 3. 0. 13. 10. 0. 0. 0. 0.
      52. 3. 0. 5. 4. 0. 0. 0. 0. 45. 19. 0. 0. 0. 0. 0. 0. 0. 43. 9. 0.
      7. 5. 0. 0. 0. 0. 51. 11. 0. 2. 0. 0. 0. 0. 0. 52. 6. 0. 5. 1. 0.
      0. 0. 0. 59. 2. 0. 2. 1. 0. 0. 0. 0. 46. 18. 0. 0. 0. 0. 0. 0. 0.
      40. 6. 0. 16. 2. 0. 0. 0. 0. 48. 13. 0. 1. 2. 0. 0. 0. 0. 61. 2.
      0. 1. 0. 0. 0. 0. 0. 44. 11. 0. 9. 0. 0. 0. 0. 0. 36. 12. 0. 13.
      3. 0. 0. 0. 0. 40. 19. 0. 3. 2. 0. 0. 0. 0. 56. 8. 0. 0. 0. 0. 0.
      0. 0. 64. 0. 0. 0. 0. 0. 0. 0. 0. 63. 0. 0. 1. 0. 0. 0. 0. 0. 31.
      14. 0. 14. 5. 0. 0. 0. 0. 60. 4. 0. 0. 0. 0. 0. 0. 0. 41. 14. 0.
      7. 2. 0. 0. 0. 0. 48. 8. 0. 5. 3. 0. 0. 0. 0. 38. 12. 0. 4. 10. 0.
      0. 0. 0. 53. 8. 0. 2. 1. 0. 0. 0. 0. 64. 0. 0. 0. 0. 0. 0. 0. 0.
      63. 1. 0. 0. 0. 0. 0. 0. 0. 35. 9. 0. 16. 4. 0. 0. 0. 0. 53. 5. 0.
      5. 1. 0. 0. 0. 0. 52. 8. 0. 2. 2. 0. 0. 0. 0. 31. 9. 0. 15. 9. 0.
      0. 0. 0. 38. 2. 0. 16. 8. 0. 0. 0. 0. 39. 16. 0. 5. 4. 0. 0. 0. 0.
      63. 1. 0. 0. 0. 0. 0. 0. 0. 64. 0. 0. 0. 0. 0. 0. 0. 0. 45. 2. 0.
      13. 4. 0. 0. 0. 0. 49. 10. 0. 4. 1. 0. 0. 0. 0. 51. 2. 0. 10. 1.
      0. 0. 0. 0. 37. 14. 0. 9. 4. 0. 0. 0. 0. 39. 5. 0. 14. 6. 0. 0. 0.
      0. 51. 6. 0. 4. 3. 0. 0. 0. 0. 64. 0. 0. 0. 0. 0. 0. 0. 0. 54. 3.
      0. 2. 5. 0. 0. 0. 0. 36. 7. 0. 15. 6. 0. 0. 0. 0. 50. 11. 0. 2. 1.
      0. 0. 0. 0. 45. 10. 0. 9. 0. 0. 0. 0. 0. 45. 5. 0. 13. 1. 0. 0. 0.
      0. 55. 2. 0. 7. 0. 0. 0. 0. 0. 62. 1. 0. 1. 0. 0. 0. 0. 0. 40. 18.
      0. 1. 5. 0. 0. 0. 0. 46. 1. 0. 3. 14. 0. 0. 0. 0. 28. 6. 0. 26. 4.
      0. 0. 0. 0. 36. 13. 0. 13. 2. 0. 0. 0. 0. 48. 15. 0. 1. 0. 0. 0.
      0. 0. 52. 9. 0. 3. 0. 0. 0. 0. 0. 54. 6. 0. 4. 0. 0. 0. 0. 0. 64.
      0. 0. 0. 0. 0. 0. 0. 0. 64. 0. 0. 0. 0. 0. 0. 0. 0. 62. 0. 0. 2.
      0. 0. 0. 0. 0. 23. 15. 0. 16. 10. 0. 0. 0. 0. 24. 12. 0. 15. 13.
      0. 0. 0. 0. 36. 14. 0. 13. 1. 0. 0. 0. 0. 40. 13. 0. 8. 3. 0. 0.
      0. 0. 63. 1. 0. 0. 0. 0. 0. 0. 0. 62. 0. 0. 2. 0. 0. 0. 0. 0. 64.
      0. 0. 0. 0. 0. 0. 0. 0. 43. 1. 0. 12. 8. 0. 0. 0. 0. 30. 12. 0. 9.
      13. 0. 0. 0. 0. 52. 8. 0. 1. 3. 0. 0. 0. 0. 35. 11. 0. 16. 2. 0.
      0. 0. 0. 46. 13. 0. 3. 2. 0. 0. 0. 0. 43. 11. 0. 5. 5. 0. 0. 0. 0.
      51. 13. 0. 0. 0. 0. 0. 0. 0. 59. 0. 0. 5. 0. 0. 0. 0. 0. 35. 6. 0.
      15. 8. 0. 0. 0. 0. 38. 7. 0. 11. 8. 0. 0. 0. 0. 51. 8. 0. 3. 2. 0.
      0. 0. 0. 42. 4. 0. 17. 1. 0. 0. 0. 0. 47. 14. 0. 1. 2. 0. 0. 0. 0.
      27. 6. 0. 24. 7. 0. 0. 0. 0. 43. 12. 0. 9. 0. 0. 0. 0. 0. 54. 4.
      0. 6. 0. 0. 0. 0. 0. 41. 0. 0. 19. 4. 0. 0. 0. 0. 40. 3. 0. 21. 0.
      0. 0. 0. 0. 45. 5. 0. 11. 3. 0. 0. 0. 0. 39. 0. 0. 18. 7. 0. 0. 0.
      0. 44. 10. 0. 4. 6. 0. 0. 0. 0. 38. 2. 0. 20. 4. 0. 0. 0. 0. 47.
      0. 0. 17. 0. 0. 0. 0. 0. 39. 15. 0. 8. 2. 0. 0. 0. 0. 42. 1. 0.
      17. 4. 0. 0. 0. 0. 47. 0. 0. 16. 1. 0. 0. 0. 0. 53. 0. 0. 10. 1.
      0. 0. 0. 0. 46. 3. 0. 12. 3. 0. 0. 0. 0. 19. 7. 0. 21. 17. 0. 0.
      0. 0. 36. 3. 0. 17. 8. 0. 0. 0. 0. 42. 1. 0. 20. 1. 0. 0. 0. 0.
      42. 8. 0. 13. 1. 0. 0. 0. 0. 34. 8. 0. 19. 3. 0. 0. 0. 0. 55. 0.
      0. 9. 0. 0. 0. 0. 0. 52. 0. 0. 12. 0. 0. 0. 0. 0. 44. 4. 0. 11. 5.
      0. 0. 0. 0. 27. 3. 0. 29. 5. 0. 0. 0. 0. 43. 0. 0. 21. 0. 0. 0. 0.
      0. 45. 0. 0. 19. 0. 0. 0. 0. 0. 49. 1. 0. 14. 0. 0. 0. 0. 0. 43.
      0. 0. 20. 1. 0. 0. 0. 0. 47. 0. 0. 17. 0. 0. 0. 0. 0. 55. 0. 0. 9.
      0.</_>
    <_>
      0. 0. 0. 0. 11. 32. 0. 9. 12. 0. 0. 0. 0. 9. 41. 0. 5. 9. 0. 0. 0.
      0. 13. 36. 0. 2. 13. 0. 0. 0. 0. 16. 29. 0. 5. 14. 0. 0. 0. 0. 25.
      25. 0. 8. 6. 0. 0. 0. 0. 27. 20. 0. 7. 10. 0. 0. 0. 0. 12. 39. 0.
      4. 9. 0. 0. 0. 0. 9. 35. 0. 6. 14. 0. 0. 0. 0. 30. 21. 0. 11. 2.
      0. 0. 0. 0. 33. 21. 0. 6. 4. 0. 0. 0. 0. 15. 24. 0. 15. 10. 0. 0.
      0. 0. 26. 14. 0. 18. 6. 0. 0. 0. 0. 63. 0. 0. 1. 0. 0. 0. 0. 0.
      44. 3. 0. 9. 8. 0. 0. 0. 0. 35. 17. 0. 6. 6. 0. 0. 0. 0. 33. 20.
      0. 5. 6. 0. 0. 0. 0. 39. 17. 0. 7. 1. 0. 0. 0. 0. 31. 13. 0. 11.
      9. 0. 0. 0. 0. 58. 3. 0. 3. 0. 0. 0. 0. 0. 41. 1. 0. 22. 0. 0. 0.
      0. 0. 61. 3. 0. 0. 0. 0. 0. 0. 0. 56. 1. 0. 4. 3. 0. 0. 0. 0. 53.
      6. 0. 3. 2. 0. 0. 0. 0. 29. 17. 0. 13. 5. 0. 0. 0. 0. 37. 10. 0.
      11. 6. 0. 0. 0. 0. 46. 9. 0. 7. 2. 0. 0. 0. 0. 43. 10. 0. 7. 4. 0.
      0. 0. 0. 41. 19. 0. 0. 4. 0. 0. 0. 0. 38. 19. 0. 2. 5. 0. 0. 0. 0.
      31. 18. 0. 8. 7. 0. 0. 0. 0. 38. 14. 0. 7. 5. 0. 0. 0. 0. 42. 12.
      0. 6. 4. 0. 0. 0. 0. 33. 7. 0. 19. 5. 0. 0. 0. 0. 34. 18. 0. 10.
      2. 0. 0. 0. 0. 50. 12. 0. 1. 1. 0. 0. 0. 0. 62. 0. 0. 2. 0. 0. 0.
      0. 0. 58. 0. 0. 6. 0. 0. 0. 0. 0. 27. 1. 0. 34. 2. 0. 0. 0. 0. 28.
      25. 0. 7. 4. 0. 0. 0. 0. 30. 17. 0. 11. 6. 0. 0. 0. 0. 28. 16. 0.
      12. 8. 0. 0. 0. 0. 35. 10. 0. 11. 8. 0. 0. 0. 0. 50. 9. 0. 4. 1.
      0. 0. 0. 0. 59. 0. 0. 5. 0. 0. 0. 0. 0. 60. 0. 0. 4. 0. 0. 0. 0.
      0. 36. 5. 0. 22. 1. 0. 0. 0. 0. 31. 8. 0. 20. 5. 0. 0. 0. 0. 48.
      10. 0. 5. 1. 0. 0. 0. 0. 26. 14. 0. 18. 6. 0. 0. 0. 0. 30. 13. 0.
      13. 8. 0. 0. 0. 0. 56. 2. 0. 5. 1. 0. 0. 0. 0. 63. 0. 0. 1. 0. 0.
      0. 0. 0. 52. 0. 0. 12. 0. 0. 0. 0. 0. 24. 11. 0. 17. 12. 0. 0. 0.
      0. 49. 5. 0. 9. 1. 0. 0. 0. 0. 53. 6. 0. 4. 1. 0. 0. 0. 0. 44. 4.
      0. 16. 0. 0. 0. 0. 0. 49. 4. 0. 7. 4. 0. 0. 0. 0. 64. 0. 0. 0. 0.
      0. 0. 0. 0. 63. 0. 0. 1. 0. 0. 0. 0. 0. 59. 0. 0. 5. 0. 0. 0. 0.
      0. 25. 8. 0. 22. 9. 0. 0. 0. 0. 32. 4. 0. 26. 2. 0. 0. 0. 0. 52.
      3. 0. 9. 0. 0. 0. 0. 0. 46. 2. 0. 15. 1. 0. 0. 0. 0. 46. 3. 0. 9.
      6. 0. 0. 0. 0. 64. 0. 0. 0. 0. 0. 0. 0. 0. 63. 1. 0. 0. 0. 0. 0.
      0. 0. 64. 0. 0. 0. 0. 0. 0. 0. 0. 35. 7. 0. 19. 3. 0. 0. 0. 0. 45.
      0. 0. 19. 0. 0. 0. 0. 0. 47. 0. 0. 17. 0. 0. 0. 0. 0. 46. 9. 0. 6.
      3. 0. 0. 0. 0. 47. 10. 0. 6. 1. 0. 0. 0. 0. 64. 0. 0. 0. 0. 0. 0.
      0. 0. 64. 0. 0. 0. 0. 0. 0. 0. 0. 64. 0. 0. 0. 0. 0. 0. 0. 0. 21.
      8. 0. 25. 10. 0. 0. 0. 0. 34. 7. 0. 22. 1. 0. 0. 0. 0. 49. 15. 0.
      0. 0. 0. 0. 0. 0. 35. 16. 0. 10. 3. 0. 0. 0. 0. 58. 5. 0. 1. 0. 0.
      0. 0. 0. 64. 0. 0. 0. 0. 0. 0. 0. 0. 64. 0. 0. 0. 0. 0. 0. 0. 0.
      63. 1. 0. 0. 0. 0. 0. 0. 0. 37. 4. 0. 12. 11. 0. 0. 0. 0. 33. 16.
      0. 12. 3. 0. 0. 0. 0. 55. 9. 0. 0. 0. 0. 0. 0. 0. 40. 9. 0. 13. 2.
      0. 0. 0. 0. 37. 15. 0. 10. 2. 0. 0. 0. 0. 47. 10. 0. 3. 4. 0. 0.
      0. 0. 42. 13. 0. 3. 6. 0. 0. 0. 0. 63. 0. 0. 1. 0. 0. 0. 0. 0. 34.
      6. 0. 18. 6. 0. 0. 0. 0. 33. 9. 0. 17. 5. 0. 0. 0. 0. 15. 37. 0.
      6. 6. 0. 0. 0. 0. 38. 10. 0. 14. 2. 0. 0. 0. 0. 36. 14. 0. 14. 0.
      0. 0. 0. 0. 22. 22. 0. 11. 9. 0. 0. 0. 0. 43. 8. 0. 12. 1. 0. 0.
      0. 0. 64. 0. 0. 0. 0. 0. 0. 0. 0. 36. 3. 0. 22. 3. 0. 0. 0. 0. 41.
      2. 0. 15. 6. 0. 0. 0. 0. 49. 1. 0. 13. 1. 0. 0. 0. 0. 45. 7. 0.
      12. 0. 0. 0. 0. 0. 29. 11. 0. 21. 3. 0. 0. 0. 0. 19. 9. 0. 20. 16.
      0. 0. 0. 0. 30. 17. 0. 11. 6. 0. 0. 0. 0. 58. 3. 0. 2. 1. 0. 0. 0.
      0. 39. 3. 0. 19. 3. 0. 0. 0. 0. 43. 2. 0. 15. 4. 0. 0. 0. 0. 49.
      0. 0. 15. 0. 0. 0. 0. 0. 39. 3. 0. 19. 3. 0. 0. 0. 0. 38. 9. 0.
      14. 3. 0. 0. 0. 0. 31. 3. 0. 15. 15. 0. 0. 0. 0. 51. 0. 0. 13. 0.
      0. 0. 0. 0. 40. 3. 0. 17. 4. 0. 0. 0. 0. 49. 0. 0. 15. 0. 0. 0. 0.
      0. 43. 2. 0. 16. 3. 0. 0. 0. 0. 37. 2. 0. 21. 4. 0. 0. 0. 0. 45.
      0. 0. 18. 1. 0. 0. 0. 0. 49. 3. 0. 12. 0. 0. 0. 0. 0. 42. 0. 0.
      22. 0. 0. 0. 0. 0. 45. 0. 0. 19. 0. 0. 0. 0. 0. 48. 0. 0. 16. 0.
      0. 0. 0. 0. 45. 0. 0. 19. 0. 0. 0. 0. 0. 52. 0. 0. 12. 0. 0. 0. 0.
      0. 49. 0. 0. 15. 0.</_>
    <_>
      0. 0. 0. 0. 43. 10. 0. 10. 1. 0. 0. 0. 0. 40. 5. 0. 16. 3. 0. 0.
      0. 0. 35. 10. 0. 9. 10. 0. 0. 0. 0. 36. 6. 0. 21. 1. 0. 0. 0. 0.
      48. 8. 0. 6. 2. 0. 0. 0. 0. 40. 7. 0. 13. 4. 0. 0. 0. 0. 50. 8. 0.
      6. 0. 0. 0. 0. 0. 33. 19. 0. 10. 2. 0. 0. 0. 0. 52. 2. 0. 9. 1. 0.
      0. 0. 0. 31. 11. 0. 13. 9. 0. 0. 0. 0. 29. 13. 0. 13. 9. 0. 0. 0.
      0. 28. 19. 0. 10. 7. 0. 0. 0. 0. 38. 14. 0. 12. 0. 0. 0. 0. 0. 39.
      11. 0. 7. 7. 0. 0. 0. 0. 38. 11. 0. 8. 7. 0. 0. 0. 0. 45. 8. 0. 8.
      3. 0. 0. 0. 0. 31. 15. 0. 15. 3. 0. 0. 0. 0. 36. 16. 0. 10. 2. 0.
      0. 0. 0. 49. 11. 0. 4. 0. 0. 0. 0. 0. 40. 2. 0. 22. 0. 0. 0. 0. 0.
      41. 13. 0. 8. 2. 0. 0. 0. 0. 32. 16. 0. 15. 1. 0. 0. 0. 0. 32. 9.
      0. 20. 3. 0. 0. 0. 0. 37. 19. 0. 3. 5. 0. 0. 0. 0. 30. 18. 0. 14.
      2. 0. 0. 0. 0. 32. 9. 0. 13. 10. 0. 0. 0. 0. 33. 27. 0. 0. 4. 0.
      0. 0. 0. 36. 0. 0. 28. 0. 0. 0. 0. 0. 17. 8. 0. 36. 3. 0. 0. 0. 0.
      45. 9. 0. 10. 0. 0. 0. 0. 0. 36. 16. 0. 9. 3. 0. 0. 0. 0. 40. 11.
      0. 9. 4. 0. 0. 0. 0. 36. 11. 0. 16. 1. 0. 0. 0. 0. 30. 14. 0. 14.
      6. 0. 0. 0. 0. 41. 13. 0. 10. 0. 0. 0. 0. 0. 28. 12. 0. 10. 14. 0.
      0. 0. 0. 31. 2. 0. 27. 4. 0. 0. 0. 0. 34. 9. 0. 15. 6. 0. 0. 0. 0.
      46. 5. 0. 13. 0. 0. 0. 0. 0. 41. 14. 0. 6. 3. 0. 0. 0. 0. 37. 7.
      0. 18. 2. 0. 0. 0. 0. 41. 10. 0. 8. 5. 0. 0. 0. 0. 26. 24. 0. 3.
      11. 0. 0. 0. 0. 38. 22. 0. 2. 2. 0. 0. 0. 0. 51. 2. 0. 11. 0. 0.
      0. 0. 0. 17. 13. 0. 28. 6. 0. 0. 0. 0. 25. 14. 0. 19. 6. 0. 0. 0.
      0. 41. 5. 0. 14. 4. 0. 0. 0. 0. 35. 5. 0. 18. 6. 0. 0. 0. 0. 48.
      4. 0. 9. 3. 0. 0. 0. 0. 47. 8. 0. 8. 1. 0. 0. 0. 0. 42. 18. 0. 2.
      2. 0. 0. 0. 0. 60. 1. 0. 3. 0. 0. 0. 0. 0. 34. 7. 0. 16. 7. 0. 0.
      0. 0. 30. 13. 0. 6. 15. 0. 0. 0. 0. 24. 4. 0. 31. 5. 0. 0. 0. 0.
      36. 5. 0. 23. 0. 0. 0. 0. 0. 42. 3. 0. 18. 1. 0. 0. 0. 0. 37. 10.
      0. 8. 9. 0. 0. 0. 0. 59. 3. 0. 1. 1. 0. 0. 0. 0. 54. 2. 0. 7. 1.
      0. 0. 0. 0. 30. 1. 0. 25. 8. 0. 0. 0. 0. 48. 3. 0. 13. 0. 0. 0. 0.
      0. 40. 6. 0. 17. 1. 0. 0. 0. 0. 28. 11. 0. 17. 8. 0. 0. 0. 0. 36.
      9. 0. 15. 4. 0. 0. 0. 0. 49. 8. 0. 7. 0. 0. 0. 0. 0. 42. 17. 0. 4.
      1. 0. 0. 0. 0. 39. 12. 0. 12. 1. 0. 0. 0. 0. 22. 5. 0. 31. 6. 0.
      0. 0. 0. 27. 8. 0. 17. 12. 0. 0. 0. 0. 39. 6. 0. 19. 0. 0. 0. 0.
      0. 43. 17. 0. 4. 0. 0. 0. 0. 0. 23. 13. 0. 24. 4. 0. 0. 0. 0. 43.
      7. 0. 10. 4. 0. 0. 0. 0. 43. 21. 0. 0. 0. 0. 0. 0. 0. 48. 3. 0.
      12. 1. 0. 0. 0. 0. 30. 3. 0. 22. 9. 0. 0. 0. 0. 23. 13. 0. 10. 18.
      0. 0. 0. 0. 34. 14. 0. 13. 3. 0. 0. 0. 0. 45. 11. 0. 5. 3. 0. 0.
      0. 0. 38. 8. 0. 14. 4. 0. 0. 0. 0. 49. 8. 0. 4. 3. 0. 0. 0. 0. 38.
      26. 0. 0. 0. 0. 0. 0. 0. 45. 3. 0. 13. 3. 0. 0. 0. 0. 21. 9. 0.
      28. 6. 0. 0. 0. 0. 28. 11. 0. 16. 9. 0. 0. 0. 0. 48. 8. 0. 7. 1.
      0. 0. 0. 0. 45. 11. 0. 5. 3. 0. 0. 0. 0. 41. 8. 0. 12. 3. 0. 0. 0.
      0. 44. 7. 0. 13. 0. 0. 0. 0. 0. 32. 32. 0. 0. 0. 0. 0. 0. 0. 51.
      8. 0. 4. 1. 0. 0. 0. 0. 28. 5. 0. 28. 3. 0. 0. 0. 0. 40. 6. 0. 15.
      3. 0. 0. 0. 0. 40. 6. 0. 8. 10. 0. 0. 0. 0. 38. 6. 0. 16. 4. 0. 0.
      0. 0. 36. 3. 0. 24. 1. 0. 0. 0. 0. 36. 0. 0. 28. 0. 0. 0. 0. 0.
      45. 11. 0. 7. 1. 0. 0. 0. 0. 41. 20. 0. 2. 1. 0. 0. 0. 0. 42. 3.
      0. 17. 2. 0. 0. 0. 0. 48. 0. 0. 16. 0. 0. 0. 0. 0. 46. 2. 0. 14.
      2. 0. 0. 0. 0. 38. 9. 0. 17. 0. 0. 0. 0. 0. 32. 13. 0. 17. 2. 0.
      0. 0. 0. 33. 3. 0. 23. 5. 0. 0. 0. 0. 51. 6. 0. 7. 0. 0. 0. 0. 0.
      46. 7. 0. 10. 1. 0. 0. 0. 0. 42. 3. 0. 13. 6. 0. 0. 0. 0. 38. 6.
      0. 20. 0. 0. 0. 0. 0. 45. 1. 0. 17. 1. 0. 0. 0. 0. 37. 2. 0. 23.
      2. 0. 0. 0. 0. 42. 2. 0. 19. 1. 0. 0. 0. 0. 50. 7. 0. 6. 1. 0. 0.
      0. 0. 41. 8. 0. 14. 1. 0. 0. 0. 0. 47. 6. 0. 9. 2. 0. 0. 0. 0. 40.
      3. 0. 16. 5. 0. 0. 0. 0. 46. 6. 0. 12. 0. 0. 0. 0. 0. 46. 1. 0.
      15. 2. 0. 0. 0. 0. 48. 0. 0. 16. 0. 0. 0. 0. 0. 41. 0. 0. 23. 0.
      0. 0. 0. 0. 43. 1. 0. 20. 0. 0. 0. 0. 0. 58. 0. 0. 6. 0. 0. 0. 0.
      0. 45. 8. 0. 6. 5. 0. 0. 0. 0. 26. 4. 0. 18. 16. 0. 0. 0. 0. 42.
      1. 0. 18. 3. 0. 0. 0. 0. 52. 0. 0. 12. 0.</_>
    <_>
      0. 0. 0. 0. 40. 7. 0. 13. 4. 0. 0. 0. 0. 52. 3. 0. 9. 0. 0. 0. 0.
      0. 31. 5. 0. 25. 3. 0. 0. 0. 0. 41. 8. 0. 13. 2. 0. 0. 0. 0. 52.
      8. 0. 4. 0. 0. 0. 0. 0. 43. 11. 0. 8. 2. 0. 0. 0. 0. 43. 7. 0. 11.
      3. 0. 0. 0. 0. 46. 7. 0. 8. 3. 0. 0. 0. 0. 42. 10. 0. 8. 4. 0. 0.
      0. 0. 34. 14. 0. 7. 9. 0. 0. 0. 0. 23. 6. 0. 33. 2. 0. 0. 0. 0.
      20. 29. 0. 13. 2. 0. 0. 0. 0. 37. 16. 0. 10. 1. 0. 0. 0. 0. 35.
      13. 0. 8. 8. 0. 0. 0. 0. 37. 12. 0. 10. 5. 0. 0. 0. 0. 47. 8. 0.
      9. 0. 0. 0. 0. 0. 38. 7. 0. 17. 2. 0. 0. 0. 0. 24. 22. 0. 12. 6.
      0. 0. 0. 0. 38. 19. 0. 5. 2. 0. 0. 0. 0. 42. 0. 0. 22. 0. 0. 0. 0.
      0. 36. 7. 0. 18. 3. 0. 0. 0. 0. 32. 10. 0. 13. 9. 0. 0. 0. 0. 46.
      8. 0. 7. 3. 0. 0. 0. 0. 25. 22. 0. 11. 6. 0. 0. 0. 0. 29. 19. 0.
      13. 3. 0. 0. 0. 0. 36. 6. 0. 13. 9. 0. 0. 0. 0. 50. 13. 0. 0. 1.
      0. 0. 0. 0. 58. 2. 0. 4. 0. 0. 0. 0. 0. 14. 6. 0. 38. 6. 0. 0. 0.
      0. 45. 8. 0. 11. 0. 0. 0. 0. 0. 31. 14. 0. 16. 3. 0. 0. 0. 0. 47.
      9. 0. 6. 2. 0. 0. 0. 0. 41. 8. 0. 13. 2. 0. 0. 0. 0. 34. 17. 0. 7.
      6. 0. 0. 0. 0. 51. 8. 0. 4. 1. 0. 0. 0. 0. 41. 11. 0. 3. 9. 0. 0.
      0. 0. 19. 10. 0. 24. 11. 0. 0. 0. 0. 45. 4. 0. 11. 4. 0. 0. 0. 0.
      58. 5. 0. 1. 0. 0. 0. 0. 0. 41. 7. 0. 14. 2. 0. 0. 0. 0. 36. 9. 0.
      16. 3. 0. 0. 0. 0. 31. 13. 0. 13. 7. 0. 0. 0. 0. 26. 24. 0. 1. 13.
      0. 0. 0. 0. 36. 23. 0. 1. 4. 0. 0. 0. 0. 49. 6. 0. 9. 0. 0. 0. 0.
      0. 28. 9. 0. 17. 10. 0. 0. 0. 0. 25. 12. 0. 19. 8. 0. 0. 0. 0. 42.
      5. 0. 10. 7. 0. 0. 0. 0. 40. 8. 0. 12. 4. 0. 0. 0. 0. 44. 2. 0.
      17. 1. 0. 0. 0. 0. 42. 13. 0. 8. 1. 0. 0. 0. 0. 50. 13. 0. 1. 0.
      0. 0. 0. 0. 53. 5. 0. 6. 0. 0. 0. 0. 0. 29. 9. 0. 19. 7. 0. 0. 0.
      0. 32. 15. 0. 4. 13. 0. 0. 0. 0. 23. 4. 0. 30. 7. 0. 0. 0. 0. 38.
      2. 0. 24. 0. 0. 0. 0. 0. 45. 2. 0. 17. 0. 0. 0. 0. 0. 40. 6. 0. 8.
      10. 0. 0. 0. 0. 53. 10. 0. 1. 0. 0. 0. 0. 0. 51. 6. 0. 7. 0. 0. 0.
      0. 0. 26. 2. 0. 30. 6. 0. 0. 0. 0. 49. 2. 0. 13. 0. 0. 0. 0. 0.
      34. 6. 0. 24. 0. 0. 0. 0. 0. 35. 7. 0. 13. 9. 0. 0. 0. 0. 36. 9.
      0. 13. 6. 0. 0. 0. 0. 60. 1. 0. 3. 0. 0. 0. 0. 0. 50. 14. 0. 0. 0.
      0. 0. 0. 0. 56. 3. 0. 5. 0. 0. 0. 0. 0. 23. 3. 0. 25. 13. 0. 0. 0.
      0. 25. 14. 0. 16. 9. 0. 0. 0. 0. 41. 3. 0. 20. 0. 0. 0. 0. 0. 41.
      12. 0. 8. 3. 0. 0. 0. 0. 26. 9. 0. 27. 2. 0. 0. 0. 0. 47. 11. 0.
      3. 3. 0. 0. 0. 0. 41. 23. 0. 0. 0. 0. 0. 0. 0. 60. 1. 0. 3. 0. 0.
      0. 0. 0. 34. 0. 0. 23. 7. 0. 0. 0. 0. 29. 9. 0. 13. 13. 0. 0. 0.
      0. 37. 10. 0. 14. 3. 0. 0. 0. 0. 46. 5. 0. 11. 2. 0. 0. 0. 0. 29.
      11. 0. 18. 6. 0. 0. 0. 0. 44. 10. 0. 2. 8. 0. 0. 0. 0. 40. 24. 0.
      0. 0. 0. 0. 0. 0. 57. 3. 0. 4. 0. 0. 0. 0. 0. 22. 11. 0. 23. 8. 0.
      0. 0. 0. 24. 8. 0. 21. 11. 0. 0. 0. 0. 47. 10. 0. 6. 1. 0. 0. 0.
      0. 35. 14. 0. 12. 3. 0. 0. 0. 0. 40. 7. 0. 14. 3. 0. 0. 0. 0. 31.
      7. 0. 22. 4. 0. 0. 0. 0. 28. 35. 0. 0. 1. 0. 0. 0. 0. 48. 10. 0.
      6. 0. 0. 0. 0. 0. 35. 3. 0. 21. 5. 0. 0. 0. 0. 30. 12. 0. 16. 6.
      0. 0. 0. 0. 43. 10. 0. 4. 7. 0. 0. 0. 0. 43. 0. 0. 21. 0. 0. 0. 0.
      0. 40. 0. 0. 23. 1. 0. 0. 0. 0. 36. 1. 0. 26. 1. 0. 0. 0. 0. 40.
      14. 0. 9. 1. 0. 0. 0. 0. 27. 30. 0. 5. 2. 0. 0. 0. 0. 25. 5. 0.
      28. 6. 0. 0. 0. 0. 40. 0. 0. 24. 0. 0. 0. 0. 0. 48. 2. 0. 12. 2.
      0. 0. 0. 0. 40. 15. 0. 5. 4. 0. 0. 0. 0. 37. 4. 0. 20. 3. 0. 0. 0.
      0. 35. 8. 0. 17. 4. 0. 0. 0. 0. 35. 9. 0. 19. 1. 0. 0. 0. 0. 44.
      18. 0. 1. 1. 0. 0. 0. 0. 43. 5. 0. 9. 7. 0. 0. 0. 0. 45. 2. 0. 17.
      0. 0. 0. 0. 0. 39. 2. 0. 17. 6. 0. 0. 0. 0. 46. 4. 0. 14. 0. 0. 0.
      0. 0. 37. 1. 0. 24. 2. 0. 0. 0. 0. 48. 2. 0. 9. 5. 0. 0. 0. 0. 31.
      6. 0. 26. 1. 0. 0. 0. 0. 45. 5. 0. 11. 3. 0. 0. 0. 0. 32. 4. 0.
      24. 4. 0. 0. 0. 0. 42. 0. 0. 22. 0. 0. 0. 0. 0. 50. 0. 0. 14. 0.
      0. 0. 0. 0. 41. 0. 0. 23. 0. 0. 0. 0. 0. 45. 0. 0. 19. 0. 0. 0. 0.
      0. 47. 0. 0. 17. 0. 0. 0. 0. 0. 41. 1. 0. 22. 0. 0. 0. 0. 0. 46.
      8. 0. 7. 3. 0. 0. 0. 0. 30. 0. 0. 32. 2. 0. 0. 0. 0. 46. 0. 0. 18.
      0. 0. 0. 0. 0. 56. 0. 0. 8. 0.</_>
    <_>
      0. 0. 0. 0. 21. 31. 0. 7. 5. 0. 0. 0. 0. 10. 31. 0. 10. 13. 0. 0.
      0. 0. 12. 41. 0. 2. 9. 0. 0. 0. 0. 45. 10. 0. 5. 4. 0. 0. 0. 0.
      34. 8. 0. 16. 6. 0. 0. 0. 0. 15. 33. 0. 7. 9. 0. 0. 0. 0. 30. 17.
      0. 7. 10. 0. 0. 0. 0. 30. 25. 0. 4. 5. 0. 0. 0. 0. 14. 34. 0. 3.
      13. 0. 0. 0. 0. 15. 37. 0. 5. 7. 0. 0. 0. 0. 18. 27. 0. 11. 8. 0.
      0. 0. 0. 54. 9. 0. 1. 0. 0. 0. 0. 0. 41. 1. 0. 17. 5. 0. 0. 0. 0.
      12. 40. 0. 1. 11. 0. 0. 0. 0. 15. 33. 0. 3. 13. 0. 0. 0. 0. 22.
      37. 0. 0. 5. 0. 0. 0. 0. 43. 12. 0. 7. 2. 0. 0. 0. 0. 37. 15. 0.
      10. 2. 0. 0. 0. 0. 40. 7. 0. 13. 4. 0. 0. 0. 0. 62. 2. 0. 0. 0. 0.
      0. 0. 0. 42. 4. 0. 11. 7. 0. 0. 0. 0. 35. 12. 0. 9. 8. 0. 0. 0. 0.
      41. 9. 0. 10. 4. 0. 0. 0. 0. 42. 16. 0. 2. 4. 0. 0. 0. 0. 41. 8.
      0. 13. 2. 0. 0. 0. 0. 44. 10. 0. 3. 7. 0. 0. 0. 0. 56. 3. 0. 3. 2.
      0. 0. 0. 0. 40. 0. 0. 24. 0. 0. 0. 0. 0. 31. 8. 0. 18. 7. 0. 0. 0.
      0. 41. 7. 0. 7. 9. 0. 0. 0. 0. 37. 17. 0. 3. 7. 0. 0. 0. 0. 39.
      11. 0. 5. 9. 0. 0. 0. 0. 40. 9. 0. 12. 3. 0. 0. 0. 0. 36. 6. 0.
      17. 5. 0. 0. 0. 0. 62. 0. 0. 2. 0. 0. 0. 0. 0. 36. 1. 0. 27. 0. 0.
      0. 0. 0. 19. 1. 0. 34. 10. 0. 0. 0. 0. 34. 15. 0. 10. 5. 0. 0. 0.
      0. 36. 10. 0. 7. 11. 0. 0. 0. 0. 42. 17. 0. 3. 2. 0. 0. 0. 0. 17.
      16. 0. 26. 5. 0. 0. 0. 0. 26. 22. 0. 11. 5. 0. 0. 0. 0. 63. 1. 0.
      0. 0. 0. 0. 0. 0. 44. 8. 0. 12. 0. 0. 0. 0. 0. 26. 7. 0. 28. 3. 0.
      0. 0. 0. 35. 8. 0. 16. 5. 0. 0. 0. 0. 37. 14. 0. 10. 3. 0. 0. 0.
      0. 31. 14. 0. 15. 4. 0. 0. 0. 0. 32. 10. 0. 20. 2. 0. 0. 0. 0. 39.
      8. 0. 15. 2. 0. 0. 0. 0. 64. 0. 0. 0. 0. 0. 0. 0. 0. 39. 25. 0. 0.
      0. 0. 0. 0. 0. 43. 10. 0. 10. 1. 0. 0. 0. 0. 28. 21. 0. 9. 6. 0.
      0. 0. 0. 35. 11. 0. 16. 2. 0. 0. 0. 0. 45. 5. 0. 10. 4. 0. 0. 0.
      0. 29. 8. 0. 21. 6. 0. 0. 0. 0. 38. 12. 0. 12. 2. 0. 0. 0. 0. 63.
      1. 0. 0. 0. 0. 0. 0. 0. 63. 0. 0. 1. 0. 0. 0. 0. 0. 30. 20. 0. 10.
      4. 0. 0. 0. 0. 41. 11. 0. 11. 1. 0. 0. 0. 0. 20. 8. 0. 28. 8. 0.
      0. 0. 0. 49. 7. 0. 7. 1. 0. 0. 0. 0. 40. 5. 0. 16. 3. 0. 0. 0. 0.
      46. 1. 0. 14. 3. 0. 0. 0. 0. 64. 0. 0. 0. 0. 0. 0. 0. 0. 64. 0. 0.
      0. 0. 0. 0. 0. 0. 27. 0. 0. 35. 2. 0. 0. 0. 0. 37. 7. 0. 15. 5. 0.
      0. 0. 0. 30. 7. 0. 22. 5. 0. 0. 0. 0. 55. 0. 0. 9. 0. 0. 0. 0. 0.
      34. 10. 0. 15. 5. 0. 0. 0. 0. 46. 9. 0. 9. 0. 0. 0. 0. 0. 62. 2.
      0. 0. 0. 0. 0. 0. 0. 52. 0. 0. 12. 0. 0. 0. 0. 0. 20. 2. 0. 27.
      15. 0. 0. 0. 0. 40. 17. 0. 5. 2. 0. 0. 0. 0. 18. 5. 0. 29. 12. 0.
      0. 0. 0. 44. 12. 0. 7. 1. 0. 0. 0. 0. 32. 12. 0. 16. 4. 0. 0. 0.
      0. 47. 11. 0. 4. 2. 0. 0. 0. 0. 64. 0. 0. 0. 0. 0. 0. 0. 0. 38. 0.
      0. 22. 4. 0. 0. 0. 0. 40. 1. 0. 17. 6. 0. 0. 0. 0. 35. 14. 0. 8.
      7. 0. 0. 0. 0. 29. 20. 0. 10. 5. 0. 0. 0. 0. 40. 11. 0. 13. 0. 0.
      0. 0. 0. 32. 14. 0. 15. 3. 0. 0. 0. 0. 36. 13. 0. 13. 2. 0. 0. 0.
      0. 61. 3. 0. 0. 0. 0. 0. 0. 0. 42. 0. 0. 20. 2. 0. 0. 0. 0. 48. 0.
      0. 13. 3. 0. 0. 0. 0. 42. 9. 0. 9. 4. 0. 0. 0. 0. 47. 3. 0. 12. 2.
      0. 0. 0. 0. 22. 23. 0. 12. 7. 0. 0. 0. 0. 33. 7. 0. 21. 3. 0. 0.
      0. 0. 32. 13. 0. 10. 9. 0. 0. 0. 0. 64. 0. 0. 0. 0. 0. 0. 0. 0.
      42. 2. 0. 17. 3. 0. 0. 0. 0. 38. 5. 0. 14. 7. 0. 0. 0. 0. 48. 2.
      0. 12. 2. 0. 0. 0. 0. 40. 9. 0. 12. 3. 0. 0. 0. 0. 38. 6. 0. 17.
